{
  "path": "ML-saves/3-layers.json",
  "iteration": 8000,
  "layers": [
    {
      "from_amount": 784,
      "node_amount": 16,
      "weights": {
        "v": 1,
        "dim": [
          16,
          784
        ],
        "data": [
          -0.9023955,
          -0.07324056,
          0.8840173,
          -3.0628572,
          -4.759542,
          -1.1138781,
          1.8692142,
          -0.78309506,
          -3.1853452,
          -0.60128474,
          1.6038866,
          0.8710437,
          -2.7557733,
          -4.3498855,
          2.6479232,
          -2.9303257,
          2.312936,
          1.6794819,
          3.148819,
          -1.0525109,
          2.0534933,
          -4.3030543,
          1.0487105,
          1.2192934,
          -1.6762699,
          5.2514806,
          3.5877259,
          2.8811152,
          -1.0195383,
          -1.389975,
          -0.96979797,
          2.6235785,
          -4.059862,
          -4.9983606,
          -0.964848,
          -0.7011502,
          0.2964122,
          3.6372845,
          2.2457983,
          -0.5755704,
          -1.9602723,
          2.0748243,
          2.2756288,
          0.060577486,
          1.5306087,
          -0.18201095,
          -0.85377103,
          2.7660933,
          -0.39188865,
          2.862867,
          -0.1913393,
          1.2581325,
          -1.3233525,
          -0.7122877,
          -2.089148,
          1.5742407,
          0.5801556,
          0.8460047,
          1.5185145,
          -2.4893525,
          0.86169803,
          -0.2102483,
          1.8221682,
          -1.9176301,
          2.1610591,
          0.70485795,
          -2.2008805,
          0.8572407,
          2.3735244,
          -3.411495,
          3.0658927,
          -1.8817462,
          -1.426704,
          -2.7215738,
          1.7096022,
          1.3855392,
          2.6613631,
          -3.4044197,
          3.4582887,
          -0.8004209,
          -0.5889898,
          3.2057188,
          -2.9128916,
          -0.44370687,
          0.87860173,
          0.8006551,
          1.567672,
          3.2625053,
          0.15477593,
          -4.6069956,
          -0.8148343,
          1.3229785,
          -4.1609077,
          -0.37683907,
          0.30161595,
          -0.8516024,
          0.3341304,
          0.8884974,
          -0.9514516,
          0.57076466,
          2.7346194,
          -0.52421427,
          0.7222263,
          1.6439116,
          6.41968,
          1.817369,
          2.4892445,
          0.99313956,
          0.7852134,
          0.033040855,
          0.80498546,
          0.06912094,
          0.19417559,
          1.7223908,
          2.0588005,
          2.4449685,
          -0.1780397,
          -0.55592746,
          1.2464164,
          0.6628389,
          3.621616,
          -0.49292022,
          -4.0351157,
          -0.43918884,
          2.5555112,
          2.311151,
          -0.8404208,
          1.5530772,
          0.40111,
          -1.7547045,
          -0.2775474,
          -2.0261796,
          4.0409603,
          -2.512103,
          -0.3122772,
          0.43730086,
          2.415969,
          -1.2750212,
          -1.013404,
          2.519935,
          0.33387497,
          -3.9724627,
          -0.8837619,
          4.1183457,
          3.7154107,
          -2.4998806,
          1.4297438,
          1.5141894,
          0.54640186,
          2.7895515,
          1.7383898,
          -2.0940256,
          1.6198941,
          0.6001226,
          -0.8814759,
          -0.8132313,
          2.6262677,
          1.7420888,
          2.9686775,
          -0.44919342,
          -2.495307,
          -2.7469869,
          -2.067019,
          -1.2817191,
          1.7113721,
          -0.7030934,
          -2.6595037,
          0.04173382,
          -2.967283,
          -3.0374956,
          0.42599484,
          -1.2581086,
          -1.2768626,
          -0.64084846,
          0.7055665,
          -1.0943251,
          -0.3230204,
          -1.0702986,
          -2.5706537,
          -1.5704746,
          4.430324,
          1.8043544,
          -0.14717601,
          0.07056853,
          -1.963674,
          1.2475066,
          1.1718597,
          0.90901953,
          0.6980262,
          -2.9520836,
          0.47691274,
          -1.032915,
          -1.9400773,
          -0.22340082,
          -0.6629672,
          2.5275922,
          2.3845031,
          2.567191,
          -3.2974484,
          -3.319147,
          0.9307558,
          1.5844256,
          0.17179984,
          0.4192646,
          -1.8199232,
          -2.090381,
          1.6995181,
          -0.29713705,
          1.2749751,
          -0.07789895,
          -0.20385346,
          1.1051105,
          -1.8596374,
          0.0790682,
          2.163638,
          -2.9065096,
          0.9816877,
          -0.36802277,
          -0.99653494,
          -1.8092757,
          1.0423429,
          3.317651,
          1.5664291,
          -0.3969743,
          3.9149275,
          2.2894216,
          -1.0671084,
          1.0606018,
          -4.1782866,
          2.4498825,
          1.3228403,
          -0.13272373,
          3.505209,
          -2.3564115,
          -2.8833058,
          -0.3996269,
          -4.8973784,
          0.21976605,
          1.8606693,
          3.0834076,
          2.0880303,
          -0.24118857,
          1.7951518,
          -0.45528433,
          -1.5811425,
          1.2059813,
          -1.5051672,
          -1.0790973,
          0.91535306,
          -4.597806,
          -3.626214,
          -0.20455594,
          -1.1280829,
          0.09716423,
          -1.5872047,
          -0.13071221,
          -0.5906967,
          -0.5817151,
          7.8827634,
          -0.7052686,
          -2.2741296,
          2.9787378,
          1.3380004,
          2.4930067,
          0.9583206,
          -0.83949304,
          1.2894464,
          -5.2705183,
          1.3158652,
          1.0524049,
          1.6307538,
          1.2832748,
          -2.1468377,
          1.391609,
          3.0293748,
          -0.6393491,
          0.5525192,
          -0.4343388,
          4.3322287,
          -1.2488505,
          2.194326,
          -3.9153852,
          -4.378428,
          0.85964864,
          1.3225868,
          -1.4226519,
          -1.3399955,
          -0.32803878,
          1.6976384,
          -0.0724829,
          -0.34516057,
          -3.088338,
          -3.111932,
          -2.0615587,
          -0.3866163,
          2.1319537,
          -1.1367724,
          2.1223698,
          1.4730283,
          1.2380687,
          -2.4329703,
          1.2195438,
          -3.8305748,
          1.3384637,
          -2.218068,
          -2.2898865,
          -0.44399145,
          -2.5322,
          2.3144834,
          -0.17118347,
          0.37335625,
          -0.50766516,
          0.7151517,
          -1.8555596,
          -1.0605812,
          0.050445423,
          -2.0727699,
          -0.82248336,
          -1.904693,
          -2.2215958,
          -2.3407855,
          -0.5655974,
          0.81637067,
          -0.021913178,
          1.3484049,
          1.889858,
          1.2493007,
          4.282711,
          3.9278288,
          3.7491813,
          -3.4394968,
          1.5931869,
          -1.8748652,
          -1.7970016,
          4.437391,
          0.0055155028,
          1.9015105,
          -1.6777555,
          4.9481373,
          2.8815005,
          -0.46441704,
          -4.263493,
          -2.3579652,
          -3.1593173,
          0.61832774,
          -2.087592,
          1.4904206,
          -4.27187,
          -0.03687638,
          1.5135381,
          0.65497094,
          0.8671111,
          4.6019483,
          0.19969387,
          -0.943015,
          0.2564947,
          3.9949226,
          -0.18466003,
          2.020709,
          -0.5308157,
          1.6987638,
          5.487013,
          1.9977443,
          -3.9049067,
          1.9152871,
          2.0693927,
          0.6000892,
          -1.8283491,
          -0.22474153,
          -1.422623,
          -1.4017758,
          1.2152361,
          0.14743394,
          -1.6633185,
          -3.697208,
          -1.4642162,
          0.79577917,
          -0.11027947,
          0.4945832,
          1.2858723,
          1.0218544,
          2.172426,
          1.7666848,
          1.9116052,
          1.2465053,
          -0.50012994,
          -1.0427316,
          -4.40708,
          -1.2935457,
          0.4740903,
          1.5405761,
          -2.6719491,
          5.147415,
          2.4408612,
          0.14927289,
          -1.507919,
          2.6719134,
          -0.46563232,
          -0.18805243,
          -1.714078,
          -3.9406688,
          0.25561118,
          -2.6545894,
          0.5228558,
          0.89160407,
          4.0416636,
          1.365099,
          0.7105859,
          -1.5789111,
          2.034513,
          1.6205492,
          -0.9682346,
          0.20992169,
          -1.9204094,
          2.097486,
          -0.028616272,
          2.5801146,
          0.4831997,
          0.6881662,
          1.2547421,
          -1.0504057,
          2.2132118,
          3.6685,
          -1.1450607,
          -2.0714517,
          -3.1369328,
          -2.726146,
          0.5057412,
          -0.3522829,
          -0.7253333,
          -2.5307508,
          1.1851459,
          2.7206826,
          2.3060865,
          -1.0514137,
          1.676935,
          2.3961809,
          1.2095923,
          -1.6333241,
          -0.4187467,
          0.7285556,
          -0.8215918,
          -0.5909732,
          -1.3927861,
          -2.2496493,
          1.0693486,
          -0.18549258,
          1.6702442,
          4.038144,
          0.23365542,
          1.4055884,
          2.06898,
          -0.35591727,
          -0.20860198,
          3.4372885,
          -2.9042995,
          1.5305592,
          1.2221005,
          3.0382698,
          0.9023546,
          1.0604265,
          1.876916,
          0.8227057,
          1.2686857,
          0.6963788,
          1.7571963,
          -1.0854117,
          0.64569914,
          2.0753977,
          -4.5793524,
          -0.4631646,
          -1.8446945,
          -1.2685475,
          -3.3830707,
          3.1925058,
          1.6018801,
          -4.0705147,
          0.78000426,
          1.9949523,
          0.16920033,
          -3.7377052,
          -1.4808396,
          -1.490961,
          1.8238127,
          2.2004352,
          -1.3766224,
          3.5886016,
          -2.3422382,
          4.139599,
          1.6257453,
          1.9930985,
          1.563628,
          1.4140851,
          1.5315478,
          -0.6323134,
          1.0553197,
          0.5971527,
          -0.6314144,
          0.6222932,
          -0.9378784,
          -0.09646179,
          -2.762199,
          -0.27062365,
          2.3704293,
          0.59472114,
          -3.6636324,
          0.7615971,
          -3.141631,
          -1.1668285,
          2.1141195,
          -2.7352707,
          2.5721595,
          -0.8067543,
          -1.1949649,
          -0.9834623,
          0.742367,
          1.3019507,
          -0.09651251,
          2.313157,
          3.038823,
          -0.40820295,
          0.5284724,
          -3.5495882,
          0.4060895,
          -0.36774075,
          0.62179303,
          1.2651656,
          2.618348,
          -0.42434794,
          2.6141284,
          -1.1664323,
          1.1519321,
          -4.2202706,
          -0.21336013,
          1.334615,
          -0.62797576,
          0.72357804,
          -0.72487557,
          0.96968937,
          0.67605716,
          -5.944961,
          -2.9780025,
          -2.035046,
          -3.346223,
          1.7713938,
          1.7117593,
          0.94936913,
          -0.51084554,
          1.0208861,
          1.0752428,
          -2.630689,
          0.8895783,
          2.9830701,
          -0.43735504,
          -1.7785834,
          -0.53691775,
          0.33741862,
          -0.8969919,
          3.0834587,
          1.8395321,
          0.89974266,
          1.6382788,
          2.6565948,
          -0.09896589,
          4.0304193,
          4.400009,
          -2.1027076,
          -2.1102614,
          -1.5636346,
          -0.24199933,
          1.9064561,
          -3.0713227,
          -0.8651118,
          -3.6037962,
          -3.8098657,
          2.2152162,
          0.756799,
          -1.7170297,
          1.221248,
          0.79810065,
          0.5270701,
          -2.7871306,
          2.0419843,
          0.6056382,
          -1.5604656,
          2.448783,
          1.2611008,
          -0.46070743,
          0.5889359,
          -0.81790984,
          1.7759458,
          -4.911786,
          0.49155417,
          -2.9033847,
          3.110989,
          0.75025076,
          -3.001785,
          0.3075069,
          -3.8853092,
          -3.6805382,
          -1.6551986,
          0.78313065,
          1.2785618,
          -4.481011,
          -1.398578,
          0.7559441,
          0.7096481,
          -1.8812885,
          -1.0288509,
          -2.0403636,
          1.573474,
          -0.3066748,
          -0.3725881,
          -0.5282758,
          1.6279258,
          -2.3922694,
          -0.0946368,
          -3.6106348,
          -1.6929646,
          3.9275045,
          -2.6144032,
          2.5106235,
          -2.7152476,
          2.8741322,
          1.5344648,
          -0.7784686,
          0.79708487,
          2.2350342,
          -0.45825332,
          -2.7972689,
          -1.2829106,
          -1.4571732,
          1.070222,
          0.57906634,
          -3.2898417,
          3.4299757,
          -0.6324517,
          -0.6166459,
          -1.6345501,
          -2.2639651,
          1.9999725,
          -1.8650775,
          0.8303492,
          0.87435883,
          1.8155026,
          -1.4742508,
          0.8873815,
          -2.272681,
          -0.6907915,
          -2.8141527,
          -3.1579075,
          -0.29696774,
          -0.7058447,
          0.57420164,
          -1.1165807,
          -3.5483782,
          -2.4724948,
          1.3405784,
          0.8383691,
          -1.6247295,
          -5.2328415,
          2.7170064,
          0.3789749,
          -1.7225357,
          2.635416,
          -0.93188876,
          0.5245758,
          1.491114,
          -1.0492033,
          3.8440034,
          1.4861729,
          -1.7231194,
          0.5544877,
          0.96279186,
          0.6789434,
          2.7763684,
          -1.1956602,
          -2.0145795,
          0.419928,
          -4.177756,
          0.32832628,
          -1.0270709,
          1.2489302,
          2.2532194,
          -2.5173342,
          0.67567503,
          -3.06888,
          1.2084321,
          3.752789,
          1.3690453,
          -0.95217454,
          -2.1807208,
          0.7162627,
          -0.18814063,
          0.26087245,
          -3.5194066,
          0.10855004,
          -1.4270664,
          -0.2464438,
          1.3872606,
          2.0951366,
          -0.3344337,
          3.5175846,
          0.21826437,
          -0.54181314,
          -1.0444742,
          -4.072745,
          2.5697951,
          -0.61724293,
          -0.3202235,
          -3.03014,
          -4.1781693,
          -2.7309692,
          -0.80910784,
          1.6757057,
          -0.4907823,
          1.5340266,
          -1.1210177,
          -2.50687,
          -0.17114182,
          -1.1886996,
          0.78996015,
          -0.44701445,
          -0.3520924,
          3.9200187,
          0.6005035,
          -0.5383947,
          -1.1079248,
          -2.0918798,
          2.675844,
          -0.32730487,
          1.9889588,
          0.9465743,
          -0.91871274,
          0.57063085,
          2.071215,
          0.5152017,
          -4.7628503,
          -1.8625275,
          2.9432483,
          -4.528124,
          0.5413159,
          -2.60794,
          -1.2573571,
          -0.6668519,
          -4.532271,
          0.8595096,
          -4.002105,
          1.2006783,
          -0.9747687,
          0.38673335,
          -0.5018324,
          -2.0946393,
          1.4163787,
          -3.7079608,
          0.5808652,
          -1.0067027,
          -0.6993245,
          0.93721277,
          2.584317,
          0.0023028553,
          -1.493869,
          -0.08621183,
          1.583971,
          -3.7865353,
          -2.121168,
          1.0893546,
          -3.3801208,
          -0.53705204,
          -0.7123558,
          0.33130807,
          1.5799003,
          5.959454,
          -1.881667,
          -0.8627591,
          2.692358,
          0.19510238,
          0.8313183,
          1.4132068,
          0.7780893,
          0.31153068,
          1.9089365,
          -1.6177915,
          2.8809144,
          -0.011648931,
          4.1281013,
          0.43879306,
          -3.024443,
          3.8728175,
          2.5724921,
          -3.3105597,
          -1.1640701,
          1.4499096,
          -2.4854805,
          2.1285446,
          0.6439983,
          4.615626,
          -1.1388109,
          -1.8063842,
          2.9709587,
          -0.16792873,
          1.8971771,
          2.0992754,
          0.94359446,
          0.5916108,
          0.026968483,
          -0.8594377,
          -2.3951643,
          1.8089144,
          0.944773,
          0.33050007,
          -1.143563,
          -2.1956477,
          -2.1723528,
          2.4449227,
          -1.241774,
          -1.3878546,
          0.2837104,
          -1.4781011,
          1.6320041,
          -1.5313804,
          -1.0972898,
          0.043033835,
          0.9682364,
          2.5482275,
          0.6477598,
          0.30645576,
          3.2582428,
          2.411336,
          -0.4539337,
          0.8435579,
          1.4809389,
          1.8050984,
          3.8828688,
          -0.09556477,
          -0.27010423,
          -1.0930843,
          -1.5305568,
          0.7443694,
          0.93642426,
          -2.080042,
          1.1303135,
          -2.741548,
          0.1953483,
          3.5184674,
          -0.13612153,
          0.24310921,
          0.82472575,
          -3.4810555,
          -0.68041384,
          -2.489701,
          -0.7602633,
          -2.2862325,
          -0.5382004,
          2.8433828,
          4.0148435,
          1.2458637,
          2.8789332,
          2.3724957,
          2.8418367,
          -0.2845145,
          4.100046,
          2.8384714,
          0.08266787,
          1.915762,
          -1.1679864,
          -2.289238,
          -2.125097,
          -1.7661321,
          0.59563744,
          -1.2072219,
          4.094222,
          3.6716006,
          -2.5234838,
          3.342888,
          2.711839,
          -1.3873717,
          1.5559555,
          -4.1428432,
          1.894592,
          -0.33683595,
          3.241786,
          -1.2986014,
          -3.2996597,
          -0.32717514,
          3.8009255,
          -0.41261598,
          2.286554,
          -1.709204,
          -2.325732,
          0.50839454,
          -0.84831893,
          -2.0197713,
          -2.5674036,
          -1.7283638,
          -3.0218816,
          -1.6255541,
          -1.4964684,
          -2.4770908,
          -2.1747336,
          0.90129346,
          0.9175852,
          1.1091632,
          1.5187037,
          0.50458777,
          -2.9826293,
          -1.0023876,
          -0.9883881,
          -0.853856,
          -0.97848076,
          2.872437,
          -0.76337993,
          -2.8836598,
          2.4094417,
          2.4301136,
          -0.19680417,
          -0.59026825,
          -1.4676079,
          -1.4253087,
          3.011567,
          -3.8195739,
          -1.370238,
          -2.4196184,
          -1.0060314,
          2.4801643,
          -0.32930225,
          0.51772606,
          1.6511204,
          2.4118063,
          -0.8607354,
          1.1402035,
          1.2371808,
          -2.2036107,
          2.7815266,
          1.6269134,
          2.1752725,
          0.8482269,
          -0.7703829,
          1.5157353,
          1.1384642,
          -0.19679534,
          3.0570974,
          -0.88874185,
          -0.89975005,
          -1.374139,
          0.3587801,
          -0.72611994,
          -1.4627607,
          -0.7055622,
          -2.5803885,
          -1.7422569,
          0.85522985,
          1.653926,
          -0.59361696,
          3.3983452,
          -2.0370934,
          -1.9857358,
          0.8515137,
          -1.2288641,
          3.9218266,
          -0.17700356,
          -1.7433988,
          -0.3429736,
          1.5365365,
          -0.20271452,
          -1.8330315,
          0.7783613,
          3.7494,
          2.7168007,
          -2.8964918,
          1.4368677,
          -2.397293,
          0.71619767,
          0.6007819,
          1.4002389,
          1.0261028,
          -0.6548856,
          1.7795,
          -0.714276,
          -4.0087404,
          -1.8531114,
          1.8120539,
          2.5370655,
          2.0190167,
          0.16586518,
          -1.7289419,
          -1.6101667,
          -0.037321337,
          -0.3683741,
          1.6858292,
          -1.9280862,
          2.6405556,
          0.8542414,
          1.8583047,
          0.45136052,
          2.0276232,
          -2.9303167,
          -3.6058624,
          -0.10813711,
          -1.3721178,
          -0.59426457,
          0.8837729,
          1.1457398,
          -1.7241817,
          0.17180863,
          -0.40310884,
          1.7168144,
          1.114905,
          -0.7183376,
          4.444736,
          -1.0562667,
          0.37789443,
          2.3441143,
          -3.510184,
          3.0920517,
          -0.5085694,
          -3.3542783,
          0.42615566,
          2.5196004,
          2.6651773,
          -3.2210283,
          0.18089002,
          -0.6723403,
          1.4255189,
          0.11516169,
          0.40555942,
          0.18493468,
          0.60544753,
          -0.87720674,
          0.46201885,
          3.6556363,
          -0.8207944,
          -2.8148828,
          -2.8832357,
          -4.681118,
          -2.1728978,
          -1.5709834,
          -2.0927074,
          0.082648724,
          -1.9352337,
          2.6215153,
          -1.4941738,
          -2.343084,
          3.8217735,
          -1.0488477,
          -0.26710254,
          0.04062826,
          -2.8954384,
          1.2125021,
          -0.071386606,
          1.1989537,
          -2.6015937,
          1.0880805,
          -0.080667585,
          -1.7124934,
          5.8573565,
          -0.46093976,
          -0.09395565,
          -0.26723075,
          -3.1092052,
          1.7946175,
          -0.96300036,
          -1.7772927,
          -0.3649823,
          0.021485437,
          2.141995,
          -0.3334672,
          -1.9563531,
          3.0433717,
          -0.26169884,
          0.52747023,
          0.60634565,
          0.26059136,
          3.363396,
          0.70801145,
          2.3318605,
          -0.50990236,
          -1.7548771,
          -2.0674708,
          -2.0456617,
          -1.487484,
          1.8933231,
          0.8892551,
          -0.45515597,
          4.705001,
          1.0439101,
          3.3809252,
          1.6242323,
          2.4810393,
          -0.876183,
          0.73175895,
          0.7662879,
          2.390793,
          3.655135,
          2.4518068,
          -0.65852755,
          -0.3610776,
          0.9637692,
          -4.2124624,
          -3.5308497,
          3.762641,
          3.228139,
          -1.7428489,
          0.96087265,
          -1.0367647,
          -1.1870044,
          1.581562,
          -2.4052935,
          0.93713695,
          0.88527757,
          -4.695821,
          -3.5063636,
          0.57368934,
          0.87194854,
          1.1376483,
          -2.0161567,
          -1.5850459,
          -2.4796627,
          -1.268123,
          1.257545,
          -0.6476755,
          3.2981575,
          -0.6134158,
          -3.991551,
          1.1184897,
          -2.1743736,
          -0.11761935,
          -1.5664827,
          -0.92029697,
          2.3445845,
          -0.70938516,
          3.1471941,
          -1.7487504,
          0.40312958,
          -1.6286856,
          1.4004693,
          -0.52787036,
          1.070063,
          0.7770392,
          1.0673053,
          -0.5246396,
          -1.5383195,
          1.3803575,
          -0.4637341,
          4.092043,
          -2.3756375,
          1.2789032,
          -0.10913751,
          3.3888016,
          -3.0733287,
          -1.2385206,
          2.0027423,
          1.5512524,
          -0.7845978,
          5.3155265,
          -1.4158546,
          0.7200719,
          -2.591362,
          0.5458379,
          1.2968512,
          0.8130688,
          3.6591442,
          -0.7327435,
          -6.8223157,
          -0.62432796,
          -1.6578603,
          -3.6508272,
          1.4372798,
          1.7706897,
          0.2477942,
          0.28261054,
          -4.5706553,
          0.9449378,
          -3.6035411,
          1.8604014,
          0.6608304,
          -1.0541388,
          -3.5830483,
          -1.3792391,
          2.0688338,
          -1.5589712,
          3.1034641,
          -1.9171753,
          -0.15587881,
          0.61324203,
          -0.89684105,
          2.3624203,
          0.8100688,
          -2.3436632,
          -1.9002601,
          -2.0758405,
          1.8903928,
          1.6923777,
          5.212198,
          -0.4269105,
          2.306366,
          2.4166045,
          0.1106638,
          0.67665815,
          1.7874228,
          2.4292831,
          -3.3691955,
          -3.4578104,
          -1.0315633,
          2.0614247,
          2.329753,
          -3.3232548,
          -1.9662316,
          -3.260432,
          -0.2354265,
          -1.5763196,
          -1.0366457,
          1.7756283,
          1.8673254,
          1.3411279,
          1.9628905,
          0.91067123,
          -2.8081138,
          -0.7267204,
          -0.75987965,
          1.5490193,
          0.10397513,
          2.828719,
          0.29129115,
          -0.72048426,
          2.1285284,
          -1.0612769,
          -3.6210895,
          -3.3335252,
          2.4046698,
          -0.30972654,
          0.51851416,
          1.5261837,
          -3.3613815,
          1.0147723,
          0.47723174,
          -2.4260783,
          -2.321622,
          1.2092538,
          -0.38347238,
          -0.37914667,
          3.4646149,
          1.8263396,
          0.6438124,
          2.033026,
          -0.48417667,
          0.18524967,
          -4.553317,
          0.84434444,
          1.8698852,
          0.78407645,
          0.7924512,
          0.3578193,
          0.16104798,
          1.7399877,
          2.295788,
          0.6012806,
          -1.8529036,
          1.5753595,
          2.5532796,
          -1.3675846,
          -0.17519388,
          2.0264726,
          1.9648488,
          -0.13421723,
          -0.5218702,
          -0.12896211,
          -1.3321333,
          1.030793,
          4.8952217,
          2.704294,
          0.9985465,
          -3.8455381,
          -1.2207748,
          -1.8612579,
          0.6065614,
          4.256555,
          0.83035094,
          -1.5011162,
          0.26090756,
          3.4549458,
          1.2053707,
          -0.03493001,
          0.26930213,
          -2.0394485,
          2.0238156,
          -0.4626003,
          1.4109952,
          -1.8354911,
          0.22353122,
          -0.861478,
          -4.4868865,
          -0.9506712,
          -2.0806563,
          1.153064,
          0.8316876,
          -0.45984736,
          0.87032896,
          2.3897445,
          -0.411632,
          -1.4756092,
          0.43482262,
          2.1158974,
          -2.9732854,
          2.2898571,
          -0.6778697,
          1.5732286,
          0.6994484,
          -2.8340209,
          -0.095417514,
          1.8525778,
          1.0999476,
          0.011863548,
          1.6094764,
          1.724174,
          -2.316153,
          2.0948374,
          -0.07604661,
          0.922456,
          1.2028825,
          -1.1171606,
          4.161917,
          -1.6701672,
          3.429152,
          -1.7268649,
          -2.1386635,
          0.4465913,
          0.22206008,
          2.0333264,
          -0.69923776,
          -1.657078,
          3.9265816,
          -1.4922595,
          2.5980546,
          2.0492752,
          -0.63236487,
          -1.8926985,
          1.7702227,
          -0.24515378,
          -2.2703454,
          1.5291919,
          -0.98029625,
          -0.44428468,
          1.3438035,
          -2.9496388,
          -0.41954535,
          0.41260168,
          0.73160493,
          -3.5104537,
          -2.3549328,
          -1.6817446,
          0.35532236,
          0.5666946,
          4.005579,
          -0.0050714035,
          3.346198,
          0.20311463,
          -0.4628783,
          -1.6911463,
          1.317041,
          -1.1752816,
          2.271321,
          -2.0597541,
          1.9440411,
          -0.039436117,
          0.38450274,
          -3.818436,
          0.7149885,
          -4.0002193,
          -1.0810186,
          5.5708942,
          -0.9948004,
          -1.3712201,
          -1.7755059,
          -1.5607166,
          -0.55859363,
          2.7790473,
          3.432489,
          0.078278214,
          -3.108804,
          1.6052587,
          3.6123528,
          -2.7739184,
          -2.233881,
          1.8941498,
          -1.013453,
          1.1000018,
          1.3319514,
          1.2334268,
          1.9741399,
          -1.5663071,
          -0.32306796,
          2.3129284,
          1.2438306,
          1.9413832,
          0.67030156,
          1.633563,
          -2.6938756,
          2.2689223,
          -0.9444935,
          -1.4198512,
          -0.4923442,
          1.1598084,
          -1.0011497,
          2.1057048,
          0.5898136,
          2.9746392,
          -1.7971362,
          3.8109426,
          1.1498988,
          -0.13103665,
          0.79087985,
          -1.5792664,
          0.9325518,
          0.7351175,
          0.714949,
          -0.17430818,
          2.9643002,
          3.4468417,
          0.9822784,
          3.2652683,
          -0.18360902,
          -1.3700781,
          -4.9765506,
          0.14634693,
          4.855489,
          0.019454762,
          -3.4760294,
          -0.93588084,
          -2.4386759,
          -0.012953598,
          2.2285664,
          0.038367223,
          -1.8629382,
          -3.8065057,
          0.3121422,
          -0.60855484,
          -0.2350347,
          -1.101955,
          0.512654,
          -1.1302098,
          2.4785392,
          -0.5000219,
          1.2660888,
          0.20562576,
          1.0999575,
          0.96920043,
          0.63454664,
          -1.4925488,
          0.22012301,
          0.50936925,
          0.91252893,
          -1.9528123,
          4.1206913,
          -0.375209,
          1.2499397,
          0.84261894,
          2.9583247,
          -0.8905781,
          1.2414933,
          -1.6385641,
          -1.2577976,
          0.1466313,
          -1.4121044,
          -1.5933764,
          2.803289,
          0.19011316,
          0.029913466,
          2.3626785,
          1.61063,
          2.1928477,
          2.9029734,
          -3.5832558,
          3.2293963,
          0.5259122,
          5.491506,
          6.618695,
          -3.3115258,
          -0.2283955,
          -1.9619925,
          -1.1993486,
          1.6059513,
          -1.4616863,
          -1.6242437,
          -1.7444813,
          -0.58753467,
          -1.4011055,
          0.30073124,
          -1.2582365,
          -0.39897588,
          2.6021976,
          -4.613382,
          -0.124961615,
          1.3837368,
          0.6942609,
          0.5659098,
          -0.9092012,
          -1.0216254,
          1.3548194,
          -1.6132628,
          -3.0129569,
          -0.9221163,
          2.0171504,
          1.6652215,
          0.46390802,
          -1.4285594,
          0.7954525,
          -0.3540119,
          -2.8973775,
          -0.19362563,
          3.035688,
          -0.1785566,
          -2.2931552,
          -1.5141859,
          2.6555555,
          1.7919816,
          1.8263788,
          0.86423254,
          -1.5273294,
          -1.9938563,
          -1.279185,
          -0.093375504,
          0.59588265,
          -1.8008786,
          2.48934,
          0.5522554,
          0.4226457,
          0.3057527,
          -2.567191,
          -0.8693203,
          0.8353886,
          0.19690022,
          -0.6925879,
          1.11028,
          0.070427105,
          0.16350535,
          1.8614007,
          -1.3581984,
          -2.4957702,
          -2.7690117,
          -3.3381984,
          1.3149807,
          2.2523274,
          -1.9264473,
          0.049824174,
          -1.4965376,
          0.5542688,
          2.3450925,
          0.019329894,
          -1.4445337,
          0.96217185,
          0.111663714,
          -0.047226556,
          2.6041183,
          2.4661646,
          2.8875382,
          -0.75872254,
          1.4172757,
          -0.9820291,
          1.2789886,
          -3.5608182,
          1.4837198,
          0.56575596,
          1.625598,
          1.857387,
          -2.4124465,
          -2.6043897,
          1.3827703,
          2.1963573,
          -1.4214364,
          3.5593107,
          -0.656338,
          -0.41407445,
          -0.18392384,
          1.2136705,
          4.2428927,
          -2.186392,
          -0.6538471,
          -1.2489476,
          0.57491577,
          1.0456923,
          -2.0057864,
          -0.49879658,
          3.1045349,
          2.587835,
          0.8439786,
          0.31291547,
          0.19728643,
          -0.60261184,
          0.13766682,
          -2.0379674,
          -0.75986767,
          -1.9374311,
          -2.416403,
          -1.8857868,
          2.7709901,
          1.931524,
          -1.3710359,
          1.7500143,
          -0.29088068,
          -2.3028731,
          -2.178805,
          -5.978109,
          -1.94947,
          1.5987575,
          0.4634053,
          1.8503076,
          -1.1055796,
          3.0467298,
          0.34309223,
          -2.392725,
          -4.506267,
          2.9670992,
          -3.0399394,
          0.6861155,
          -2.1285279,
          0.6392104,
          -0.031572398,
          1.064452,
          -0.58111924,
          -0.5549808,
          1.5698171,
          -0.85923856,
          1.9267375,
          -0.49681115,
          -2.5808883,
          0.6749248,
          -0.49292454,
          2.7235994,
          -3.9125388,
          -1.4305739,
          -1.4801776,
          -1.5619545,
          0.73059505,
          0.22005403,
          -2.2395096,
          1.8494073,
          -4.959521,
          0.9318183,
          -0.83965147,
          -0.6682495,
          2.0707152,
          -0.43157613,
          -0.80246884,
          2.8639572,
          0.41329747,
          2.790655,
          0.31347445,
          1.5778887,
          1.5702586,
          -4.287396,
          2.873788,
          -2.3579848,
          0.11809239,
          -1.5105509,
          -1.9070762,
          -0.5278344,
          -1.5396507,
          -3.3454125,
          -2.1558878,
          2.0348725,
          -0.64514524,
          -1.4225696,
          0.7487211,
          -0.942314,
          0.48456675,
          -3.0038486,
          1.6483756,
          2.2704175,
          -1.2463148,
          -2.1641045,
          0.6785824,
          -3.6516147,
          -4.072758,
          1.5651449,
          0.67192906,
          0.34416115,
          4.639461,
          0.9314682,
          -5.124602,
          -0.31828922,
          -0.8768764,
          -3.0422246,
          0.8226441,
          1.1050749,
          2.561889,
          -0.98981357,
          1.6088494,
          -0.9796775,
          0.89984024,
          2.5721827,
          -1.984886,
          2.4240603,
          -0.87545675,
          4.177828,
          0.092841044,
          -1.3752102,
          0.9423434,
          -1.1156107,
          -1.2139331,
          -0.67718124,
          -0.64490694,
          -2.3514779,
          2.0176146,
          -3.8032477,
          -2.5930145,
          -0.6520854,
          0.2239191,
          0.25031644,
          2.4718297,
          2.534617,
          -0.20394607,
          -0.25391278,
          1.7026979,
          -5.043227,
          -0.47161815,
          -1.078423,
          -0.19382998,
          0.40177995,
          -3.0967102,
          0.61398566,
          0.9946746,
          1.7258441,
          -2.1250527,
          3.8441756,
          -0.8047149,
          0.58864355,
          1.0732955,
          -1.2179298,
          0.8701315,
          0.46700737,
          0.7931877,
          -1.9455448,
          -0.26941264,
          -3.0326018,
          4.522491,
          -2.9572139,
          1.5037429,
          -1.5796742,
          2.8311853,
          -3.2856343,
          -0.09507831,
          2.0408528,
          1.7394252,
          -1.1763318,
          -2.2815182,
          -1.8911518,
          0.9956107,
          -2.3634572,
          0.12457076,
          0.7415211,
          -0.22731996,
          -0.853855,
          2.7433221,
          -0.9287419,
          -5.4865904,
          1.7938722,
          -1.0899926,
          2.1605682,
          -3.509018,
          0.21130455,
          0.70760185,
          -0.36895454,
          1.1661508,
          -2.2960374,
          -1.0817165,
          -1.983759,
          -0.047091052,
          -1.6371561,
          -0.39253777,
          -0.9856904,
          0.08735031,
          1.2088507,
          0.55557555,
          -2.2229953,
          -2.1051657,
          2.985208,
          2.2800486,
          -0.49647355,
          0.9186476,
          1.7129941,
          1.4560838,
          1.2315658,
          1.1366787,
          4.008826,
          1.0422581,
          0.7742303,
          -0.24131301,
          0.30040544,
          2.7659943,
          3.3035758,
          -2.8093188,
          -1.6414344,
          3.6074967,
          -1.9007924,
          0.4014751,
          1.9220115,
          1.4989153,
          0.5810504,
          -1.8347055,
          0.78271055,
          -1.9798237,
          3.8676057,
          -0.8901424,
          1.2622972,
          1.2643675,
          -0.7880854,
          3.2000012,
          -1.2442595,
          0.22519332,
          -0.10644336,
          0.022149347,
          4.8841057,
          1.0069765,
          -1.442717,
          1.8571528,
          -2.9726593,
          -1.4055603,
          0.69739455,
          -1.1448945,
          5.227086,
          0.85437226,
          1.8339448,
          -0.93675166,
          -3.9921267,
          0.9541327,
          -0.08834025,
          1.9060171,
          3.8437717,
          1.1414688,
          0.48306048,
          1.2762836,
          1.2962074,
          2.8408167,
          1.0558498,
          4.62764,
          2.7109942,
          3.0167909,
          4.7243505,
          2.6132777,
          1.4781597,
          0.9171267,
          -1.5744619,
          0.7546752,
          0.6220709,
          -6.0875535,
          -0.770644,
          1.5969199,
          -0.7316626,
          -3.5086298,
          0.5917789,
          -0.80048335,
          1.8364962,
          -0.16793898,
          1.182843,
          1.3725559,
          2.0121875,
          1.2787775,
          -0.25208262,
          1.8343798,
          0.51118636,
          -3.4427557,
          -1.9643328,
          3.1862082,
          -2.7672918,
          -1.8806762,
          -2.4962819,
          -0.9446892,
          -3.364339,
          1.6551732,
          -1.2442883,
          3.455842,
          -5.191488,
          1.5355334,
          0.5983081,
          0.8956349,
          0.33057785,
          -3.021787,
          2.3727515,
          -2.3183434,
          1.2690917,
          -0.11301227,
          1.5182352,
          -1.2416292,
          1.763519,
          -0.1266385,
          1.8280451,
          -0.827445,
          1.9175814,
          -3.6516337,
          1.672931,
          0.88621646,
          -1.1072619,
          3.014421,
          -1.8923008,
          -0.96101815,
          2.9029298,
          1.7269697,
          1.6533972,
          3.600673,
          2.1913822,
          -2.0947645,
          -0.44993576,
          -3.1761932,
          0.9039074,
          0.020249318,
          4.5676727,
          -0.19097176,
          -2.1859078,
          1.1014282,
          -3.5979407,
          -0.85711193,
          0.5451528,
          -0.09162413,
          -2.4692037,
          -1.4788427,
          1.5935364,
          -1.2843829,
          -1.6003082,
          -4.586132,
          -1.4536583,
          1.5664779,
          0.8776611,
          2.2538245,
          0.24260852,
          -2.1167912,
          0.67458653,
          1.5896564,
          -3.1837366,
          1.8326693,
          -4.0392413,
          0.4943379,
          2.1274157,
          -1.1362584,
          5.177087,
          -0.28044555,
          1.9579551,
          1.8570827,
          -1.1023026,
          -0.043666508,
          -1.6986692,
          -0.6181553,
          -0.33662885,
          -2.973108,
          0.8424405,
          -3.227136,
          -2.3417702,
          -5.2547755,
          -3.7906477,
          0.42009366,
          0.8612474,
          0.5075201,
          -0.29287943,
          2.1953187,
          -0.5038444,
          -0.21739964,
          1.946508,
          0.25866285,
          0.382631,
          -0.05177202,
          0.690834,
          0.69932324,
          1.3873494,
          -1.9653248,
          -0.45787898,
          2.64752,
          0.38238716,
          -1.0968105,
          -0.25368765,
          0.014908146,
          -1.6132394,
          1.5907995,
          1.631449,
          -2.4496078,
          2.43824,
          -1.0219636,
          -1.0766953,
          1.7730846,
          -1.6418418,
          1.1890855,
          -0.9121519,
          -3.6252556,
          -1.4536947,
          -1.7849464,
          2.208447,
          -1.1988959,
          -1.4511482,
          -0.5989337,
          -0.24338111,
          2.3400643,
          0.9768029,
          -1.2396042,
          -3.5444143,
          -1.1569653,
          -1.6849595,
          -0.9352523,
          1.5050216,
          -1.3289139,
          0.8211031,
          -3.535054,
          -3.5379767,
          -0.6692787,
          -0.36135972,
          0.9733735,
          1.1488122,
          -1.4914079,
          1.2087927,
          -0.39397627,
          -1.5603528,
          -0.3831431,
          0.4674019,
          -0.807528,
          1.2599838,
          -1.4824071,
          3.304102,
          0.82467407,
          -1.0491017,
          3.3127036,
          -1.4051552,
          -1.1011009,
          -3.805946,
          0.87877023,
          -0.5138191,
          -2.8838248,
          -2.5363069,
          -0.095863566,
          0.9552435,
          1.6796076,
          -1.7377497,
          2.4444761,
          -3.843711,
          0.58684456,
          -3.2507179,
          -4.185359,
          -0.69606847,
          -1.7852172,
          -1.708033,
          -1.189786,
          1.0896881,
          0.22957747,
          2.0335612,
          -4.4656286,
          -0.6682865,
          0.23724638,
          -1.5094838,
          -1.7051008,
          3.5285788,
          -1.3709167,
          2.8316042,
          2.288812,
          -1.5771791,
          0.31634265,
          1.2677455,
          0.40639725,
          -1.9045694,
          -0.020359077,
          -4.091812,
          0.7665111,
          -0.23132098,
          0.6457741,
          0.48054153,
          0.46670282,
          0.4097818,
          -2.902056,
          -0.7795938,
          -1.494456,
          -0.68105483,
          2.8472002,
          -0.7983451,
          -1.2895675,
          3.4292686,
          0.8153809,
          -2.3604963,
          -2.0386858,
          -1.3166687,
          2.6297874,
          -0.20973803,
          -3.4178658,
          1.5208783,
          0.8081155,
          0.057731047,
          1.1948743,
          0.9302872,
          1.5299617,
          -0.9648998,
          -3.1606169,
          0.38209665,
          -1.388196,
          0.028315369,
          -3.0522811,
          -0.88064426,
          0.37178618,
          6.2479486,
          -0.05361083,
          2.0537066,
          0.7378811,
          -0.8910361,
          2.922841,
          -2.6554747,
          0.56458294,
          0.48591733,
          1.5385206,
          -0.42770615,
          1.2442814,
          1.1563697,
          0.6719234,
          -0.61489964,
          2.2615163,
          1.511608,
          0.9229651,
          -1.5549725,
          0.78781766,
          1.1469812,
          2.0398664,
          -3.4093623,
          -0.13521272,
          2.8336468,
          0.7598687,
          0.6113359,
          -5.531198,
          -3.2291262,
          -2.9250968,
          0.7368723,
          -4.022152,
          0.5963897,
          -0.4113131,
          -0.7511368,
          0.42569935,
          -1.1344768,
          0.37667608,
          1.716924,
          -1.49362,
          2.227718,
          2.1704905,
          2.163235,
          -1.363311,
          -1.109707,
          -1.8521919,
          -0.54363036,
          -0.1967955,
          -4.0538125,
          -0.22690879,
          -0.9588745,
          2.247629,
          -0.8612339,
          -2.0601323,
          -1.1894875,
          -2.006945,
          -2.8005552,
          1.6471677,
          -1.9868553,
          -0.37623924,
          -0.7274065,
          -0.35622156,
          1.9310449,
          0.22684315,
          -0.31068575,
          -0.31439203,
          1.8717736,
          0.55430233,
          -2.064851,
          -0.42668313,
          0.6374754,
          4.676526,
          4.724643,
          -0.89810854,
          5.5722,
          2.0179002,
          0.8478042,
          0.15329987,
          0.6965594,
          -0.10014717,
          2.1039433,
          -0.46942207,
          -3.2451274,
          0.15232971,
          1.4819088,
          0.450748,
          -2.4360657,
          -5.851335,
          1.1743528,
          -1.6826699,
          1.2496772,
          3.1397614,
          2.6056259,
          1.5063298,
          1.7517629,
          0.6953231,
          -1.6255033,
          1.1219,
          -1.5304009,
          0.7193049,
          -1.9361928,
          -0.63064015,
          3.2857044,
          -0.99319947,
          -0.7055462,
          1.4512045,
          -0.9755936,
          2.167339,
          0.38420466,
          -1.3746883,
          2.2262523,
          2.57138,
          1.3310168,
          -1.5425596,
          -0.46179974,
          -2.393254,
          -0.6326351,
          2.6613379,
          -0.30104783,
          1.8957815,
          2.5055192,
          2.8223698,
          -1.2705146,
          0.8757246,
          1.4683509,
          -1.3099726,
          2.4018466,
          0.63913214,
          -4.661369,
          1.4654293,
          0.1392232,
          1.2155645,
          0.916366,
          -1.4376117,
          -0.23266816,
          0.93405366,
          0.39197844,
          -0.11399123,
          -2.8138616,
          -1.209991,
          -1.3775024,
          0.13192499,
          -0.33866706,
          -3.7571929,
          2.6280162,
          0.16220997,
          0.32129455,
          -0.40440685,
          -1.321632,
          2.6111476,
          -0.7438209,
          0.7546348,
          -0.24455656,
          -0.31156883,
          -2.5557885,
          -0.5659321,
          0.04845363,
          1.6746522,
          0.053174343,
          0.50551033,
          0.9085415,
          -2.6181958,
          -1.9538399,
          -0.10060564,
          -0.46730798,
          3.6389186,
          -1.150257,
          0.17939022,
          1.3849927,
          0.6629861,
          1.9606419,
          -0.31873962,
          -0.17877226,
          -1.618732,
          0.2452488,
          0.010122467,
          1.275274,
          -0.7661929,
          -1.6857456,
          -2.752518,
          2.7839036,
          -2.6954608,
          1.1050609,
          2.0937374,
          -2.0554037,
          -1.7551326,
          1.0643394,
          -0.30400634,
          0.9113422,
          -1.900627,
          0.7356717,
          2.3128657,
          1.5307571,
          -0.12373851,
          -1.3695468,
          -1.989793,
          1.9182612,
          -3.6701431,
          -1.1745019,
          -3.3114717,
          -1.6327884,
          -0.6474657,
          4.559586,
          1.0999527,
          2.7576487,
          0.7824343,
          -0.75300705,
          4.123894,
          2.5747612,
          -1.5309683,
          0.21555717,
          2.2804573,
          0.51913935,
          1.5019453,
          0.9578187,
          -3.6311426,
          -2.8666496,
          1.6926126,
          2.5643828,
          2.9130971,
          -4.5345974,
          -0.8402363,
          1.3779277,
          -0.107201435,
          1.6292602,
          1.2943312,
          -1.5274173,
          -1.238556,
          -3.0369813,
          1.4753913,
          1.006497,
          -2.8724303,
          1.0385439,
          0.34553468,
          2.381707,
          -2.0923297,
          -0.4827337,
          0.838189,
          0.35312948,
          2.2609646,
          0.56689906,
          -0.32573068,
          4.5422854,
          -1.5263743,
          -0.2510739,
          1.5885482,
          1.5353681,
          2.6354842,
          -1.4228152,
          -0.28821966,
          -1.0026505,
          0.54135704,
          -1.9649922,
          -1.546773,
          -3.3660135,
          0.6381107,
          1.0882142,
          -3.465903,
          -3.232345,
          -1.6330572,
          2.3119533,
          -0.31367952,
          -1.2140008,
          -2.043009,
          -0.9909704,
          0.24018764,
          -2.401797,
          -1.3458234,
          -0.022643823,
          -0.64378923,
          1.5608696,
          -4.521213,
          -1.3323798,
          -1.7824652,
          1.5775367,
          -3.392641,
          -3.5566883,
          0.052668672,
          1.6948911,
          -2.6272228,
          -3.3437288,
          -2.4293387,
          0.39020476,
          -0.8283527,
          1.9264714,
          2.4444983,
          -1.5296335,
          -0.58438253,
          -5.2614474,
          4.9535666,
          -0.2047675,
          -0.80923843,
          -4.3029547,
          -0.12588233,
          2.1123505,
          4.6470666,
          2.2556927,
          -3.839622,
          -1.8918729,
          -0.47734362,
          -3.9062462,
          -0.8537492,
          -2.3410897,
          -3.377213,
          1.4509494,
          0.15475807,
          0.85306174,
          0.27624235,
          1.5192864,
          1.3121727,
          -1.1759957,
          -3.8156607,
          -1.1325579,
          1.52355,
          0.8448593,
          -1.7195305,
          -3.5295644,
          -2.0176964,
          -1.1677159,
          0.1591697,
          2.0808916,
          0.7307872,
          -0.9373283,
          1.1064328,
          -3.057838,
          1.8524637,
          -0.5782086,
          2.8539343,
          0.35493293,
          -0.19576265,
          1.7512407,
          3.4310112,
          -1.1120247,
          -1.5426191,
          0.9702735,
          -1.4168838,
          1.8643274,
          1.8361933,
          1.8432212,
          0.3301178,
          -1.8204147,
          -1.1567024,
          -1.3376144,
          0.31661832,
          -1.8365283,
          0.77791053,
          1.4214878,
          0.59123,
          0.5361362,
          0.91591436,
          -2.940021,
          1.1018265,
          -0.8561908,
          0.25460228,
          -2.2935467,
          -5.069296,
          -0.87117183,
          -2.1848493,
          -2.4955378,
          1.2048719,
          -0.50113606,
          -1.3160421,
          -1.1827366,
          -0.08713803,
          1.796919,
          -3.4106343,
          0.730201,
          3.847559,
          -1.7076137,
          1.6134745,
          0.643309,
          -0.8807151,
          2.6958075,
          0.10188187,
          -0.27743188,
          0.438349,
          1.8708117,
          -5.417862,
          1.8572145,
          -1.5341977,
          3.2249715,
          -2.3476443,
          -2.8995457,
          -0.3079182,
          -0.28492615,
          -2.77833,
          -0.6693066,
          3.5893621,
          -0.68868756,
          0.30778027,
          0.008084197,
          1.7280824,
          -2.8033895,
          -1.692258,
          -0.55964065,
          2.744773,
          -3.5047731,
          2.3274071,
          4.2084174,
          -2.4285204,
          -3.2870147,
          3.030019,
          -0.9907471,
          1.3744619,
          0.7345179,
          0.15910023,
          -0.93198216,
          6.111977,
          0.8609561,
          0.66930246,
          1.3720716,
          -1.3188831,
          -1.1453929,
          0.8278613,
          -0.45240957,
          -4.478142,
          -1.817468,
          0.22536801,
          -0.3615888,
          3.0104423,
          1.4751425,
          1.0284193,
          1.2484066,
          0.36442572,
          3.571466,
          4.6198564,
          -4.2968946,
          1.7609516,
          -0.31694558,
          0.25670052,
          5.1601424,
          1.1975334,
          1.3802683,
          -0.18814954,
          2.6487694,
          0.44799817,
          -0.82675695,
          -5.186626,
          2.6407495,
          1.6091012,
          1.2408893,
          -0.6016831,
          -0.027182274,
          1.1022601,
          0.3440428,
          1.1501472,
          -3.2006748,
          0.5469427,
          1.6029,
          1.1684358,
          -1.2584376,
          2.5273771,
          1.5780605,
          2.8297472,
          0.419955,
          -3.776096,
          -0.7060881,
          -1.3978426,
          0.171397,
          -3.8685305,
          0.3564507,
          4.0161476,
          0.17016527,
          2.9008596,
          2.722222,
          -3.6352205,
          1.912099,
          -5.0232534,
          -0.91842324,
          1.3508433,
          0.9278339,
          -0.4543157,
          -4.134394,
          -2.411189,
          1.4364773,
          -0.12773262,
          1.5242159,
          -0.19677709,
          -0.46162504,
          1.7030329,
          1.451401,
          1.8032349,
          5.4648743,
          -1.8553407,
          -6.767901,
          -3.038167,
          0.2520727,
          -0.49134392,
          -2.6512675,
          0.19627054,
          -6.666977,
          -1.0372739,
          -3.2592936,
          -0.041323457,
          -0.4384292,
          1.0005925,
          0.86463064,
          -0.17208952,
          -2.2306848,
          -1.1169349,
          0.25891182,
          1.3954931,
          3.1212904,
          -2.0653975,
          0.16495968,
          0.7409336,
          -0.6798063,
          0.4377218,
          -2.0599487,
          0.6535049,
          -2.0367362,
          -2.299243,
          0.24145162,
          -3.7959108,
          1.305367,
          -0.13734835,
          1.277008,
          0.41456154,
          -1.2586519,
          0.43555072,
          4.29891,
          -0.9764223,
          0.85220087,
          0.98117477,
          0.64945436,
          -2.3241336,
          3.4190423,
          1.7040609,
          -1.2044882,
          1.5476835,
          -0.32748038,
          2.2889445,
          -0.01463256,
          -0.72534597,
          -1.352781,
          2.0395472,
          0.98638165,
          -0.41217563,
          0.35998383,
          2.936668,
          -1.0713192,
          0.80296534,
          -1.9886907,
          0.7697705,
          0.12777193,
          -1.0799971,
          1.226196,
          2.8712869,
          1.619551,
          -3.2712085,
          -2.6593118,
          1.1869156,
          -1.6123296,
          1.9168262,
          -0.14901689,
          1.1741912,
          -1.8656982,
          1.3105607,
          0.19041535,
          -1.0017755,
          -0.37823835,
          1.2079852,
          -0.96237004,
          -1.9515392,
          -2.916263,
          -0.23231104,
          1.4792273,
          3.1386607,
          -0.7253245,
          3.1751425,
          1.4658016,
          2.3215997,
          -1.4562904,
          4.0673165,
          0.073684305,
          -0.91967696,
          -1.2652426,
          1.1889993,
          2.368154,
          -1.2388837,
          0.06628953,
          0.4130955,
          1.8238996,
          0.97020215,
          2.803548,
          -0.7688987,
          0.8712991,
          -0.2248759,
          2.1000009,
          0.82625043,
          0.22449622,
          -0.68119,
          -2.0511286,
          1.5259758,
          0.14223644,
          3.1492014,
          2.2090216,
          -0.14959456,
          3.3638096,
          0.6365426,
          3.0752354,
          -2.351721,
          -3.9157217,
          1.3985615,
          -1.9388207,
          3.8513017,
          -0.3768781,
          0.78538126,
          -1.8369166,
          1.0757561,
          1.0946152,
          -0.9102338,
          2.2897305,
          0.9476376,
          -0.727445,
          0.76604795,
          -1.0613836,
          -0.29787436,
          1.0088446,
          1.2493914,
          3.18955,
          0.13784695,
          0.72469175,
          -4.29875,
          0.1870619,
          0.78038365,
          1.7102442,
          -1.3002048,
          2.7439864,
          -2.2796974,
          0.39591664,
          -2.9352849,
          4.2142696,
          0.13329831,
          3.258502,
          0.9673799,
          2.7618208,
          1.5039256,
          1.6107082,
          -0.37420407,
          -3.0608401,
          -1.1197988,
          -1.322662,
          2.9084344,
          -4.0115104,
          -0.4416597,
          0.92768383,
          2.6168432,
          2.100691,
          -1.8084568,
          -2.6664891,
          0.64798486,
          -1.4005016,
          0.18929976,
          0.14548695,
          0.011394894,
          1.8059316,
          -3.331719,
          1.7678576,
          -2.6922102,
          4.250822,
          2.1403086,
          -3.2546425,
          0.24776639,
          3.0817187,
          5.9030385,
          1.0079437,
          1.9149058,
          1.2336346,
          -0.09870688,
          1.9974203,
          -0.0067222714,
          -0.112661555,
          3.8621666,
          1.3223133,
          -1.2822767,
          0.70712405,
          -0.83785844,
          0.6719523,
          -2.6490502,
          -0.14579621,
          -0.41829336,
          2.1756406,
          -1.5875648,
          -2.1750078,
          -4.9462285,
          -2.9069746,
          -1.5504783,
          -2.0846388,
          -3.8105836,
          -2.6575646,
          -0.26088923,
          -2.206128,
          0.76288795,
          0.99230945,
          -2.053285,
          0.89360744,
          0.32587194,
          0.90741146,
          -4.3302355,
          2.0720003,
          -0.8895098,
          -1.4486908,
          -1.5855007,
          2.1277661,
          0.9785012,
          0.034872033,
          2.2558565,
          1.5910454,
          -0.38049597,
          0.3046794,
          -0.17745148,
          1.2519468,
          -2.4273248,
          -0.21463671,
          0.9931967,
          -2.9319167,
          0.17683175,
          -1.86011,
          -0.42524025,
          -2.1193395,
          -0.28768423,
          -2.7598634,
          5.541348,
          0.29591283,
          2.2683067,
          -1.6552758,
          0.6491353,
          -2.4926362,
          0.8468476,
          -1.9971443,
          3.0442364,
          -3.3177555,
          -0.23421079,
          0.4352797,
          0.5460647,
          -0.8716659,
          -1.264474,
          -1.00848,
          1.2889793,
          -2.0102541,
          1.6948762,
          1.8198669,
          0.5230558,
          0.90279996,
          -4.294018,
          -0.057327934,
          -2.4237063,
          -0.10715763,
          0.83947295,
          4.242967,
          -1.8242394,
          0.28907186,
          -1.8528832,
          -1.5377594,
          0.55812365,
          0.24246061,
          -3.9412727,
          1.5025529,
          -0.86723876,
          -1.0239532,
          -0.9966356,
          1.5066715,
          0.3652367,
          0.046798516,
          0.54964465,
          -0.22916809,
          -0.04777756,
          1.0212512,
          -1.060118,
          -3.9971464,
          -2.2492025,
          -0.13668689,
          -1.1325989,
          -1.4081244,
          -1.6276354,
          -1.1901442,
          -0.83262265,
          -1.6775728,
          -0.17476104,
          -1.4001983,
          -0.3007486,
          -3.0159183,
          4.062399,
          -0.7113591,
          2.3055532,
          -3.1009567,
          2.6868768,
          -1.3303909,
          0.8872903,
          -2.5536036,
          1.4037619,
          2.0228946,
          3.1541035,
          2.5105236,
          2.4717646,
          -1.4042397,
          1.2490748,
          0.96936595,
          -3.0378802,
          -0.5273675,
          2.8358767,
          -0.725038,
          -2.8912518,
          -0.00040316395,
          -0.282966,
          -0.024807442,
          1.7141714,
          0.30638304,
          -1.1013834,
          -1.09631,
          -3.1585784,
          -1.9830049,
          -0.3106386,
          1.4202943,
          -0.8372832,
          -0.64966685,
          -1.9552097,
          0.12549666,
          0.799146,
          3.424071,
          -1.9086888,
          1.4447715,
          3.2058127,
          -1.8914937,
          0.1196869,
          -1.0803816,
          0.6910762,
          1.8645875,
          -1.3344771,
          0.5851977,
          -0.31038406,
          0.75334513,
          -2.9530897,
          -2.589308,
          -2.0500689,
          0.039117694,
          -1.7053828,
          0.7508454,
          -0.24117824,
          -3.4904413,
          0.16652769,
          -3.8810155,
          1.4597169,
          -2.095813,
          4.0976596,
          1.2213671,
          1.0375588,
          1.683688,
          1.7622126,
          0.003727734,
          0.708296,
          -1.6957567,
          0.87651753,
          -0.8942685,
          0.18882519,
          -0.19501774,
          -0.9536908,
          2.5384815,
          -0.8108325,
          0.1774458,
          0.25062865,
          0.5984182,
          -1.1671035,
          -3.0060325,
          2.6814065,
          0.28816453,
          0.013955753,
          -2.3668897,
          -0.8692398,
          -0.6240447,
          2.090621,
          0.6750007,
          -3.7601702,
          -0.3971405,
          0.48041788,
          2.923598,
          -3.7786193,
          -0.772892,
          2.2877142,
          1.0933418,
          -0.052756056,
          -3.470753,
          4.225224,
          0.19750208,
          -2.1895952,
          -0.2195949,
          -0.90405136,
          4.686909,
          -0.9273817,
          0.9772708,
          -3.8465626,
          2.5911796,
          3.7346122,
          -0.80952865,
          -0.106071085,
          -3.0003211,
          1.0523621,
          3.711518,
          2.1705174,
          0.9296356,
          -2.0492952,
          -0.7295544,
          0.09610449,
          0.29474524,
          2.109071,
          -1.1245414,
          2.9980154,
          2.5522401,
          -2.8376932,
          0.7021369,
          0.98809505,
          -0.9670949,
          -0.21049902,
          1.8338232,
          -0.13988745,
          0.113119185,
          1.5991685,
          1.9141562,
          2.6005595,
          0.6062102,
          3.8517647,
          -2.8934987,
          1.4242623,
          0.9198225,
          3.9958558,
          2.0123599,
          3.2560332,
          0.42918667,
          -1.1165252,
          3.9156814,
          -3.4205325,
          -2.950065,
          0.9262321,
          0.42800492,
          0.4651463,
          0.21442564,
          -4.003498,
          -2.4527318,
          -0.9107749,
          -0.5322626,
          -0.8296306,
          0.31769884,
          0.503964,
          0.46456042,
          0.84954095,
          -0.43703258,
          -0.19683264,
          -3.5773823,
          1.9652121,
          0.44700825,
          3.7380867,
          -1.4250468,
          1.8342056,
          1.7763714,
          -2.1779432,
          3.0972683,
          0.3077417,
          2.6112955,
          2.625641,
          -0.38216072,
          -1.4161422,
          -1.0625594,
          -0.6534633,
          3.0037327,
          -0.034652993,
          2.9748728,
          0.14486197,
          0.5005371,
          1.5810158,
          -1.8670901,
          -2.1901386,
          2.314572,
          -0.49086103,
          1.5171741,
          -1.338091,
          -1.2524222,
          -3.5662334,
          -0.18557762,
          0.74370867,
          2.3909411,
          1.2997813,
          0.9098901,
          -1.6210597,
          -0.4097581,
          1.6616682,
          -1.3863655,
          1.5171913,
          -2.4876294,
          -0.36718798,
          0.3410236,
          0.2594342,
          1.112388,
          0.8881259,
          0.88032013,
          1.5695815,
          -2.7071354,
          -1.6627656,
          1.1748065,
          -0.15432122,
          1.7759415,
          3.3106902,
          2.2222328,
          0.3276318,
          -0.006467361,
          -0.68942916,
          -0.46567887,
          0.45985553,
          0.61088693,
          -0.32185856,
          1.3223542,
          2.896599,
          -2.7492838,
          -0.057279382,
          -1.4765027,
          4.354372,
          -2.6888578,
          2.260959,
          3.9908078,
          1.5420043,
          1.0958067,
          1.2125404,
          -0.318471,
          -2.4903526,
          0.57357,
          0.49146146,
          0.5007793,
          3.8753402,
          -0.32541513,
          -2.092434,
          -1.4958165,
          2.9003825,
          0.06763871,
          -1.4137812,
          1.2143713,
          1.5255982,
          -0.62511605,
          1.5421643,
          -0.81438136,
          -0.575873,
          1.6567001,
          1.8919954,
          -1.2282519,
          -1.8142921,
          -0.8020449,
          1.3096418,
          -2.3112214,
          -0.3470972,
          1.4277568,
          0.8558695,
          0.15819295,
          1.8575832,
          -2.1075866,
          -2.0821428,
          3.2248235,
          1.7408824,
          1.7281754,
          2.0512102,
          2.5577326,
          -0.04806679,
          2.7841074,
          2.175379,
          0.8014948,
          -1.1162405,
          1.7821474,
          -1.3969964,
          -1.1306032,
          -0.818682,
          -0.48885816,
          2.4323125,
          2.7505124,
          0.02625275,
          0.008350994,
          -5.1073866,
          2.0541859,
          1.9156945,
          0.7496887,
          -0.27215827,
          1.4064882,
          -0.017114632,
          -1.9466552,
          1.1949764,
          1.2015095,
          -4.228897,
          -2.4796345,
          1.3125923,
          -1.6949419,
          -0.7396052,
          -0.29126555,
          2.350919,
          3.7508118,
          -1.1314596,
          -2.464305,
          -1.200874,
          -1.7876483,
          -5.1675725,
          0.33344918,
          -0.3300248,
          2.473601,
          3.5343034,
          3.1328247,
          4.2044096,
          -0.40183562,
          -1.3733047,
          0.99874425,
          -0.9240107,
          0.8911752,
          1.2305483,
          -0.54932857,
          -1.2053945,
          3.5216947,
          -0.4451924,
          -1.9666859,
          0.6805712,
          0.44461897,
          -2.0581641,
          -1.7716801,
          -2.38362,
          -1.7986585,
          0.2673871,
          -0.8868295,
          -2.7550027,
          -1.9886456,
          4.1384654,
          -0.18724473,
          -0.13976878,
          -0.7878112,
          1.2445583,
          -1.2801201,
          0.45912558,
          1.5204393,
          1.4120723,
          0.3266392,
          0.7057902,
          1.6025225,
          1.3656904,
          -1.3244057,
          2.374439,
          -0.57398653,
          -0.44255495,
          5.1473947,
          -0.07678108,
          -0.17251971,
          2.380085,
          -0.27557144,
          0.094151594,
          -0.84539914,
          1.0258492,
          0.7764808,
          0.36391872,
          -1.6983114,
          2.8149543,
          -0.28922105,
          -0.511495,
          -0.39228943,
          -1.2869102,
          0.07186939,
          -3.612576,
          0.31005362,
          -4.1670413,
          -1.5683539,
          1.1200362,
          -1.0154665,
          1.9138883,
          -1.8616467,
          -1.4940001,
          -1.7422926,
          -0.40124297,
          1.7824885,
          -0.63253105,
          -1.5124564,
          -2.0460362,
          1.1538405,
          -3.3055356,
          -1.9253393,
          1.3232409,
          -0.16729409,
          0.26367727,
          2.7116091,
          1.5991305,
          1.4480035,
          -2.3397217,
          0.37444627,
          2.1976087,
          1.2435235,
          0.6406787,
          2.9138632,
          -2.6507273,
          -4.367763,
          0.7309891,
          -0.5286203,
          0.122054085,
          -0.21899457,
          2.587423,
          -0.26839045,
          -2.5555139,
          -0.2586724,
          2.713227,
          -0.18015674,
          -3.6124947,
          0.86139584,
          -1.7539343,
          -0.3179994,
          1.6090869,
          -0.7093708,
          -1.1043293,
          3.016153,
          -2.134515,
          1.5654825,
          -2.0110881,
          0.90797824,
          -1.421359,
          1.772354,
          -0.7445415,
          -6.2738748,
          -3.1298738,
          -1.452759,
          -1.945728,
          -0.38572645,
          -2.2410085,
          -2.1951442,
          0.46029776,
          -0.6057345,
          -3.3994458,
          0.048140306,
          -2.1106386,
          0.041466326,
          -2.3809063,
          -4.219743,
          -0.6607219,
          0.60021144,
          -1.7946191,
          2.4249432,
          -1.6986519,
          -1.9662142,
          2.6975186,
          0.5311204,
          2.3761084,
          0.15934815,
          0.29938927,
          1.737369,
          2.1729364,
          1.0328735,
          -1.643215,
          0.62737525,
          -0.45685518,
          -0.8863857,
          0.96912867,
          -1.4025915,
          -1.1915292,
          0.73815584,
          -0.3201734,
          2.947719,
          -3.741268,
          -2.949391,
          -2.376561,
          -0.3677022,
          1.4402243,
          -0.70438975,
          -0.1318195,
          -0.56882066,
          -2.18374,
          -0.27481323,
          0.71675026,
          -2.5242665,
          1.4981139,
          -1.9137249,
          -0.0796391,
          -4.4378657,
          -3.2178195,
          -1.1032174,
          -0.123133674,
          2.4992104,
          2.658042,
          1.4736158,
          -1.0895475,
          -1.8992728,
          -1.0977522,
          0.18498003,
          -2.782002,
          -2.639434,
          0.938213,
          -1.7578319,
          -0.5897276,
          -4.4334855,
          1.3654543,
          -2.1403477,
          1.9148186,
          1.2657723,
          -2.5697963,
          0.18615717,
          -2.9398198,
          5.056102,
          0.17147419,
          0.89045125,
          -2.344994,
          -1.0135443,
          -1.7187661,
          -0.9547541,
          2.1516294,
          2.0448337,
          1.4226397,
          1.8154397,
          1.2613018,
          0.19423494,
          -0.89260375,
          -0.12847169,
          -2.1383588,
          -1.8857025,
          -1.4356679,
          0.18887608,
          -4.2819448,
          3.8191907,
          -1.8857893,
          -1.5840732,
          -1.838667,
          2.170102,
          1.0969759,
          -2.958558,
          -0.6230536,
          3.6291525,
          0.10520997,
          1.6845217,
          4.2346807,
          1.3563133,
          4.189982,
          1.4569386,
          2.3834867,
          -2.0161643,
          -2.8187733,
          -1.9719074,
          0.49681365,
          1.7696004,
          0.13361365,
          -1.328667,
          -0.15595831,
          -0.5107743,
          1.8066243,
          0.58635837,
          -2.508157,
          0.8127441,
          0.48037776,
          2.3296943,
          3.0007737,
          -3.5900805,
          -0.7298178,
          -0.9032896,
          -2.527364,
          3.0163171,
          -0.24258444,
          -1.8775982,
          3.1453485,
          -1.6293966,
          -1.3723092,
          -0.87338835,
          -1.5720901,
          -0.83066,
          2.6461685,
          -0.19179018,
          -2.4783335,
          -2.1201835,
          -0.7594653,
          -1.099608,
          -5.0447874,
          0.19063275,
          0.16214468,
          -1.9102402,
          0.054730475,
          -1.618587,
          -0.38473445,
          -2.8951652,
          -2.8365345,
          1.4634731,
          1.8448087,
          0.8497478,
          -2.1932726,
          0.7525028,
          -1.4806373,
          3.928971,
          2.379456,
          0.41340762,
          1.4966644,
          -4.0543585,
          1.0764945,
          -2.1306305,
          3.0169683,
          -2.913889,
          3.7649748,
          -0.44494766,
          -1.6518325,
          1.3014419,
          2.5446382,
          -0.9677225,
          1.2979895,
          -1.7155999,
          -0.065859735,
          5.865854,
          -1.2316506,
          -0.43005282,
          1.2072076,
          -1.0217861,
          2.574503,
          -0.8589513,
          1.1990912,
          0.15550683,
          2.7160468,
          1.0573586,
          -1.8265457,
          0.5053454,
          0.57057184,
          2.2078547,
          -2.5080726,
          -3.2737484,
          1.8136938,
          -0.116859555,
          1.583097,
          1.9676981,
          0.9101313,
          0.05936174,
          2.534406,
          -4.7386723,
          0.82351893,
          -0.4550367,
          1.4764707,
          0.6848884,
          3.4463918,
          -2.4769292,
          -1.309647,
          0.78307205,
          2.108971,
          5.3244014,
          -1.3037204,
          0.8433309,
          -0.14354914,
          -0.8399611,
          -1.2238425,
          1.4558215,
          3.9619043,
          0.2648473,
          0.087741375,
          -0.345243,
          0.13106757,
          0.9984615,
          -0.95088845,
          -2.39188,
          0.5705943,
          0.043823704,
          3.8697593,
          -3.1991317,
          0.4808634,
          -0.9157186,
          -3.5662384,
          2.6182117,
          0.64801204,
          3.1089003,
          -3.2942202,
          2.8285635,
          0.36621833,
          -3.9035747,
          0.74501866,
          -1.6484139,
          3.1827335,
          -1.5172074,
          0.10268171,
          2.3372557,
          2.0870082,
          1.6260954,
          4.1332355,
          0.74409217,
          -1.1744179,
          1.5037477,
          -0.8962825,
          2.001708,
          -0.4872228,
          0.015961982,
          1.8566592,
          0.9371788,
          -2.6172345,
          0.30282563,
          2.9619336,
          -3.197495,
          1.0160134,
          -1.420909,
          4.286505,
          1.3805991,
          0.97084457,
          0.5484331,
          0.6262707,
          2.195862,
          -0.3485834,
          2.2182689,
          0.55127496,
          -2.022899,
          -1.3729658,
          -1.3988882,
          0.15945423,
          -1.1448047,
          -0.3793429,
          0.39843804,
          -1.905206,
          0.42473304,
          1.2207819,
          -0.010341063,
          1.798374,
          0.09722164,
          0.35002652,
          4.979253,
          -2.2417006,
          3.5358114,
          0.20391135,
          2.1254544,
          -0.21717978,
          1.3163084,
          0.5914089,
          -1.1563299,
          3.2811515,
          0.75774896,
          2.0487623,
          -1.4055516,
          -2.1900287,
          -2.1036828,
          0.7125288,
          -0.9853792,
          -4.0751038,
          -1.5425044,
          -0.5470066,
          2.99436,
          1.4803321,
          1.6923565,
          0.59129703,
          -0.37439746,
          0.69033605,
          0.47968462,
          -3.435215,
          1.5801873,
          -0.42407924,
          0.6119333,
          0.78930724,
          -3.1439774,
          3.4908237,
          1.7160919,
          -2.434745,
          2.3033965,
          -1.5509353,
          -0.7446737,
          3.0664759,
          2.0591993,
          -1.081117,
          1.6655296,
          1.1343076,
          -0.2881178,
          -0.24065623,
          -2.9920192,
          -1.1161109,
          -1.3956131,
          -2.2861953,
          -0.7298498,
          -1.5605044,
          -0.9655377,
          -3.667755,
          -0.20147818,
          -0.46149445,
          1.9366016,
          3.0396972,
          0.35567465,
          -0.96660703,
          -0.35368124,
          -1.7328609,
          -0.25030577,
          -1.9024391,
          0.76399785,
          -2.9554899,
          -0.006025333,
          -2.494298,
          -4.014971,
          -1.0882219,
          0.61558574,
          -2.968363,
          1.2981334,
          2.5040035,
          1.7464058,
          -1.2000474,
          -1.3442552,
          -0.70154154,
          2.070371,
          0.42234364,
          -3.5706058,
          0.40099686,
          0.6346729,
          -4.358547,
          0.16173056,
          -1.9725075,
          -0.21764602,
          1.6408504,
          -1.4322655,
          -1.8496754,
          -1.2327511,
          -1.3793744,
          2.7546048,
          -2.6541767,
          0.9779297,
          -1.05945,
          -1.1033792,
          -4.0389194,
          -2.3713274,
          0.3911561,
          -0.39817223,
          -3.2853723,
          -0.9053475,
          1.841676,
          -0.107214555,
          0.9152471,
          -0.7360908,
          -0.706945,
          -0.6017743,
          3.1465673,
          2.1826231,
          0.29347813,
          -4.7456126,
          3.8550744,
          3.87124,
          4.2960453,
          1.4364741,
          2.1070993,
          0.65292084,
          -2.2674646,
          1.7332189,
          -3.2664082,
          -3.1735196,
          0.43429863,
          0.48480052,
          0.18099967,
          -2.5904531,
          -0.13199608,
          -1.4307117,
          -3.082807,
          1.1549045,
          3.5218964,
          2.5365713,
          1.3514857,
          -0.5581114,
          -1.5901421,
          -2.6791975,
          1.9768562,
          -2.5105164,
          -1.0341427,
          -1.2651882,
          1.2043015,
          -2.2668917,
          -0.63026845,
          2.6613429,
          -0.22872534,
          -2.6137376,
          1.3365631,
          -1.9850023,
          -0.71125895,
          -1.0612557,
          2.7079697,
          -0.3768526,
          0.5330058,
          -1.4298182,
          -2.7553582,
          -0.12449561,
          0.5350817,
          0.9725094,
          0.6415272,
          -0.16458625,
          -0.6507406,
          0.15417904,
          -1.1214911,
          0.5109761,
          0.87420666,
          -4.180765,
          -0.7746517,
          0.69958746,
          0.4430381,
          1.470236,
          -2.1252081,
          -0.15914176,
          3.8744168,
          4.349665,
          -2.8140712,
          0.6098731,
          -1.2025424,
          -0.84651196,
          -0.9705369,
          1.0111326,
          -1.5292971,
          -0.6206665,
          -1.5078211,
          3.6480756,
          1.7278856,
          1.8272834,
          -1.4029257,
          0.499794,
          -0.36009505,
          -3.145403,
          0.8428966,
          0.5649383,
          1.1402123,
          1.968488,
          -0.084912494,
          -2.8210135,
          -2.1615515,
          0.60183555,
          1.5963805,
          1.355819,
          -0.28956056,
          0.51179326,
          -3.6517189,
          1.9186869,
          1.8382468,
          2.4895155,
          2.134515,
          1.9163011,
          1.2324892,
          -1.0334061,
          -0.54603255,
          -2.367282,
          -0.019569844,
          2.8693025,
          -0.3806953,
          -1.6987523,
          0.46994275,
          0.69074696,
          -3.369545,
          -2.4651783,
          4.6184416,
          -3.46901,
          -0.74138325,
          0.3275147,
          0.020048149,
          -1.8684895,
          2.4088922,
          -3.511689,
          -0.17278118,
          -3.1408155,
          -1.4655333,
          -0.12016149,
          1.5897449,
          -1.1543252,
          -3.3928812,
          0.012134166,
          0.30635574,
          -1.4513791,
          0.68475235,
          1.8634926,
          -0.031207819,
          0.4704985,
          1.7749234,
          -2.1792028,
          1.2499042,
          0.28128925,
          4.8179984,
          -0.8002118,
          0.6355418,
          0.49542558,
          0.91585535,
          -3.3673885,
          1.9129472,
          -0.573138,
          -1.2835444,
          -2.1727316,
          -1.3917079,
          -0.26910877,
          -1.3473496,
          0.18949439,
          -0.91516536,
          -2.2611938,
          0.77758014,
          -2.6978095,
          -1.0993521,
          -0.6454325,
          -1.5999148,
          3.813392,
          3.0746076,
          0.9002114,
          -1.2189028,
          -0.7614862,
          -0.12517104,
          -3.011273,
          -1.4406357,
          2.4013531,
          0.9587445,
          -2.059235,
          -2.8292756,
          0.21645173,
          1.0490252,
          -0.718547,
          1.7837588,
          0.046472713,
          -1.1826255,
          -1.0544678,
          -1.1966851,
          2.2241523,
          -0.91588706,
          -2.7942252,
          0.28372696,
          -3.7522464,
          -1.4902487,
          2.117358,
          -0.9701331,
          -0.4170434,
          2.5357203,
          5.350127,
          -2.5607376,
          -1.4414902,
          -1.101172,
          0.46338913,
          -4.020058,
          -0.88454014,
          0.3834213,
          4.198701,
          1.1534897,
          -0.5029156,
          0.40121758,
          -0.65779984,
          0.9942442,
          2.6247468,
          1.8092104,
          -1.4150409,
          -2.2687476,
          0.10717903,
          -0.63896275,
          1.4804398,
          1.7762722,
          -1.4614382,
          0.81154317,
          -3.8694036,
          -1.030738,
          0.50169027,
          0.22300676,
          0.3697805,
          -1.27867,
          -1.3925661,
          -3.1775072,
          -2.0542204,
          1.2646207,
          -0.53363395,
          -0.9355055,
          -1.7964807,
          3.0154371,
          1.8973339,
          1.4027051,
          0.78579897,
          -0.30214393,
          -2.9541364,
          3.634106,
          1.924101,
          -0.36730367,
          -0.45009148,
          -2.4553504,
          -0.6797966,
          1.3764355,
          1.1817961,
          -2.474491,
          0.09480788,
          2.1827064,
          3.215625,
          -1.9958842,
          -2.4476705,
          -1.9775629,
          0.06463654,
          -2.6436844,
          0.87052506,
          -0.26430374,
          3.6148527,
          0.22896194,
          2.4129748,
          -1.1043504,
          -0.5425941,
          -1.6055794,
          1.886734,
          -2.4601784,
          -1.186823,
          3.1651065,
          0.5232014,
          -0.49620712,
          -1.125385,
          -3.3251016,
          0.63772714,
          0.9069537,
          -1.349777,
          -1.7316506,
          1.7089972,
          0.7353378,
          -1.5471318,
          1.386018,
          -4.874358,
          0.5507043,
          -1.0562605,
          -0.5807011,
          4.425994,
          -2.1294987,
          -0.47521365,
          -2.025307,
          -1.1945454,
          0.41365165,
          3.6847026,
          3.0054743,
          -0.6319242,
          -4.060704,
          2.5602229,
          0.6910731,
          2.3055975,
          -5.0104437,
          1.087132,
          0.2782231,
          -1.1123681,
          -1.6067809,
          0.1151575,
          -0.6056263,
          4.248405,
          3.748608,
          0.87187105,
          -1.9445556,
          0.79042196,
          -0.57890195,
          -0.33142948,
          -3.0800545,
          -1.2466506,
          -0.35348174,
          0.2743304,
          -0.103911474,
          -1.8696102,
          -0.6224017,
          0.1914714,
          -1.3454846,
          -1.6562948,
          -0.7293855,
          3.6987705,
          0.25743043,
          2.7059855,
          -0.48619565,
          0.781694,
          -0.8037871,
          -2.831722,
          0.41132924,
          -0.91692674,
          -0.7082505,
          -1.9713904,
          -2.6138203,
          1.6743203,
          -1.6406802,
          3.1953716,
          0.17674637,
          -2.950469,
          0.35318688,
          -4.166112,
          -1.4973543,
          -1.1310842,
          0.22220026,
          -4.7084074,
          1.2441561,
          0.8509666,
          3.9642582,
          -0.90273714,
          1.0800935,
          -0.5459722,
          0.40911758,
          -1.4974279,
          -1.5675715,
          3.396494,
          -2.874476,
          -4.7579646,
          -0.6306289,
          -0.7600013,
          2.930167,
          -1.0898625,
          4.897484,
          -4.2899976,
          -0.40283504,
          1.1725968,
          2.3047624,
          -3.1577055,
          0.31896874,
          0.7873417,
          1.5470428,
          -1.9593984,
          -1.7115793,
          -1.4725543,
          1.2117093,
          -0.52205026,
          -0.2807325,
          -3.1818545,
          -3.0809608,
          0.50807977,
          -2.3124857,
          -0.9969366,
          -1.6629285,
          -1.50423,
          -2.2583942,
          2.9318752,
          -1.5262216,
          0.4971211,
          2.6129475,
          -0.92496645,
          1.4597619,
          0.16214755,
          2.4857943,
          -0.87025344,
          -3.3217888,
          4.3625216,
          -0.8221816,
          -1.3604246,
          -1.8913301,
          -3.1784782,
          -2.8483367,
          1.395856,
          -3.1092355,
          -0.4721845,
          -0.12762989,
          -0.7952319,
          1.1475561,
          -0.46264046,
          -1.7372969,
          -3.6295164,
          0.7340726,
          -0.58683974,
          0.51547587,
          -1.5667182,
          -0.07965101,
          -3.7391114,
          0.33630633,
          -0.17477153,
          -1.8228996,
          -1.2264459,
          -1.5012596,
          -0.21173787,
          -1.3922483,
          1.1487734,
          1.1548116,
          -3.1786277,
          0.47784793,
          1.4950055,
          -0.7307111,
          -1.86572,
          -3.1936898,
          -1.8439366,
          1.0894095,
          2.0161567,
          -0.36379403,
          -0.8763434,
          -1.5547881,
          4.562729,
          -2.554747,
          1.0643791,
          -0.575882,
          -1.7335149,
          -1.4628016,
          1.1641428,
          0.9764153,
          -4.345937,
          -0.43442294,
          2.162527,
          0.15275578,
          1.3454591,
          1.3893341,
          0.24128786,
          3.637956,
          3.8154976,
          -0.7733162,
          3.0249732,
          -1.4373296,
          -1.4769542,
          0.4084472,
          4.6948876,
          -2.3499482,
          -1.7806883,
          -2.7454245,
          3.2910786,
          0.64401835,
          3.6530738,
          0.4814052,
          0.026904222,
          0.29573986,
          2.5589244,
          -0.7454254,
          -1.0048592,
          -1.563753,
          -0.049045697,
          2.0437038,
          -2.1083465,
          1.4243039,
          0.48893255,
          -0.86577916,
          1.1222559,
          2.8158252,
          -1.4788455,
          -3.3923113,
          0.805461,
          -0.6184301,
          3.9643652,
          -1.348452,
          -3.3747373,
          -0.6108062,
          -2.7014542,
          -0.4396907,
          4.227821,
          -0.116278656,
          -0.5192672,
          3.6621113,
          0.42073533,
          -4.180945,
          -0.7028762,
          2.4614947,
          -3.62827,
          -0.28735068,
          0.11825357,
          -4.539441,
          0.02682155,
          -1.3150852,
          2.9739234,
          0.74440634,
          0.5818748,
          -1.66921,
          0.7975514,
          -0.18826407,
          0.88092595,
          1.5442309,
          1.9358603,
          2.3961232,
          0.73413754,
          0.87785244,
          3.392636,
          4.8300614,
          0.79359424,
          2.7697954,
          -0.8094485,
          1.927493,
          1.0574082,
          -0.07088718,
          -0.66753584,
          -0.6453666,
          -0.8499162,
          0.5584496,
          2.452686,
          1.6958714,
          -1.478816,
          1.0881685,
          -0.16657479,
          1.0715481,
          -1.3457768,
          -0.37697813,
          2.2779877,
          -5.050004,
          1.062576,
          3.1225777,
          3.2522016,
          -0.5092938,
          -2.4646168,
          2.4480991,
          -2.1267982,
          -0.40159142,
          3.0631325,
          -1.5389973,
          -1.6804956,
          0.3259554,
          -3.645998,
          -0.80670774,
          -0.97426116,
          -1.6093256,
          -1.9328439,
          -0.008554745,
          -0.15842268,
          1.0581646,
          -1.6920851,
          -1.8599737,
          0.2500921,
          0.7721797,
          -1.7740386,
          -2.0886602,
          0.7527585,
          2.1722472,
          -1.5234394,
          -1.032921,
          -0.7726592,
          -2.4331212,
          -2.3875906,
          -1.368925,
          -0.3898869,
          -0.33015034,
          -0.2966517,
          0.7292543,
          0.5254697,
          2.224477,
          -1.3093641,
          -2.1698935,
          -2.1489375,
          -1.0194336,
          0.007339198,
          -0.5463993,
          -1.094461,
          -1.1608405,
          0.95368147,
          0.3313759,
          1.2560012,
          0.5465055,
          -1.3909495,
          1.8253369,
          0.50059307,
          0.5800963,
          0.365272,
          -1.8835175,
          -1.3078718,
          -1.711612,
          -1.7366899,
          -3.0220401,
          0.20152946,
          2.1392207,
          0.6621246,
          3.2486744,
          -0.5939052,
          -0.18513247,
          2.4087071,
          1.41969,
          1.4963503,
          -2.761039,
          -1.9475887,
          1.529954,
          -0.5941812,
          0.52089447,
          -0.34007838,
          0.09216611,
          0.101362824,
          0.003949493,
          -0.33534005,
          -1.376905,
          2.9758527,
          1.7834755,
          0.60933244,
          0.90978295,
          -0.99588335,
          -1.0599339,
          1.8013052,
          1.8665197,
          1.8782846,
          1.0781479,
          -0.5605907,
          -0.7805532,
          0.23225237,
          -0.23287708,
          -1.0034962,
          -2.3489742,
          0.48266044,
          1.1026052,
          -3.0674424,
          0.5829955,
          -2.0935018,
          -2.1252685,
          -1.607238,
          3.0226243,
          0.9109029,
          1.7851044,
          0.18217331,
          0.85383135,
          1.7321161,
          1.799299,
          -1.0743767,
          -3.5028746,
          -5.2466707,
          -3.7471797,
          -1.4541878,
          0.08327931,
          -0.27798086,
          2.0461829,
          1.2533704,
          -0.17942548,
          2.3743758,
          -0.1986936,
          0.48868212,
          -2.050376,
          0.26003805,
          1.5638348,
          0.9599626,
          -0.085960776,
          -0.837284,
          -3.593103,
          3.1902704,
          -1.8495036,
          0.6661794,
          1.0198183,
          0.35597807,
          -0.5461913,
          -1.1088583,
          -0.9030922,
          -0.8031107,
          0.9110022,
          -2.4837143,
          -0.88575536,
          -0.87275594,
          -1.8071707,
          4.650295,
          -0.3576364,
          1.2662282,
          2.39965,
          -0.2544456,
          2.163376,
          -0.58500165,
          -2.9989684,
          0.891133,
          1.745018,
          4.1370873,
          1.219782,
          3.3615966,
          2.8352478,
          0.15383114,
          -0.5055864,
          -2.123466,
          1.0543396,
          -1.5025296,
          -1.3505799,
          3.5460532,
          -3.2399094,
          5.028235,
          -0.052265238,
          1.0198072,
          0.6858915,
          -1.8564218,
          1.4556293,
          5.509243,
          0.26075223,
          -1.3798087,
          1.8920888,
          -1.3324779,
          -1.1471922,
          2.0330591,
          -2.7352304,
          -0.22213782,
          -3.1659734,
          -1.0746316,
          -0.054300476,
          -4.108237,
          -0.46136454,
          0.03537201,
          -1.1501552,
          -1.6603887,
          1.6832924,
          0.5991623,
          0.57699686,
          -1.1788329,
          2.4232042,
          -1.4105892,
          -3.0158272,
          -1.3320793,
          0.47670546,
          1.4893596,
          1.7309207,
          -2.1034858,
          -4.797849,
          -0.9639945,
          1.3642095,
          -0.5725959,
          -0.36061403,
          3.4324944,
          2.1598063,
          0.6983116,
          1.4168432,
          -0.15930489,
          -2.0381775,
          -0.3414845,
          1.5688289,
          0.26878428,
          -1.8118652,
          1.4355911,
          -2.1229954,
          -1.4975401,
          0.74541247,
          0.15995507,
          -1.8278275,
          -0.12610039,
          0.63334167,
          0.54401946,
          3.7533991,
          2.6032612,
          0.84967995,
          -0.77148765,
          5.005691,
          -1.1257926,
          2.8444118,
          0.85078514,
          -1.5777413,
          -0.41494912,
          1.106387,
          -0.7439688,
          -0.18903102,
          -2.2149003,
          1.149628,
          -2.198745,
          4.2257743,
          2.3032954,
          -4.1737247,
          -0.8768506,
          -1.8931046,
          -2.4402401,
          -0.6538535,
          2.237557,
          -3.2808323,
          -3.002342,
          -0.9484141,
          -1.6912614,
          -0.48615447,
          -1.4385666,
          -3.8426077,
          -2.9705484,
          0.6613703,
          -1.5446343,
          1.8111717,
          -1.0615513,
          -3.2557013,
          0.5064528,
          1.9429003,
          -2.431366,
          0.029289272,
          -0.81058794,
          2.0976968,
          -1.5614907,
          2.9086432,
          -1.8143021,
          -0.2670756,
          1.5702505,
          -0.35199156,
          0.035212364,
          -0.106956705,
          -3.320889,
          -0.81573063,
          0.39164564,
          -1.1296833,
          0.85277075,
          2.0407848,
          2.2125099,
          -0.67153686,
          -3.0207975,
          -3.1716535,
          -0.76166886,
          0.4344729,
          -1.3396976,
          1.4574785,
          -1.5305175,
          2.334388,
          0.61122173,
          3.2783415,
          -1.5994158,
          -3.2773457,
          -0.70326906,
          -0.0039642937,
          -0.8074777,
          0.13526487,
          -1.0027084,
          -0.47781706,
          -0.47921124,
          -0.8674811,
          -0.5410916,
          1.6892552,
          -1.804203,
          -4.8877854,
          -1.7766563,
          -0.5186431,
          0.1332478,
          -1.124879,
          1.6673787,
          -0.029899545,
          0.28341,
          -4.911292,
          -2.4168859,
          1.1602986,
          -2.8224995,
          0.7520439,
          0.28647766,
          2.0410128,
          -0.027413014,
          -2.677379,
          -3.4459145,
          -1.4668117,
          2.6042829,
          0.92793304,
          -2.1199484,
          0.09305877,
          0.115109876,
          -0.7517543,
          2.4970474,
          -4.3245807,
          1.016382,
          -4.4596405,
          -0.27402765,
          -1.7103497,
          -0.27115667,
          0.16938302,
          -0.22131382,
          1.9040245,
          0.15089266,
          -4.0326967,
          1.620138,
          -0.12526515,
          0.33841124,
          1.5832754,
          -1.2062564,
          1.8432295,
          0.38754225,
          1.3441185,
          -1.9033921,
          2.815059,
          -1.4257519,
          -0.9473123,
          1.8256549,
          1.172494,
          1.223877,
          -0.57410777,
          -0.6554262,
          -1.0923705,
          1.1028271,
          1.8845377,
          -0.523391,
          2.5961146,
          1.3025812,
          1.1830969,
          3.1227646,
          0.38135752,
          1.396008,
          0.13942967,
          1.7278303,
          2.5359187,
          -2.4282997,
          -1.3633766,
          -2.2237105,
          4.002917,
