{
  "path": "ML-saves/4-layers.json",
  "iteration": 0,
  "layers": [
    {
      "from_amount": 784,
      "node_amount": 16,
      "weights": {
        "v": 1,
        "dim": [
          16,
          784
        ],
        "data": [
          -0.33606362,
          0.3282175,
          -0.91959286,
          -0.10550141,
          -0.8565974,
          -0.7519946,
          -0.61880827,
          0.76833224,
          -0.16947246,
          -0.5704527,
          -0.93577266,
          0.14346695,
          0.5522599,
          0.31341696,
          -0.21529508,
          0.9486773,
          -0.46855783,
          0.15022588,
          -0.9763644,
          0.68344593,
          0.98309875,
          -0.8623831,
          0.472728,
          0.5543668,
          0.7625568,
          0.68141365,
          -0.029770851,
          -0.07285714,
          -0.983047,
          0.28437686,
          -0.75503945,
          0.5348828,
          0.11859965,
          -0.6362529,
          -0.47259378,
          -0.83149934,
          -0.89378047,
          0.56551623,
          -0.7868905,
          -0.8251691,
          0.737278,
          0.14633298,
          0.96170783,
          0.07843375,
          -0.032841206,
          0.09601593,
          -0.85541296,
          0.24082685,
          -0.060046434,
          0.64882016,
          0.5315919,
          0.81854177,
          -0.7144594,
          -0.1926012,
          -0.80193067,
          0.6300323,
          -0.43985033,
          0.89632106,
          -0.34592247,
          0.87267685,
          0.7275636,
          -0.58971477,
          -0.0035526752,
          -0.79277515,
          0.91751575,
          0.23445296,
          0.32942533,
          0.96020436,
          0.7934313,
          -0.9659343,
          -0.27523732,
          0.9621217,
          0.94625354,
          0.98274946,
          -0.56661105,
          -0.63862324,
          -0.17248416,
          0.110437155,
          0.33548522,
          -0.96029735,
          0.4715612,
          -0.48298216,
          0.6956315,
          -0.21168447,
          -0.5073273,
          -0.3224759,
          0.98519635,
          -0.444983,
          -0.6630821,
          -0.2648821,
          0.58703494,
          -0.82812166,
          0.33835745,
          -0.8860581,
          0.17117262,
          0.48035502,
          0.544173,
          -0.74214625,
          0.97835684,
          -0.06607342,
          -0.12036872,
          -0.060008287,
          -0.21686816,
          0.9436071,
          0.37296462,
          0.8062506,
          0.3760085,
          -0.37907076,
          0.24635243,
          -0.84454393,
          -0.95444393,
          0.8588643,
          -0.72367406,
          0.6461246,
          -0.14424706,
          0.10999155,
          0.49058557,
          -0.8273766,
          -0.75072,
          -0.91860366,
          -0.34018898,
          0.16651368,
          -0.21631813,
          -0.09016967,
          0.52869654,
          0.8952811,
          0.6803708,
          0.50367594,
          -0.9045415,
          0.09592271,
          0.27690458,
          -0.89241695,
          -0.20457482,
          0.119791985,
          0.8175719,
          0.57541347,
          0.9411912,
          0.42734337,
          -0.40581512,
          0.41473627,
          0.200845,
          0.1877048,
          0.18395829,
          0.342978,
          0.5288348,
          -0.4029584,
          0.80533195,
          -0.67410874,
          0.7165806,
          0.33975744,
          -0.7646687,
          0.5275712,
          -0.17624974,
          -0.004689455,
          0.575686,
          -0.26613665,
          0.64897346,
          0.96312475,
          -0.15046811,
          -0.84436774,
          -0.5626302,
          -0.95313215,
          0.076105595,
          0.2927444,
          -0.7221999,
          0.6856501,
          0.113256216,
          -0.99821043,
          0.7909534,
          -0.7251415,
          -0.6156373,
          0.049728632,
          -0.07926726,
          -0.5622678,
          0.0045523643,
          0.2521305,
          0.9139509,
          -0.075015545,
          0.6892526,
          -0.83171105,
          0.9167955,
          0.31271458,
          -0.4006529,
          -0.32871747,
          -0.5530734,
          -0.68461204,
          -0.28971338,
          -0.96918464,
          0.7474072,
          0.66198134,
          0.068173885,
          0.35187173,
          -0.669461,
          -0.24752498,
          -0.40886235,
          -0.49702215,
          0.9387181,
          0.4297247,
          0.31149864,
          0.41168976,
          0.33160567,
          -0.03805113,
          0.76324296,
          -0.26669407,
          -0.7648368,
          0.27430868,
          0.573498,
          -0.6402817,
          -0.2619412,
          0.6502571,
          -0.079474926,
          -0.8865247,
          -0.3179443,
          -0.58602715,
          -0.45977998,
          -0.09319329,
          0.58878803,
          -0.46388817,
          -0.3466699,
          0.7739966,
          -0.5351932,
          0.9793253,
          0.054304123,
          -0.8589182,
          0.044632435,
          -0.27582812,
          0.43200374,
          -0.6550391,
          0.16070223,
          -0.37244248,
          -0.38757873,
          0.78672886,
          -0.087598324,
          -0.00068092346,
          0.8698821,
          -0.17609215,
          0.8512666,
          0.6425016,
          0.37092996,
          -0.7117548,
          -0.90417695,
          -0.98873425,
          -0.47085714,
          -0.2375834,
          -0.028694868,
          0.28982377,
          0.88264966,
          0.19082832,
          -0.26011252,
          0.4555719,
          -0.605572,
          -0.7985184,
          0.36610174,
          0.75982237,
          -0.06309366,
          0.9152014,
          -0.34054804,
          0.018653154,
          -0.75083613,
          0.26745772,
          -0.11185765,
          0.89238834,
          -0.11144304,
          -0.66574,
          0.17625976,
          -0.4608326,
          0.0288589,
          0.9582412,
          -0.17145467,
          0.7410221,
          0.71388555,
          0.21523309,
          0.538573,
          -0.706599,
          0.7139504,
          -0.65444183,
          0.286016,
          -0.35969305,
          -0.9498701,
          0.35935926,
          -0.05607176,
          -0.37613463,
          -0.33672857,
          -0.73186445,
          0.7373874,
          -0.083096266,
          0.6623056,
          -0.49847007,
          -0.55256104,
          0.34929228,
          -0.9144931,
          -0.55888176,
          0.14451051,
          0.5815022,
          -0.09772396,
          0.96599174,
          -0.37626576,
          -0.066630125,
          -0.81400347,
          0.87313294,
          0.7310369,
          -0.8328893,
          0.9144733,
          0.8672781,
          -0.9760895,
          0.7990563,
          -0.10910702,
          -0.7533219,
          0.47355866,
          0.57577896,
          -0.90575576,
          0.00929904,
          0.2846756,
          0.41449428,
          -0.8771603,
          0.46035314,
          -0.9540558,
          -0.72803974,
          -0.7807627,
          -0.45139146,
          -0.33352757,
          0.8658004,
          -0.4113226,
          0.43468642,
          0.049459934,
          -0.08322787,
          0.92958164,
          -0.13431191,
          -0.62640095,
          0.05343771,
          0.66400385,
          0.83302045,
          0.53074527,
          0.7186527,
          0.9616344,
          0.8369651,
          -0.2478447,
          -0.53285575,
          0.57291627,
          -0.86894417,
          -0.49192405,
          0.49795294,
          -0.033123255,
          0.3083334,
          0.08223176,
          0.48885727,
          -0.6250453,
          -0.42578626,
          0.9511473,
          -0.42856908,
          0.2686808,
          0.16698384,
          -0.43668437,
          0.775085,
          -0.88616395,
          -0.5058141,
          -0.4166913,
          0.98025966,
          0.5410235,
          0.2648995,
          -0.22485304,
          -0.32736397,
          -0.66130614,
          0.67174625,
          -0.9715054,
          0.62805057,
          0.38807392,
          0.69315577,
          0.55462265,
          -0.7142346,
          -0.16618466,
          0.05100751,
          -0.6266136,
          -0.6684952,
          -0.16856122,
          -0.9846504,
          -0.030546188,
          0.6791003,
          0.42101884,
          -0.52129054,
          -0.7079849,
          0.14780784,
          0.88444877,
          -0.15069771,
          0.82743096,
          0.6614914,
          -0.032057762,
          0.16545582,
          0.039730072,
          -0.28419042,
          0.09210944,
          -0.5278597,
          -0.50761414,
          0.3945799,
          -0.8639505,
          -0.06823182,
          -0.44661975,
          0.15235448,
          -0.29606533,
          0.81592155,
          -0.89622974,
          -0.5191939,
          0.010061264,
          -0.5014477,
          0.31310415,
          -0.18005538,
          0.87388945,
          0.49329615,
          0.57019854,
          -0.7360511,
          -0.06977248,
          -0.6474509,
          -0.07699561,
          0.06140685,
          -0.24492025,
          -0.17788601,
          0.15812159,
          -0.49312377,
          0.93262935,
          -0.7449784,
          0.89890766,
          0.7718618,
          -0.23508,
          -0.48894167,
          0.7443323,
          0.33362675,
          0.95249414,
          0.7244129,
          0.49150658,
          -0.39198637,
          0.5706024,
          0.5243504,
          -0.9677377,
          0.27811384,
          0.9086094,
          -0.16308856,
          0.06178093,
          0.8856449,
          -0.10482669,
          0.6575444,
          -0.74434376,
          0.26105738,
          -0.45038176,
          -0.7275107,
          0.7997911,
          -0.87409306,
          0.3907075,
          0.75860953,
          0.5139091,
          -0.9574039,
          -0.00996089,
          0.057507515,
          0.50787497,
          -0.2536435,
          0.10939455,
          -0.26078367,
          -0.5105498,
          -0.12592435,
          -0.90125513,
          0.28200912,
          0.22065759,
          -0.8926351,
          0.19760966,
          0.32191706,
          0.4744203,
          -0.878247,
          0.36798668,
          -0.75087357,
          -0.062952995,
          0.39144063,
          0.2762437,
          0.699404,
          0.4413073,
          -0.07260418,
          -0.24740648,
          -0.5421412,
          0.6332891,
          -0.19581199,
          -0.8403578,
          -0.9865749,
          -0.09282923,
          0.5064738,
          -0.9823129,
          -0.45231915,
          0.9628017,
          -0.89336514,
          0.033194304,
          -0.6889515,
          -0.23239994,
          0.063458204,
          -0.6492603,
          0.75486207,
          -0.5412965,
          -0.010737181,
          0.16418171,
          0.45139647,
          -0.07828617,
          -0.9280808,
          -0.025192738,
          0.6339011,
          -0.083278894,
          0.3100574,
          0.4159038,
          -0.2520547,
          -0.1977086,
          -0.74349904,
          0.9881923,
          -0.057038307,
          -0.7607086,
          0.6672015,
          -0.6299195,
          0.44112206,
          -0.4000249,
          -0.41711593,
          0.48790932,
          -0.19015574,
          -0.7529807,
          -0.9799664,
          -0.11806512,
          -0.11617875,
          0.2769816,
          -0.12184954,
          0.38981795,
          0.2719748,
          -0.20489573,
          0.39844155,
          -0.13919139,
          -0.7404046,
          0.90922594,
          0.18191099,
          -0.82778573,
          0.7641599,
          0.7311585,
          0.70957685,
          0.7308502,
          0.36589336,
          -0.7813537,
          -0.68770146,
          0.85861564,
          -0.317127,
          0.1685834,
          -0.7422631,
          0.09378123,
          -0.5130718,
          0.44349933,
          0.817621,
          -0.88348985,
          -0.5098922,
          -0.9410641,
          -0.10948515,
          -0.617754,
          0.72732115,
          -0.15402842,
          -0.8274963,
          -0.6008043,
          0.5955918,
          -0.17861795,
          -0.1688633,
          0.8253691,
          -0.70099926,
          0.013463497,
          -0.37956262,
          -0.9239032,
          -0.3576362,
          -0.9670005,
          0.20026207,
          -0.0055947304,
          0.347533,
          0.2959373,
          0.33372974,
          -0.13151503,
          -0.055590153,
          -0.9351506,
          -0.34104753,
          -0.818892,
          0.41772294,
          0.65960145,
          -0.7464876,
          -0.3441968,
          0.47722697,
          -0.5895524,
          -0.90830374,
          0.06497455,
          0.12551951,
          0.4637518,
          0.8550384,
          -0.83218503,
          0.75256085,
          -0.09549832,
          -0.73153186,
          0.20966578,
          0.4168918,
          -0.587178,
          0.84405947,
          -0.82441354,
          -0.5481267,
          0.103505135,
          0.3336239,
          -0.30303454,
          0.5632613,
          -0.94895005,
          -0.85714245,
          -0.18955064,
          0.71316457,
          -0.33636189,
          -0.7981539,
          -0.24048066,
          0.05831027,
          0.783252,
          -0.27086592,
          -0.8903923,
          -0.95090127,
          0.7436335,
          0.47718358,
          -0.12588763,
          -0.5896723,
          -0.67996025,
          0.23255038,
          -0.64653754,
          -0.8858056,
          0.54590654,
          0.50615907,
          -0.5666957,
          -0.08983374,
          -0.32256556,
          0.39829564,
          0.17696476,
          -0.28280115,
          0.27626777,
          -0.7435205,
          -0.0049886703,
          -0.02764535,
          0.7670734,
          -0.6951637,
          -0.27304482,
          -0.44518018,
          0.032182455,
          -0.57716227,
          0.51349473,
          0.19524956,
          0.8956349,
          -0.72682905,
          -0.3082602,
          0.024330616,
          -0.17671776,
          0.69316006,
          0.17684984,
          -0.6759448,
          -0.100645065,
          -0.4392817,
          -0.7148249,
          -0.8363259,
          0.93451214,
          -0.0832665,
          -0.18302035,
          0.8865893,
          0.84977007,
          0.9380758,
          0.49491715,
          -0.9141977,
          -0.19855905,
          -0.37131524,
          -0.52284217,
          -0.59000826,
          0.90198183,
          0.9439013,
          -0.8916099,
          0.94989014,
          0.5227177,
          -0.058339834,
          0.29411817,
          -0.13624978,
          0.22911286,
          0.65792227,
          -0.38064384,
          0.10833621,
          -0.6936836,
          0.5369234,
          0.446357,
          -0.45065784,
          0.3838048,
          -0.17230248,
          -0.08589125,
          -0.5054352,
          0.85444,
          -0.94910884,
          -0.88404346,
          0.4767506,
          -0.2623129,
          0.9760661,
          -0.8121302,
          0.66097784,
          0.47674203,
          0.21210933,
          -0.48041224,
          -0.7234669,
          -0.01647091,
          -0.21909308,
          0.65428257,
          0.2696905,
          0.5226407,
          -0.034927845,
          -0.0793674,
          -0.4847815,
          0.106450796,
          -0.28920722,
          -0.19927812,
          0.5882189,
          0.25112367,
          -0.31615043,
          0.67943096,
          -0.63000774,
          0.41140413,
          -0.7286649,
          -0.17979908,
          -0.6475704,
          -0.83465886,
          -0.40664482,
          0.067469835,
          -0.10628748,
          0.19396663,
          0.52455235,
          0.98878,
          0.79064703,
          0.9369006,
          0.29922748,
          0.21234274,
          -0.47691464,
          0.32833314,
          -0.2686007,
          -0.53407216,
          -0.42317533,
          0.9782176,
          0.8394692,
          0.6882374,
          -0.5504837,
          0.95771813,
          0.7499788,
          0.6200235,
          0.72441745,
          -0.4298997,
          -0.4740882,
          -0.32804227,
          0.69864535,
          0.12796545,
          0.7250805,
          -0.31859946,
          -0.41259027,
          -0.85187244,
          0.30831528,
          0.11222863,
          -0.6928859,
          -0.8185241,
          0.26337743,
          0.905812,
          0.82777524,
          0.026218414,
          0.28827286,
          -0.17451787,
          0.64664507,
          0.13177705,
          -0.7743871,
          -0.30939388,
          -0.12046361,
          -0.5387583,
          -0.16622972,
          0.71276426,
          -0.6939187,
          0.41730905,
          0.29637384,
          0.23946428,
          0.9579191,
          -0.27915287,
          0.02717495,
          -0.45375562,
          -0.021898746,
          -0.15403199,
          -0.8753803,
          -0.27305198,
          0.35085678,
          -0.9707105,
          -0.8839729,
          0.9474144,
          0.20626473,
          -0.67616606,
          -0.07918143,
          -0.6679182,
          -0.9297075,
          0.41661096,
          -0.80308056,
          0.015890598,
          -0.6072328,
          -0.12829304,
          0.0096104145,
          0.97381496,
          0.06754446,
          -0.429101,
          -0.5773492,
          -0.46197248,
          0.08072376,
          -0.6200211,
          0.078918695,
          0.84028506,
          0.9845023,
          0.62273145,
          0.34312034,
          -0.17366743,
          0.3413155,
          0.374439,
          -0.080872536,
          0.09046745,
          0.9667971,
          0.26336503,
          0.7508652,
          0.30458307,
          -0.027131796,
          0.7732439,
          0.9794936,
          0.52118564,
          -0.00024795532,
          0.6954024,
          -0.23585486,
          -0.020219564,
          -0.2623887,
          0.67939305,
          -0.9630301,
          0.54244924,
          0.09430957,
          0.14436507,
          0.52039886,
          0.084709406,
          -0.10567045,
          -0.25236082,
          0.29262614,
          -0.194278,
          0.5760324,
          0.03909588,
          0.97631884,
          -0.2576213,
          0.48886657,
          0.42742753,
          -0.90538096,
          -0.7643075,
          -0.5991397,
          -0.4041748,
          0.2288208,
          0.7266123,
          -0.38618088,
          -0.16511464,
          -0.11026788,
          -0.4418764,
          0.5829618,
          0.5723586,
          0.93316174,
          0.96092296,
          -0.5977607,
          -0.73008275,
          -0.85535955,
          -0.33492613,
          -0.030786037,
          -0.43793416,
          -0.36984015,
          -0.20090127,
          0.5187578,
          -0.20092702,
          0.5612776,
          -0.09844279,
          -0.44258237,
          0.7892368,
          -0.8895891,
          0.46150017,
          -0.5273688,
          -0.5331621,
          0.06372213,
          -0.55703473,
          0.2047708,
          0.7689643,
          -0.9664705,
          0.5682268,
          -0.18667507,
          0.1408124,
          0.75088525,
          0.6029184,
          0.9681282,
          0.87137794,
          -0.52189326,
          -0.9187281,
          -0.21453214,
          0.70796514,
          -0.0731523,
          -0.33809376,
          -0.36877513,
          0.7856083,
          -0.29875207,
          0.94281816,
          0.4329536,
          -0.35856557,
          0.3991406,
          -0.65302396,
          -0.060364008,
          -0.5310421,
          -0.44746208,
          -0.81948566,
          0.24039555,
          -0.7171149,
          0.82374,
          -0.4779861,
          -0.07151699,
          -0.27135587,
          -0.11958289,
          -0.29065394,
          -0.9545796,
          0.23971534,
          0.33347392,
          -0.645226,
          -0.8917153,
          0.43044925,
          0.6849966,
          0.60393,
          -0.59896517,
          0.80154324,
          -0.8817575,
          -0.49239564,
          0.07996559,
          -0.25275826,
          -0.6109755,
          -0.42959404,
          -0.16160989,
          -0.9516249,
          -0.5122061,
          -0.8231082,
          0.9205978,
          -0.31631398,
          0.9302602,
          0.6660774,
          -0.096722126,
          -0.05250621,
          -0.8261895,
          0.96630573,
          0.7758329,
          0.5827532,
          -0.48633242,
          -0.548475,
          -0.17272592,
          0.7237847,
          0.34643984,
          -0.3258989,
          -0.0716753,
          0.83279705,
          -0.741843,
          -0.8008547,
          0.5091224,
          -0.6737342,
          -0.3488741,
          0.8421347,
          0.15202212,
          -0.038031578,
          -0.994128,
          0.80169034,
          0.7142205,
          -0.027597904,
          0.28011942,
          0.2625003,
          -0.49783874,
          0.04182577,
          -0.2156148,
          -0.73309517,
          0.9659436,
          0.9167943,
          0.9245081,
          0.7791331,
          0.83209133,
          0.37733412,
          -0.9094806,
          -0.49365258,
          -0.39535928,
          0.37102485,
          -0.25016236,
          0.09128404,
          -0.45499158,
          0.94539785,
          -0.84698534,
          0.7656026,
          0.75266767,
          0.22545862,
          0.21681404,
          0.28233457,
          0.034380674,
          0.25505066,
          0.40446758,
          -0.8353691,
          -0.9613118,
          0.31425643,
          0.9894359,
          -0.89305615,
          -0.57231164,
          -0.18226957,
          0.06987119,
          -0.09560561,
          0.656405,
          0.17897868,
          -0.7934351,
          -0.66256714,
          0.56627655,
          0.020537138,
          -0.40116596,
          0.08079243,
          -0.23026657,
          0.81695867,
          -0.6647818,
          0.100720406,
          -0.9593735,
          0.49185228,
          -0.8313148,
          -0.2115624,
          -0.61849236,
          -0.53602004,
          -0.40673232,
          -0.52861524,
          -0.39557076,
          -0.895504,
          -0.25639033,
          0.6027975,
          0.38584375,
          0.83213377,
          -0.28905296,
          0.8690822,
          0.21888256,
          0.9840138,
          -0.41736293,
          -0.61097884,
          -0.24340892,
          0.17496991,
          -0.8488202,
          -0.40338278,
          0.58682966,
          -0.5324154,
          0.9811661,
          -0.6131959,
          0.3721602,
          -0.29535866,
          -0.49209785,
          0.77064824,
          -0.83047485,
          -0.67294836,
          0.3901384,
          0.66075206,
          -0.37817812,
          -0.49494982,
          0.07180619,
          -0.47978783,
          -0.9844265,
          0.8251264,
          0.6090114,
          -0.061608315,
          -0.48572516,
          0.8286576,
          -0.5497577,
          0.15547681,
          0.43357158,
          -0.21232867,
          0.3178091,
          0.50383663,
          -0.5598402,
          -0.62007785,
          0.6952152,
          0.27523184,
          -0.8636236,
          -0.22906947,
          0.53957486,
          0.9644728,
          0.77023983,
          -0.5176461,
          0.30317974,
          0.51532626,
          0.18173218,
          -0.14275813,
          -0.69479346,
          -0.6181464,
          0.46723437,
          -0.5827224,
          0.74487877,
          0.12491226,
          -0.78286576,
          -0.15950394,
          0.584357,
          -0.45323372,
          -0.06709719,
          0.25612068,
          0.3819282,
          -0.30540395,
          0.4761212,
          0.14772177,
          -0.31679487,
          -0.13162017,
          -0.73346424,
          0.054982185,
          -0.04711461,
          -0.213377,
          0.18053389,
          0.0059514046,
          0.012081146,
          0.545542,
          0.28543735,
          0.9869497,
          0.23572063,
          -0.4174006,
          0.016596556,
          -0.82414293,
          -0.80093074,
          0.6990156,
          0.38069415,
          0.5340886,
          0.156178,
          0.716593,
          0.4197333,
          0.8277657,
          -0.049495697,
          -0.047707558,
          -0.63601995,
          -0.48696208,
          0.049431324,
          0.518842,
          0.80964327,
          0.35161924,
          -0.107265234,
          -0.42924094,
          0.63786364,
          0.3486457,
          -0.984566,
          -0.8723233,
          -0.5855286,
          0.35616398,
          0.49312234,
          -0.44582582,
          -0.42751837,
          -0.6802423,
          0.4548962,
          0.8059156,
          0.042758703,
          0.04738593,
          -0.6867068,
          0.7424493,
          0.37673664,
          -0.064475775,
          -0.3716786,
          -0.46181607,
          0.57958126,
          0.1895771,
          0.47258162,
          0.2726283,
          -0.4015057,
          -0.5654075,
          -0.97807527,
          0.97115374,
          0.7526305,
          -0.47150397,
          -0.035960674,
          -0.61618876,
          0.2867949,
          -0.65475106,
          -0.39157772,
          -0.16216779,
          0.65639377,
          0.008744001,
          -0.8693893,
          0.107806206,
          -0.88632107,
          -0.017633915,
          -0.4057076,
          0.011303663,
          0.8429506,
          -0.114747286,
          -0.6598525,
          0.34851575,
          0.860543,
          0.7990539,
          0.18177938,
          -0.49883747,
          -0.07623005,
          0.8948374,
          -0.88463664,
          0.18109488,
          0.02118826,
          0.7728708,
          -0.52623963,
          -0.9369359,
          0.5800264,
          -0.6623149,
          -0.22305202,
          0.61536574,
          -0.88043165,
          -0.2204678,
          -0.1935072,
          -0.2178185,
          0.57628465,
          -0.24454546,
          0.57647514,
          0.39105797,
          -0.1434834,
          -0.816798,
          0.48078084,
          -0.31368804,
          -0.7221489,
          0.3176558,
          0.8750355,
          -0.03515029,
          -0.18895078,
          -0.5764868,
          -0.82702756,
          0.32196832,
          -0.92393684,
          -0.9553652,
          -0.8072276,
          -0.75555444,
          0.20570135,
          -0.053925037,
          0.44690585,
          -0.6060598,
          0.3743658,
          -0.5321045,
          -0.8816161,
          0.589036,
          -0.84039664,
          0.5417948,
          0.25169277,
          -0.7795508,
          -0.57628727,
          -0.49648118,
          -0.4018197,
          -0.18467808,
          -0.2584157,
          0.86919856,
          0.9366441,
          -0.4421637,
          -0.96103835,
          -0.36142564,
          0.4198494,
          0.86699367,
          -0.9115386,
          0.74941754,
          -0.6678004,
          -0.32050753,
          0.53018475,
          -0.26279688,
          -0.25474453,
          -0.16093588,
          -0.98533106,
          0.9251318,
          0.75626373,
          0.3000934,
          0.18730879,
          -0.38877797,
          -0.99363875,
          0.23961687,
          -0.99941015,
          -0.052125454,
          0.84110975,
          -0.3882301,
          -0.4407854,
          -0.10931039,
          -0.70215845,
          -0.24125457,
          -0.58183813,
          0.7226014,
          -0.3472519,
          -0.07941365,
          -0.6008661,
          -0.77369785,
          -0.47643995,
          0.7765434,
          0.75980926,
          -0.069177866,
          -0.011474848,
          -0.9100261,
          -0.061924934,
          0.6687677,
          0.7239518,
          -0.12418723,
          -0.15525007,
          -0.12897801,
          -0.83796906,
          0.5969043,
          -0.10713005,
          -0.07714677,
          0.5457523,
          0.5539012,
          -0.46782613,
          -0.17967701,
          -0.7904358,
          0.3487239,
          -0.8356023,
          0.70223737,
          -0.9408467,
          -0.20776129,
          0.36787653,
          0.6933751,
          0.80823565,
          -0.092894554,
          0.5329256,
          -0.57548714,
          -0.16229105,
          -0.31041145,
          -0.4867375,
          -0.2808609,
          -0.769959,
          -0.9462154,
          -0.9310036,
          0.6598892,
          0.68471265,
          0.91193986,
          -0.74128175,
          -0.46332288,
          -0.90051055,
          0.9637897,
          0.2681408,
          0.4025731,
          -0.7805698,
          0.026540041,
          0.9361689,
          -0.15325117,
          0.9664147,
          -0.23864484,
          0.05073023,
          -0.5783701,
          -0.5219734,
          0.3515377,
          0.9351599,
          -0.16787767,
          -0.012670279,
          -0.78890157,
          0.06059432,
          -0.28878617,
          0.46303868,
          0.07491779,
          -0.20060372,
          0.22424984,
          0.26428342,
          0.5658407,
          -0.5311544,
          -0.58591866,
          -0.57976484,
          -0.08912444,
          -0.18700147,
          0.16131067,
          0.25925684,
          0.37996602,
          0.14245105,
          0.040445328,
          0.30581045,
          0.12060356,
          -0.58421993,
          -0.6259229,
          -0.7046764,
          0.17372918,
          0.28923655,
          -0.4733889,
          -0.68739605,
          -0.04188037,
          -0.6032629,
          0.9318569,
          -0.37616825,
          -0.34828758,
          0.1637466,
          0.25747347,
          -0.6795528,
          0.8945842,
          0.90668917,
          -0.81056905,
          -0.7532325,
          -0.71821284,
          -0.48425913,
          -0.0537045,
          0.3419826,
          -0.76570606,
          0.252573,
          -0.6492801,
          -0.06226611,
          -0.69137025,
          0.603251,
          0.073599815,
          -0.63513684,
          0.7315626,
          0.5367,
          -0.69637775,
          0.73740363,
          -0.2018404,
          -0.040623903,
          0.336406,
          0.4103322,
          -0.5245588,
          0.6487696,
          0.80592394,
          -0.21688366,
          0.21117926,
          0.41198492,
          0.61661744,
          -0.0076072216,
          0.9876425,
          -0.06145072,
          -0.5692322,
          -0.19719219,
          0.48538804,
          -0.8177669,
          -0.24273396,
          -0.73208046,
          -0.69434834,
          -0.32661104,
          0.23215961,
          -0.0224576,
          -0.8105509,
          0.42904162,
          -0.25803924,
          -0.023247242,
          -0.22378492,
          -0.47974277,
          -0.34340096,
          0.58709717,
          -0.17506218,
          0.7024939,
          0.009548664,
          0.53120375,
          -0.82151294,
          0.9436736,
          -0.2262268,
          0.2790177,
          0.4741652,
          0.5278444,
          -0.40603113,
          0.0048012733,
          0.8378892,
          -0.70344734,
          0.94543004,
          0.4756179,
          0.012780666,
          -0.77183604,
          -0.16560626,
          0.6316886,
          0.8573134,
          -0.85955715,
          -0.20471334,
          -0.1329267,
          0.065739155,
          -0.6583824,
          0.4348023,
          -0.06397152,
          -0.6167009,
          -0.9136288,
          -0.37271094,
          -0.14957261,
          -0.622041,
          0.13200235,
          0.5179839,
          0.7778137,
          0.24823499,
          -0.64395237,
          -0.074445724,
          0.016560078,
          0.1694963,
          0.6604643,
          0.70919967,
          -0.27137113,
          -0.060706615,
          -0.24517465,
          0.491498,
          0.40978098,
          -0.8101585,
          -0.7833028,
          0.42954636,
          -0.6601629,
          -0.1670711,
          -0.1751213,
          -0.4642589,
          0.7391894,
          0.2140975,
          0.4267056,
          0.22893405,
          -0.68757844,
          0.4355061,
          -0.5118854,
          0.77345395,
          0.66351724,
          -0.11621332,
          -0.05554104,
          0.13047218,
          -0.7198398,
          -0.17228079,
          0.0016100407,
          0.22362876,
          -0.36705685,
          -0.83152795,
          -0.77313423,
          0.5071504,
          0.038185596,
          0.9270532,
          0.86339974,
          0.1250248,
          0.45885825,
          0.8844764,
          0.61424685,
          0.824203,
          0.080826044,
          -0.44130182,
          -0.45421934,
          -0.36394,
          0.3177135,
          0.674906,
          -0.14736772,
          0.16025925,
          -0.06220627,
          -0.41360354,
          -0.9530184,
          -0.03930092,
          0.92479205,
          -0.4108684,
          0.62575936,
          -0.23881388,
          0.34479022,
          -0.10173011,
          -0.3537202,
          -0.09962106,
          -0.9897604,
          0.85411334,
          -0.4443171,
          -0.01913166,
          0.23538303,
          -0.817199,
          -0.36001492,
          -0.28252554,
          0.42039752,
          0.6871476,
          -0.9678998,
          -0.20548105,
          0.4799378,
          0.60824823,
          0.3569398,
          0.6855774,
          -0.2170837,
          0.3093536,
          0.053223133,
          -0.38396955,
          0.4887507,
          -0.8841202,
          -0.2703693,
          -0.3419435,
          -0.8787024,
          0.99007964,
          -0.9839165,
          -0.0030019283,
          0.50380206,
          0.12773013,
          0.96638536,
          0.6499181,
          0.9846821,
          -0.06202364,
          0.6017966,
          -0.69339204,
          0.15544033,
          -0.13430452,
          -0.534739,
          0.9804714,
          -0.49978256,
          -0.3726449,
          0.84307504,
          -0.70716166,
          -0.22535396,
          -0.93394375,
          -0.84785247,
          0.89754725,
          -0.26751542,
          0.32790256,
          -0.18236756,
          0.13917518,
          0.63816357,
          0.4629805,
          0.5612445,
          0.8828819,
          -0.8734174,
          0.6824043,
          0.8778472,
          0.358639,
          -0.52611494,
          -0.8320298,
          0.008593559,
          -0.89346194,
          -0.73705125,
          -0.10334921,
          0.48866963,
          -0.7366662,
          0.12811184,
          0.89795566,
          0.9689007,
          0.9873607,
          -0.038846254,
          0.5662708,
          -0.22486567,
          0.72284484,
          -0.97573614,
          0.57763886,
          0.057611227,
          -0.20900607,
          -0.3219049,
          -0.83823276,
          -0.97265863,
          0.57296944,
          -0.4899826,
          0.24190784,
          0.19849992,
          -0.95016,
          0.9649763,
          -0.030981064,
          0.6477175,
          0.4682455,
          0.90469,
          -0.7974057,
          0.8374336,
          -0.7164397,
          0.40078163,
          0.46812153,
          0.22341609,
          0.41160393,
          0.51494646,
          -0.21255422,
          -0.66808224,
          0.3760712,
          0.62709785,
          0.23083472,
          -0.37773442,
          -0.36394048,
          -0.37354445,
          0.13216877,
          0.059909582,
          -0.50150204,
          0.03400755,
          0.4592507,
          -0.7728839,
          0.24037075,
          0.005821228,
          0.69003224,
          -0.68320155,
          0.7560098,
          -0.6870873,
          -0.36004424,
          0.87630844,
          0.67050815,
          0.711339,
          0.7237177,
          -0.56785774,
          0.13587713,
          -0.4702444,
          -0.87994933,
          0.6041274,
          -0.15175748,
          -0.11197424,
          0.1473558,
          -0.18755054,
          -0.6575854,
          0.7283945,
          0.89711475,
          -0.5618787,
          -0.04833269,
          0.6353152,
          -0.20364666,
          -0.43578792,
          -0.0683949,
          -0.33632207,
          0.4777205,
          -0.19430661,
          0.10567856,
          0.5159912,
          0.01605153,
          -0.12442255,
          -0.7625804,
          -0.26029277,
          -0.19540572,
          0.071412325,
          0.96378684,
          0.629163,
          0.21533799,
          -0.1138854,
          -0.10361862,
          0.83529377,
          0.9419558,
          -0.3697536,
          0.37403798,
          0.21859837,
          -0.292284,
          0.6045401,
          -0.6996367,
          -0.035393238,
          0.3224647,
          0.73117614,
          -0.720345,
          -0.68910885,
          -0.07232332,
          -0.36625028,
          0.16937828,
          -0.6366434,
          -0.35461354,
          0.79497385,
          -0.44335294,
          0.7935741,
          -0.08282566,
          0.569345,
          -0.968879,
          -0.48139238,
          -0.7976167,
          -0.38092732,
          0.012396812,
          -0.7527509,
          0.8933904,
          0.5443163,
          0.09799242,
          0.64382625,
          -0.95898294,
          -0.8238406,
          -0.63772726,
          0.9724457,
          -0.4372263,
          -0.28274179,
          -0.92790484,
          -0.03794241,
          -0.41821742,
          0.71474266,
          -0.58984756,
          -0.16929269,
          -0.029633999,
          -0.6183305,
          -0.105385065,
          0.64019704,
          0.4649272,
          -0.2521274,
          0.79290533,
          -0.6116178,
          -0.83426905,
          0.29474688,
          -0.12999463,
          -0.42577457,
          0.9183068,
          -0.4210937,
          -0.23271418,
          0.84003186,
          0.12100601,
          0.018112183,
          0.9311478,
          -0.6958604,
          0.17490673,
          -0.58627534,
          -0.48016787,
          0.30907345,
          -0.86383677,
          -0.7298944,
          0.093301296,
          -0.8513081,
          0.23016667,
          0.18235183,
          -0.5827205,
          0.4012084,
          -0.20669699,
          0.8781185,
          -0.5898509,
          0.30871987,
          0.11788297,
          0.16477275,
          -0.7407589,
          0.19690418,
          -0.4527235,
          -0.2458806,
          -0.37210584,
          0.028340816,
          0.7585962,
          0.89339185,
          0.5083568,
          -0.16540575,
          -0.7519796,
          -0.06187129,
          0.43537927,
          -0.9539628,
          0.7193122,
          -0.93306684,
          0.3988738,
          -0.11672497,
          0.7612643,
          0.45583963,
          0.56145024,
          -0.35775042,
          -0.90093064,
          0.7953577,
          -0.6493046,
          0.8880842,
          -0.79129076,
          -0.040599346,
          -0.7608409,
          -0.14703202,
          -0.13818288,
          -0.23566675,
          -0.6500752,
          0.6284983,
          0.21852827,
          0.049376488,
          0.5478082,
          -0.20766044,
          0.32138252,
          0.15879178,
          0.5570655,
          -0.19410944,
          -0.3209026,
          -0.68234515,
          -0.16190028,
          -0.14050579,
          -0.38951755,
          -0.4603579,
          0.6465454,
          0.8593223,
          0.1033659,
          -0.61414313,
          -0.6463859,
          0.39692378,
          -0.903378,
          0.5570097,
          -0.7084925,
          0.0954957,
          0.9290643,
          0.35446095,
          0.9806917,
          0.6613319,
          -0.37416577,
          -0.8328302,
          0.5570462,
          -0.43348455,
          0.72009516,
          -0.8033705,
          0.20709562,
          0.43509007,
          0.9092834,
          -0.4467852,
          0.998965,
          0.14391923,
          0.770035,
          0.8205428,
          0.98383784,
          -0.041759968,
          0.29416418,
          -0.76067185,
          -0.052059412,
          0.99288654,
          -0.79429364,
          0.6790426,
          0.11686158,
          0.6516597,
          0.14738083,
          0.92590547,
          -0.1273396,
          0.97074556,
          -0.8517237,
          0.7409539,
          0.004415512,
          0.66943264,
          0.8956754,
          0.10501337,
          -0.21902966,
          0.7527759,
          -0.013501883,
          0.20581794,
          0.03192258,
          0.25075054,
          -0.18391728,
          -0.2074604,
          -0.6182251,
          -0.49842572,
          0.87836576,
          -0.7212274,
          -0.8522148,
          0.4089358,
          0.90900993,
          -0.2946427,
          -0.5972862,
          0.20652151,
          -0.60055566,
          0.13202882,
          0.23700976,
          -0.34283996,
          0.3819797,
          -0.64530325,
          -0.6557536,
          -0.9764073,
          -0.42683482,
          0.92077136,
          0.3305993,
          -0.47460675,
          0.7699678,
          -0.734694,
          0.4125433,
          0.5262759,
          0.4971769,
          -0.46655226,
          -0.21263576,
          -0.115646124,
          0.7925186,
          -0.21434474,
          -0.96426725,
          0.1729846,
          -0.4212396,
          0.033195496,
          0.37694383,
          -0.94500613,
          0.45449924,
          0.6265142,
          0.10038519,
          0.48843908,
          -0.8275454,
          -0.7625215,
          0.72434354,
          0.25230575,
          0.45164132,
          -0.13965416,
          0.59431195,
          -0.40551853,
          0.38237333,
          -0.29352593,
          -0.1393354,
          -0.6977916,
          -0.66768956,
          0.7293613,
          -0.051454544,
          0.4079039,
          -0.3815546,
          0.36458373,
          -0.47023368,
          -0.3096485,
          -0.65005946,
          -0.73558474,
          -0.8555205,
          -0.7931981,
          0.38806915,
          -0.47755098,
          -0.2963624,
          -0.39302254,
          -0.43630242,
          -0.48668814,
          0.45883346,
          0.5947232,
          -0.93525624,
          -0.34448576,
          -0.9293673,
          0.3888414,
          -0.5411947,
          -0.34677768,
          -0.66226125,
          -0.14369917,
          -0.8577113,
          -0.6058655,
          -0.6511841,
          0.5152302,
          0.94616246,
          -0.44526792,
          0.32313657,
          0.435385,
          0.28745413,
          0.0053408146,
          0.14413834,
          -0.80008054,
          0.36553502,
          -0.28739262,
          -0.25019217,
          0.6223247,
          0.59935737,
          -0.1739037,
          0.1540904,
          0.06712246,
          0.6701162,
          -0.3022294,
          0.40565324,
          0.9148309,
          0.32230806,
          0.22243834,
          -0.67614245,
          -0.7928016,
          -0.7115934,
          0.19834709,
          -0.5238812,
          0.71040845,
          -0.7284579,
          -0.29278922,
          -0.67729354,
          -0.15772867,
          -0.24085307,
          0.7986262,
          -0.34014082,
          0.5059209,
          -0.49931383,
          -0.071933985,
          0.0613575,
          0.80636144,
          0.77171993,
          0.35249782,
          -0.09468341,
          -0.45326805,
          0.06293392,
          -0.124545574,
          0.8686967,
          -0.6541717,
          -0.5303359,
          0.362262,
          -0.34090543,
          -0.7015996,
          0.31229138,
          -0.25131583,
          -0.7059188,
          -0.6480925,
          0.8966663,
          0.047130346,
          -0.60048604,
          -0.5451994,
          0.44914985,
          -0.93051744,
          -0.67395496,
          0.794667,
          -0.11652732,
          0.32856035,
          0.48711872,
          0.96405315,
          0.84416795,
          -0.7711189,
          -0.56083226,
          0.16926622,
          -0.5957451,
          -0.80784726,
          0.797287,
          0.060300827,
          -0.30265713,
          0.08971763,
          -0.16461062,
          -0.24137211,
          0.5055158,
          0.7402594,
          -0.59827733,
          -0.62935185,
          -0.19955397,
          0.6749153,
          -0.46495605,
          0.13703537,
          0.27928805,
          0.059604645,
          -0.16850519,
          0.20050216,
          -0.10815096,
          -0.50955486,
          -0.11600065,
          0.9834802,
          -0.7509732,
          -0.8619838,
          0.833894,
          -0.4423144,
          -0.39628005,
          -0.8141062,
          -0.38744545,
          0.26086164,
          0.8942046,
          0.74847937,
          0.77487564,
          -0.6224015,
          -0.3839836,
          0.960289,
          0.6104691,
          -0.24931788,
          0.8262305,
          -0.9182551,
          0.93737006,
          0.45836544,
          0.065715075,
          0.06384587,
          -0.10428405,
          -0.379395,
          0.8026471,
          0.71635365,
          -0.137429,
          -0.6956568,
          -0.78235435,
          0.5189016,
          0.07780266,
          -0.01305151,
          -0.99572015,
          0.9031961,
          0.73069096,
          0.5739298,
          -0.9780781,
          -0.7313752,
          0.4065485,
          -0.08755016,
          -0.23994374,
          0.14680004,
          0.96766543,
          -0.79890966,
          0.87498736,
          -0.96575856,
          -0.89755774,
          0.68833447,
          -0.38562202,
          -0.57774186,
          -0.039027214,
          -0.78334785,
          0.33583045,
          -0.09729719,
          -0.09877348,
          -0.9831598,
          0.40765715,
          -0.7333329,
          -0.00915122,
          -0.24846959,
          0.08319712,
          0.52051425,
          0.4996431,
          -0.41937733,
          -0.008383751,
          0.5276282,
          -0.40140676,
          0.36839676,
          0.42627835,
          -0.5113385,
          -0.4608028,
          -0.6710279,
          0.5668149,
          -0.8283279,
          0.1981163,
          0.82950664,
          -0.04519534,
          -0.8506043,
          0.016531706,
          0.21089363,
          0.90538645,
          0.52749467,
          0.590528,
          0.45142126,
          0.12182784,
          0.26233935,
          0.82045865,
          -0.93677807,
          -0.941092,
          0.91807866,
          -0.5741699,
          0.7459576,
          -0.3981154,
          -0.25908375,
          0.6053879,
          -0.71990013,
          -0.3586607,
          0.5248003,
          0.14012837,
          0.69453883,
          -0.25177264,
          -0.31473088,
          -0.35140038,
          -0.7093854,
          -0.9698386,
          -0.28178883,
          0.12156415,
          0.5961063,
          -0.59148765,
          -0.74060416,
          0.6590953,
          0.45825815,
          -0.2738676,
          0.8643651,
          -0.0026831627,
          -0.85271144,
          -0.53856826,
          -0.43855238,
          -0.53815365,
          -0.09558225,
          -0.94325304,
          0.74764943,
          -0.791975,
          -0.8210294,
          -0.9068241,
          0.537066,
          -0.05935788,
          -0.5948019,
          0.25833607,
          0.4241178,
          0.26725006,
          0.7453463,
          0.22507119,
          0.10018587,
          -0.69443274,
          0.5633526,
          -0.63696504,
          -0.98546886,
          0.8048248,
          0.54373264,
          -0.609282,
          -0.3574369,
          -0.0073473454,
          -0.36939764,
          -0.056466103,
          0.19078016,
          0.61970234,
          0.5387163,
          0.67011166,
          0.14969802,
          -0.94529486,
          -0.47473145,
          -0.0056521893,
          0.2786107,
          -0.9124291,
          0.063340425,
          -0.23869848,
          0.9982767,
          0.6524854,
          -0.9694872,
          -0.67659855,
          -0.08478546,
          -0.27409387,
          0.8211274,
          -0.7709806,
          -0.048912525,
          -0.4794705,
          0.87092733,
          0.42207885,
          -0.32699537,
          -0.866832,
          -0.8034549,
          0.6049917,
          -0.1892891,
          -0.5368397,
          0.87227845,
          0.87178254,
          0.099374294,
          -0.92960167,
          0.37099838,
          0.6721821,
          0.79104424,
          0.39696503,
          -0.2797451,
          0.570838,
          -0.24446511,
          -0.16027188,
          0.57890344,
          0.021080256,
          -0.47329378,
          0.62412596,
          -0.9493201,
          -0.6698134,
          -0.9086268,
          -0.36377525,
          0.24524307,
          0.7541635,
          -0.51637316,
          -0.6380675,
          -0.56340766,
          0.42564392,
          0.82856035,
          0.26060867,
          0.855222,
          -0.7502315,
          -0.07372832,
          0.16973257,
          -0.8489282,
          -0.54110956,
          -0.7959068,
          -0.34378314,
          0.8471248,
          -0.44953418,
          -0.02960682,
          0.013314247,
          0.61147404,
          -0.47024298,
          -0.83317065,
          -0.8008647,
          0.49727798,
          0.8377838,
          -0.7779267,
          -0.69195485,
          -0.18844366,
          0.89098,
          0.95820045,
          0.8759942,
          0.6403408,
          -0.07401991,
          -0.63970447,
          -0.53477955,
          -0.0038294792,
          -0.6819184,
          0.6118722,
          0.081700325,
          -0.22619843,
          0.237818,
          0.92065597,
          0.35835958,
          -0.20492578,
          0.79842234,
          -0.60880184,
          -0.5728929,
          -0.53481984,
          -0.87653065,
          0.37137413,
          0.23597956,
          0.9758854,
          -0.5320182,
          0.27389693,
          0.55149126,
          -0.8927684,
          -0.14273047,
          0.49610758,
          0.9457638,
          0.25804162,
          0.5732901,
          0.013658762,
          -0.8970673,
          0.8691163,
          -0.7230017,
          0.45012236,
          -0.10565162,
          0.26388168,
          -0.48665857,
          0.7647588,
          0.42435145,
          -0.50066495,
          -0.11292553,
          0.83354974,
          0.93716216,
          -0.40625095,
          -0.6084752,
          0.07889223,
          0.6298623,
          0.66150355,
          -0.3217981,
          0.65544415,
          0.8352504,
          -0.074347496,
          0.87718797,
          -0.7249296,
          -0.9276717,
          -0.9959328,
          -0.27779293,
          -0.9377506,
          -0.706393,
          0.4346552,
          0.4084847,
          0.8875873,
          -0.988899,
          -0.39584017,
          -0.9598837,
          -0.13890243,
          -0.06241131,
          0.83389425,
          0.57900786,
          0.6945987,
          -0.45728874,
          0.30387735,
          0.49863243,
          -0.31457472,
          0.6636026,
          0.26597333,
          0.43247414,
          -0.39989233,
          -0.55654573,
          -0.8916366,
          0.88807654,
          0.42825413,
          0.105587244,
          -0.038352966,
          -0.2207191,
          -0.64188194,
          0.13764524,
          -0.7160468,
          0.24450302,
          0.77266955,
          0.38724995,
          -0.332767,
          -0.19320846,
          0.2669816,
          0.20172215,
          0.57163,
          -0.68421936,
          -0.13622165,
          -0.85712576,
          0.047384262,
          -0.08576679,
          -0.76125693,
          0.01897192,
          0.64096045,
          -0.4269681,
          -0.70822334,
          0.96468306,
          0.21552157,
          0.033812284,
          -0.88442636,
          0.7783356,
          0.66985464,
          0.23608112,
          -0.4334731,
          -0.031742096,
          -0.16728806,
          -0.6984694,
          0.17341805,
          0.77362394,
          -0.29576635,
          0.8243079,
          0.40458632,
          -0.06000948,
          -0.48739743,
          0.20585155,
          0.09181762,
          0.036523342,
          -0.9416914,
          0.9822829,
          -0.094846725,
          -0.8014786,
          -0.5998869,
          -0.80161405,
          0.5059054,
          -0.3324983,
          0.44433045,
          -0.33308792,
          0.87563276,
          -0.47342372,
          -0.08133745,
          -0.87475777,
          0.8742876,
          0.08184099,
          0.07862997,
          -0.90162826,
          -0.9672713,
          0.53328085,
          0.26050138,
          -0.36153364,
          0.12093115,
          -0.01540637,
          -0.8225281,
          -0.061927795,
          -0.6043446,
          -0.7607987,
          -0.20080328,
          -0.73515415,
          0.12212038,
          0.97539115,
          0.31536078,
          0.052513838,
          -0.47979903,
          0.26721883,
          0.06520939,
          0.7042661,
          0.61029863,
          0.51899624,
          -0.58571243,
          -0.44942737,
          -0.9771774,
          -0.430784,
          -0.96567726,
          -0.0140116215,
          -0.6985743,
          -0.619895,
          -0.22103786,
          -0.44761205,
          0.3810327,
          -0.71835375,
          -0.0347085,
          -0.6281054,
          0.6106055,
          -0.48739338,
          -0.18995929,
          -0.9140556,
          0.8473995,
          0.45736814,
          0.48403335,
          0.7609749,
          -0.39132762,
          -0.22408986,
          0.7399514,
          0.8263018,
          -0.20749497,
          0.20251203,
          0.61957407,
          -0.48863554,
          -0.61097336,
          0.7567365,
          -0.16851616,
          -0.39682126,
          0.3782096,
          -0.565578,
          -0.63708425,
          -0.025411129,
          0.13433933,
          -0.821203,
          -0.08473587,
          -0.8048055,
          -0.70321727,
          -0.59456325,
          0.7829933,
          -0.8582206,
          0.779289,
          0.19902301,
          -0.84146285,
          -0.9334812,
          0.53310704,
          -0.6559334,
          -0.8967924,
          -0.31852794,
          -0.5325756,
          -0.87242436,
          -0.3351226,
          0.7191713,
          0.8732238,
          -0.9038775,
          -0.10752916,
          -0.4479003,
          0.47135282,
          0.14169955,
          -0.19595742,
          0.9321706,
          -0.5676594,
          -0.13110447,
          0.22566867,
          0.17514157,
          0.9752109,
          0.27511644,
          0.6570339,
          0.7400377,
          0.045371532,
          -0.7793207,
          0.5487993,
          0.78528166,
          -0.9578259,
          -0.7835717,
          -0.21543813,
          0.805202,
          0.7659004,
          -0.94535327,
          -0.9347806,
          -0.5700002,
          0.61472297,
          0.7146764,
          0.25193334,
          0.8779068,
          -0.65150595,
          0.3251679,
          0.9224596,
          -0.2359519,
          0.025982857,
          -0.5345819,
          -0.042536974,
          -0.9299278,
          -0.31941247,
          -0.7616048,
          -0.9724655,
          -0.7610798,
          -0.77182436,
          0.9037645,
          0.026757002,
          0.13760185,
          -0.78787136,
          -0.46113372,
          0.6288626,
          0.21225786,
          0.96876264,
          -0.78101563,
          0.98801017,
          0.47646785,
          0.53075266,
          0.61387277,
          -0.14081907,
          0.10617304,
          -0.3682933,
          -0.93628883,
          0.61207867,
          -0.7363105,
          -0.3857298,
          0.008747816,
          0.18632197,
          -0.0121200085,
          0.52090144,
          -0.993449,
          0.6522305,
          -0.46172523,
          0.97371984,
          -0.052911043,
          0.46834826,
          0.9106219,
          0.90910745,
          -0.34627223,
          0.76176834,
          -0.24187994,
          -0.13287282,
          -0.2568283,
          0.75827694,
          0.07899761,
          0.6739323,
          0.27927566,
          -0.9925103,
          0.48701668,
          -0.7867694,
          0.8396485,
          -0.8503413,
          -0.9430163,
          -0.93545365,
          -0.83207417,
          0.7159078,
          0.22444391,
          -0.76656795,
          0.54053617,
          0.7442343,
          0.7434757,
          -0.5226488,
          0.13155818,
          -0.10720873,
          0.9142976,
          0.20295191,
          -0.4198277,
          0.55164623,
          0.39815092,
          -0.26648164,
          -0.2233932,
          -0.5090246,
          -0.43990946,
          -0.3527248,
          0.1816132,
          -0.2123859,
          -0.60984254,
          0.021420717,
          0.35737467,
          0.95230484,
          0.93707585,
          -0.053061724,
          -0.4285376,
          -0.4207461,
          0.63746667,
          -0.7811985,
          0.39724374,
          -0.32058,
          -0.19264603,
          0.4798472,
          0.93933177,
          -0.87228346,
          -0.3409729,
          0.7689996,
          0.5091305,
          -0.90345764,
          0.08689189,
          0.5931902,
          0.116051435,
          -0.9780586,
          -0.40811467,
          0.6626065,
          0.3576455,
          0.91150665,
          0.97130847,
          0.78668356,
          0.008176565,
          -0.09554148,
          -0.24446201,
          0.3913486,
          0.65653586,
          0.5458636,
          -0.72104645,
          0.10816455,
          -0.8652353,
          0.30349493,
          -0.51856375,
          0.42284584,
          -0.7057109,
          0.3802588,
          -0.70915556,
          -0.2259419,
          0.95566225,
          -0.47122264,
          -0.96436024,
          -0.37536907,
          0.4491222,
          0.2699752,
          0.48021626,
          0.86156464,
          0.76502013,
          -0.24158764,
          -0.07363582,
          0.8883743,
          0.17186213,
          0.79778147,
          -0.16389489,
          0.9207928,
          0.9442477,
          -0.6578891,
          -0.620646,
          -0.2878139,
          -0.4188764,
          -0.70838976,
          -0.082672834,
          0.45787597,
          -0.119191885,
          -0.6755111,
          0.9900515,
          -0.11450124,
          -0.6904812,
          0.033067465,
          -0.3557229,
          0.097708225,
          -0.7791307,
          -0.81225157,
          -0.4592402,
          0.23737359,
          0.030236006,
          -0.2958498,
          -0.014460564,
          0.6786072,
          0.41762114,
          -0.18328595,
          -0.6298156,
          -0.92746186,
          -0.3629787,
          0.2645371,
          -0.5476661,
          0.8399396,
          -0.62076974,
          -0.5198705,
          -0.16482568,
          0.42154074,
          0.2359767,
          -0.5502653,
          0.15422535,
          0.80405545,
          0.050042152,
          0.7145226,
          -0.98920465,
          -0.6691747,
          -0.12631083,
          0.8688762,
          0.5173576,
          0.0163908,
          -0.54840875,
          -0.22172165,
          0.1955235,
          0.589874,
          -0.96353936,
          0.6503532,
          -0.99106073,
          0.021339417,
          -0.035447836,
          -0.42918158,
          -0.90232587,
          0.75537753,
          -0.5570798,
          0.1231482,
          0.2228508,
          0.018621922,
          0.14723516,
          0.729583,
          -0.55664444,
          0.036332607,
          -0.5789094,
          -0.47369695,
          0.63635373,
          0.14405227,
          -0.6349921,
          0.676512,
          -0.8341787,
          0.7102165,
          -0.87915015,
          -0.792248,
          -0.225672,
          0.7235329,
          0.047582865,
          -0.91175056,
          0.41166997,
          0.6829691,
          0.0120539665,
          0.6835499,
          0.8995085,
          0.98594356,
          -0.24473906,
          -0.9764693,
          0.5857246,
          0.5016172,
          -0.88413525,
          -0.8463454,
          -0.13500929,
          0.16301656,
          -0.80158496,
          -0.17275333,
          0.33653665,
          -0.5683532,
          0.13898087,
          0.5363357,
          -0.87296796,
          0.57595325,
          -0.12768388,
          0.7960453,
          0.9084463,
          -0.61278415,
          -0.19516206,
          -0.5381937,
          -0.2138691,
          -0.34521818,
          -0.3434956,
          -0.35877514,
          0.9988189,
          -0.4572351,
          0.65887856,
          0.8433747,
          0.65566826,
          -0.93732333,
          0.746366,
          -0.7649622,
          -0.6746628,
          -0.84917545,
          -0.15047789,
          -0.7006092,
          -0.45609593,
          0.67781806,
          0.034902096,
          -0.23287535,
          -0.61867,
          0.5479069,
          -0.31983972,
          0.7042134,
          -0.5593147,
          -0.47695875,
          -0.82947063,
          -0.50880885,
          0.36760688,
          -0.16601944,
          -0.21156335,
          -0.8840625,
          -0.657573,
          0.62211275,
          0.67665887,
          0.65665174,
          0.29230738,
          0.3805039,
          -0.6503241,
          0.052166224,
          -0.4792211,
          -0.5740421,
          0.722353,
          0.58627033,
          -0.963346,
          0.03274417,
          0.3939271,
          0.7185352,
          0.25168753,
          -0.86171556,
          -0.74694777,
          0.48680067,
          0.40918016,
          -0.24620223,
          0.40930343,
          0.82779837,
          0.67994857,
          -0.5097344,
          0.3683219,
          0.235924,
          -0.647712,
          -0.44070435,
          -0.8947966,
          0.011901617,
          0.5827079,
          -0.56068015,
          0.87833667,
          0.88597226,
          -0.41667747,
          -0.07122326,
          -0.06574869,
          -0.79279256,
          -0.7539885,
          0.36335826,
          -0.22789717,
          0.60841894,
          0.113324404,
          -0.23674679,
          -0.21273065,
          0.05847621,
          -0.7752547,
          0.9657829,
          0.81255865,
          0.33005953,
          0.019177437,
          -0.6418419,
          0.5875392,
          0.27777052,
          -0.6003506,
          -0.8607416,
          0.5497,
          0.70095325,
          0.67817426,
          0.93863964,
          0.6403463,
          -0.5555093,
          -0.7438736,
          0.61800885,
          0.46789813,
          -0.91476417,
          -0.42530727,
          0.3273468,
          0.77413344,
          -0.39071727,
          0.8924351,
          -0.5719533,
          -0.6860032,
          -0.90260124,
          -0.48164654,
          0.97467566,
          -0.88370204,
          0.62126017,
          0.5759642,
          0.36779332,
          0.9356704,
          0.25401425,
          0.8569641,
          -0.9358461,
          -0.13606906,
          -0.9116359,
          -0.10133481,
          -0.5623884,
          -0.57405114,
          -0.3661003,
          0.8575833,
          -0.26444292,
          0.6280017,
          0.08489895,
          0.41025448,
          -0.8270147,
          0.20448732,
          -0.42514634,
          0.6213999,
          -0.94357276,
          -0.68976355,
          -0.18184853,
          0.5256293,
          0.6713774,
          -0.25036645,
          -0.38306093,
          -0.16068268,
          -0.86254954,
          0.6466806,
          0.18176746,
          -0.359262,
          0.35359383,
          0.3410747,
          -0.96710396,
          0.57730913,
          0.47525597,
          -0.9721768,
          -0.69597673,
          0.19640875,
          -0.24100971,
          0.6978514,
          0.49363542,
          0.18039083,
          0.27363944,
          -0.93579555,
          -0.3915081,
          -0.8226054,
          -0.46602774,
          0.3921044,
          -0.26208138,
          0.9010055,
          -0.74487114,
          -0.28855157,
          0.067623615,
          -0.9810817,
          -0.34970975,
          0.13408494,
          0.2021563,
          0.9365039,
          0.72280216,
          0.355469,
          0.98432803,
          0.55808496,
          -0.11990142,
          0.0044078827,
          -0.21201563,
          0.8533423,
          0.20242548,
          0.7942836,
          0.0976789,
          -0.5035677,
          -0.85812354,
          -0.62518716,
          -0.3385203,
          0.89155793,
          0.37193322,
          0.17836452,
          0.5791645,
          -0.5654824,
          -0.6115105,
          -0.44829512,
          0.8697705,
          -0.7863493,
          -0.7765956,
          0.023423433,
          -0.013417482,
          0.1331644,
          0.3249898,
          -0.13396096,
          -0.37237692,
          0.51691365,
          -0.80634046,
          -0.49174333,
          0.20586991,
          -0.93921685,
          -0.5845444,
          0.62166595,
          0.57624936,
          0.23479986,
          0.9993491,
          -0.008668661,
          0.19456482,
          -0.06038332,
          -0.33949113,
          -0.30259204,
          0.28043866,
          0.0880847,
          0.10790634,
          -0.060115814,
          -0.104982376,
          0.5336213,
          -0.90152717,
          -0.46716762,
          -0.587487,
          0.6380017,
          -0.50889826,
          0.8835032,
          0.8741865,
          0.860513,
          -0.2018981,
          0.6587665,
          -0.23531961,
          -0.28228545,
          0.77730274,
          0.14942217,
          0.6876757,
          -0.09299731,
          -0.12821555,
          -0.9551649,
          0.95582724,
          -0.7765291,
          -0.94147205,
          -0.01945424,
          0.70073414,
          -0.31145787,
          0.42393255,
          -0.13632369,
          -0.97187877,
          -0.3855219,
          0.3231299,
          0.5193007,
          0.6031709,
          0.55047727,
          -0.39075327,
          -0.8422303,
          -0.19277954,
          -0.9779806,
          -0.49986744,
          0.73369265,
          -0.26973128,
          -0.11397958,
          0.19363523,
          -0.23564625,
          -0.6733489,
          -0.8170161,
          0.9492378,
          -0.40581155,
          -0.65442896,
          -0.7307067,
          0.6783085,
          0.33879447,
          -0.6649239,
          0.57817364,
          -0.75004673,
          0.46847153,
          0.8312726,
          0.21373677,
          -0.44908142,
          0.3569963,
          0.52486897,
          0.81281805,
          -0.10886693,
          -0.11226797,
          -0.2866242,
          -0.31963086,
          0.7929838,
          0.11258507,
          0.3642547,
          0.43501377,
          -0.0888114,
          0.035500526,
          0.012065411,
          0.8492155,
          0.5340042,
          0.38982987,
          0.767848,
          -0.8695345,
          0.42665434,
          0.2458322,
          -0.9307327,
          0.45542645,
          -0.30828404,
          -0.106878996,
          0.41245842,
          0.72042274,
          -0.14915657,
          -0.8994043,
          -0.23956823,
          -0.7790098,
          -0.85126376,
          0.6845262,
          -0.6032574,
          -0.35877347,
          -0.31426454,
          -0.2799163,
          0.99941325,
          -0.43407726,
          -0.29365563,
          -0.8296375,
          -0.56110024,
          -0.97092104,
          0.042011738,
          0.8628521,
          0.31669855,
          0.091546535,
          0.80513287,
          0.22171903,
          -0.54101443,
          0.24457026,
          0.9839754,
          0.71291304,
          0.90687346,
          0.78876495,
          -0.6416786,
          0.45932412,
          0.7269528,
          -0.18349099,
          -0.39999747,
          0.05163622,
          -0.94123554,
          -0.72024465,
          0.87030363,
          0.547616,
          -0.7805083,
          0.4522934,
          0.5259261,
          -0.5671096,
          -0.7546563,
          -0.009404898,
          -0.5804808,
          -0.6559279,
          0.5515306,
          0.022324324,
          0.2984805,
          -0.8743808,
          0.76890063,
          -0.36261582,
          0.6194818,
          -0.74121594,
          -0.07114148,
          -0.7701218,
          0.84749985,
          0.6935785,
          0.018101454,
          -0.79497266,
          -0.72174144,
          0.8848598,
          -0.7401595,
          0.16025972,
          0.5861671,
          0.18408704,
          0.46290374,
          -0.21311831,
          0.9286089,
          -0.64770365,
          0.041808367,
          -0.43711877,
          -0.2877035,
          -0.11627722,
          0.945662,
          0.10247159,
          0.15237713,
          0.22827697,
          0.3980472,
          0.9122045,
          0.38438916,
          -0.23862553,
          0.31116247,
          -0.65326977,
          0.67273283,
          -0.07948041,
          0.7054894,
          -0.40560675,
          0.5417466,
          0.33867645,
          0.44366026,
          0.58538246,
          0.50607395,
          -0.7833364,
          -0.45782185,
          0.96568084,
          -0.5375979,
          0.66085577,
          0.2113502,
          0.54977727,
          -0.0060739517,
          0.86165667,
          0.28685737,
          0.30248022,
          0.746434,
          -0.5598824,
          -0.3866334,
          0.050919294,
          0.48029065,
          0.026325703,
          0.9496453,
          0.41357422,
          -0.3530512,
          0.9738538,
          0.48622966,
          0.30633378,
          -0.8937125,
          0.0005135536,
          0.57051945,
          0.1740694,
          -0.6524968,
          0.60449505,
          -0.95127463,
          -0.13588405,
          0.9838035,
          -0.94026613,
          -0.9654293,
          0.8947549,
          -0.71699476,
          -0.104961395,
          0.64307857,
          -0.051678658,
          -0.73259306,
          0.42480087,
          -0.24519205,
          -0.87219787,
          0.8486979,
          0.9035406,
          -0.7358625,
          -0.19371796,
          -0.49679565,
          -0.56043124,
          -0.46605396,
          0.906234,
          0.6668503,
          -0.22051263,
          -0.0129339695,
          -0.5218365,
          -0.15332413,
          -0.41910076,
          0.9318092,
          0.5984645,
          -0.9685724,
          0.6840339,
          0.93518615,
          -0.58098316,
          -0.19268584,
          -0.3243978,
          -0.3624096,
          -0.62167645,
          0.4644363,
          0.013787985,
          0.5743797,
          0.7988553,
          -0.69699717,
          -0.32397747,
          -0.94796157,
          -0.95133996,
          -0.3536806,
          0.4308002,
          -0.5177281,
          0.8630128,
          0.43123317,
          -0.9314797,
          -0.8572297,
          0.04006362,
          0.5104401,
          -0.9311271,
          -0.16739845,
          -0.9998219,
          0.74864125,
          -0.90746856,
          0.65678,
          -0.4094696,
          -0.9449098,
          -0.12912488,
          -0.7605984,
          0.4898343,
          0.0058043003,
          0.5161345,
          0.73535633,
          0.6881509,
          -0.614491,
          0.49822998,
          0.99421096,
          0.7462995,
          -0.65518,
          0.14378428,
          -0.49849725,
          -0.7467034,
          0.50056267,
          -0.026699066,
          0.1376462,
          -0.7019069,
          0.2493484,
          0.7368612,
          -0.15036964,
          0.4364252,
          -0.32235456,
          -0.7178805,
          0.69798684,
          0.30255556,
          -0.101132154,
          -0.421036,
          -0.6180296,
          -0.07706618,
          -0.7560539,
          -0.42601657,
          -0.613755,
          -0.3652141,
          -0.31815195,
          0.65885806,
          0.5106194,
          0.082454205,
          -0.64740586,
          0.17980742,
          -0.81176805,
          0.7461231,
          0.37991905,
          -0.3886602,
          0.35674024,
          -0.14235497,
          0.28872895,
          -0.35478997,
          0.3836565,
          -0.69149184,
          -0.4069507,
          -0.20002913,
          0.10927415,
          -0.9176514,
          0.7561798,
          0.83277655,
          0.42398095,
          -0.010394096,
          0.6739783,
          -0.1391089,
          0.9460392,
          0.74736094,
          -0.776531,
          -0.78266335,
          0.58431053,
          -0.03106141,
          0.70000696,
          -0.16092443,
          0.68014455,
          0.57484674,
          -0.4163196,
          -0.63336515,
          0.005125284,
          -0.7041092,
          0.57758,
          0.35417318,
          -0.4073255,
          -0.5693877,
          -0.10550141,
          -0.24897838,
          -0.4543736,
          -0.3298893,
          -0.93638945,
          0.3192253,
          -0.37612677,
          -0.44009566,
          -0.9616389,
          -0.074956894,
          -0.15918303,
          0.77726483,
          0.56091714,
          0.8349445,
          0.09463048,
          -0.6246207,
          0.5897722,
          0.5615933,
          0.24496222,
          -0.9050708,
          0.7829523,
          0.6667454,
          0.09109473,
          -0.7178464,
          -0.15108728,
          0.7196574,
          0.178586,
          -0.6812284,
          0.23106408,
          -0.77628064,
          0.036772966,
          -0.11525679,
          -0.2719078,
          0.91880393,
          0.006050825,
          0.84330153,
          0.44026136,
          -0.8201444,
          0.19515228,
          -0.49979687,
          0.66617084,
          0.14004064,
          0.20694995,
          -0.14723253,
          -0.7668431,
          0.4271636,
          -0.70460343,
          -0.12676716,
          -0.078282595,
          -0.6557822,
          0.552979,
          -0.091147184,
          0.5044174,
          -0.3944261,
          0.2997911,
          -0.7307246,
          -0.5452056,
          -0.0835855,
          -0.14489222,
          -0.28223896,
          0.37524366,
          0.5169275,
          -0.683177,
          -0.5596063,
          -0.655591,
          -0.46974468,
          0.009435892,
          -0.45237422,
          0.65033054,
          -0.5644622,
          -0.9914396,
          0.7588682,
          -0.984143,
          0.31300592,
          0.3865316,
          0.07901263,
          -0.080438614,
          0.98649144,
          0.44370222,
          0.19978166,
          -0.8470559,
          -0.7029195,
          0.4924059,
          0.46909523,
          0.31528306,
          -0.9805336,
          -0.8793204,
          0.22482657,
          0.7181699,
          -0.4748819,
          -0.8978188,
          0.81971264,
          -0.12134528,
          -0.48653507,
          -0.7634742,
          -0.50698256,
          -0.15976572,
          0.29517365,
          0.22683811,
          -0.7950163,
          0.49157286,
          -0.45977902,
          -0.4245088,
          0.49218822,
          0.28462934,
          0.61103225,
          -0.8047216,
          -0.49495244,
          0.9064989,
          0.70101666,
          0.6273272,
          0.9980407,
          0.9722545,
          0.12754726,
          -0.50751615,
          -0.33480144,
          0.957633,
          0.9127183,
          -0.017131805,
          0.3383746,
          -0.9857161,
          -0.10538006,
          -0.5645876,
          -0.5854156,
          0.4253688,
          -0.160249,
          0.2770245,
          0.9046738,
          -0.46513963,
          -0.9814749,
          -0.37796497,
          0.8500092,
          0.26200962,
          -0.3561375,
          0.6917825,
          -0.6500356,
          -0.43542457,
          -0.11418629,
          -0.38427758,
          -0.7617831,
          -0.67958784,
          -0.58093286,
          0.9101355,
          -0.05114293,
          -0.70400524,
          0.47409344,
          0.06638861,
          -0.685801,
          -0.92805004,
          0.43721962,
          0.036814213,
          0.5231488,
          -0.4661467,
          0.9670825,
          0.60076666,
          0.54150367,
          0.5148783,
          -0.24775577,
          -0.23948884,
          -0.6646249,
          0.88302994,
          0.5769284,
          -0.35657406,
          -0.9810114,
          -0.45350266,
          -0.2618506,
          -0.88198256,
          -0.07892394,
          0.9510515,
          -0.33000255,
          -0.9523084,
          0.41021204,
          0.79938364,
          0.63178515,
          0.69955206,
          -0.43025517,
          -0.48647714,
          0.29376364,
          -0.2888608,
          -0.4472568,
          -0.3588791,
          0.7524414,
          0.6705301,
          -0.28432631,
          -0.9172642,
          -0.90464425,
          0.06732011,
          0.35377908,
          -0.07950139,
          -0.77552056,
          -0.053435087,
          -0.08496666,
          0.07367253,
          -0.31745505,
          0.5025284,
          0.37838984,
          -0.5953994,
          0.8659003,
          -0.3557322,
          0.8355253,
          -0.6476474,
          -0.5078788,
          0.071959734,
          -0.78226995,
          -0.56973505,
          0.661479,
          0.12148142,
          -0.09428644,
          -0.8351784,
          0.44977427,
          0.9684582,
          0.8604696,
          0.7430546,
          0.35831428,
          -0.8605614,
          0.35114932,
          0.40043926,
          -0.27664137,
          -0.11369991,
          0.8577471,
          0.69097924,
          -0.513278,
          0.019464254,
          0.15690756,
          -0.34531593,
          0.32578325,
          -0.59080386,
          0.008472919,
          -0.7239039,
          -0.1950376,
          -0.13246107,
          -0.31941676,
          -0.06940389,
          -0.67975616,
          -0.1265049,
          -0.30933332,
          -0.7513528,
          -0.22058344,
          -0.47804618,
          -0.35096073,
          0.6179683,
          0.93553257,
          0.6094589,
          0.6085794,
          0.6312299,
          -0.5706425,
          0.17358088,
          0.69110537,
          -0.14803886,
          0.74390864,
          -0.8760209,
          -0.31997657,
          -0.96260095,
          0.2961886,
          0.68592834,
          0.7211318,
          -0.28262448,
          -0.063756704,
          -0.69799376,
          -0.84472585,
          -0.90001845,
          0.096963644,
          0.6951375,
          0.23176765,
          -0.4033141,
          -0.34809327,
          0.94088435,
          0.52190113,
          0.10218024,
          -0.75525594,
          -0.8020973,
          -0.93868256,
          -0.30709076,
          -0.63352585,
          0.795784,
          0.7325635,
          -0.5270431,
          0.70263743,
          -0.0093791485,
          -0.8419137,
          -0.61615515,
          -0.8907163,
          0.71986675,
          0.8139329,
          0.36076093,
          -0.025937557,
          0.71998096,
          0.05339074,
          -0.6619592,
          0.20627737,
          0.72729135,
          0.64563966,
          -0.16768408,
          -0.26807857,
          -0.704134,
          0.85585,
          0.84434366,
          0.048840046,
          -0.9590812,
          0.7180557,
          -0.1789949,
          0.6672025,
          0.07513523,
          0.095766544,
          -0.84392,
          0.07136941,
          -0.8225527,
          -0.26891065,
          -0.07989788,
          -0.9588535,
          0.70806694,
          0.12371707,
          0.33940125,
          0.54029727,
          -0.5331826,
          -0.8190036,
          0.058061123,
          -0.6168184,
          0.83608913,
          -0.081808805,
          -0.56186604,
          0.52641416,
          -0.6257498,
          0.40356708,
          0.50343037,
          0.7726071,
          -0.87037826,
          -0.9853506,
          -0.432714,
          0.7811656,
          0.51796246,
          -0.7698338,
          0.2292676,
          0.2314744,
          -0.7364247,
          0.6175046,
          -0.9796989,
          0.16973734,
          -0.97363544,
          -0.05047226,
          0.72932816,
          0.50093555,
          0.8304899,
          -0.35007095,
          0.29619145,
          -0.6797967,
          0.525758,
          -0.89430475,
          0.9962764,
          0.36254406,
          0.65520406,
          -0.45980692,
          -0.91111875,
          -0.78387475,
          -0.22059274,
          0.55130386,
          -0.9199574,
          0.8930259,
          0.53066945,
          -0.2008431,
          0.57805943,
          -0.035363197,
          0.8162596,
          -0.31987,
          -0.9761002,
          -0.7838485,
          -0.9142637,
          -0.3634658,
          -0.5185096,
          0.6561768,
          0.03750682,
          -0.6463952,
          0.18699574,
          -0.91854906,
          -0.57111096,
          0.26108384,
          0.97543025,
          0.94883585,
          -0.09741974,
          0.9083874,
          0.9547622,
          0.444695,
          0.1624775,
          0.029436111,
          -0.37337685,
          -0.23824358,
          0.10657096,
          0.7729702,
          0.99822307,
          -0.51529455,
          0.10391736,
          0.65787816,
          -0.2993672,
          0.58183384,
          0.7904382,
          0.67519045,
          0.26276493,
          0.33665895,
          0.6151333,
          0.28012657,
          -0.8279364,
          0.77414703,
          -0.12511277,
          0.5934484,
          0.0011281967,
          -0.42879224,
          0.6466503,
          0.1288464,
          -0.45843506,
          0.6552279,
          0.7715144,
          -0.27667713,
          -0.72800875,
          0.17290092,
          -0.13304877,
          -0.24034786,
          0.59674287,
          0.0803287,
          0.9817505,
          0.51011705,
          0.8894732,
          0.36939406,
          -0.20838475,
          0.17690945,
          -0.8308399,
          -0.65589714,
          -0.3554933,
          -0.9408989,
          0.3307333,
          0.5144129,
          -0.24059463,
          -0.103336334,
          -0.1876657,
          -0.049144506,
          0.8935075,
          -0.23494267,
          0.5905533,
          -0.36637688,
          -0.17576694,
          -0.18157387,
          -0.8963015,
          0.2297256,
          0.089410305,
          -0.1914978,
          0.59666705,
          -0.6734493,
          0.78862643,
          -0.09193587,
          -0.6380892,
          -0.3724246,
          -0.46692586,
          0.41750598,
          0.73177624,
          -0.46746612,
          -0.84815,
          0.1399827,
          0.3448639,
          0.57849216,
          0.24785614,
          -0.29626417,
          0.6235807,
          -0.94463706,
          -0.21394944,
          0.67432094,
          0.5488632,
          0.16748667,
          0.34619713,
          0.56727934,
          0.97592807,
          -0.25982666,
          0.5276172,
          0.0075023174,
          -0.06556773,
          -0.2763896,
          -0.7882807,
          -0.08975363,
          -0.7848096,
          -0.04563737,
          0.9729092,
          -0.73741627,
          -0.8265922,
          0.8635516,
          0.30505252,
          0.43394923,
          0.36365438,
          0.9829025,
          0.8514433,
          -0.020317078,
          -0.28947926,
          -0.8286135,
          -0.38911653,
          0.094383,
          0.053687334,
          -0.37918568,
          -0.16841555,
          0.6089115,
          -0.6091287,
          0.38339758,
          0.3851719,
          -0.052543163,
          -0.6568613,
          0.28316355,
          -0.13718653,
          -0.8316183,
          0.26494288,
          -0.4577484,
          0.24392343,
          0.17147946,
          0.027111292,
          0.9431484,
          -0.23924518,
          -0.82569003,
          -0.050063133,
          0.52531695,
          0.71175385,
          -0.12120366,
          0.04352951,
          0.8880503,
          0.5165496,
          0.43102193,
          0.7791889,
          -0.21647,
          0.9548607,
          0.16759872,
          0.43236303,
          -0.10437155,
          0.36708975,
          -0.3845954,
          0.7131603,
          0.44109774,
          0.18790364,
          0.25240707,
          -0.13182616,
          0.10607076,
          0.19217563,
          -0.7195964,
          0.47795582,
          -0.169106,
          -0.56500006,
          0.8858733,
          0.71851254,
          0.60422564,
          0.10011077,
          -0.5483227,
          0.19995928,
          -0.015784502,
          -0.14681864,
          0.047952652,
          0.9614999,
          0.056926012,
          -0.9939647,
          -0.4057436,
          0.021146297,
          0.41319728,
          0.75992155,
          -0.14783287,
          -0.5766969,
          -0.056414604,
          -0.18806481,
          -0.25413537,
          -0.757262,
          0.47016478,
          0.7993591,
          -0.81100607,
          0.37889028,
          -0.70493865,
          -0.6768768,
          0.8502927,
          -0.69035673,
          0.22003198,
          -0.8526802,
          -0.8572259,
          0.30061102,
          0.4871812,
          0.10437608,
          0.27910733,
          0.13478851,
          -0.62861943,
          0.66465235,
          -0.050718784,
          0.1502738,
          -0.95762897,
          0.47245336,
          0.7936857,
          0.28539562,
          0.24436283,
          -0.36800313,
          -0.6123767,
          -0.55380774,
          -0.93187,
          -0.09248304,
          -0.3977251,
          0.82086325,
          -0.8537111,
          0.8799565,
          0.58246803,
          -0.26161408,
          0.8118973,
          -0.4426825,
          0.24384117,
          -0.9861553,
          0.41370773,
          0.76821804,
          -0.77864504,
          -0.6479938,
          -0.6782539,
          0.5302315,
          -0.3867998,
          -0.99163246,
          -0.9767115,
          -0.3571279,
          0.65827703,
          -0.10016823,
          -0.5593426,
          -0.14995337,
          0.5680728,
          -0.3553021,
          -0.8577397,
          0.40139723,
          0.4464357,
          0.9714346,
          -0.26294494,
          0.46611357,
          0.79789543,
          -0.40277815,
          -0.60719943,
          -0.17825556,
          0.85038185,
          0.929837,
          0.78834033,
          0.076728106,
          0.36037397,
          0.6570189,
          0.7148621,
          0.72474265,
          -0.9069731,
          -0.1986978,
          0.7531662,
          -0.5939894,
          -0.018956661,
          0.42288518,
          -0.28035808,
          -0.8946953,
          -0.44631124,
          -0.35000777,
          -0.8494797,
          0.19340634,
          0.0037813187,
          -0.9297147,
          -0.4476571,
          0.7197025,
          0.36759782,
          0.6119735,
          -0.17580748,
          -0.032268763,
          -0.59296536,
          0.07661581,
          -0.327502,
          0.54581547,
          -0.34944797,
          -0.57793856,
          0.83510375,
          0.15465641,
          0.46254754,
          0.47762346,
          -0.61653996,
          -0.39419174,
          -0.037813902,
          0.7064402,
          -0.968415,
          -0.90750384,
          -0.88208485,
          0.51676416,
          0.9393995,
          -0.5647254,
          -0.6360843,
          -0.24977827,
          0.0054392815,
          -0.35880184,
          0.97483516,
          0.32580233,
          -0.8980911,
          -0.12664485,
          0.6269877,
          -0.48214555,
          0.51859474,
          -0.6883848,
          0.87537193,
          -0.5510857,
          0.42236924,
          -0.88179064,
          0.5399239,
          0.61412096,
          0.59276366,
          0.9845743,
          -0.36440802,
          0.36683726,
          0.5856104,
          -0.2196188,
          -0.19580579,
          -0.46607828,
          -0.23784137,
          0.7963233,
          0.11637449,
          0.6471324,
          0.35507202,
          -0.9750986,
          -0.47139478,
          0.36205196,
          -0.20352817,
          -0.6096208,
          0.046890497,
          0.017610312,
          0.6055751,
          -0.78227496,
          -0.7274487,
          0.5680728,
          -0.5528679,
          -0.19611835,
          -0.99567556,
          0.5353496,
          0.654963,
          -0.04972601,
          0.51511455,
          -0.29436445,
          -0.34424448,
          -0.03498888,
          0.33577108,
          0.4833486,
          -0.81016207,
          -0.5726681,
          -0.8231549,
          0.28743887,
          -0.54264355,
          0.44962692,
          -0.5830157,
          -0.15623116,
          -0.32424545,
          0.9899857,
          -0.7771692,
          -0.34645462,
          -0.3740208,
          -0.25770664,
          -0.36767888,
          0.19159245,
          -0.37508607,
          0.41716266,
          -0.94754386,
          -0.8662536,
          -0.56662774,
          0.8646679,
          -0.8577287,
          0.47457886,
          0.38680267,
          -0.24255896,
          0.8716779,
          -0.23725152,
          0.6060624,
          0.5146122,
          -0.4976611,
          -0.8669789,
          0.58724165,
          -0.7800021,
          -0.56045985,
          -0.8012161,
          -0.14705944,
          -0.6977184,
          0.19498491,
          -0.23522091,
          0.03865385,
          0.4570446,
          -0.8163409,
          0.6286185,
          -0.57049394,
          0.7346003,
          -0.68233514,
          -0.2020607,
          -0.57125735,
          0.26039982,
          -0.111269236,
          -0.39632678,
          0.59946036,
          -0.3608029,
          -0.6561463,
          -0.864671,
          0.75517344,
          -0.31290293,
          0.34179306,
          -0.6459882,
          0.5004957,
          0.49452043,
          0.28900123,
          -0.4321792,
          0.13819385,
          -0.33469176,
          0.6474824,
          -0.910264,
          0.15653539,
          -0.68425107,
          -0.57951474,
          -0.77174234,
          -0.8874316,
          -0.5015378,
          0.404104,
          -0.7493434,
          -0.45377254,
          0.36998534,
          -0.34693623,
          -0.09192443,
          0.10328245,
          0.47038412,
          0.17534399,
          0.97144675,
          -0.52562404,
          -0.91249895,
          0.7865429,
          0.49970388,
          -0.7514329,
          0.37358832,
          -0.88774323,
          0.9411988,
          -0.46876287,
          0.20094061,
          -0.016190052,
          -0.4664092,
          -0.9961395,
          -0.25888467,
          0.8261707,
          -0.3449185,
          -0.42677617,
          -0.40115333,
          0.7949929,
          0.1419599,
          0.4764228,
          -0.90091085,
          0.40469217,
          -0.9705789,
          0.118872404,
          -0.23643231,
          0.30711365,
          -0.75912166,
          0.23150468,
          -0.29757833,
          0.11224437,
          0.58899736,
          0.25567794,
          0.72153044,
          -0.4279654,
          -0.027323723,
          -0.25101376,
          0.70762897,
          -0.65192294,
          0.2694075,
          0.4734726,
          0.46564245,
          0.6896355,
          -0.70979404,
          0.6465616,
          -0.25881076,
          0.4228778,
          -0.25131893,
          0.0088505745,
          0.9954183,
          -0.58691454,
          -0.53040123,
          0.9752457,
          -0.8971913,
          -0.25034165,
          -0.1830225,
          0.3985219,
          -0.10232115,
          -0.43865418,
          -0.3197031,
          -0.7896788,
          -0.8817804,
          0.90098405,
          0.2061882,
          -0.7953489,
          -0.18791819,
          -0.36460304,
          -0.024374247,
          -0.40241766,
          -0.639241,
          -0.21392298,
          0.39728475,
          -0.7229264,
          0.5196905,
          -0.10330129,
          -0.9655256,
          -0.9516072,
          -0.13263965,
          -0.19872713,
          0.3063314,
          0.60548234,
          -0.83830523,
          0.4662292,
          0.3795967,
          -0.03131628,
          0.8511305,
          -0.50282,
          -0.93235755,
          0.94978833,
          0.8851161,
          -0.77643466,
          0.5933037,
          0.36144137,
          -0.055502653,
          0.1675415,
          0.7983086,
          -0.70578265,
          -0.24499035,
          0.98312044,
          0.8529885,
          0.08680582,
          -0.260242,
          -0.073513985,
          -0.015138149,
          -0.17925191,
          0.87828374,
          0.5269761,
          -0.51037645,
          -0.32097936,
          -0.20054173,
          -0.008529186,
          -0.6738033,
          -0.47494388,
          -0.23012066,
          -0.48613548,
          -0.16252565,
          0.4934597,
          0.015189409,
          0.93030167,
          0.92014647,
          -0.010091305,
          0.5655508,
          0.84960175,
          -0.89757705,
          0.6038902,
          -0.5797341,
          -0.7502456,
          0.45492148,
          -0.122573376,
          0.94941735,
          0.7746482,
          -0.089651585,
          -0.5061877,
          -0.9326012,
          -0.61081624,
          -0.16764712,
          -0.58135366,
          -0.7632985,
          0.26945543,
          -0.9253087,
          0.90212965,
          0.88147354,
          -0.8424716,
          -0.23835325,
          -0.52306414,
          0.21153808,
          -0.3355782,
          0.8172922,
          0.55374527,
          0.5835533,
          0.9326556,
          0.87810755,
          -0.25780392,
          0.86713386,
          -0.043411493,
          -0.35900283,
          -0.57836986,
          0.7086694,
          0.45639777,
          -0.4756868,
          -0.66405654,
          0.48776674,
          0.36025453,
          -0.4632423,
          0.0013642311,
          -0.023355484,
          -0.0073571205,
          -0.9993341,
          -0.40826058,
          0.65071034,
          -0.94937754,
          0.9671874,
          0.50907016,
          -0.38112378,
          -0.39183497,
          -0.3694203,
          0.7469983,
          -0.020380497,
          -0.7391114,
          -0.35509872,
          0.006990671,
          -0.37708068,
          -0.30242968,
          0.73604155,
          0.06452894,
          -0.10742426,
          0.46903944,
          0.31878638,
          0.854826,
          0.43574452,
          -0.5761974,
          -0.9864614,
          0.25861764,
          -0.9228716,
          -0.45943284,
          0.23980856,
          -0.22807145,
          0.8179257,
          0.6237633,
          0.69513464,
          -0.856642,
          -0.6640825,
          0.62110066,
          0.33543563,
          -0.27051282,
          -0.014928341,
          0.8564575,
          -0.5230167,
          0.15682149,
          -0.47599077,
          -0.2881453,
          0.29047084,
          -0.5160985,
          -0.13262653,
          -0.5176134,
          -0.92614913,
          -0.56518626,
          0.8341274,
          0.99237657,
          0.28405595,
          0.5999906,
          0.58839655,
          0.8629842,
          0.04467106,
          -0.736506,
          -0.5331595,
          -0.7491722,
          -0.32973623,
          0.06513882,
          0.4438386,
          0.605237,
          0.19862676,
          -0.33214188,
          0.79099345,
          -0.80973554,
          -0.5622804,
          -0.7102289,
          0.8834443,
          0.23265886,
          -0.1822784,
          0.7678075,
          -0.82944226,
          -0.85624576,
          -0.46791148,
          0.37586093,
          -0.41852736,
          0.3674636,
          -0.00781846,
          -0.702991,
          -0.47330356,
          -0.09657788,
          0.61830854,
          -0.14978004,
          0.46348524,
          -0.02531147,
          -0.6574714,
          0.6354401,
          0.6100483,
          -0.94877386,
          -0.7227137,
          0.90656686,
          -0.57957673,
          0.031022549,
          0.19061828,
          -0.07041335,
          0.54098177,
          0.1696856,
          0.39156103,
          -0.42277884,
          -0.36849976,
          -0.43367457,
          0.22502685,
          0.29486203,
          -0.8585112,
          -0.22243094,
          0.34461164,
          0.42360926,
          -0.99917626,
          -0.9684019,
          -0.7448585,
          0.075576544,
          0.478693,
          0.24885583,
          -0.23731995,
          -0.16083932,
          0.3207028,
          -0.6546359,
          -0.9401765,
          0.22369766,
          0.49546957,
          -0.89563847,
          0.23148131,
          0.43200564,
          -0.11071205,
          -0.006191969,
          0.44504857,
          -0.031974554,
          0.23186207,
          -0.34046364,
          -0.029347658,
          -0.90056133,
          0.32714295,
          0.15197206,
          0.470654,
          0.63310313,
          0.91947436,
          -0.3991139,
          -0.5365846,
          0.8664708,
          0.2959392,
          -0.16281843,
          -0.6379192,
          -0.66891956,
          0.89754534,
          0.21996737,
          -0.10682082,
          0.45165968,
          -0.57886934,
          0.8758023,
          0.86467385,
          0.33575034,
          0.9981246,
          -0.5501821,
          -0.20059013,
          0.7026193,
          0.1916492,
          -0.5964005,
          0.79869556,
