{
  "path": "ML-saves/third-attempt.json",
  "iteration": 346100,
  "layers": [
    {
      "from_amount": 784,
      "node_amount": 10,
      "weights": {
        "v": 1,
        "dim": [
          10,
          784
        ],
        "data": [
          0.016749635,
          -0.10113766,
          -1.7634513,
          -0.27046642,
          -0.122496,
          0.9647386,
          -2.967283,
          -2.3712506,
          0.5195925,
          -2.2250087,
          2.0471632,
          4.327242,
          0.068348855,
          1.8030217,
          -0.7445827,
          0.9727056,
          -0.2539077,
          0.7570629,
          0.093396924,
          0.16640295,
          -0.65743405,
          0.34220847,
          -2.0803566,
          -2.8104753,
          3.334172,
          -1.475087,
          -0.8912504,
          -4.8996096,
          -1.2014326,
          3.3799949,
          0.24135411,
          0.8502412,
          -2.231583,
          2.130687,
          -0.8664036,
          3.7864745,
          0.87918264,
          -3.5366437,
          -4.5953984,
          4.9868984,
          -3.2980106,
          2.9019895,
          0.1569152,
          0.85333574,
          1.8344932,
          0.6622238,
          3.349868,
          0.13703987,
          -0.9945051,
          -1.760093,
          -1.5104882,
          2.5263736,
          2.4020088,
          2.9649568,
          -1.5070807,
          -0.21912695,
          -2.0840223,
          0.021263115,
          -1.6310006,
          1.2897112,
          0.99642456,
          -1.82674,
          -1.9021987,
          0.8924394,
          -0.8064424,
          -0.30708358,
          1.944784,
          -1.8874553,
          1.0583055,
          4.654152,
          1.2455487,
          0.16853333,
          -1.1525,
          -1.4598106,
          -0.53413564,
          -0.52053136,
          -4.30327,
          -0.91222984,
          -0.42874125,
          2.0852222,
          0.27928936,
          2.0355477,
          -1.9895036,
          -0.64287776,
          -2.1491473,
          2.7622342,
          -4.5228596,
          0.014423742,
          2.5853372,
          -2.8034527,
          2.8177445,
          -3.042132,
          4.174807,
          3.6161397,
          -0.99910855,
          -2.2054381,
          0.8119114,
          1.5400864,
          -0.6447181,
          -1.2734435,
          -0.9997934,
          -2.5049624,
          -1.7560332,
          -3.4403245,
          2.186318,
          -2.7645106,
          -1.3728001,
          1.2873558,
          0.514234,
          -1.1748942,
          -1.6115626,
          1.0215081,
          3.4726667,
          -4.9555287,
          0.11917004,
          1.5912322,
          0.93754417,
          1.4372218,
          0.5889795,
          2.9538264,
          -0.38042855,
          -1.6021672,
          1.9572815,
          0.31229535,
          -2.4760041,
          -0.822782,
          -4.5086937,
          -1.169548,
          2.184143,
          -2.0672662,
          0.36945358,
          -0.7373819,
          -0.64781326,
          -1.5305799,
          -2.623024,
          -5.5952463,
          0.7308215,
          0.3466548,
          -0.3807655,
          0.9902634,
          1.4395633,
          -0.30727023,
          0.3288197,
          1.5071462,
          1.4815333,
          -2.503114,
          1.0458906,
          4.838878,
          -4.172783,
          -1.2800237,
          0.22900039,
          -0.8566432,
          0.9003993,
          1.3016263,
          -0.48723224,
          1.3958142,
          -0.44012707,
          -1.0951674,
          2.9395463,
          2.2352197,
          -1.3755952,
          -1.3304251,
          -1.930891,
          -0.6356952,
          3.9303021,
          1.2201216,
          -3.4555802,
          1.4220423,
          0.55917794,
          1.432512,
          -0.39038825,
          -0.2466333,
          2.068603,
          2.2961702,
          -0.43915716,
          -1.6767308,
          -1.1633906,
          1.5023072,
          -0.99665916,
          0.39804423,
          -0.71363735,
          1.5995106,
          1.5753022,
          -0.28998977,
          0.43351918,
          2.6962087,
          0.59067816,
          -1.6781025,
          -0.00286857,
          0.81478363,
          0.44076252,
          -5.2371497,
          -3.1674435,
          0.94632626,
          -1.5362809,
          2.4721303,
          1.985823,
          -1.678304,
          0.54269326,
          0.94790435,
          -0.028993962,
          1.307416,
          -4.226153,
          -0.6763287,
          -4.001871,
          1.2611855,
          -3.8400626,
          0.36819172,
          0.6283696,
          -2.917632,
          3.1079128,
          -0.13243946,
          0.9251791,
          2.4230545,
          0.017360862,
          -0.3021655,
          1.6502184,
          2.5375392,
          -0.47025427,
          1.4174378,
          0.5692838,
          -0.10340922,
          -0.40817276,
          2.3766327,
          -3.4127681,
          0.09399379,
          1.6523412,
          -3.1066306,
          1.7001809,
          -0.45995423,
          -0.7551152,
          1.9739048,
          -1.064746,
          1.7601959,
          0.10609917,
          0.18057653,
          -2.0115457,
          0.33070192,
          -1.8530207,
          2.9781837,
          3.9653988,
          0.115209416,
          -0.6623629,
          -0.6064339,
          1.6656516,
          -0.77807194,
          -2.5314834,
          2.3996499,
          0.9252686,
          -2.2134619,
          -0.108420156,
          -1.8758751,
          -1.6064321,
          0.17589876,
          0.9797202,
          0.33063167,
          -1.7391825,
          -2.7127063,
          1.195517,
          3.3684146,
          -2.4877622,
          -1.3715619,
          1.484603,
          -0.38775745,
          -0.19672713,
          -2.038995,
          0.49293685,
          -1.60298,
          -0.3605739,
          -0.24739863,
          3.4177797,
          -1.0126781,
          -0.1290342,
          0.56414855,
          0.45792136,
          1.1774966,
          -1.4510092,
          -1.9033028,
          1.1687963,
          -0.81106323,
          -0.32120633,
          -1.2397971,
          -5.686038,
          0.011995338,
          -0.49370173,
          -1.8234478,
          -0.7650505,
          -0.28019655,
          -3.4253957,
          0.4699999,
          -0.17724633,
          4.2494965,
          -2.3122733,
          -0.6782085,
          -0.7024279,
          5.0462275,
          -2.800651,
          1.2666627,
          0.4060934,
          4.6268444,
          0.9622146,
          0.31382564,
          -0.6214621,
          0.77088976,
          0.06952037,
          2.8311992,
          -0.5843532,
          1.4935937,
          0.53773797,
          -1.5903955,
          2.712358,
          2.6861694,
          -1.4182255,
          3.1787226,
          1.2244369,
          2.326648,
          0.7974766,
          -0.25517854,
          -1.674931,
          0.74347293,
          2.9523966,
          -1.1548042,
          -0.7985568,
          -1.8138605,
          -0.6471846,
          0.935187,
          3.8061259,
          -1.416518,
          0.35586318,
          -1.4643021,
          4.089919,
          0.1802401,
          -1.2383541,
          -2.1262076,
          1.5837792,
          -3.879955,
          -2.0873184,
          -2.0265884,
          -2.820398,
          -1.6101942,
          1.5431905,
          -2.2853203,
          1.5079056,
          -0.9664481,
          2.489231,
          1.2474504,
          -2.4583182,
          1.823087,
          -2.4678092,
          -4.2463903,
          1.2530462,
          -2.9598165,
          -1.8220662,
          -3.0492682,
          -0.97309285,
          -0.76519483,
          0.9715483,
          1.431082,
          -0.7234984,
          0.95323414,
          -2.1249962,
          -3.7273867,
          1.0154313,
          -0.60772914,
          -1.4603845,
          -2.1631181,
          -1.8779839,
          3.2948287,
          -2.6981926,
          1.2991546,
          -1.490386,
          -2.0284603,
          -2.946923,
          -0.23949024,
          1.3321242,
          1.4301043,
          -1.7321998,
          -1.4925374,
          -4.7036037,
          -4.7368007,
          -3.8124962,
          -1.5917846,
          -4.208253,
          0.28111726,
          -0.106235914,
          1.0929577,
          -0.09716197,
          3.4710727,
          1.7649388,
          3.7633693,
          -0.60598475,
          0.11021469,
          1.0176281,
          3.8129888,
          -0.7003752,
          0.53671056,
          2.61699,
          1.164802,
          -1.6587243,
          2.323199,
          0.7009049,
          0.9481159,
          0.8053918,
          3.848785,
          -2.4541333,
          -1.6101854,
          -4.535845,
          -3.1572893,
          -1.0651965,
          -0.56860447,
          -2.1325235,
          -1.6565719,
          1.7005231,
          1.4462919,
          2.1418245,
          -0.41605386,
          -2.8325405,
          -0.75842106,
          -1.6350329,
          5.5685854,
          3.985447,
          0.40322965,
          -2.1122653,
          -0.89638144,
          -3.3507547,
          2.0818489,
          0.96919066,
          4.3694577,
          -0.5628394,
          1.5208972,
          0.19788408,
          -1.5360916,
          -5.77522,
          -3.2574074,
          -1.6307987,
          -1.6898726,
          -2.3257432,
          -1.1830902,
          -1.3626801,
          0.5639943,
          -3.442386,
          3.351679,
          2.1807191,
          0.093938835,
          1.6625998,
          -2.562224,
          2.399603,
          0.14858754,
          -1.4980434,
          2.1107585,
          2.5902734,
          -3.759953,
          -0.80783564,
          2.2401998,
          2.9591746,
          -0.66516364,
          4.079977,
          -0.59557956,
          5.2602687,
          0.13454172,
          -3.2223961,
          -8.00173,
          -6.783026,
          0.21498835,
          -4.292104,
          3.148157,
          -2.3898335,
          1.4411799,
          0.28569427,
          -1.1655256,
          0.024466956,
          1.7106603,
          -0.66673553,
          -2.7785785,
          -4.152434,
          -2.2173965,
          5.1420217,
          0.6645679,
          -0.93395346,
          1.1940354,
          0.9101153,
          3.8820434,
          1.344602,
          1.1653132,
          1.3112987,
          4.02727,
          1.4756228,
          -0.2546065,
          -1.8872592,
          -2.0042908,
          -1.6646932,
          -3.9933033,
          -0.08917779,
          -2.540498,
          -0.3752591,
          1.1956623,
          -0.33886823,
          0.6226909,
          -2.1811635,
          -0.093174495,
          -0.88671714,
          4.1243587,
          0.17264766,
          0.21882789,
          -1.6809835,
          2.9831064,
          -1.8116448,
          -2.0768454,
          -3.159021,
          1.1030045,
          -0.6325913,
          0.55748403,
          2.985089,
          0.18577653,
          3.7064655,
          -0.64295375,
          -2.1398602,
          -2.939386,
          -2.9042015,
          1.253521,
          -1.0687994,
          -3.5134876,
          2.2304256,
          -2.6465044,
          -1.2050943,
          3.1100295,
          -0.5699431,
          1.0847604,
          0.9534601,
          1.2696446,
          2.9881754,
          -3.654242,
          -1.6901884,
          -0.6544254,
          -0.3609606,
          4.1488714,
          -0.75216466,
          -3.2128952,
          -2.9457138,
          4.21864,
          1.5381293,
          -1.21351,
          0.30923238,
          1.8792392,
          -0.6341622,
          -2.605954,
          -1.5000308,
          -0.7457129,
          0.45903662,
          -3.162329,
          0.73575,
          0.07961153,
          0.08539335,
          -2.992128,
          0.80930674,
          -1.9271487,
          -3.8002048,
          1.1143596,
          -0.14950868,
          0.43084458,
          0.94600105,
          -1.3240672,
          -2.1995368,
          1.4678583,
          1.6647617,
          -0.05398114,
          0.69563043,
          2.7131982,
          -3.6506276,
          4.8949723,
          0.36230332,
          1.1605818,
          0.8090218,
          -2.3165007,
          0.81739974,
          -2.7105055,
          1.7817403,
          -3.107778,
          -3.9569964,
          -4.713244,
          -0.37344033,
          3.7159762,
          -2.5875232,
          -4.256746,
          -2.7315567,
          0.2938127,
          -0.42934245,
          0.41002226,
          0.87290984,
          1.0907999,
          -0.67798716,
          -0.6744891,
          0.06917216,
          -1.0435926,
          -0.43227813,
          0.17374137,
          -0.34452197,
          3.4970493,
          1.6298441,
          -1.9162965,
          3.356889,
          0.7922858,
          0.48956153,
          0.2899878,
          -3.0880623,
          1.5543756,
          -1.8984419,
          -1.4203278,
          0.26424608,
          -2.6125913,
          1.463117,
          -2.6593733,
          1.3417048,
          -3.2071064,
          -0.07779936,
          -3.1992779,
          1.6786423,
          0.8955032,
          -1.7799944,
          -1.2634028,
          -1.5715607,
          -0.36617523,
          5.8637285,
          2.3316662,
          0.4249573,
          1.4702423,
          0.58631635,
          1.3740256,
          0.8382251,
          -0.96048427,
          1.1289738,
          0.41112837,
          2.9247563,
          -0.065232545,
          -1.3008367,
          -2.6042893,
          -2.424481,
          -2.9230022,
          -1.9033922,
          -0.32807544,
          -1.7427436,
          -4.2656417,
          -0.5246885,
          0.6654186,
          -2.5474281,
          3.1405141,
          0.56493074,
          0.692822,
          1.5595175,
          -2.345847,
          -1.4473219,
          -1.9481955,
          2.9713755,
          -0.2621668,
          -2.1911159,
          -0.35590267,
          -0.03493411,
          0.2494252,
          1.5481455,
          1.2795999,
          -3.7584739,
          -1.5146085,
          -0.9681192,
          1.5597649,
          -0.55404377,
          -5.6609564,
          -0.9249308,
          0.33449158,
          -1.2063103,
          -3.0005002,
          0.8884718,
          -1.9201809,
          0.12875333,
          3.003916,
          -0.444134,
          -3.0243814,
          2.3837998,
          5.3801413,
          -1.9606587,
          1.0285113,
          1.8626866,
          -2.331962,
          -0.54604053,
          1.1561564,
          0.42224365,
          2.1062655,
          -2.445826,
          2.7558112,
          -1.8383473,
          0.9275596,
          -0.27364635,
          2.4943428,
          -1.7050728,
          -1.0646225,
          0.13747889,
          0.53178275,
          0.0012873799,
          -3.5626438,
          4.2632785,
          -2.2941296,
          -1.8897173,
          -1.3819729,
          -0.20904274,
          0.9997465,
          -3.371268,
          -4.628897,
          0.86072254,
          -0.83155763,
          -3.396973,
          1.2941748,
          -4.134121,
          -1.5307659,
          -0.18673733,
          -2.3939004,
          -2.3899763,
          -1.4026018,
          1.8907334,
          -1.9393871,
          -2.9938858,
          1.8467255,
          -5.5778675,
          -1.9836907,
          -0.95791364,
          0.45545003,
          -1.4668143,
          1.7280585,
          0.65571606,
          -3.235354,
          -0.5883704,
          -0.62567526,
          1.57504,
          0.5116901,
          0.025881201,
          -1.0667926,
          -0.8169004,
          -2.7220485,
          -0.18366688,
          -1.4254891,
          -2.009713,
          -2.2041993,
          0.7561357,
          -2.2392592,
          -1.1231256,
          -4.7648745,
          1.8883051,
          -0.8445971,
          0.6439259,
          3.5617025,
          0.15359245,
          1.6235902,
          -1.8345498,
          0.79716384,
          2.6812398,
          0.591356,
          -2.0909886,
          -2.3045309,
          -2.085985,
          4.977237,
          -2.1504128,
          -1.8512843,
          -2.231913,
          2.1754825,
          0.9687006,
          1.753764,
          0.41971773,
          1.8899294,
          -2.1528876,
          -4.8898683,
          -2.958507,
          0.29790494,
          0.7818784,
          -0.3024457,
          -1.226554,
          0.28908864,
          -4.583957,
          2.3341327,
          -2.7136862,
          0.93259275,
          1.0870241,
          -2.9681625,
          -0.2499168,
          -0.6528569,
          -0.3624516,
          3.9527345,
          -2.0650818,
          3.4060726,
          0.15842712,
          0.5780391,
          0.79717517,
          -0.5896769,
          0.22536962,
          3.4849987,
          0.76691383,
          0.33286402,
          0.45274457,
          -1.1995528,
          -0.18487775,
          2.602087,
          -0.15183155,
          0.9377139,
          1.0471797,
          -1.441185,
          7.367936,
          0.14428799,
          -0.86527365,
          -1.7324629,
          2.49444,
          -0.18029237,
          0.6795007,
          -0.6568715,
          -1.2830359,
          -0.47776735,
          1.4125534,
          -1.6206377,
          2.9064178,
          -3.2588246,
          3.2640173,
          0.34354976,
          -0.24036357,
          1.2388442,
          2.142825,
          -3.6970575,
          1.921812,
          0.5302856,
          2.3143082,
          -2.0531175,
          -2.2050142,
          1.4575053,
          2.088598,
          1.2716167,
          1.500012,
          -2.6250055,
          0.29847437,
          -2.169169,
          2.6372688,
          0.9740252,
          -1.642373,
          -1.8228575,
          0.31139764,
          1.1206632,
          -1.2392292,
          -1.2058308,
          4.006974,
          4.20413,
          2.1726294,
          0.14313845,
          1.7798309,
          4.115389,
          3.6933877,
          4.630148,
          0.10517945,
          -1.0362557,
          1.286972,
          -2.8301744,
          2.213475,
          2.1734898,
          -0.69944483,
          0.26295108,
          0.6034701,
          -0.93421763,
          0.16858687,
          -0.9675504,
          2.277726,
          5.3264775,
          1.2506797,
          2.797274,
          1.2902322,
          4.535011,
          1.2312232,
          -3.2087665,
          -0.2535517,
          -2.7745013,
          -1.8478822,
          2.7399502,
          3.5069573,
          -4.638332,
          1.9809984,
          0.6260753,
          -0.7031624,
          0.65092534,
          -2.3509595,
          1.8077722,
          -6.1870995,
          3.6844819,
          -1.3965116,
          0.8973093,
          -1.2866025,
          -0.0243169,
          -1.4205219,
          0.7340826,
          -2.3679216,
          0.27258745,
          2.4108717,
          -1.5807025,
          -2.9544294,
          -1.1343316,
          0.4235992,
          0.77808034,
          3.0770712,
          0.19101332,
          1.5456523,
          -0.15706389,
          0.8066137,
          0.6487158,
          1.3055043,
          4.336069,
          -0.75704944,
          -0.29627436,
          -0.8205917,
          0.1486255,
          1.9804684,
          0.6036335,
          0.080363065,
          -0.7247301,
          -0.9266048,
          -3.0669131,
          0.19176391,
          -2.2316725,
          -1.3749889,
          6.4221387,
          -0.6637462,
          0.819458,
          -1.3581762,
          0.5833227,
          -1.3158786,
          1.8717679,
          2.0131602,
          -1.2259163,
          -3.0885577,
          0.40481552,
          -0.318526,
          3.916244,
          -3.0218325,
          -3.0246012,
          -2.031216,
          1.2783709,
          -0.57437426,
          -1.5979238,
          0.28838024,
          -1.8378983,
          -0.41323888,
          0.09530823,
          -2.5260637,
          2.39817,
          2.9187598,
          1.8247567,
          0.5806207,
          -0.66078234,
          3.394373,
          1.5417038,
          1.2741587,
          4.7608085,
          -3.9197552,
          0.82505053,
          -0.42211124,
          -0.24047893,
          -2.7820542,
          3.1018445,
          0.44975224,
          -0.34393764,
          -1.1346109,
          -1.0152862,
          0.31522346,
          -1.3723758,
          -1.2918292,
          0.008750434,
          -2.1933267,
          3.4899251,
          -1.555136,
          -1.3543508,
          1.8893689,
          -0.8961091,
          0.60255605,
          -1.1858038,
          0.05842554,
          -0.28488034,
          3.620306,
          -3.1530087,
          4.4654355,
          -1.8126571,
          -0.24624167,
          -1.2478586,
          -2.528252,
          -1.5213047,
          0.6468709,
          -3.4667675,
          -0.8362218,
          -0.24370375,
          -3.596932,
          -3.0955913,
          1.0915587,
          -1.2796526,
          0.0003088949,
          2.168741,
          -2.7552326,
          -1.7575995,
          -0.33365607,
          -3.9726768,
          -1.321979,
          2.224547,
          -1.6738945,
          0.42919993,
          -1.3051174,
          -0.7205179,
          3.151611,
          -0.10082115,
          -0.9855733,
          -0.27819577,
          3.6673238,
          -0.8323331,
          -2.3418915,
          -0.79861176,
          -1.2998313,
          0.55058473,
          1.2774216,
          -3.6060848,
          -0.04830443,
          -2.0665393,
          -2.627416,
          -0.22977692,
          -0.7650037,
          -2.2923906,
          1.8653709,
          1.834342,
          -0.70596534,
          0.17919987,
          -0.7391966,
          -3.3833716,
          -0.75995535,
          -2.8459954,
          0.8817544,
          -1.8932472,
          -2.2106326,
          -2.3544104,
          2.5081494,
          4.3956428,
          -1.2965025,
          -0.47107044,
          -1.1170458,
          0.82058775,
          -0.39954817,
          -3.4536521,
          -3.1239614,
          -2.397377,
          0.194986,
          -1.4792186,
          -2.3370752,
          -3.2103453,
          0.44100252,
          -2.5273519,
          1.1259158,
          -2.1715145,
          -0.7635093,
          -0.4200532,
          -1.4228705,
          1.1250553,
          0.33438304,
          -3.856827,
          -1.7110093,
          -2.308498,
          1.855782,
          -1.9066699,
          -1.7343007,
          -0.9624307,
          2.4250925,
          -0.13417682,
          0.6330411,
          -1.7354031,
          -0.73954594,
          -2.1485784,
          -0.18033627,
          4.121379,
          -1.8800632,
          -2.639143,
          -3.0501509,
          -0.87126875,
          0.7245173,
          -0.5662697,
          3.8114207,
          1.8682405,
          3.171968,
          -0.11587012,
          -0.48049167,
          1.2191011,
          -1.8816613,
          -0.6602899,
          -0.8495448,
          1.7634295,
          -3.3198419,
          -0.71373993,
          -0.85095227,
          1.7453088,
          3.8697155,
          -1.3259441,
          -2.468627,
          -1.5288962,
          -1.5337727,
          0.64710516,
          0.9351426,
          0.7182763,
          -1.1047468,
          -0.44455007,
          -6.541338,
          -2.8160212,
          -0.05876237,
          1.8000773,
          0.4567167,
          3.1720808,
          -0.21587734,
          -1.2386132,
          0.88752705,
          2.2749162,
          -2.2315516,
          -2.0804164,
          -2.2755213,
          1.3508095,
          0.90345013,
          1.1618643,
          3.3643613,
          0.8793109,
          3.6954222,
          5.207504,
          -3.0747635,
          5.7709603,
          0.79564995,
          -2.0816426,
          -3.1028042,
          -0.747063,
          4.1472073,
          0.138038,
          -1.6235951,
          0.2506895,
          -1.967057,
          2.1018329,
          0.9894912,
          0.8594858,
          -2.2184088,
          -0.7336143,
          -0.5349709,
          -4.072726,
          -0.15245283,
          -1.1402622,
          -2.3213289,
          -0.45942602,
          -4.587058,
          -0.33439758,
          -5.216003,
          -3.3308864,
          0.53020567,
          2.5832589,
          2.3637211,
          -1.0931604,
          0.06926256,
          -3.2766967,
          2.6316729,
          1.7570969,
          -1.374303,
          3.065812,
          -2.0015438,
          -5.032356,
          0.04048071,
          5.0550494,
          2.6994905,
          2.9969614,
          -1.9711407,
          2.1182399,
          -0.14767382,
          -2.1048942,
          -3.49503,
          2.109767,
          -1.8359774,
          3.7468894,
          1.2666936,
          0.9781912,
          -1.9647903,
          0.46108532,
          -1.9443213,
          2.0272279,
          -2.9695575,
          -3.0056202,
          1.0712395,
          1.1688318,
          -1.5840497,
          -0.6902397,
          -3.591045,
          -2.044145,
          -4.965532,
          2.0386693,
          -2.160213,
          2.0752854,
          2.3705707,
          3.65692,
          -3.4159002,
          -0.65563905,
          -6.021969,
          -2.5653067,
          -3.7444313,
          -3.1550527,
          -1.1060884,
          1.080176,
          -1.177404,
          -3.3202994,
          2.7335653,
          2.631408,
          1.1367577,
          2.2699704,
          -2.0341144,
          5.7320037,
          -2.429956,
          1.2497473,
          -0.1069807,
          -0.8119271,
          2.1258745,
          -1.773811,
          -1.6890929,
          -1.5054907,
          0.049815945,
          2.302294,
          2.7760456,
          2.5702593,
          -0.7661696,
          2.397915,
          -0.47425014,
          -0.90072405,
          -1.2835369,
          3.5064764,
          0.49871707,
          -1.9845076,
          0.9925139,
          2.2840066,
          -5.4144406,
          -0.0011545133,
          2.4252768,
          0.7457392,
          -0.029829906,
          0.8796934,
          2.9426982,
          -2.202318,
          -0.33142352,
          -1.3655602,
          -0.3403645,
          1.1615573,
          -2.5387492,
          -2.0729153,
          0.1678293,
          0.20644197,
          2.4032502,
          -0.4491336,
          -0.8688374,
          -3.389562,
          -3.0233808,
          -0.767373,
          -3.517722,
          1.2840614,
          -0.88433105,
          0.5399579,
          1.8618398,
          -0.72196525,
          1.3577176,
          0.7053488,
          -1.3371435,
          2.2233055,
          -0.32349747,
          -0.26205745,
          -0.9985653,
          -1.260763,
          -2.2867947,
          0.7595191,
          1.7380484,
          -1.9024315,
          -0.5827084,
          0.49575505,
          2.1903224,
          1.8525436,
          -0.4028921,
          -0.37748662,
          -1.1663128,
          -5.4368954,
          -1.8061854,
          1.1981355,
          -4.4202704,
          -3.0002646,
          -0.08225804,
          -2.0339966,
          -4.2692113,
          0.884618,
          -0.48423865,
          0.88079333,
          1.5560588,
          2.983595,
          -2.8324466,
          -1.268023,
          -0.13536197,
          -1.6582859,
          -4.0323114,
          -1.5116062,
          0.160159,
          1.4535251,
          0.24814653,
          -1.3328431,
          1.4710412,
          1.3994802,
          0.11456142,
          0.6389635,
          -2.071596,
          -1.6525908,
          0.06595663,
          -0.4891808,
          -4.9040637,
          -1.3861419,
          3.0389125,
          2.0832005,
          -0.73115593,
          -0.83477914,
          3.5553014,
          -1.4368457,
          -1.7533382,
          -2.5946753,
          0.15298216,
          0.5687434,
          -2.2699218,
          -1.4145534,
          -2.2983532,
          -0.6236228,
          -0.95884484,
          0.027871925,
          -1.6594799,
          -3.2103758,
          1.3468122,
          -2.6479433,
          0.57315224,
          1.4627364,
          1.6761945,
          -1.7423086,
          -2.0022168,
          -1.8221841,
          3.379806,
          1.914994,
          -1.2053323,
          -4.174367,
          3.3637438,
          0.20964527,
          2.634591,
          -1.5375448,
          -0.32085207,
          -4.6174483,
          0.5956447,
          2.7530649,
          3.7330732,
          -1.5901803,
          -0.38793027,
          -1.6142416,
          1.469606,
          -2.0489821,
          3.952769,
          -2.174012,
          2.6869547,
          -0.24622394,
          0.08776712,
          -1.7826716,
          -2.969489,
          -2.0106514,
          1.4399067,
          -6.0911136,
          -1.1897432,
          -1.7057682,
          4.234248,
          -3.4015715,
          0.9687159,
          -3.8022776,
          3.3163369,
          4.1339264,
          1.5061393,
          3.4756482,
          -2.6260805,
          0.22450589,
          -4.104452,
          -0.8213634,
          2.669549,
          2.4221783,
          -0.70426446,
          -3.8283918,
          1.6485482,
          -2.4144778,
          0.89652485,
          -1.3316256,
          0.36438417,
          -0.37408662,
          -0.3536591,
          -3.428999,
          0.25960824,
          -1.9458988,
          -2.0532959,
          -2.5335665,
          -2.6552904,
          1.3291454,
          0.71632344,
          1.4625094,
          -0.016795393,
          -0.90757066,
          2.2296534,
          -0.60368544,
          0.8965972,
          -0.156581,
          0.33624786,
          -0.97830546,
          0.0008117339,
          -0.56498533,
          -1.5241843,
          1.5311326,
          -2.323869,
          1.9031886,
          -0.62672365,
          -2.5122483,
          -3.0276568,
          -0.38989976,
          -0.084536016,
          0.71397156,
          -0.39893815,
          1.2855688,
          -2.5343132,
          2.7489765,
          -3.581025,
          0.10411686,
          -3.192085,
          2.7214043,
          0.66130215,
          -2.2296007,
          2.6357896,
          1.3896233,
          3.3477135,
          3.1958494,
          -1.1120138,
          0.7545819,
          -2.7045412,
          1.2238075,
          -0.052620683,
          -0.44411808,
          -1.0541785,
          -2.2027512,
          -3.3224988,
          -0.9706534,
          0.5058091,
          0.7071388,
          3.5476208,
          2.7413914,
          -3.0151944,
          3.3260443,
          2.054434,
          0.23166691,
          -0.6386537,
          1.7725112,
          1.662143,
          -0.9217543,
          -3.662294,
          1.5644422,
          3.9410045,
          0.5361079,
          -2.1047611,
          2.0283916,
          3.1614785,
          -1.2373576,
          -0.5103753,
          -1.1757715,
          -1.5456883,
          -2.8952818,
          -0.30424172,
          -1.6257495,
          -0.9950438,
          0.9948049,
          -0.6271558,
          -3.0724747,
          -1.0492101,
          -1.2363147,
          0.18009686,
          -0.49709386,
          -3.9537327,
          -0.21816681,
          2.2610192,
          -2.8773909,
          0.75728184,
          -0.7523864,
          -0.4515987,
          -0.9571326,
          -0.11030251,
          0.8544211,
          -0.29029492,
          -0.6376087,
          -2.4212816,
          0.6056243,
          4.008265,
          2.6386023,
          -0.517953,
          -1.5051428,
          1.358575,
          -1.4913808,
          0.20548448,
          -1.9082088,
          -2.6666422,
          0.4697634,
          1.1324838,
          1.2172884,
          1.6004647,
          -0.8320647,
          -2.4932072,
          3.9347236,
          0.85440546,
          3.5635781,
          0.8102369,
          -3.4103823,
          1.0125027,
          -1.1196557,
          2.1400528,
          1.5196337,
          1.3807224,
          -3.5587294,
          3.09319,
          -0.04915381,
          -1.6830646,
          -1.5769284,
          0.17634995,
          -4.416247,
          0.15150191,
          4.5848994,
          1.6475712,
          -1.2634807,
          -0.2731548,
          1.2675589,
          -2.2794282,
          -2.7033849,
          1.3356935,
          2.182356,
          2.7184436,
          2.6869504,
          -1.086943,
          -0.7748501,
          -3.4853072,
          -4.178566,
          2.6637955,
          4.6465225,
          0.15715204,
          -2.9382358,
          1.5366734,
          3.688913,
          -0.19661653,
          0.6977492,
          -2.2821388,
          -0.16012032,
          2.6533897,
          1.8504201,
          1.7080215,
          -0.42880672,
          0.0015559795,
          0.5749319,
          -2.5927181,
          -0.36531335,
          -0.8632619,
          -2.8664742,
          -0.22565141,
          -0.6181224,
          1.9749573,
          0.1751088,
          -1.7513323,
          -0.14763616,
          1.5642307,
          -3.1435795,
          -1.2991053,
          -1.6014409,
          3.4118347,
          -1.889065,
          -0.8479135,
          -1.0553368,
          1.0226263,
          -0.5497657,
          2.9281795,
          3.0753126,
          -2.7699716,
          -2.3379633,
          -1.4226303,
          -1.1796784,
          1.4351742,
          -0.35036948,
          -0.4364783,
          -2.6269233,
          4.1663833,
          -2.8293805,
          -0.38963553,
          -2.6051812,
          1.0256206,
          -0.8241466,
          1.4150709,
          -2.5399065,
          -0.4264288,
          1.0123963,
          -1.36823,
          -4.6821527,
          3.540695,
          -1.120706,
          -4.3709664,
          -2.2287817,
          0.27228224,
          1.1580061,
          -0.8642256,
          0.28365466,
          -2.1234386,
          2.8846905,
          -0.32638615,
          0.5891285,
          1.7582247,
          0.73253447,
          0.4157882,
          -1.1855124,
          0.74433386,
          -0.5156638,
          4.0137334,
          -0.67839044,
          2.327954,
          4.2278705,
          -3.3233886,
          2.4932609,
          3.499295,
          2.2029028,
          1.0401188,
          -1.4511752,
          2.4539301,
          -1.3024731,
          -0.84848833,
          1.7416016,
          -5.0032277,
          1.4501653,
          -0.2031223,
          -0.4020051,
          -3.63921,
          -0.27536216,
          -2.184287,
          -0.012524625,
          -0.3436379,
          -1.6253523,
          0.16401403,
          -1.6489053,
          2.6823933,
          -3.3081734,
          1.9820315,
          -1.9342825,
          -0.29409468,
          -1.8834964,
          -2.5031583,
          2.5764554,
          -2.3643367,
          -0.37997195,
          2.6272013,
          -0.68288654,
          1.4585617,
          -1.5141499,
          2.2346969,
          -2.559076,
          1.7048185,
          -0.78708696,
          -4.697739,
          -0.21195006,
          -0.6074497,
          1.9018469,
          -2.4049475,
          -2.1136713,
          0.92846537,
          -0.12204075,
          1.7602232,
          -2.8493457,
          -2.9834056,
          -0.68084925,
          0.16369717,
          1.368016,
          0.86513865,
          1.0010382,
          4.888552,
          0.32595098,
          -0.537408,
          -0.74287283,
          -3.012339,
          1.0360607,
          -0.9757465,
          3.382344,
          0.23805253,
          -0.2762096,
          0.030192474,
          1.7738434,
          3.0116785,
          2.8997397,
          -0.755669,
          -2.6440642,
          2.6664724,
          0.7574431,
          1.7026129,
          1.3450584,
          -0.90283304,
          -0.44653982,
          0.9120971,
          0.75080687,
          -3.2950485,
          -0.82384145,
          1.3244268,
          -2.3211694,
          -2.5658727,
          -2.2844448,
          -0.18123853,
          0.93686175,
          -1.9077941,
          0.9941392,
          -0.3307622,
          0.98522145,
          -0.8192833,
          -1.0234965,
          -0.49618787,
          -0.15323365,
          -4.5478587,
          2.2813244,
          2.8822331,
          1.4101467,
          0.52424175,
          -0.55968964,
          0.49360013,
          0.5264106,
          0.41736194,
          3.32956,
          2.9005039,
          1.1012713,
          1.7523258,
          -1.6138912,
          -1.7129627,
          -5.9448934,
          -1.6578647,
          -2.2448816,
          -1.2142489,
          -1.3075925,
          1.463892,
          2.8573442,
          3.4763691,
          -3.0797117,
          1.5139482,
          -0.9882458,
          3.012311,
          -2.203059,
          0.74077195,
          2.6513758,
          3.1374846,
          -1.9377391,
          2.350865,
          0.86522543,
          1.4932795,
          3.8710897,
          -0.07862601,
          -0.9742713,
          1.2028108,
          -4.776952,
          1.856606,
          -2.3908298,
          -2.9758234,
          4.385972,
          2.8255696,
          -1.6020278,
          2.2881923,
          -2.9765975,
          2.853403,
          -0.3415793,
          -0.7177438,
          1.8551301,
          -2.2960315,
          1.4227273,
          -1.1789926,
          -0.17176375,
          -0.50091714,
          -0.20818478,
          0.77868915,
          -0.019916369,
          0.3963141,
          1.0249877,
          1.2189008,
          -4.099358,
          2.233374,
          -0.7340931,
          1.1872509,
          -0.05620056,
          -1.6963309,
          2.599302,
          -1.6516354,
          -1.4792013,
          -0.90844196,
          -2.267128,
          0.34400466,
          -0.077626444,
          -2.422025,
          2.37987,
          -0.061113566,
          0.09721662,
          1.682473,
          -1.0683526,
          -4.4952674,
          0.06664591,
          1.4836498,
          -1.3247738,
          0.40719414,
          -1.2404569,
          1.8278786,
          0.6293209,
          2.4925659,
          -0.7689723,
          -2.1831784,
          1.5065926,
          -0.32989013,
          -1.7940149,
          3.2760038,
          -1.6516043,
          -0.4087432,
          1.8946615,
          1.0824736,
          -2.2676568,
          0.8124606,
          -0.38185915,
          -0.18210885,
          3.1156456,
          -2.3621852,
          -4.7919607,
          -0.014609503,
          -1.0546312,
          6.0291314,
          3.9282541,
          0.7184838,
          1.9144534,
          -0.99763095,
          0.17323036,
          0.70014906,
          -1.5678964,
          1.5295442,
          0.40332797,
          0.6958137,
          -2.0005648,
          1.0422897,
          -1.8495204,
          -0.78382343,
          -1.9208148,
          -3.831609,
          -1.3425593,
          -1.483029,
          -0.8347297,
          -0.6229917,
          -1.8399566,
          -1.9193037,
          -1.205686,
          -1.948545,
          0.6863241,
          0.3087603,
          4.396222,
          0.14539193,
          -0.7486101,
          -1.2308909,
          2.4062934,
          0.5374852,
          -4.760307,
          0.00066245056,
          -0.16630618,
          -3.8555489,
          -3.125401,
          -0.09157203,
          2.0605416,
          -2.207528,
          0.95330006,
          2.8136225,
          2.066002,
          -0.36172664,
          2.2871895,
          -4.815844,
          -3.1678302,
          -0.5082432,
          -0.08457382,
          -1.6606163,
          2.8748682,
          0.51532567,
          4.048203,
          -1.5348368,
          -1.470223,
          1.4194708,
          0.31979185,
          -3.9110165,
          -3.4826717,
          -3.7373,
          -0.61601245,
          -5.824503,
          -5.779032,
          1.0497676,
          -2.3491313,
          -4.1836805,
          -1.5124341,
          -0.49929002,
          1.8518429,
          -3.5187068,
          -0.6257969,
          0.9734903,
          0.68003315,
          -1.6459974,
          -0.22937387,
          0.37152678,
          -0.5019799,
          1.7777534,
          -0.26379183,
          2.2654564,
          -0.30362222,
          0.96099186,
          -3.6449022,
          0.1527989,
          -0.6975461,
          -5.386741,
          -5.829333,
          -4.4516945,
          -3.8642876,
          -3.0037255,
          -4.745294,
          -2.8109896,
          -4.0938044,
          -4.596685,
          -0.9759408,
          -2.276529,
          -0.9235189,
          -0.38743228,
          0.38496226,
          0.7292782,
          -1.8451096,
          -3.5819705,
          0.3620752,
          1.096095,
          -1.9073106,
          2.3978014,
          -1.6180838,
          -2.8563735,
          2.2746446,
          1.525066,
          0.5670843,
          1.014681,
          -0.6090199,
          -3.5731053,
          -0.8400081,
          -3.4891586,
          -0.9464562,
          -2.29485,
          -3.294424,
          -4.248362,
          -1.8451685,
          0.51434153,
          0.29669818,
          -0.51414454,
          -3.8658295,
          1.6561238,
          -2.4965765,
          -1.406701,
          -1.4849545,
          0.8750885,
          0.6114141,
          -0.6410271,
          -0.608552,
          -1.6401309,
          0.91457504,
          -0.23887692,
          -2.1133099,
          -0.5473405,
          1.3678008,
          1.6247456,
          -4.57507,
          -3.1904376,
          -1.7364161,
          0.39549795,
          -0.4888747,
          -1.3988239,
          2.850215,
          0.7207811,
          0.31848866,
          -1.3247916,
          -2.9487767,
          0.85426515,
          -1.0096016,
          -2.0737453,
          -0.015997805,
          0.12305022,
          -0.14735185,
          -0.9123283,
          -1.699945,
          2.8828309,
          -0.65080255,
          -3.7823896,
          -2.777777,
          -0.7231986,
          0.43952474,
          1.490994,
          -0.7979945,
          -1.5029435,
          -1.6792449,
          2.1109154,
          1.065524,
          -2.5376213,
          0.6533875,
          0.80655354,
          -0.42815858,
          2.6328619,
          0.24506088,
          -0.95862514,
          1.1276443,
          -0.2698019,
          0.36140797,
          -0.8809288,
          1.0175962,
          -1.5715297,
          -1.2524369,
          2.0029948,
          -5.1410394,
          -2.6602101,
          3.5456512,
          0.5080056,
          0.4687708,
          0.7407646,
          1.0787687,
          2.5127463,
          1.7306298,
          1.304149,
          -3.5771103,
          2.2183259,
          0.84242374,
          -0.8822489,
          3.0978177,
          -0.34165895,
          3.1688793,
          -2.690167,
          0.64315397,
          0.37906563,
          -2.2969143,
          3.0274494,
          -2.665601,
          -2.0131788,
          1.5860871,
          -0.7657583,
          -1.3527249,
          -0.8157705,
          -0.85256827,
          2.6824958,
          -2.0124898,
          2.4054806,
          0.9463964,
          -0.5020739,
          -1.6353586,
          3.0473416,
          2.842355,
          0.9680348,
          3.073781,
          0.13918996,
          2.2765098,
          0.15906312,
          1.9934676,
          1.033902,
          1.319372,
          1.4193658,
          1.904616,
          -0.061516162,
          1.6914377,
          1.3939136,
          1.351628,
          -1.2725285,
          -0.7106437,
          1.8348314,
          -1.1912805,
          2.5696568,
          5.007409,
          0.09198253,
          4.0650153,
          1.0194088,
          -3.5123348,
          2.232131,
          0.520834,
          1.0036768,
          -0.23816715,
          3.7675788,
          3.3677728,
          0.8917656,
          1.6336927,
          -1.416177,
          0.31608632,
          -3.4672666,
          4.084124,
          3.693262,
          0.679081,
          1.0921654,
          2.4095073,
          -0.2463714,
          -0.17217872,
          0.35872665,
          2.667726,
          -0.6101412,
          -0.8955388,
          0.7951586,
          2.08963,
          -1.3613919,
          6.891552,
          -1.6316377,
          4.845863,
          0.8506909,
          3.8822758,
          -1.2000011,
          -0.022889845,
          1.6072385,
          0.0062774764,
          3.2969592,
          2.290444,
          3.6225135,
          3.882844,
          3.6974938,
          -0.80243784,
          -0.4218081,
          1.4233061,
          -0.18078704,
          -0.40907696,
          2.3222053,
          2.8148103,
          -2.294455,
          -2.2140045,
          0.7642278,
          0.3339096,
          -1.890397,
          2.9264243,
          2.692456,
          2.302912,
          -0.021900164,
          0.5112184,
          -0.11611504,
          0.7184903,
          -3.7283354,
          -0.769912,
          0.6807508,
          0.10209922,
          1.2772025,
          1.3557804,
          -0.61405146,
          -0.8101488,
          -0.48591498,
          1.4023247,
          0.27727717,
          0.27618518,
          0.615485,
          0.56265366,
          0.98732466,
          -1.6626318,
          -0.31347016,
          1.7552927,
          2.2412863,
          1.8776067,
          0.9807051,
          4.2342005,
          3.7305777,
          1.3157197,
          4.2219915,
          0.4586095,
          0.58255917,
          0.63060826,
          1.1992303,
          1.8809924,
          0.7846255,
          3.462564,
          0.40469855,
          0.09690943,
          2.9257355,
          -0.0026457412,
          3.1193986,
          -0.5464963,
          -0.20140283,
          1.7043599,
          -4.8405356,
          0.35832638,
          -1.5222944,
          -0.056622557,
          2.1395826,
          1.1062417,
          -0.14866218,
          0.33719894,
          -0.36142394,
          2.698917,
          -1.2054893,
          0.57642365,
          1.6617403,
          0.2710587,
          -0.78120285,
          -0.71663195,
          -0.33525825,
          -2.93239,
          1.1354663,
          -0.3813957,
          0.71988815,
          4.41844,
          1.5461967,
          1.4378496,
          -0.73949677,
          1.869247,
          0.2002692,
          0.40562192,
          0.5531534,
          -4.1544085,
          1.1519917,
          1.2683877,
          1.668694,
          -2.6119707,
          2.8602743,
          -1.6207867,
          2.0678284,
          0.6208709,
          -2.4329598,
          0.3415569,
          -1.6656029,
          -2.9693842,
          1.4123397,
          2.5411613,
          1.7380606,
          -2.6062326,
          1.9551733,
          0.904677,
          -1.741287,
          -1.1140825,
          -5.2430487,
          -0.8097353,
          -1.0628738,
          -1.7884419,
          -3.8176262,
          -1.3327839,
          2.4786787,
          -3.5768306,
          1.3222858,
          -1.1220192,
          0.76437503,
          3.4582632,
          -3.0063488,
          2.9194171,
          0.28936335,
          -0.45255148,
          0.26250833,
          -0.30919573,
          2.232974,
          0.35911533,
          0.18141778,
          -0.10992257,
          -3.461453,
          0.018710129,
          0.4304078,
          4.694109,
          -2.2591188,
          2.0998843,
          -4.3850985,
          -2.3205721,
          -0.92088705,
          -1.0543268,
          -2.3280158,
          -0.8852903,
          0.54447675,
          -0.7032319,
          -0.7417621,
          -1.8566906,
          0.41786772,
          -0.94082236,
          0.50498694,
          -1.02075,
          0.38423526,
          0.551234,
          0.6004922,
          -0.036824413,
          -1.3294307,
          -3.2834282,
          0.8544277,
          1.6958318,
          5.4638095,
          0.5666373,
          -3.057422,
          0.30496004,
          0.29273742,
          0.101639286,
          -0.97127587,
          1.4469754,
          0.06942477,
          -0.29357386,
          0.30958465,
          -0.96037257,
          -1.1678619,
          -1.5913401,
          -0.12865351,
          0.34704968,
          0.19008361,
          -0.4695543,
          -0.020489812,
          -1.3127726,
          -1.4443648,
          -1.503185,
          -4.397385,
          -0.1558592,
          1.0234832,
          -3.441437,
          0.52432823,
          1.9831574,
          -0.051554617,
          -2.891356,
          2.1114738,
          -0.045585096,
          0.32904088,
          1.8327944,
          -0.9545268,
          -0.939465,
          -0.07260118,
          -0.05298394,
          3.1439395,
          0.21858786,
          -3.8115697,
          -3.4642754,
          -0.36919546,
          3.122756,
          2.1613772,
          0.50420046,
          3.0395515,
          -1.353248,
          -0.49908352,
          1.3417572,
          -1.3647717,
          1.667472,
          2.7083714,
          0.17690803,
          0.87257683,
          -1.7984153,
          0.83549935,
          -2.2987936,
          0.8483181,
          -2.7672768,
          -3.422061,
          -2.7499168,
          1.1083882,
          1.8707008,
          -3.6142087,
          -2.6835988,
          -1.1268886,
          2.3384676,
          2.0500603,
          -3.0664082,
          -0.48250595,
          0.36746103,
          2.6171288,
          0.06929401,
          0.792263,
          0.38097712,
          0.4271789,
          0.12289736,
          -3.150584,
          -3.5606327,
          -1.9131361,
          -0.096873656,
          1.2947276,
          -2.658511,
          1.0590862,
          -0.3414476,
          0.68818116,
          1.6604246,
          -0.5034908,
          0.8192486,
          -0.08500693,
          -3.4143176,
          3.6723058,
          1.5768645,
          -5.1959195,
          -2.5550034,
          -3.0323563,
          -3.9043596,
          5.52794,
          4.5383096,
          -1.389789,
          0.100728855,
          -2.0882077,
          -1.934648,
          -3.0100067,
          -0.75958014,
          -0.32192725,
          2.4830308,
          6.620635,
          1.7160872,
          2.6581056,
          -1.1771808,
          -2.5962029,
          1.6418196,
          0.0032934425,
          -0.9658356,
          1.6314101,
          0.97533005,
          -0.55312407,
          4.429942,
          -1.421332,
          -3.275582,
          2.1657457,
          2.4599547,
          0.42881846,
          -0.65012646,
          -3.8955731,
          1.6991527,
          0.37000048,
          0.12622254,
          -0.8313717,
          0.6084887,
          2.374509,
          -0.040447045,
          0.036686327,
          1.4956764,
          -0.57698786,
          1.0181657,
          -0.44790128,
          0.078614175,
          -2.1853993,
          -2.528616,
          1.3768536,
          2.9297595,
          -0.85907125,
          -0.11580329,
          -0.3880738,
          -0.4056957,
          1.8029522,
          -2.0378127,
          1.8777137,
          -2.113569,
          -2.684215,
          -1.2407863,
          -1.1175092,
          -1.8464321,
          0.33999804,
          -1.6092502,
          3.3261647,
          2.651798,
          2.1605701,
          0.3556924,
          0.58257073,
          6.070173,
          -3.4268105,
          -1.4849871,
          2.1566358,
          -1.3811678,
          0.014923355,
          -0.062394377,
          4.0131416,
          -0.5457958,
          -0.09379046,
          -2.2975416,
          -2.4817483,
          4.1801805,
          0.7258267,
          1.660188,
          -0.6681359,
          0.58710253,
          0.11626941,
          0.9786632,
          -0.000087716035,
          -0.5645582,
          1.5662822,
          -1.2225401,
          -2.6299644,
          -0.47988075,
          0.5908302,
          1.8309152,
          2.115398,
          -0.43494734,
          -1.2746503,
          -0.6365781,
          1.6775372,
          0.5623585,
          -0.6461244,
          2.2585814,
          -4.631047,
          1.1196995,
          -0.2600769,
          0.6076314,
          -0.9011364,
          2.4764285,
          3.8036556,
          -4.1662793,
          3.126851,
          0.16247168,
          2.421451,
          -1.1850075,
          1.004062,
          -1.5509338,
          0.074282736,
          0.8681958,
          0.17818423,
          1.509915,
          -0.4832406,
          -0.012039525,
          -0.98879224,
          -0.020824872,
          -0.94130707,
          1.0040811,
          -2.8337371,
          -4.4085875,
          -0.4351392,
          1.9099529,
          3.7861853,
          0.65545326,
          1.1577065,
          -3.1580143,
          -0.1631584,
          1.3771907,
          1.4596064,
          1.3300965,
          -0.56623936,
          0.67511535,
          -1.1166111,
          -1.0553174,
          -0.9370825,
          0.7831639,
          -1.7493441,
          2.1189754,
          -0.79451454,
          -1.777204,
          -5.3047647,
          -0.902283,
          2.151562,
          2.3592668,
          0.22805367,
          3.6182473,
          1.7976328,
          2.9249241,
          -3.4453087,
          0.78572625,
          7.0794177,
          0.11803034,
          2.963638,
          3.2678115,
          -1.5513039,
          -0.96832424,
          0.57530725,
          -0.09612052,
          2.1824656,
          0.76910186,
          1.1855679,
          1.4150568,
          0.34369922,
          0.35098788,
          -3.159723,
          -3.0519984,
          -1.1986856,
          -1.6008267,
          -2.154164,
          -2.7898836,
          0.45545292,
          0.3821353,
          0.6506014,
          1.860483,
          1.3256537,
          0.10245738,
          1.1795657,
          3.4646406,
          0.27557227,
          1.0607724,
          -0.7843802,
          2.0777833,
          -1.192544,
          1.9637856,
          0.8391406,
          -2.2944694,
          2.3898103,
          1.0719875,
          -1.4291222,
          1.612919,
          1.5976508,
          -1.7866398,
          3.3462853,
          2.608606,
          -0.2770495,
          -0.32956967,
          -3.725356,
          -0.2619149,
          -1.1683623,
          2.1867325,
          0.22680429,
          -3.0288255,
          0.94647115,
          -0.98927313,
          -0.37774184,
          -1.6580118,
          -1.6288905,
          -0.44613966,
          -1.9888904,
          2.048219,
          -2.8097157,
          0.28498673,
          -2.1090624,
          2.0364318,
          -1.4288319,
          0.59318256,
          -1.0424492,
          0.9168433,
          0.6323396,
          -0.63044524,
          0.11544598,
          2.505431,
          0.080841355,
          2.0968058,
          -0.98194283,
          -3.3275611,
          -0.37404588,
          -0.68314403,
          0.7006198,
          -0.7886328,
          -2.8539934,
          -1.1178,
          0.7910078,
          0.36392802,
          0.40114737,
          -0.368388,
          1.1325535,
          -0.37435156,
          0.22604778,
          -1.4922855,
          -2.5571947,
          -3.624142,
          -1.6496251,
          0.85168344,
          -0.3489165,
          -1.3305349,
          0.5583458,
          0.8272626,
          -2.6945658,
          1.9236388,
          -3.6116219,
          2.235875,
          2.1594074,
          -3.7556384,
          -0.8569197,
          2.9737098,
          0.47048676,
          -5.3679175,
          2.3364038,
          -0.4271209,
          2.5217078,
          5.4499164,
          1.3838011,
          -0.32468566,
          -0.86315095,
          -0.98317504,
          -3.887928,
          -3.609602,
          -3.0864315,
          -1.1208397,
          -1.4501166,
          -0.7064159,
          1.8821462,
          3.1906145,
          0.023873573,
          0.1841968,
          1.4670721,
          2.9552314,
          0.042760774,
          2.8136215,
          -3.3096805,
          -0.37732348,
          -0.86232007,
          2.499024,
          1.8680816,
          -2.9025948,
          2.2089384,
          0.08077666,
          -2.0291529,
          -2.6845493,
          -0.68620604,
          -1.6345991,
          -0.37128097,
          -2.9126134,
          -1.8513395,
          -3.580178,
          -3.5005572,
          -2.0566163,
          0.020010153,
          -0.17857704,
          2.2033727,
          -0.41553876,
          4.6387215,
          -0.91130257,
          -0.60974646,
          0.8570918,
          -3.1218104,
          -0.11188442,
          -0.3415614,
          -0.5713216,
          -0.041489813,
          0.34118405,
          -2.0422854,
          2.363515,
          1.8455951,
          1.5056591,
          -2.6252303,
          3.2852175,
          -1.4875553,
          -1.9348472,
          -0.03944889,
          -3.9762943,
          0.16790964,
          -2.544507,
          -2.659561,
          0.15846248,
          -0.7763069,
          1.9847032,
          -0.17974803,
          0.3692301,
          2.0127077,
          1.2200558,
          1.5605924,
          -1.5074781,
          0.50343454,
          -4.269469,
          -2.507366,
          0.87146074,
          -2.248193,
          0.73963755,
          1.9457704,
          0.62977934,
          -1.3666345,
          -0.00863239,
          -5.8469567,
          0.09436953,
          -2.3358474,
          0.15834875,
          -1.8099289,
          -4.674013,
          0.62418216,
          -2.3331687,
          0.57431287,
          -0.5008178,
          3.2512586,
          -3.14709,
          2.472536,
          -0.6348769,
          2.2554119,
          0.29332206,
          0.95222265,
          0.3620703,
          -0.958523,
          3.1128006,
          -1.2572975,
          -2.9766603,
          -0.5282443,
          1.8790814,
          0.42751977,
          0.8564694,
          -0.75220233,
          5.948693,
          -0.30335528,
          1.7928594,
          1.8823632,
          -2.0311248,
          0.006274935,
          0.45066234,
          1.5449744,
          0.16294703,
          -4.121193,
          -0.6278547,
          4.3017855,
          -0.3137216,
          2.0947475,
          -1.2921312,
          -0.7077326,
          0.03594213,
          -1.2818241,
          -2.0698624,
          -2.2369673,
          -0.58912927,
          -1.9262787,
          -4.4001255,
          1.7481244,
          1.0520633,
          -1.8416513,
          -5.964833,
          4.65389,
          0.91146874,
          -0.43706235,
          1.0704829,
          -4.497889,
          -0.4257003,
          -1.9742804,
          -2.4684653,
          -5.222454,
          -2.1077254,
          -1.577826,
          1.7090275,
          -0.8559426,
          2.1352513,
          -2.725548,
          1.0009131,
          0.62376386,
          -0.8440602,
          -0.84255695,
          3.801786,
          1.1639671,
          -1.2139779,
          0.79394287,
          1.4587629,
          0.6098612,
          1.0179873,
          1.7219615,
          -2.7700763,
          0.862281,
          2.5975404,
          -0.58397174,
          1.0169033,
          0.865793,
          2.1025243,
          -0.08940251,
          -2.6883729,
          2.9405212,
          -0.23812804,
          -3.474628,
          -0.837212,
          0.050655622,
          -1.7054508,
          -0.64843154,
          -4.2894673,
          -0.13077123,
          0.05239779,
          0.6908393,
          2.6117485,
          0.89454675,
          -0.8250989,
          3.2554746,
          -2.3503535,
          2.5272727,
          1.2368277,
          -1.8222164,
          -3.524629,
          -2.7302732,
          0.21326843,
          -1.2498094,
          2.9215994,
          1.1316602,
          0.8314438,
          1.2944112,
          -2.2434876,
          -0.68224585,
          -1.2810377,
          -1.0848145,
          -3.9263513,
          -5.002852,
          -0.37833005,
          -2.5259187,
          -3.1749449,
          0.5147186,
          -0.054501027,
          -1.4768012,
          1.8906835,
          -1.3452166,
          -0.8710873,
          -2.408666,
          1.9548044,
          -3.7024324,
          0.39425412,
          1.0784814,
          -1.154229,
          1.9495434,
          -2.9650426,
          2.0466754,
          3.0025206,
          5.3259726,
          1.2518392,
          1.9625206,
          -2.966695,
          -0.75357485,
          -5.26966,
          -5.637562,
          -5.866972,
          -1.7921774,
          -5.2192454,
          -1.0681115,
          1.2325863,
          -0.40758616,
          1.6984724,
          2.8387942,
          -0.61276925,
          0.2437935,
          3.1362789,
          4.645205,
          0.28992563,
          -0.43434328,
          0.8947454,
          2.5889099,
          -1.1659312,
          0.29666248,
          -2.1382537,
          -1.6157167,
          1.6717542,
          0.3228016,
          3.5783255,
          -0.027976884,
          1.4834453,
          -0.563537,
          1.1654491,
          -2.4803383,
          -3.8967693,
          1.5410404,
          -3.2891371,
          -1.6483576,
          -1.0941344,
          0.89827466,
          -0.8993454,
          3.0742612,
          1.4126737,
          0.4488396,
          1.610603,
          -1.4694531,
          -3.1804135,
          -0.20924766,
          -0.3298306,
          -5.1488395,
          -4.0702963,
          0.10032028,
          1.0839266,
          5.827328,
          -1.2136322,
          1.9959917,
          -2.1936946,
          -0.04261056,
          -1.8776418,
          -2.4505734,
          1.7584403,
          1.0927751,
          0.8454695,
          -2.032478,
          -1.4854323,
          0.5616372,
          1.1933491,
          -2.1955101,
          0.689416,
          4.242925,
          -4.065054,
          2.8883595,
          1.5336988,
          0.35090324,
          3.6681616,
          -2.0880551,
          1.7185731,
          0.26326156,
          1.9496907,
          1.8486242,
          -1.0893239,
          -1.9641554,
          -0.9112779,
          0.84401673,
          1.9030344,
          0.20764893,
          2.3389838,
          0.11067933,
          -0.032812454,
          2.1354718,
          0.5478519,
          0.8446847,
          -1.7523425,
          -1.7885,
          -0.49946135,
          0.8450336,
          -0.48824736,
          -1.1612939,
          0.5923643,
          0.28975892,
          1.7789711,
          -2.9145029,
          -2.131206,
          -0.9494874,
          0.4960626,
          -1.8733194,
          -0.28251407,
          2.1077385,
          -0.9729778,
          -0.9592456,
          4.8887234,
          -1.1566375,
          1.5276204,
          2.1025562,
          3.071497,
          1.9148855,
          -1.473531,
          -1.1025357,
          -2.8734193,
          0.24940516,
          3.7430277,
          0.30304196,
          -0.057638004,
          0.10418997,
          1.2926029,
          1.5067018,
          -1.726711,
          -0.3153609,
          -3.1015103,
          0.25592735,
          -0.35840678,
          -3.026761,
          -0.34887767,
          -0.10461201,
          0.8896291,
          -1.0111208,
          -0.40294883,
          1.4449017,
          2.380375,
          6.64506,
          2.70129,
          -0.45365933,
          1.0664989,
          3.209184,
          -2.6559513,
          3.1939685,
          1.6561319,
          1.5683554,
          -1.0325369,
          -0.6473239,
          0.4512182,
          -1.6748323,
          0.5740835,
          0.6258626,
          1.6349045,
          1.1900481,
          -2.034181,
          -2.6780667,
          -2.578718,
          5.040053,
          1.4142109,
          2.9019256,
          1.8762047,
          -2.7047246,
          1.7865438,
          0.14007857,
          1.278294,
          -0.39096522,
          1.9318011,
          1.5141454,
          -1.0870225,
          4.438548,
          4.458908,
          -1.0104047,
          0.1313592,
          -0.53660524,
          0.45542458,
          3.1789587,
          -0.6197964,
          3.234466,
          -1.157231,
          -1.5568953,
          -0.9379698,
          -0.3719604,
          1.1215224,
          -5.439706,
          -1.2244514,
          0.76217514,
          1.3945358,
          1.0577697,
          -0.67042804,
          -0.60448766,
          0.069507286,
          -1.7505188,
          -2.8247857,
          -3.386063,
          -0.092907436,
          -0.15370582,
          -2.789452,
          1.9732227,
          -0.38657317,
          -0.7913456,
          -0.17933428,
          0.5349524,
          1.2329948,
          -1.4297833,
          -2.8344455,
          -0.20064172,
          1.3734622,
          -3.0016613,
          2.1835675,
          1.0394037,
          -3.7920096,
          2.3061988,
          2.0966077,
          -0.09079564,
          1.9062263,
          -0.93437546,
          -2.3537083,
          1.6408985,
          -1.1146019,
          2.295108,
          1.129019,
          2.3495855,
          -1.0336349,
          -0.41860437,
          0.58173984,
          -0.9501535,
          -1.7699643,
          -0.8836503,
          2.7711747,
          -0.7686978,
          0.30403113,
          -3.9481087,
          -0.22566515,
          2.2627296,
          -0.7495233,
          -1.1558719,
          -0.116717815,
          0.94390523,
          -0.2983914,
          -1.7759883,
          1.782782,
          1.6051503,
          -3.2954025,
          2.4548604,
          -3.25846,
          -1.8359687,
          -1.7848223,
          2.7317905,
          1.6289208,
          0.017797112,
          5.2012587,
          -2.6292539,
          2.184224,
          0.043463133,
          1.9380528,
          -0.03434275,
          1.2950851,
          -1.0504808,
          -1.7693717,
          3.8637843,
          -0.8486526,
          -1.6739647,
          -3.049109,
          -0.21557167,
          1.3769066,
          -2.2137244,
          -4.566341,
          -2.3248768,
          3.935712,
          0.9803728,
          1.6487168,
          -2.4214213,
          -1.5434896,
          0.54763365,
          1.018728,
          0.8580377,
          1.8186297,
          1.4322827,
          2.6967196,
          0.029992588,
          -1.0708518,
          -0.36757752,
          0.6487814,
          5.142468,
          -3.387764,
          -0.22748795,
          -0.9033002,
          0.7948748,
          0.3200931,
          0.7004526,
          -0.3587155,
          -1.3573502,
          -2.0684085,
          -0.55658585,
          3.0128767,
          -1.0039887,
          1.5603137,
          -1.4056855,
          2.4436796,
          2.5658345,
          1.2474188,
          2.004221,
          -0.41565606,
          -1.4180261,
          -2.8306403,
          1.9205077,
          1.503462,
          0.0056497445,
          1.0705161,
          -2.0812058,
          -0.8958588,
          -0.546729,
          0.08413393,
          3.1255558,
          1.5945463,
          0.5238838,
          -0.84123385,
          1.5108212,
          0.48076463,
          1.8784362,
          -0.8803547,
          -0.7962617,
          3.014533,
          4.1330547,
          0.14661807,
          0.030181665,
          -1.249594,
          2.029185,
          2.2587743,
          -1.4792095,
          1.5813807,
          0.39925826,
          0.681177,
          2.3273673,
          1.7604302,
          -1.756071,
          -1.7669618,
          -1.6726469,
          -1.3114587,
          3.3176787,
          -3.5199916,
          1.4497732,
          -1.1704144,
          -0.031516254,
          -0.9153186,
          1.8876812,
          -2.715379,
          -1.9415535,
          2.9051182,
          1.6282326,
          2.125881,
          3.451492,
          0.8780206,
          -1.8051592,
          -3.2296958,
          2.4443843,
          3.4018183,
          0.46984914,
          -3.2075107,
          -1.6598408,
          -1.0031435,
          -1.353268,
          -3.2459645,
          2.2882586,
          -2.9263654,
          -4.7488103,
          1.5002562,
          2.6903417,
          0.4151317,
          0.58608174,
          -5.645039,
          -1.600665,
          -4.346768,
          -5.6412582,
          -0.026091568,
          1.835062,
          -2.5534253,
          -3.2159286,
          -2.0925305,
          0.15343884,
          -2.8186955,
          0.52555203,
          1.8217709,
          0.28690347,
          1.3376057,
          -0.5205282,
          1.3490098,
          2.5691812,
          -0.18026564,
          -2.55632,
          -1.2476107,
          -2.9051423,
          -1.8505676,
          2.1961772,
          -3.3428948,
          0.5984059,
          -0.8891301,
          -3.7993815,
          -0.50264573,
          -1.606716,
          0.792986,
          1.730518,
          -3.0725205,
          1.5845323,
          -1.9532042,
          0.85899156,
          0.26357242,
          -0.21649645,
          -1.137888,
          0.48630735,
          1.4122263,
          3.741739,
          0.0088436,
          1.7394968,
          2.072396,
          -0.8021578,
          3.6680603,
          0.6365949,
          -3.2728207,
          1.1506044,
          0.3678428,
          -0.65709734,
          -2.0675476,
          -2.109213,
          -0.06496833,
          -1.6888827,
          -2.9287322,
          -2.0111835,
          0.61912936,
          -0.42951104,
          -1.1046693,
          2.7466896,
          1.3716499,
          2.8346715,
          -1.243342,
          1.762039,
          0.27200446,
          1.1873074,
          -1.6331717,
          -3.0690963,
          -2.0351279,
          0.5709685,
          1.0327294,
          2.4036403,
          2.250677,
          -0.49522635,
          -1.5388212,
          -0.9658608,
          1.6114537,
          0.19007988,
          -2.9332783,
          -0.76694924,
          -1.2598084,
          0.64413285,
          -1.9127376,
          -0.8130247,
          -1.935112,
          -3.390896,
          -2.2754037,
          0.7024247,
          -3.032387,
          0.66570467,
          1.3996602,
          -0.29121286,
          2.1991796,
          3.3484135,
          1.756836,
          -0.68726224,
          -1.1596687,
          -1.942392,
          0.30528745,
          0.26062,
          -2.4835825,
          0.4351975,
          0.11464672,
          0.3906822,
          -2.1815042,
          -0.92948854,
          0.11356864,
          -2.6565545,
          -0.2006315,
          -4.5705967,
          -0.092743605,
          -6.477961,
          -4.43036,
          -0.3894167,
          0.37248272,
          -2.3202736,
          -2.7487354,
          -0.6499257,
          2.1519127,
          -1.0021996,
          -0.40559968,
          0.9810588,
          -0.004936846,
          -1.8613907,
          2.0976534,
          1.1981277,
          -1.1226625,
          0.99301916,
          2.3440156,
          -0.7489922,
          0.99834335,
          -2.982172,
          1.3612515,
          -1.3901069,
          -0.23069155,
          -1.4711524,
          -3.5546317,
          -2.7978227,
          -3.6442301,
          -1.9493191,
          -0.96867704,
          -6.0951343,
          -1.9500517,
          -2.3474832,
          1.0073885,
          -1.3874544,
          1.665707,
          0.27451244,
          -1.8717664,
          -0.25408036,
          -0.58424556,
          -3.1292884,
          -0.5080736,
          2.3382783,
          -1.5297136,
          -1.5137156,
          0.5789172,
          3.9353874,
          -4.4433684,
          1.4551928,
          0.21402724,
          1.2943314,
          -0.30330357,
          0.7703754,
          1.5593315,
          0.33813378,
          -2.4813406,
          -3.1258757,
          -3.9180517,
          1.3590395,
          -2.1486714,
          -1.3610282,
          -0.50292,
          0.3458939,
          0.43211117,
          3.0282495,
          1.5480323,
          -0.9845536,
          1.3943834,
          -0.0927438,
          2.46513,
          1.9898052,
          -0.20240584,
          -1.2976713,
          -0.30422562,
          0.80451035,
          -0.7071522,
          0.6825783,
          -1.7758825,
          0.10235065,
          -2.8467395,
          -1.5408434,
          1.4189438,
          -3.3557866,
          -2.1186643,
          -8.176029,
          1.4567894,
          -4.087257,
          -0.3987303,
          3.6158888,
          -3.0295956,
          -3.6123607,
          0.3473008,
          -0.25030562,
          -2.184802,
          0.19825688,
          -1.9544132,
          -0.03219024,
          -1.8592834,
          -2.0638657,
          -1.1339494,
          1.8974825,
          0.48441905,
          -0.6780056,
          1.7805789,
          0.51084536,
          -2.7468665,
          0.4395822,
          2.7997947,
          -3.3878553,
          1.6611117,
          3.4599433,
          2.067734,
          -1.5590732,
          1.0654137,
          2.7594962,
          -0.9779159,
          0.6729255,
          -0.074218,
          -1.260344,
          -2.7447152,
          2.5261226,
          0.49905616,
          -1.6701593,
          -1.5870311,
          5.7681413,
          -0.73547405,
          -1.3114121,
          0.86882794,
          4.7919908,
          1.8013924,
          -1.5430502,
          0.4954619,
          -0.076188564,
          0.80862826,
          -0.1563682,
          3.3918636,
          2.1469781,
          3.596456,
          1.4523871,
          0.8563956,
          -2.9135313,
          0.3819686,
          2.862309,
          -1.8690968,
          -1.6594148,
          2.2707791,
          -0.6011813,
          2.0859861,
          -2.7573035,
          -2.1334567,
          0.9593491,
          0.40284997,
          -0.84006184,
          2.0826137,
          -1.2791551,
          0.29940084,
          -6.302086,
          -0.7229946,
          -0.18514048,
          -1.5496445,
          0.5393355,
          0.6579231,
          -0.30641907,
          0.60722965,
          4.5023136,
          1.9511688,
          3.8792481,
          -2.4129739,
          1.2194524,
          0.22135496,
          0.9476,
          1.9279023,
          0.63709116,
          0.41262943,
          1.392359,
          -4.750882,
          2.7779958,
          0.98881984,
          0.39506766,
          0.48895356,
          -0.21481922,
          -0.3462688,
          0.7154063,
          3.7708218,
          -1.5335271,
          -0.9059645,
          -0.083975345,
          -1.0624604,
          2.341255,
          1.0749885,
          1.9741485,
          4.336695,
          1.2471263,
          3.6492577,
          -0.4493104,
          1.6629624,
          -1.5043352,
          0.2403603,
          0.51653725,
          0.39430842,
          2.9945073,
          2.9826612,
          0.2814335,
          -0.73592824,
          0.4770595,
          -1.6437188,
          3.014236,
          -3.9532876,
          -0.19599757,
          -1.3331172,
          -2.1947348,
          -0.9495052,
          -1.0143068,
          1.3883684,
          0.010875811,
          -1.086047,
          3.068739,
          5.4685383,
          2.329613,
          -0.9376324,
          0.0051450073,
          2.9146438,
          1.3557616,
          -0.7905094,
          -2.367512,
          3.6700354,
          5.088592,
          0.17317797,
          -2.4383194,
          1.8712094,
          0.7250435,
          0.29626653,
          2.173229,
          1.4996412,
          -0.90597624,
          1.2517453,
          1.9742275,
          0.108105764,
          1.9595816,
          -3.1279063,
          -5.3916235,
          -2.448139,
          0.0910131,
          1.4044958,
          0.33305496,
          0.03394094,
          -1.4004838,
          2.7046564,
          -2.2678785,
          -0.12516245,
          1.0455931,
          3.2262177,
          0.13360336,
          0.46215454,
          2.3788042,
          1.0956817,
          0.38208053,
          1.8432451,
          -1.2190523,
          0.19132839,
          -5.407071,
          2.5331862,
          -0.0035306877,
          3.4827046,
          3.0289016,
          -4.567984,
          -0.96492755,
          -2.5162401,
          -1.4786826,
          -0.35353458,
          2.280177,
          1.5627705,
          3.0364838,
          1.9012578,
          1.2136254,
          4.75344,
          -0.07277395,
          -0.7270659,
          -0.21287145,
          0.14842412,
          4.577355,
          1.0672846,
          4.1009626,
          0.9605229,
          2.5576525,
          -2.040824,
          1.8874844,
          0.58373547,
          -1.9170908,
          3.840084,
          -2.369389,
          2.075915,
          0.12665433,
          0.5998373,
          1.0246594,
          -2.7120588,
          0.9322356,
          3.0452724,
          -2.48126,
          -0.7010776,
          -1.5578407,
          1.3548695,
          -0.22314723,
          -2.776378,
          -1.4736944,
          -1.1024672,
          1.7048765,
          5.379807,
          1.5946593,
          0.029113282,
          -0.428169,
          -1.546771,
          1.7565787,
          -1.6434803,
          -1.683526,
          1.5333211,
          1.4121827,
          1.0519655,
          -4.63454,
          3.3593006,
          4.8746176,
          0.23273574,
          -1.0242339,
          -2.3821502,
          -1.0090598,
          -0.12378457,
          -5.0961394,
          -4.9601603,
          -3.8312411,
          -3.1359198,
          -0.41880965,
          -2.295075,
          -2.7084458,
          -1.1877301,
          -4.025329,
          -0.7017363,
          0.7814886,
          -0.12900968,
          0.7398713,
          -1.0642432,
          -1.0166136,
          -0.10030163,
          -4.0848017,
          0.5871221,
          -2.4482918,
          -0.080505624,
          5.0130925,
          2.1123924,
          1.1303186,
          2.7995026,
          -0.9472814,
          -1.2767391,
          -0.17792355,
          -0.22615555,
          -0.16735215,
          -2.582802,
          -3.2762842,
          -5.243207,
          -2.5049202,
          -4.071586,
          -3.8940833,
          -0.87774616,
          -3.0005152,
          -0.16035663,
          -3.3919413,
          0.57088155,
          -0.3192634,
          -0.25160328,
          -2.5944064,
          -2.8588762,
          -1.0004745,
          -2.8612707,
          -2.4419491,
          -2.2177951,
          -0.20589781,
          -0.98689926,
          -3.3506398,
          -1.8821737,
          -3.125413,
          1.4349477,
          1.4461007,
          -1.9386259,
          -1.2809827,
          -0.3886432,
          -1.188152,
          -0.97764117,
          0.1503275,
          -1.8575258,
          -3.048656,
          0.9862233,
          -2.5031037,
          -3.4884474,
          -3.854937,
          -1.0798093,
          -1.8741922,
          0.14201444,
          -1.4778651,
          2.2033675,
          0.48038024,
          0.7454721,
          0.330784,
          -0.877679,
          -0.3551218,
          -2.8332837,
          1.4215437,
          -1.7653362,
          0.8570815,
          2.174291,
          -0.04226906,
          -0.8368313,
          1.7375557,
          0.47607034,
          -4.171013,
          2.5214596,
          1.6288246,
          -3.8851252,
          0.21358804,
          -2.7639413,
          -0.40926474,
          -1.1314036,
          -0.22961822,
          1.8855175,
          -1.9176387,
          0.9282667,
          2.1942961,
          -2.6573288,
          3.4488904,
          -1.5567266,
          -1.4408288,
          1.3559788,
          0.7243268,
          -2.3056886,
          -0.95501083,
          -0.13629808,
          -1.1946216,
          -1.0180969,
          -0.59262884,
          2.1324656,
          -0.29653645,
          -1.0350379,
          -1.7885847,
          3.0289154,
          -1.245698,
          -2.1801882,
          1.4532584,
          -0.5573802,
          -0.5655803,
          1.1073768,
          -1.1071081,
          -3.7993639,
          1.3873738,
          -0.8112994,
          0.35095614,
          2.179485,
          1.2163155,
          -4.5963507,
          0.16333227,
          0.9119772,
          -0.5447316,
          -0.61385024,
          0.6588643,
          0.192504,
          -0.9985071,
          1.0830853,
          2.460171,
          0.20986447,
          -1.1676675,
          1.3796613,
          -2.3838954,
          -2.1764283,
          -0.2525502,
          0.9958143,
          -1.5749694,
          -3.050974,
          0.8234086,
          1.3019294,
          1.7966701,
          -0.045733713,
          1.9004413,
          -1.5299358,
          -0.29944617,
          0.55158335,
          1.1010919,
          1.8262813,
          -2.9909973,
          2.0755882,
          -2.1956031,
          3.1587503,
          -2.7182267,
          -1.3335094,
          1.5545481,
          -1.9163226,
          -3.917359,
          -2.7582166,
          -0.48217058,
          -0.3248845,
          0.74913555,
          3.7195811,
          -1.0105329,
          0.17412466,
          0.48985964,
          0.89388925,
          -1.0779446,
          -2.2953844,
          -3.3049603,
          -3.2640095,
          -0.064355955,
          -1.6523293,
          -1.3807275,
          -4.1866803,
          1.9524202,
          0.59214795,
          -0.68345135,
          -4.1239605,
          -0.28403738,
          2.125198,
          -3.0957181,
          0.99774295,
          0.055245858,
          0.4972128,
          1.0704523,
          0.89167994,
          1.7568129,
          -0.90070987,
          -0.59812105,
          -2.5046034,
          4.3011966,
          -1.1899582,
          -2.3113937,
          -1.3557874,
          -1.5740185,
          0.5303706,
          -2.9096146,
          2.3046813,
          -1.156985,
          -1.5186523,
          -0.33690208,
          0.2791569,
          2.4851022,
          1.0943825,
          -2.537216,
          -0.68327266,
          -1.7774884,
          2.4965932,
          1.506988,
          -5.242608,
          -0.33381873,
          2.8677368,
          -2.364116,
          -2.8455632,
          1.6698002,
          -5.992343,
          1.2843372,
          -0.8307047,
          -2.313506,
          4.9218636,
          0.9702566,
          0.2282512,
          -2.3058624,
          2.047386,
          1.3922224,
          -0.8699376,
          -0.5607079,
          1.6240005,
          -4.6312494,
          -1.3458596,
          -2.8037882,
          2.5401795,
          -0.8777475,
          -1.3480171,
          -0.19785057,
          -1.1016979,
          0.55163825,
          0.43612072,
          0.52030677,
          -0.019610358,
          0.92060935,
          -2.4710915,
          2.651175,
          3.7659593,
          0.46580005,
          3.183785,
          -0.4337435,
          -1.1110404,
          1.7486808,
          1.6027689,
          -2.3862288,
          0.33207953,
          -0.6706741,
          -1.5922278,
          0.16063498,
          -2.7294533,
          -1.0873053,
          0.78451675,
          -0.04283381,
          0.6295509,
          -1.9239705,
          -2.508337,
          -2.4384449,
          -1.7625468,
          3.3577487,
          1.9121534,
          -0.9830386,
          -0.99823225,
          -4.207406,
          -1.579689,
          -1.3997054,
          -2.2709234,
          0.091321014,
          -2.0569904,
          0.1583346,
          -1.2708662,
          -0.8514646,
          -1.5275662,
          -0.7875426,
          -2.5124507,
          0.09243526,
          1.5591121,
          -1.6020399,
          0.2515772,
          0.7812724,
          1.2977662,
          -0.51250076,
          0.20730428,
          -2.3225944,
          -2.0636399,
          0.26187178,
          2.4965248,
          0.9136355,
          0.7532528,
          -0.7567039,
          -2.4977353,
          -4.746972,
          -2.2607722,
          -1.2737691,
          -0.9371321,
          -0.759579,
          -0.14732604,
          2.58577,
          -2.1993554,
          1.8888822,
          3.5015025,
          0.7180876,
          -1.5159248,
          1.7833147,
          -1.996567,
          0.27318725,
          1.0636317,
          0.48971957,
          -3.5541396,
          1.5334356,
          0.8324722,
          0.03806435,
          1.0191782,
          0.6228194,
          -1.7821808,
          -0.30521584,
          -0.5896469,
          -1.5014538,
          -2.3010156,
          -1.0263965,
          2.7182689,
          -1.9934787,
          1.3347051,
          0.42057806,
          -2.5965977,
          -3.2141178,
          0.010396542,
          -3.753714,
          -4.4666896,
          -2.2034006,
          2.7004094,
          0.85376537,
          2.8637507,
          -1.8242447,
          -1.6273658,
          0.14753966,
          0.4580175,
          2.075726,
          -1.408415,
          -0.90424436,
          3.1462796,
          4.554362,
          -1.7606417,
          -1.3602258,
          -1.2201099,
          3.019812,
          1.0010576,
          2.2755387,
          -2.9171743,
          -0.16117091,
          1.3793244,
          1.5633794,
          -0.78153014,
          1.7636604,
          3.2177193,
          -1.31338,
          -3.09525,
          1.7290196,
          -2.1322265,
          0.15380695,
          -0.917591,
          -1.0175905,
          0.31934974,
          -1.3028144,
          1.8297645,
          -2.3496583,
          1.8416204,
          2.4507186,
          -0.12751992,
          0.13577421,
          2.0136437,
          -2.7453964,
          3.986637,
          -1.5045847,
          0.4566804,
          3.2965717,
          1.9411182,
          1.0776472,
          1.4041296,
          3.8937395,
          -2.987644,
          -2.2269623,
          -0.52833664,
          0.16680863,
          0.3909752,
          -1.8805175,
          -3.0561407,
          0.45156404,
          0.19779877,
          -2.5169208,
          1.6102092,
          0.024501195,
          -1.8716019,
          1.3869867,
          1.1609095,
          -1.0708555,
          0.7583992,
          0.26489222,
          1.2410685,
          1.3793087,
          0.1014361,
          2.415184,
          0.11443079,
          1.6756629,
          -2.9410534,
          3.277389,
          4.3325696,
          -0.7373884,
          0.46015123,
          -0.73465973,
          0.2685469,
          -0.588239,
          -1.5642328,
          -1.2295879,
          -1.2301263,
          1.3606963,
          -2.6634426,
          1.4909123,
          0.6686615,
          2.0596519,
          0.38968632,
          2.0696445,
          1.6482291,
          -1.1453016,
          4.458808,
          5.1222186,
          0.81059515,
          -1.3878335,
          -2.3421507,
          -0.44076926,
          -2.1636264,
          -0.24884808,
          -1.6699142,
          2.52288,
          -1.0234697,
          0.56491303,
          0.47127315,
          3.4117239,
          1.7194467,
          2.3787751,
          2.3764896,
          1.5144631,
          -0.68669885,
          -1.6091007,
          0.18055318,
          -2.117193,
          -1.2793008,
          -1.4251215,
          1.6173602,
          0.13700904,
          -0.8304535,
          5.2129617,
          1.340324,
          2.2296796,
          0.21657306,
          1.5975137,
          -1.1675701,
          -2.391735,
          -2.7235918,
          1.4971108,
          0.15061958,
          -4.8416867,
          -1.5536152,
          -3.8439808,
          -0.5353276,
          -1.2347561,
          0.69521505,
          -2.6141002,
          1.250612,
          1.4581367,
          0.5703428,
          -1.364247,
          -2.2140954,
          -0.814961,
          -0.17394038,
          -0.18273199,
          -1.1198823,
          -0.4922043,
          1.2308725,
          1.7912624,
          2.2178252,
          3.8970697,
          5.542497,
          -2.43815,
          -0.59730977,
          -0.06226115,
          -4.7010856,
          -3.5752656,
          -3.8059351,
          -0.4264996,
          -3.0715232,
          1.1419244,
          -0.3216842,
          0.9216698,
          3.9196305,
          -0.12774415,
          2.6102483,
          -2.502963,
          0.7205368,
          1.5224744,
          -0.60193855,
          -1.1122029,
          -1.0986631,
          0.86531955,
          2.9096556,
          1.3498783,
          -2.1252503,
          1.4133179,
          4.8021016,
          6.2244377,
          1.30071,
          -2.3175611,
          1.2473053,
          0.3696352,
          0.3165942,
          -1.3300519,
          1.0140405,
          -3.8366034,
          -4.0665836,
          0.98433983,
          -0.054736536,
          1.4429669,
          1.6030916,
          3.7417047,
          1.7050097,
          1.6516486,
          1.264652,
          -2.8482459,
          -1.8498253,
          -2.133891,
          -3.6797867,
          -4.5690856,
          -5.4411354,
          1.3062404,
          -2.0170681,
          0.6484169,
          0.95707035,
          4.2354326,
          2.0601168,
          -1.0453144,
          4.0887904,
          1.1418978,
          1.4377192,
          -0.99185807,
          2.114064,
          0.13680004,
          -1.5587661,
          1.2975672,
          1.1180359,
          1.4157467,
          -0.2431284,
          -0.27825317,
          3.7008047,
          5.7301006,
          1.0194086,
          1.7987179,
          -2.2080867,
          0.5748646,
          -2.7173007,
          -0.48552343,
          -5.6148834,
          -5.6631074,
          -5.4894066,
          -4.694835,
          -3.9843295,
          -2.6248837,
          -1.0276569,
          0.31497353,
          -2.0306451,
          -1.0990062,
          -2.2334807,
          -2.3246984,
          -1.8436939,
          4.7626443,
          0.7288082,
          1.4670749,
          0.102515034,
          3.1573603,
          0.3442139,
          1.8918515,
          -1.3950796,
          1.8214978,
          0.11382759,
          1.5244507,
          0.76663196,
          -3.496105,
          -1.5682291,
          0.3503486,
          -3.7167761,
          -3.3984573,
          -5.19737,
          -5.3075767,
          -4.8061304,
          -1.6657555,
          -0.1911624,
          -1.5427952,
          -1.1368468,
          -3.415149,
          -2.038967,
          0.48519066,
          -1.3278154,
          0.031112144,
          1.9195822,
          -4.2857842,
          0.5504956,
          -1.8960495,
          0.34456566,
          1.1582649,
          -0.38396177,
          4.219748,
          -0.51118225,
          -1.2089546,
          -0.047146432,
          -3.2277894,
          -2.1381688,
          -1.0079402,
          2.3667314,
          0.08489158,
          -1.8499987,
          -1.0879716,
          -8.217261,
          0.15587853,
          -2.2370331,
          -2.0947843,
          0.9201071,
          -1.4354519,
          -3.4469788,
          -1.183912,
          -1.6638548,
          -1.1666981,
          -3.2892995,
          -0.27003336,
          -0.14773354,
          -0.75217605,
          1.6516197,
          1.2776357,
          0.16594633,
          3.0206106,
          0.9319268,
          -2.4858875,
          0.492065,
          -2.343044,
          0.5801588,
          0.37078425,
          -2.2502542,
          1.0557885,
          1.0997703,
          -5.0611315,
          -1.9797376,
          -1.1936095,
          -2.1147492,
          -1.0084193,
          -3.8739383,
          1.0981203,
          -0.21072881,
          -0.22429676,
          -1.9369746,
          -6.2691445,
          -0.1570881,
          0.79026276,
          -0.8279492,
          -0.4326475,
          0.20113309,
          1.7918246,
          -0.631141,
          1.7490823,
          -2.3009262,
          -0.80040264,
          -1.3345506,
          -1.5521699,
          1.3187853,
          -0.810625,
          2.1267457,
          0.24704817,
          -3.767794,
          -1.4283797,
          -1.2471191,
          -2.1012132,
          -2.4388962,
          -3.4283624,
          -1.7631032,
          -1.6733857,
          -2.1144953,
          -1.0952458,
          2.9302914,
          4.101188,
          -5.8276033,
          -3.9533052,
          -2.551521,
          -2.6435935,
          1.3734049,
          -0.5845766,
          -2.313876,
          1.8679048,
          -0.49731937,
          -1.0936037,
          -1.4696971,
          -1.2961826,
          -4.205987,
          -2.4588072,
          -1.5567172,
          -1.6067065,
          -0.44625422,
          -0.04071087,
          -0.7722058,
          1.2870134,
          -2.687754,
          1.2907473,
          -2.380039,
          -1.317008,
          -4.883975,
          -1.3789088,
          -3.1090496,
          0.028095126,
          -2.1827815,
          0.85831815,
          -3.1357286,
          -0.20186956,
          -2.515721,
          0.28544754,
          -0.7593489,
          -3.7116497,
          -3.3303595,
          -0.08000221,
          -1.3664598,
          0.98973536,
          -0.24290936,
          2.1426287,
          -1.0093774,
          -0.6829486,
          0.27394703,
          1.6366655,
          1.7349147,
          1.7504666,
          0.83201224,
          -2.7415164,
          -0.9425554,
          -0.023474563,
          2.7854836,
          2.9022279,
          1.2109338,
          1.7545216,
          2.244684,
          0.34217697,
          3.4830043,
          -4.0935817,
          -2.5181682,
          -8.107693,
          -1.5236592,
          -0.9733094,
          -1.188128,
          -0.8309311,
          -0.51055783,
          -0.6368306,
          0.86498755,
          0.78378916,
          1.4129124,
          0.2732619,
          1.1902704,
          0.4023464,
          -0.55741584,
          0.97453284,
          1.0672535,
          -0.5427172,
          3.8700054,
          1.7683194,
          -1.7927457,
          1.9982213,
          1.040573,
          0.31661615,
          1.719368,
          1.5531569,
          -0.42554414,
          0.4248476,
          1.2908221,
          -0.76830906,
          0.25585085,
          1.2490742,
          0.47657487,
          1.7974662,
          1.739731,
          1.07307,
          0.9552572,
          -1.7087106,
          0.08238868,
          0.76747495,
          0.5926099,
          2.5087242,
          2.9248908,
          0.75454634,
          0.10279662,
          0.8559192,
          2.4297924,
          -0.029185105,
          -1.0307533,
          0.3174425,
          -0.23677467,
          0.6393719,
          0.44899225,
          2.0286148,
          -1.9954115,
          5.696775,
          1.3797482,
          1.2111846,
          1.2232463,
          -0.71206754,
          -4.0125284,
          0.6692725,
          -3.9766467,
          -0.6419727,
          1.2443885,
          -1.6685345,
          1.8714366,
          -2.2895155,
          1.7045351,
          -1.4845308,
          2.7085848,
          0.2632269,
          2.1054807,
          -1.8878498,
          -1.8327407,
          -1.6664531,
          -1.0015625,
          -1.8640743,
          -1.181069,
          -1.5405644,
          -0.11800033,
          -3.095179,
          1.5140381,
          -2.053636,
          -0.3750571,
          -0.7615742,
          3.3845735,
          1.9326009,
          -0.45855716,
          0.08059753,
          -1.4525298,
          -1.2763455,
          -0.49645546,
          -3.2514956,
          0.5807294,
          -1.440123,
          2.2120545,
          -3.4053423,
          -1.0160241,
          -4.346679,
          -1.180915,
          0.5448813,
          2.581343,
          -2.5768306,
          1.1608533,
          1.2582184,
          -0.14672194,
          -2.7426383,
          2.1341515,
          -3.3658223,
          0.8212766,
          -0.8487861,
          3.4470603,
          -2.2052069,
          0.24080168,
          2.971437,
          0.15030806,
          1.6970592,
          1.6972473,
          -1.669744,
          3.1481705,
          -1.471909,
          1.9120595,
          -0.044766624,
          -0.33744696,
          1.4052597,
          -1.3230659,
          -2.7658424,
          -2.4739673,
          2.0740192,
          0.593808,
          6.363993,
          -0.7814856,
          3.6730566,
          -3.1359057,
          -4.240329,
          3.545505,
          -1.493119,
          0.8878787,
          -2.2565827,
          2.1569767,
          1.0573039,
          1.5985196,
          -1.2729028,
          -1.833853,
          4.14084,
          2.2461317,
          -0.6005426,
          0.011708791,
          1.2800196,
          0.7186142,
          2.5373127,
          1.1872133,
          3.0767946,
          0.0045172307,
          0.266128,
          2.6173215,
          1.2583811,
          0.08837767,
          -2.8832617,
          -1.3868387,
          2.2475755,
          1.5500659,
          0.37396094,
          0.2751938,
          -2.8193295,
          3.1579247,
          -0.57255465,
          -1.6918927,
          -0.20197254,
          1.9820222,
          -1.1851788,
          -1.2218627,
          0.6588226,
          -3.5246682,
          2.3215606,
          2.453329,
          2.5332103,
          -3.6180656,
          -0.74363464,
          -0.7466808,
