{
  "path": "ML-saves/first-attempt.json",
  "iteration": 8465,
  "cost": 0.6343372,
  "layers": [
    {
      "from_amount": 784,
      "node_amount": 16,
      "weights": {
        "v": 1,
        "dim": [
          16,
          784
        ],
        "data": [
          -0.1192129,
          1.084344,
          -2.7190018,
          -3.4890466,
          1.3620191,
          -1.2478335,
          -0.7226411,
          -0.8115732,
          0.54260045,
          2.4255502,
          1.2774215,
          -1.073873,
          -2.2114716,
          0.80637467,
          1.5583588,
          0.16081758,
          0.85270995,
          0.9054447,
          -0.052205943,
          1.9628047,
          -0.32378906,
          -0.94801205,
          -0.5380513,
          -1.2695448,
          3.0214312,
          -2.7939348,
          -1.2948554,
          3.6903372,
          -2.0438735,
          -0.44348782,
          0.54046047,
          1.1414242,
          1.1450131,
          0.22352368,
          -1.051388,
          -0.7683221,
          -1.453499,
          1.3123562,
          -1.3310164,
          0.095698975,
          -1.1407667,
          0.93903375,
          1.0667835,
          0.53766894,
          -0.96494126,
          -0.6903019,
          0.26304638,
          -1.1535954,
          3.5731838,
          1.2477106,
          2.7449179,
          0.5107293,
          2.09187,
          -1.1775006,
          -1.7582138,
          -1.1367234,
          0.43933466,
          -3.4521923,
          -0.54105896,
          0.09240911,
          0.7446971,
          1.0244788,
          0.6663079,
          1.0287296,
          0.2513535,
          -1.9055223,
          -1.6518342,
          -2.7316055,
          0.329229,
          1.6134782,
          0.97307676,
          -0.43014196,
          0.44765776,
          1.0655048,
          2.8398283,
          -0.791677,
          1.0410182,
          -1.4593775,
          1.4448897,
          -0.5126695,
          0.28770643,
          -1.2333587,
          0.6579902,
          -0.8913352,
          -0.7234828,
          1.2801664,
          -0.9415113,
          0.36415553,
          1.1670105,
          0.5654056,
          -0.35175848,
          -1.8781495,
          -1.6575303,
          -0.24085207,
          -2.8316498,
          0.043033574,
          -1.4312639,
          -0.7660634,
          1.3714175,
          -0.37335536,
          -1.7493271,
          -0.09740314,
          0.2661165,
          -1.8846202,
          -2.0430832,
          -2.695629,
          -1.8899047,
          1.5913494,
          -0.31521535,
          0.9599308,
          1.2880951,
          -1.0621041,
          -0.6985925,
          0.3631432,
          -0.5127985,
          0.32713524,
          1.1226532,
          0.71435237,
          -0.43464056,
          2.4257028,
          -1.3120769,
          2.177979,
          -0.83616644,
          0.029573802,
          0.5398557,
          0.045576826,
          -0.7448122,
          -2.109132,
          1.2286371,
          1.1557103,
          -0.37291965,
          -0.10090975,
          -1.5548167,
          2.224902,
          0.77106935,
          -2.1235416,
          -0.6777848,
          0.8611061,
          -0.92952305,
          -1.0457747,
          1.3658084,
          0.17550275,
          -1.9324665,
          0.4204245,
          0.5900172,
          1.8245327,
          2.4779544,
          -0.7122775,
          -0.589134,
          1.396402,
          -0.06990291,
          -0.5424232,
          1.9112483,
          -1.3882041,
          -1.0679309,
          -1.6519488,
          -3.659099,
          -0.58291847,
          -1.8171219,
          0.86142516,
          0.59349895,
          1.1445773,
          -2.6033788,
          1.6333961,
          0.9854389,
          1.4816905,
          -1.9333407,
          1.0764694,
          -0.68048304,
          1.2938702,
          -0.251219,
          0.8358775,
          0.54673606,
          -4.0928917,
          -2.5528588,
          0.4213629,
          1.613295,
          -1.0687947,
          -0.30095342,
          0.13200445,
          -2.725898,
          3.379651,
          0.46374494,
          1.7329297,
          1.8714375,
          1.5561523,
          2.6184397,
          2.800967,
          0.7058796,
          2.0653648,
          3.8502522,
          0.5449724,
          0.12521213,
          -0.4530023,
          -0.97724223,
          -1.4710884,
          1.0438577,
          -2.3319573,
          -0.36222658,
          -0.8517485,
          0.47761273,
          -1.3656429,
          -4.501743,
          1.0958309,
          0.6846924,
          0.74563295,
          1.8423126,
          -0.90955323,
          -1.8672619,
          -1.429512,
          -0.5615807,
          1.8204267,
          -0.47952253,
          0.4119519,
          1.1161977,
          -1.5274502,
          0.35042825,
          0.91103685,
          -0.61221546,
          1.1044508,
          -1.5947199,
          -0.0067753457,
          -2.1895983,
          -1.4809002,
          -2.045452,
          -0.568706,
          -0.14820188,
          -2.1982944,
          -1.6454141,
          -0.4807352,
          -0.27031118,
          -0.37116486,
          0.8579364,
          1.6684867,
          -0.96978664,
          -1.5515343,
          1.8892468,
          -1.1197213,
          -0.06769018,
          -2.5784736,
          0.33692086,
          0.53834563,
          0.49011105,
          1.5228878,
          -1.5643922,
          0.73573554,
          -0.75212824,
          -0.15821809,
          2.1164572,
          0.857106,
          -1.5301298,
          -1.1340024,
          0.30719548,
          0.7591129,
          0.4092589,
          0.29823196,
          1.7330312,
          0.7918008,
          1.2239833,
          -0.94940716,
          -0.9350099,
          3.2991068,
          1.4969026,
          2.0367014,
          1.2344029,
          0.2574088,
          1.8878999,
          -0.83300257,
          1.8757689,
          4.342406,
          -0.3351834,
          -0.5236821,
          -1.0694588,
          -0.7012008,
          0.9506362,
          0.6643209,
          0.08236429,
          2.5075977,
          1.1797177,
          -0.87663656,
          -2.388498,
          1.1409836,
          0.59770083,
          -0.2068111,
          -4.097659,
          0.25615236,
          1.2491472,
          -1.3970093,
          -0.40388924,
          0.22686923,
          1.6588728,
          -0.79565114,
          -1.6282697,
          -1.3562227,
          -0.62683123,
          2.7154222,
          -1.0991572,
          0.551404,
          1.4723883,
          1.9953287,
          2.0987628,
          2.0508838,
          0.75703937,
          -0.6239585,
          1.4842485,
          -0.7322062,
          -0.106870726,
          -1.797816,
          -2.142186,
          -1.6324847,
          2.175899,
          0.3351602,
          0.56921333,
          0.19186348,
          1.7119144,
          -1.0638962,
          -0.5937327,
          -2.083047,
          -0.9090511,
          -0.09817195,
          1.751755,
          -3.1328592,
          -0.46591425,
          2.1108284,
          -1.3024278,
          -0.6581961,
          -0.6820747,
          0.17596328,
          -2.9371846,
          -0.33821893,
          -0.42865416,
          -0.08483446,
          0.88974446,
          -0.12397202,
          0.18910138,
          -1.9594201,
          -0.1488071,
          1.2814417,
          -0.009953473,
          0.3265178,
          0.22863898,
          -2.777213,
          0.9001964,
          -1.8359512,
          0.062455382,
          2.1190903,
          -1.0830386,
          -0.043229587,
          -0.09382339,
          -0.5374771,
          -0.29951456,
          -0.5893434,
          -0.59856415,
          -1.0132604,
          0.51382583,
          -1.540944,
          0.3905278,
          0.4223265,
          -1.5411072,
          -0.79956007,
          -3.3832903,
          0.513005,
          0.5656784,
          -0.38951394,
          0.91328424,
          -0.34151447,
          -0.62336886,
          0.2965061,
          0.20053491,
          0.5479409,
          0.51378244,
          1.3870888,
          0.9576191,
          -0.27732396,
          0.55595195,
          1.9432383,
          0.5955168,
          0.80650705,
          -0.4054569,
          1.6255482,
          -1.3883904,
          -0.17780808,
          0.16016364,
          -1.5385922,
          0.5890098,
          -3.370257,
          -1.3765705,
          -1.4182907,
          0.5898848,
          2.1670103,
          1.4886699,
          -0.16098909,
          -3.2279124,
          1.8612068,
          -2.7198184,
          -1.0506767,
          2.2769217,
          -2.9725504,
          -1.0232551,
          3.17086,
          -1.3904048,
          -0.8388402,
          0.67980903,
          1.9438274,
          -0.020679384,
          0.61576384,
          -1.5888293,
          -0.21525079,
          -1.6896273,
          1.6243745,
          0.71381235,
          -0.1328792,
          -0.2718206,
          0.834909,
          -2.286611,
          -1.1895684,
          -0.4766454,
          3.498209,
          -0.7375337,
          1.4174747,
          -0.44073397,
          -0.75130236,
          2.5664358,
          0.17898381,
          -0.05962847,
          2.0282443,
          -0.5595912,
          0.8719304,
          -0.31334907,
          0.9838049,
          -1.8447995,
          -0.53238255,
          0.271096,
          -1.6089942,
          2.2003815,
          -0.9199374,
          2.5153306,
          -1.4832456,
          -0.9206998,
          -1.6376415,
          1.2321464,
          0.44804114,
          -0.28446767,
          -0.27838424,
          2.3837419,
          0.20004296,
          0.7712764,
          0.7522785,
          1.2360678,
          -1.5504634,
          -0.09639278,
          -0.7644782,
          1.9659926,
          0.5127737,
          -1.1951829,
          -2.497745,
          -0.84504694,
          1.7170326,
          -0.46762562,
          1.2747827,
          2.3605828,
          0.703159,
          1.5851351,
          0.6953531,
          -0.5622712,
          2.6987772,
          -0.03180711,
          -0.57424146,
          -1.4147229,
          0.82242584,
          0.73647225,
          1.7953286,
          -0.7008997,
          -2.3909512,
          -0.09081001,
          -1.6437455,
          1.1249709,
          1.8112868,
          1.096863,
          0.76586705,
          -0.69243777,
          -0.86588687,
          3.3693783,
          -0.20316324,
          0.6276688,
          1.1244364,
          -0.2010912,
          0.5903821,
          0.315224,
          -0.6169661,
          -0.23055089,
          3.0494611,
          -0.60834724,
          -0.67294174,
          -1.9848919,
          1.7077705,
          -2.5772114,
          -1.072167,
          -0.091082886,
          -2.6675394,
          0.31071058,
          0.13783215,
          -2.684091,
          -1.008194,
          -1.7370067,
          -1.5106306,
          -0.710428,
          -0.3303599,
          0.060981683,
          0.03443835,
          1.161666,
          2.1100287,
          -0.23723435,
          1.6554997,
          -2.09211,
          0.4425825,
          -2.396255,
          -2.102749,
          -1.7433207,
          0.13761456,
          -1.8640959,
          -0.44625798,
          1.9732126,
          -0.88859093,
          1.1303102,
          0.35996008,
          -1.5750607,
          -0.71539944,
          -1.6066701,
          1.4994314,
          1.0112301,
          1.7430893,
          -0.79474825,
          -1.903877,
          3.0853055,
          -1.4417986,
          -2.409161,
          0.11176551,
          3.2892015,
          -2.5737474,
          2.4754293,
          -0.04988348,
          -0.8901979,
          0.08073044,
          0.8556113,
          -0.15018201,
          1.149641,
          -1.5742122,
          -0.4268062,
          0.53199244,
          -0.48593068,
          1.5206271,
          -0.59068817,
          2.1742265,
          1.8597294,
          4.390052,
          -0.7332603,
          0.69817,
          0.92617565,
          -0.31276911,
          1.3077731,
          0.5623066,
          0.43769938,
          2.0252526,
          -0.39965433,
          -0.43958908,
          0.08391487,
          -0.3581201,
          -0.9775098,
          2.0919871,
          0.97476184,
          1.2571578,
          1.5061293,
          -0.2825583,
          -2.2596505,
          0.72425926,
          0.93104744,
          1.7549362,
          -0.022514362,
          -2.894666,
          -0.08003708,
          2.6933694,
          -0.5192895,
          -0.2919178,
          0.07255077,
          -1.5807998,
          1.638744,
          -0.79989827,
          -0.6061779,
          3.3250124,
          -0.3209198,
          -2.7376926,
          2.3423378,
          1.0042657,
          1.1003586,
          0.38754588,
          -2.9383605,
          -1.5049433,
          2.1428566,
          0.21040446,
          -1.0096134,
          -3.3733473,
          0.021037675,
          -0.6874018,
          -2.3970425,
          -0.9988848,
          1.2773086,
          0.011080237,
          1.2664477,
          0.9399409,
          0.033443663,
          1.2104504,
          0.49513042,
          1.5841556,
          1.3632374,
          -1.777998,
          -0.0070209056,
          -2.2039173,
          0.3925873,
          2.7756631,
          -2.0812006,
          -1.7483368,
          0.5135808,
          -0.17686594,
          0.29721528,
          0.44478223,
          2.5213008,
          1.7930408,
          1.1488372,
          -3.138331,
          0.28028348,
          1.9302112,
          -0.38649988,
          0.6342012,
          -0.2719083,
          1.7591621,
          0.6694754,
          1.3572067,
          2.411426,
          2.0339408,
          0.3690039,
          -1.1751107,
          -0.044642698,
          -0.35898283,
          0.92407393,
          1.382901,
          0.36194414,
          2.279744,
          -0.52330697,
          -3.4317787,
          -0.6542956,
          -0.57377404,
          0.42579064,
          3.2687387,
          0.1219452,
          0.41450506,
          1.8520998,
          -1.0371616,
          0.008847591,
          4.7093987,
          0.14265436,
          2.2716718,
          -0.53064036,
          1.324626,
          0.10469619,
          2.390447,
          0.05918983,
          2.485002,
          0.01644256,
          0.9158709,
          1.0261661,
          2.4400275,
          0.98819476,
          -0.3819154,
          2.7760496,
          -1.7182362,
          1.9167215,
          -1.1302142,
          0.6120443,
          0.35276815,
          -1.7029663,
          3.125498,
          2.537069,
          0.71452254,
          -2.3588593,
          0.89239734,
          -0.20558585,
          1.629479,
          0.04218067,
          -0.37322158,
          1.2385554,
          1.2103426,
          0.6622621,
          1.3499104,
          -2.309431,
          -0.8968782,
          -1.2443435,
          0.35199916,
          0.7217177,
          -0.53656495,
          -0.6260293,
          0.47998497,
          1.5319784,
          0.14682873,
          -0.24588938,
          0.8991617,
          -3.5190148,
          1.6033852,
          -1.2616702,
          4.2116303,
          1.2725737,
          -1.3845857,
          2.2962413,
          0.089171655,
          0.8590606,
          -2.3615031,
          1.622421,
          0.08792203,
          0.85933995,
          1.4943869,
          3.0955646,
          0.21165268,
          -0.75560343,
          2.1624267,
          3.153804,
          0.21913527,
          2.274327,
          1.6629224,
          0.9571063,
          1.4829944,
          0.13237998,
          -0.64306784,
          -1.558732,
          0.7349063,
          2.8018484,
          -0.45606756,
          0.9477738,
          1.1668022,
          -1.1408769,
          -0.31839013,
          -3.496632,
          1.5755956,
          -0.9732769,
          -2.4583993,
          -0.18994811,
          -0.33367068,
          0.9134975,
          -0.9847827,
          0.83558536,
          1.0159285,
          0.3388137,
          1.8028945,
          -0.72398865,
          -0.5689901,
          -0.63357925,
          -1.3327125,
          -2.0075388,
          1.900556,
          -0.25854552,
          -0.9109996,
          0.49559617,
          0.52745897,
          0.4272761,
          0.842119,
          -1.8779207,
          -0.45401877,
          -3.355431,
          0.32934144,
          0.2064201,
          1.8352188,
          -2.4639266,
          -1.6020427,
          -1.1212757,
          0.83691144,
          -0.4955746,
          0.35374215,
          0.7084316,
          -1.0194079,
          -0.06359252,
          2.351113,
          -3.0627306,
          -0.56599444,
          0.13050309,
          1.6536056,
          1.0759784,
          1.151654,
          0.7764306,
          0.7061375,
          0.5894095,
          -1.3738661,
          -1.796607,
          -1.0390799,
          -0.58294314,
          2.0902846,
          -1.121056,
          2.1989658,
          1.4790204,
          0.010742001,
          2.732596,
          0.56510687,
          0.6423192,
          2.422641,
          -0.21430513,
          0.4189358,
          1.159796,
          -0.6658602,
          0.111068815,
          -1.0349411,
          -1.6999509,
          -0.8672278,
          0.272874,
          1.3101212,
          1.0661345,
          1.5288625,
          0.15001367,
          0.95384854,
          1.7656116,
          1.9745092,
          -1.2525762,
          0.27473837,
          -0.8529084,
          1.0011526,
          2.23051,
          0.84054995,
          -1.0581628,
          1.0566137,
          0.08214432,
          4.058283,
          -2.575109,
          1.4867393,
          1.5955608,
          -0.8487267,
          1.6974386,
          0.14495182,
          0.8161269,
          -2.0585713,
          -1.2866129,
          -2.4023812,
          1.5268445,
          1.7363446,
          3.327163,
          0.6455027,
          1.382616,
          -0.7617596,
          0.69882035,
          0.38724527,
          -1.1236897,
          -0.009121597,
          1.5569949,
          0.5926466,
          3.5349288,
          -0.67558396,
          -0.055273116,
          0.56126636,
          -1.093526,
          0.5616118,
          0.357473,
          1.3626399,
          1.1307914,
          3.9444926,
          0.111460075,
          -0.76559854,
          -1.957671,
          0.8464303,
          1.8109304,
          -1.6614684,
          -1.632944,
          -0.005476646,
          -0.5360581,
          3.723622,
          2.3985276,
          -0.2734242,
          -1.1500509,
          -1.135623,
          -0.05844928,
          -1.7827508,
          -1.3401772,
          -1.5527639,
          0.30259284,
          1.2190149,
          2.5287833,
          -1.1738944,
          2.0376937,
          0.022997864,
          0.53274894,
          0.49309772,
          -0.8405724,
          -1.250648,
          -0.58651865,
          -0.45848453,
          -0.024354033,
          1.6695126,
          1.2027373,
          -2.037646,
          2.5333567,
          -1.8900651,
          2.9088085,
          1.2746536,
          2.2717614,
          0.059762165,
          -0.7846995,
          -1.4461291,
          0.29323247,
          -2.420488,
          -1.232806,
          -2.916522,
          -0.5240227,
          1.1558112,
          0.7074117,
          1.7286907,
          0.35288706,
          -0.2514088,
          0.39981973,
          0.48102883,
          1.7211907,
          1.5715895,
          -1.824463,
          0.93038726,
          -0.4171555,
          0.009287108,
          -1.3143038,
          -2.1217208,
          -1.2181515,
          3.0867505,
          0.78047305,
          -0.54562205,
          2.1995094,
          -2.0744784,
          3.1001735,
          1.8041015,
          1.0914365,
          -0.53013396,
          -0.23887786,
          -1.4534804,
          -3.3165188,
          -0.7952778,
          -0.5704893,
          -1.3003706,
          -0.21128155,
          -1.2315947,
          -1.0286859,
          0.8808555,
          -0.16393545,
          0.25265902,
          -1.5202552,
          -1.6391984,
          0.21087477,
          0.36434945,
          -1.8460493,
          1.1759224,
          0.5159205,
          -1.5709707,
          1.946297,
          -2.2233002,
          1.7474774,
          -0.92410535,
          -0.5012928,
          0.42578328,
          -1.9667683,
          0.5497315,
          1.7170937,
          -0.25883758,
          -1.5292774,
          -2.2020898,
          -1.7262435,
          -1.4168133,
          -0.16789094,
          -0.35516906,
          0.48013026,
          -2.066833,
          0.9273203,
          1.506214,
          1.302204,
          0.48154694,
          -0.3116939,
          0.19097301,
          2.2646687,
          -2.7759528,
          -0.6346291,
          -0.16544256,
          -3.722193,
          0.6937559,
          0.8374488,
          1.0743726,
          1.784136,
          -1.3681097,
          1.7389159,
          0.42178246,
          -0.5892615,
          -3.235657,
          -1.0502487,
          0.084629044,
          1.2112097,
          -1.4669858,
          1.0634902,
          -0.49346972,
          -2.4958773,
          -0.68807316,
          -0.0993192,
          3.559352,
          -0.2987086,
          -0.68370825,
          -0.43737185,
          -1.164213,
          1.7277262,
          0.56637776,
          -0.50291526,
          0.9879707,
          2.289497,
          -1.4250073,
          2.6609595,
          1.2611147,
          -0.7428547,
          -0.86064893,
          0.7050234,
          0.87209064,
          -0.1643633,
          -0.017249309,
          -0.10973377,
          0.92995924,
          -2.2218575,
          1.2248673,
          0.1763281,
          -0.4248981,
          0.6797089,
          1.6596661,
          0.1537717,
          1.5523202,
          -0.093351394,
          -1.5467818,
          4.1051397,
          -0.36469537,
          0.32561433,
          3.5123641,
          -1.8213018,
          -0.1928252,
          -0.34084395,
          1.9338536,
          1.9058537,
          -1.033364,
          -0.52333415,
          -0.748938,
          -0.2742343,
          -2.4570887,
          -2.1581094,
          -0.6916719,
          -1.0786914,
          -2.0353255,
          -0.072029136,
          0.43605533,
          0.8663308,
          3.4637806,
          1.1120529,
          -2.1663914,
          -2.6529152,
          0.7564843,
          0.89960974,
          -1.2908627,
          0.7279356,
          -0.14811276,
          -0.52389234,
          -1.7680218,
          -0.5855992,
          -0.571464,
          -1.4382726,
          0.7519896,
          -0.44040364,
          0.4539594,
          2.3198748,
          -1.2192184,
          -1.6145011,
          -2.473412,
          -0.77928877,
          0.20908809,
          -1.0729383,
          0.53337276,
          0.67968446,
          0.55567306,
          2.3208427,
          -0.44333744,
          -0.97556674,
          1.6261301,
          0.17298236,
          1.459367,
          -1.0106626,
          -0.27456865,
          0.06834695,
          1.2034464,
          -1.5866609,
          1.7969114,
          -3.574907,
          3.4349666,
          -0.040494375,
          -2.26205,
          -1.0828393,
          -1.7411854,
          2.4030633,
          0.2211323,
          -0.75484914,
          0.14373682,
          2.4525528,
          -0.5645159,
          0.27840063,
          -1.2866924,
          -0.8309453,
          -1.6538616,
          2.2336128,
          -0.6158804,
          -0.9969846,
          1.6308889,
          -0.72900796,
          0.22537978,
          3.6685915,
          0.54531986,
          -1.2758874,
          0.08342683,
          -0.65627944,
          -0.78562737,
          1.1860905,
          1.9977679,
          -1.4428566,
          -1.8593605,
          0.26893082,
          0.46656138,
          -2.4976444,
          -0.2224564,
          0.18575001,
          0.7947714,
          0.35554433,
          -1.713238,
          1.0056176,
          -0.4615274,
          1.8709164,
          -0.528885,
          -2.4619124,
          0.9483785,
          0.11558924,
          0.04219542,
          1.1961559,
          0.32657444,
          1.111457,
          -0.29824853,
          0.009902064,
          0.9307412,
          1.2935449,
          -0.5237034,
          2.369365,
          -3.85044,
          2.9432414,
          -0.58887535,
          1.6298288,
          -0.012974255,
          1.5951269,
          1.7550288,
          0.6744953,
          -1.3574831,
          -2.4451783,
          -1.249649,
          -1.5014217,
          0.36100596,
          -0.0830944,
          -0.13966638,
          2.0374885,
          1.9806541,
          -2.7637575,
          -0.7472598,
          1.2396381,
          0.42846486,
          -0.16177201,
          0.83877355,
          -0.21314186,
          -3.889096,
          -0.82688427,
          -1.6026675,
          0.90605253,
          -0.3268948,
          -1.30931,
          -0.7970562,
          0.28723732,
          -1.718808,
          -2.4628904,
          -2.766669,
          -1.2068546,
          -1.9179903,
          0.17770591,
          1.7816722,
          -1.2072644,
          -0.38521552,
          0.9501327,
          0.47497535,
          0.23410203,
          3.566538,
          0.94854915,
          -1.3736355,
          0.8680937,
          -0.6275722,
          -1.5112015,
          0.620278,
          -1.0917135,
          -0.25473392,
          2.0537663,
          -0.53870517,
          -0.6202156,
          -2.249486,
          1.039652,
          -1.8978629,
          -1.0121742,
          0.79402965,
          -1.5586534,
          1.4417242,
          2.8827472,
          1.0418298,
          -0.9475615,
          -0.48195174,
          -0.24761164,
          -0.8505147,
          1.5061903,
          -0.21063517,
          2.2208595,
          -1.1758713,
          -0.064794846,
          -1.4590691,
          -0.2907385,
          -1.9717133,
          3.314808,
          -0.27925617,
          -1.2598194,
          -0.9613069,
          -0.83511806,
          -1.7255068,
          1.7207353,
          -0.56679,
          -1.1302028,
          0.31720066,
          1.4346526,
          -0.45936754,
          0.017827109,
          -1.6065874,
          -2.9749908,
          -1.3628432,
          -3.1094973,
          2.2246506,
          2.6023333,
          0.50295734,
          0.5002236,
          -1.6467446,
          0.051299326,
          0.7149028,
          -2.3379734,
          3.5200138,
          -0.4743503,
          0.86122525,
          0.6278756,
          0.044564944,
          -0.31310552,
          0.4315632,
          -1.1787387,
          -1.3700463,
          0.2250565,
          0.61894715,
          0.5820147,
          -0.48326945,
          0.716012,
          0.57843286,
          0.03605124,
          0.71173954,
          -0.048732445,
          0.39161453,
          0.9756251,
          0.26475614,
          0.0068021603,
          0.660691,
          -1.851947,
          0.3180668,
          2.2992356,
          -1.0000937,
          -2.0977135,
          -0.58459276,
          -0.8549691,
          -2.9519327,
          -1.8669491,
          3.598187,
          -0.32030496,
          2.1653385,
          0.5735287,
          -1.1754917,
          2.4823723,
          1.1384487,
          0.5774357,
          -1.5033941,
          -1.7840272,
          -1.9225777,
          -1.5389308,
          -0.7085876,
          -1.5379367,
          2.5321784,
          -4.8890553,
          -0.36797,
          -0.13763294,
          -3.67242,
          -0.30498058,
          0.44760093,
          1.726172,
          1.5911684,
          -1.3593719,
          0.5105114,
          -2.9307742,
          -0.2353253,
          -3.0368721,
          -0.3345568,
          -2.6137395,
          0.75705326,
          -4.4845147,
          -2.0611808,
          -1.9504623,
          1.1513479,
          -0.43065226,
          -0.15733331,
          -1.3996962,
          -2.9072754,
          0.43055004,
          -1.0724988,
          -0.6886958,
          -0.03256659,
          -0.9648639,
          0.7246297,
          -2.5584629,
          0.71236527,
          0.1555683,
          -0.2756726,
          -0.75120854,
          0.11172455,
          -1.1395998,
          0.32365048,
          1.5729506,
          -2.0708475,
          -0.8627861,
          -0.7666987,
          1.0179973,
          -0.84484065,
          -0.64716905,
          -1.6097875,
          0.11597729,
          0.048745293,
          -0.019467898,
          1.0599312,
          1.3620398,
          -2.4929137,
          0.2003927,
          0.8924058,
          -2.2173638,
          -2.2108808,
          -2.6555202,
          0.71736497,
          0.011235286,
          -1.8824608,
          0.40129527,
          -0.370485,
          -1.7627724,
          -1.4798176,
          -0.65842193,
          -1.0845963,
          0.44753,
          -0.271089,
          -0.68118143,
          2.0562117,
          0.4875265,
          1.2002152,
          0.88014483,
          2.5693166,
          -0.12832695,
          -1.5474257,
          3.0710483,
          -1.6423762,
          0.036727175,
          -2.474946,
          -0.57061124,
          -0.22543874,
          -0.95059824,
          -1.5232464,
          -0.35190687,
          -0.22880219,
          -0.1412787,
          0.14422761,
          0.33215275,
          -1.9327127,
          1.2216179,
          1.0069274,
          0.5799662,
          0.36422473,
          -0.7474591,
          -1.070556,
          -1.5672178,
          2.5018632,
          0.44460934,
          -0.5539447,
          0.44550872,
          -0.79816383,
          -1.8397933,
          4.145471,
          0.39845592,
          1.0545477,
          -0.49877292,
          1.3764615,
          2.2998266,
          0.040722366,
          -0.22920807,
          1.5107093,
          -1.3742468,
          0.015779462,
          -0.48328918,
          -0.19912627,
          -0.8662151,
          -1.506727,
          2.3240983,
          -0.48749387,
          -1.0675262,
          -1.17923,
          -0.98668504,
          -1.0800698,
          0.55935526,
          -0.9528787,
          -0.106854424,
          -1.3525114,
          0.804112,
          2.3347833,
          1.945115,
          0.30260417,
          -2.7135537,
          -1.8096735,
          0.22241873,
          -0.32284674,
          0.39396304,
          2.8339095,
          1.28761,
          2.1216638,
          -1.0150999,
          2.2760746,
          -1.1620531,
          2.111681,
          -0.8815772,
          -4.7310724,
          -1.0200595,
          -0.750357,
          0.23700848,
          0.6545462,
          1.1779889,
          -1.2078134,
          0.49589342,
          1.0682257,
          -2.103589,
          -0.39985844,
          -1.7496796,
          -1.014184,
          0.67071855,
          0.10250214,
          -0.12003683,
          -1.8612776,
          2.603031,
          -2.7519758,
          -0.3486204,
          2.1195657,
          0.08849247,
          -0.92528176,
          1.9418423,
          0.6539208,
          0.9804893,
          0.6224325,
          -2.4267347,
          0.34968144,
          -1.3676534,
          -1.9951537,
          -0.16224918,
          1.236782,
          -1.5283468,
          2.2643702,
          -0.9163253,
          -0.301797,
          0.68938094,
          -3.453834,
          -0.6180402,
          1.1220331,
          -1.5392555,
          -3.0272007,
          -1.3756292,
          0.31224734,
          -1.2159619,
          0.9110652,
          -1.0352945,
          0.3126645,
          1.4030443,
          0.8317977,
          -2.0143723,
          -0.7067864,
          2.0419593,
          -0.36215103,
          0.23501453,
          -3.795279,
          -1.2881474,
          0.9273478,
          1.5310327,
          -2.1462433,
          0.6933792,
          1.2963583,
          -1.544135,
          -1.5408344,
          -0.5319337,
          -0.218594,
          -1.482472,
          -1.3898611,
          -0.87475884,
          1.6796105,
          -0.005706558,
          2.4145567,
          -0.28017372,
          -0.83458304,
          -2.2222047,
          -0.99517494,
          -0.6657288,
          2.1044958,
          0.66858786,
          -2.816041,
          1.7380161,
          -0.18941435,
          0.88268346,
          -1.3658656,
          -1.505959,
          0.54955566,
          2.2604046,
          -0.8401249,
          0.4944835,
          -0.06971516,
          -1.9206862,
          -0.05227197,
          0.007980984,
          -0.6711248,
          -0.19045621,
          0.4697355,
          2.2707546,
          0.43764663,
          -0.7250084,
          0.8058901,
          -0.7432782,
          -1.6395448,
          1.0752482,
          0.03394312,
          0.9262506,
          -0.4200785,
          -1.6157291,
          -1.4510165,
          1.7967182,
          0.9944516,
          0.2534494,
          -0.66513366,
          -0.36849362,
          -0.00854218,
          0.4504998,
          -0.36830506,
          0.901381,
          2.1611302,
          -0.96034795,
          1.507418,
          4.102366,
          -0.20265278,
          1.8833959,
          -0.079388954,
          1.7790157,
          -0.69087535,
          1.2588573,
          -0.1328175,
          1.1115927,
          1.0175221,
          2.733208,
          0.76779854,
          0.33841264,
          0.34975985,
          -1.0742072,
          1.4865555,
          0.06426944,
          -0.28007287,
          -1.7615219,
          -0.07825563,
          1.0310278,
          1.2701498,
          0.67351276,
          2.9337852,
          -1.7910095,
          1.0798521,
          -1.6878695,
          3.383043,
          1.1735332,
          -0.4650359,
          -0.35703576,
          2.8037794,
          -2.7352889,
          -0.35546666,
          -1.1383716,
          2.8571267,
          0.81771636,
          -0.9735867,
          0.8629792,
          1.144469,
          -1.8634391,
          3.383298,
          -0.9591454,
          -0.59403276,
          -1.9881717,
          -0.4973343,
          -2.0349057,
          1.1378446,
          -0.26525867,
          1.0705465,
          -0.57801664,
          0.7858187,
          -2.3704262,
          0.15551841,
          -2.1757464,
          -0.26854235,
          0.5084838,
          1.3553797,
          0.9374525,
          -0.14309233,
          -1.6972004,
          2.1905384,
          -2.1984217,
          1.2630608,
          -2.9178505,
          1.553872,
          0.21821314,
          0.59451365,
          2.5756695,
          1.1242785,
          -0.9418061,
          2.2001114,
          -0.32678634,
          0.21577993,
          0.81543434,
          -1.478392,
          -1.2732676,
          2.4650793,
          -0.3292291,
          -0.105740935,
          1.2807109,
          0.50353056,
          -1.9233732,
          0.74293005,
          1.2403752,
          -0.2517774,
          -1.3257495,
          -1.1510767,
          0.05488897,
          -2.136377,
          -0.30164093,
          1.774098,
          -1.9658775,
          -0.2576145,
          2.0683668,
          2.9427743,
          0.14548755,
          -0.7444871,
          1.9151065,
          -2.0171158,
          -0.18329096,
          0.5669699,
          -0.78691316,
          -2.1254835,
          -1.0725448,
          0.5066157,
          -1.277962,
          -1.5101274,
          -0.66977334,
          -0.52868444,
          0.90356344,
          1.1591513,
          -0.11250208,
          -0.93110627,
          2.3320572,
          0.62082374,
          0.082215786,
          1.4290885,
          0.7146709,
          0.29862988,
          -3.6094248,
          -0.64721245,
          -0.5185976,
          1.3487942,
          -0.5285585,
          -0.2545321,
          0.0023393482,
          0.45179263,
          -0.9957717,
          2.3054676,
          -0.25896856,
          0.2256587,
          2.392386,
          -0.41993865,
          0.5703029,
          -0.94219273,
          2.548718,
          -1.2928284,
          1.4055841,
          2.759242,
          0.50519276,
          0.059412662,
          -1.4271348,
          0.607347,
          2.3600945,
          -0.10003968,
          -0.01823546,
          0.81469333,
          -0.6196158,
          -3.3728874,
          -1.0459276,
          -0.4865988,
          -2.1410317,
          1.0958043,
          0.20650111,
          0.6943783,
          0.031119283,
          -0.12454463,
          2.5462554,
          0.863097,
          -0.14409992,
          -1.2960498,
          -1.2027508,
          0.2538578,
          -0.117274955,
          2.468638,
          -0.9547797,
          1.2069542,
          0.6759883,
          1.221418,
          1.5212113,
          2.2342987,
          -1.1835692,
          1.7969081,
          1.6802783,
          2.2869341,
          0.83967286,
          1.6836962,
          0.6107475,
          -1.1599404,
          -0.64481854,
          -0.5413288,
          -0.8289118,
          -0.4757171,
          -1.8634912,
          -2.0583801,
          0.7085824,
          -1.4663566,
          -1.5987808,
          3.1994345,
          -3.1594062,
          0.6485358,
          -0.3845269,
          -0.8043092,
          -0.121891275,
          0.36033303,
          -2.725662,
          2.9200854,
          -2.3060017,
          1.7951531,
          -0.7173964,
          -0.817685,
          -1.5123485,
          0.4106665,
          -1.8154659,
          -0.7540811,
          0.48457122,
          -1.726802,
          -0.02479991,
          -0.27449247,
          1.4835906,
          -0.6281642,
          -1.2770791,
          0.30828974,
          0.1130613,
          1.2386523,
          1.0232604,
          -1.1068037,
          -0.5028112,
          -0.39573866,
          1.6568887,
          1.9200616,
          -0.939532,
          0.44250372,
          1.395179,
          1.0588008,
          -0.91819245,
          -1.9645071,
          0.6531454,
          -1.3939421,
          -0.32693094,
          1.669292,
          0.1609008,
          0.37258318,
          -2.6145368,
          -1.0134813,
          0.42219722,
          -0.16698304,
          2.9804966,
          0.84099966,
          0.051048927,
          -1.7521391,
          -1.5413907,
          1.8231707,
          1.0512888,
          1.015172,
          0.14317006,
          -0.3979327,
          1.3638345,
          1.6506932,
          -1.6013896,
          -0.96171016,
          0.50830156,
          1.817525,
          -0.9869937,
          0.7414525,
          -0.07548451,
          1.7243562,
          -0.49647477,
          0.04480352,
          -0.68637043,
          -0.56053096,
          0.76739156,
          -2.3937793,
          1.1492563,
          1.8447547,
          -0.8466673,
          0.7562959,
          -0.94566905,
          2.6701493,
          -2.026175,
          1.1038451,
          -0.28852722,
          1.296052,
          -0.7028158,
          0.36620432,
          1.0103862,
          0.8011682,
          -0.7551282,
          1.2228969,
          3.4645708,
          -3.1455443,
          -0.66711813,
          1.0360955,
          -1.045079,
          -0.20392081,
          -0.47857228,
          0.24911512,
          1.0146059,
          -1.8053563,
          0.44273376,
          1.5629988,
          -0.41100594,
          0.14415742,
          0.77309245,
          -0.64790785,
          1.8463618,
          1.0891128,
          0.21617356,
          -0.59270394,
          -2.2723582,
          0.2519296,
          2.0526378,
          3.2392116,
          0.59917164,
          1.0417618,
          -0.60784733,
          0.35353932,
          -0.53257334,
          -1.0729203,
          -3.5078268,
          0.4142949,
          -1.212407,
          -1.0017527,
          -1.1831218,
          -1.5237949,
          -0.67016876,
          -2.2499032,
          1.0475852,
          0.2743398,
          -1.2780249,
          2.3848224,
          -0.7351281,
          -1.2956413,
          -1.5454096,
          0.73296905,
          1.3988719,
          1.3610389,
          -0.07543756,
          0.8124501,
          1.5244629,
          1.6085331,
          1.1790526,
          -2.967664,
          0.48948145,
          -1.6488491,
          0.06202937,
          3.4984603,
          -0.90004796,
          -0.59948117,
          0.9775402,
          0.19758312,
          2.7646806,
          -1.2584212,
          3.0791597,
          1.2590097,
          0.5572514,
          -0.29261905,
          0.9883266,
          -0.9410725,
          -1.8068722,
          1.6874573,
          0.8635722,
          0.2768831,
          -0.022667076,
          0.30169255,
          2.7583253,
          -1.4169173,
          -1.0526549,
          1.9114412,
          2.1824386,
          -1.5824401,
          1.2986834,
          0.68929327,
          -1.8267686,
          -3.2445557,
          -0.07536189,
          -1.3944738,
          -0.17972574,
          0.8313868,
          -1.5830172,
          -1.9788296,
          2.5661867,
          0.7356185,
          -1.7613261,
          -2.6280332,
          2.7683063,
          -0.08673823,
          -0.7976184,
          2.050843,
          -2.1790116,
          -1.3499165,
          -0.0303161,
          1.2195805,
          2.203455,
          -1.7460076,
          0.5179127,
          0.44139767,
          0.53254384,
          1.6293111,
          -2.5553622,
          0.13705255,
          0.4120602,
          -0.23472297,
          -2.4085026,
          1.6572202,
          2.0832531,
          -2.2464654,
          -0.72402054,
          0.14309059,
          4.0444713,
          -0.69345725,
          0.6912675,
          -2.0420268,
          0.18322638,
          -0.0170016,
          -0.8013532,
          -0.16806307,
          -0.9341104,
          -3.6123204,
          -3.0542707,
          -0.35354155,
          -0.24026708,
          -0.7114716,
          1.0376315,
          1.3814459,
          1.6093793,
          0.11941425,
          -1.7155787,
          -0.41825268,
          1.2454145,
          1.0538007,
          -0.107963994,
          -0.47496125,
          1.7401973,
          2.3521776,
          -1.3248405,
          -0.34330106,
          0.07182802,
          1.5161114,
          0.3132511,
          -0.057383537,
          -1.4673626,
          -1.4103652,
          -2.0407577,
          -3.769787,
          -1.1536748,
          2.6028912,
          -1.1293347,
          0.56195223,
          0.47451118,
          -0.8602016,
          1.0849872,
          1.5642517,
          1.4043337,
          -1.3924222,
          1.4669302,
          0.23178916,
          -2.0073404,
          -0.9186385,
          1.1037557,
          0.92046833,
          -2.226982,
          2.8152397,
          0.8229503,
          0.20382199,
          -1.1956477,
          -0.9951994,
          -1.1192112,
          -0.7335279,
          4.0839777,
          -1.7303342,
          1.5355664,
          -1.7459148,
          0.13544424,
          0.82379913,
          0.6394852,
          1.5304312,
          0.36961892,
          1.7692397,
          0.74270177,
          -1.533796,
          -1.1080885,
          -0.22759748,
          -1.0110811,
          0.6737467,
          0.19077538,
          -1.9332964,
          0.6823953,
          -0.8466328,
          -0.82243264,
          3.4349887,
          -0.43648937,
          -1.0688943,
          -2.532458,
          -1.9551865,
          0.18704587,
          -1.6514107,
          -1.1036605,
          -1.8502178,
          -0.3741024,
          -1.8683228,
          -0.3769121,
          -1.2855797,
          -1.0135801,
          1.0010499,
          0.1543197,
          2.1028202,
          0.3347741,
          0.67152214,
          -2.0368183,
          -0.045305513,
          0.45220834,
          -0.3272695,
          0.8989679,
          -2.2716515,
          0.67013776,
          1.6246471,
          0.3278855,
          1.5432671,
          0.9159418,
          -1.4221466,
          2.4202354,
          0.3323718,
          -3.5157037,
          -1.6883091,
          -0.13309711,
          2.8072765,
          1.4676285,
          -2.688794,
          -1.2684097,
          -0.2983009,
          1.4332381,
          0.19041139,
          3.5846076,
          1.5799855,
          -1.645645,
          0.23038769,
          2.4868317,
          -0.21719962,
          0.7480862,
          2.0643995,
          1.6512623,
          -0.972198,
          0.28272462,
          0.6537176,
          -1.4913408,
          0.528488,
          -2.0518937,
          -0.62836295,
          -0.75317955,
          -2.4866557,
          0.51513624,
          -4.018202,
          -2.5556836,
          -2.5957801,
          -1.0459313,
          -3.3549776,
          -0.5269932,
          1.0045251,
          -2.763738,
          -1.4902378,
          0.64984024,
          0.46140236,
          -1.8805592,
          -0.019891903,
          0.70746344,
          -0.9766541,
          0.9081559,
          -0.9318307,
          -2.0538874,
          -1.1805872,
          -1.5321093,
          3.54571,
          3.1056056,
          0.23676169,
          2.3429003,
          2.467275,
          -0.08140438,
          0.69527733,
          2.066266,
          0.59715337,
          0.69222385,
          -0.09191838,
          0.3303837,
          -0.13143414,
          0.8754776,
          -1.4369173,
          0.41093987,
          -1.4329735,
          -1.5141861,
          1.60687,
          2.9755392,
          -1.2265288,
          1.4560949,
          0.41247362,
          -1.550975,
          -0.9342997,
          -1.4776813,
          -1.9178174,
          0.13263837,
          -0.92699564,
          0.7097972,
          -0.48566395,
          1.7920625,
          -0.34448534,
          -2.0234396,
          0.4353122,
          -1.9587051,
          -0.62991905,
          -3.0597794,
          2.598591,
          -0.4557311,
          -0.7777079,
          -0.42076662,
          -1.5883013,
          -3.1238408,
          0.16632208,
          -0.99260056,
          -1.088586,
          -0.5796028,
          -2.2344327,
          1.0436304,
          -1.2671587,
          1.4920505,
          0.4723041,
          1.2561793,
          -3.09576,
          -3.0285714,
          -0.52508473,
          0.79665625,
          -0.32692206,
          1.9538834,
          0.8961296,
          1.2735678,
          -0.30598578,
          0.04047522,
          0.6936219,
          1.1487106,
          1.4627516,
          0.023404058,
          -3.2365904,
          1.3360324,
          0.3029319,
          -2.222546,
          -0.60918957,
          0.5521013,
          -1.4695282,
          1.966394,
          0.6412216,
          -1.5000501,
          0.019492783,
          0.5608781,
          -0.36954024,
          -0.9716605,
          -1.4848508,
          -0.40948015,
          -1.437026,
          1.0559025,
          -0.5318282,
          -1.1227711,
          -0.70418847,
          2.4778326,
          -1.0159769,
          -0.036019288,
          1.1402905,
          -1.4809326,
          -0.8966603,
          -0.32644314,
          -0.529347,
          1.9294169,
          -0.6719974,
          1.3189479,
          0.12565012,
          1.583289,
          1.034958,
          0.7387525,
          0.27725482,
          2.3215737,
          1.7983878,
          -1.8396133,
          1.717886,
          -0.6598891,
          -2.0413759,
          -1.187557,
          -0.78501874,
          -0.8253282,
          -4.571777,
          1.2078747,
          -0.7329791,
          1.8093936,
          -1.5132325,
          -0.39740974,
          -0.1301834,
          -0.1633035,
          0.7910598,
          -2.4745083,
          0.9607251,
          -1.2831814,
          -0.34061334,
          -2.198628,
          2.8837662,
          0.6308502,
          0.33985057,
          0.49253857,
          2.9361336,
          2.8653698,
          0.14999592,
          -1.0447589,
          0.2929973,
          -0.17695364,
          -2.7891457,
          2.022714,
          0.4493703,
          -0.41234025,
          -0.28009653,
          0.29592296,
          -0.42355752,
          -1.1640908,
          -0.83508843,
          3.516679,
          -0.86226195,
          2.1134233,
          1.5387025,
          2.9079866,
          -1.2605363,
          2.9086685,
          -2.681895,
          -1.2024691,
          -1.8115616,
          -0.029527953,
          -0.8254929,
          -1.7721148,
          -1.9630318,
          -1.1025966,
          2.0624948,
          -0.13888907,
          -0.31889123,
          -5.574065,
          -0.18645251,
          1.0182214,
          -0.5811043,
          -0.23263079,
          -2.5201895,
          -1.2656567,
          -1.2836131,
          -0.6578981,
          -3.8601797,
          1.5728674,
          -0.40156752,
          0.59132856,
          0.9784179,
          -2.196368,
          0.6507982,
          0.78649735,
          0.13640296,
          -1.5307915,
          0.61357194,
          1.9986851,
          -3.2459183,
          -3.5714953,
          1.9090302,
          -0.23839767,
          1.8462124,
          0.67412347,
          0.008714832,
          0.7947846,
          0.4505068,
          2.6002018,
          -0.88956034,
          -0.93478274,
          -0.10726977,
          0.071383655,
          -0.7998274,
          -1.1169269,
          1.4918736,
          -2.0949006,
          2.2746747,
          1.0377263,
          -0.6737985,
          1.7951397,
          -0.33815965,
          -2.1887085,
          0.717763,
          -0.6092238,
          -1.5205991,
          -0.5616985,
          0.81608033,
          -0.38276502,
          -3.4400594,
          0.121625215,
          -3.2973926,
          1.0424871,
          -1.8424728,
          2.1033149,
          0.0981686,
          -1.4958239,
          -1.4010619,
          1.1287584,
          0.29178354,
          -0.33468547,
          -0.5456823,
          1.0329293,
          1.2662327,
          -1.5834737,
          0.41105092,
          0.79624176,
          -0.62506795,
          -0.6175573,
          -2.0801623,
          0.22350505,
          -1.4993169,
          0.9739384,
          1.1659567,
          1.1131268,
          0.09302003,
          0.13875747,
          -2.2827377,
          -0.28924412,
          2.2146327,
          0.45398998,
          -0.42152607,
          -0.7596589,
          -2.0806625,
          0.44534427,
          0.026188998,
          -2.7612598,
          2.4180171,
          -1.6454848,
          -0.6041221,
          1.1070201,
          -2.2794483,
          -1.3839128,
          -0.033774298,
          2.8911202,
          -1.8776501,
          1.3829144,
          0.09049416,
          -1.4227682,
          0.32578978,
          -0.33263302,
          -1.374677,
          -0.3727091,
          -1.7862502,
          -1.9691024,
          0.37285832,
          1.4614574,
          -0.3557316,
          1.6835018,
          0.07049844,
          0.27906883,
          -1.0814776,
          1.0409801,
          -0.5918149,
          1.6390429,
          1.7178789,
          0.18679217,
          -0.6683319,
          2.095215,
          -1.2843521,
          0.13940287,
          1.6478347,
          1.5591543,
          0.7949132,
          1.5816545,
          -1.4024479,
          -2.8002853,
          -1.1084805,
          0.7604381,
          -1.5293525,
          0.23869947,
          0.36697468,
          -0.9405632,
          1.4676733,
          0.8283851,
          -0.032763243,
          -2.2006798,
          0.9748627,
          -0.2226554,
          -0.29483467,
          -0.08140384,
          -0.21193409,
          2.1605616,
          0.08411359,
          -1.1319869,
          0.19604252,
          1.9983599,
          1.7025838,
          -2.5738564,
          -0.5624663,
          -2.5875926,
          0.05559357,
          0.1974574,
          1.2281257,
          -0.23345481,
          0.28552997,
          -0.013669908,
          -1.0612913,
          -1.9289161,
          1.67352,
          0.81054056,
          1.2356949,
          -0.106805645,
          3.582276,
          1.1049054,
          2.5188963,
          -0.26286918,
          1.9252895,
          0.18081437,
          0.7196868,
          -1.3961135,
          0.8229517,
          -0.6036866,
          1.6227541,
          0.5588875,
          1.6282303,
          0.55017835,
          -1.0904903,
          1.7667724,
          0.12345142,
          2.752792,
          -0.07583424,
          1.6807699,
          0.6319592,
          1.4513656,
          0.40479404,
          -0.37903622,
          -0.33674437,
          0.12631722,
          -1.1687472,
          0.16098869,
          -0.5717469,
          0.3022198,
          1.0343378,
          -1.9024773,
          2.1505938,
          0.99728954,
          -0.5622719,
          0.73905534,
          -0.8766862,
          0.7952381,
          0.9343293,
          2.1013696,
          1.878552,
          -0.040779192,
          -3.3709009,
          0.061360314,
          -1.4748973,
          -2.3863018,
          -3.7912292,
          -1.9990495,
          -2.5476966,
          1.7088538,
          -0.048133112,
          0.42405137,
          0.22653292,
          -0.10377008,
          1.1066444,
          -0.5752088,
          -1.1533508,
          2.2108662,
          -0.88910294,
          0.0020659193,
          0.6476066,
          0.5957416,
          2.7896216,
          0.08707469,
          -0.08534326,
          1.1901542,
          2.2674675,
          -1.2340902,
          0.8721793,
          -0.5518178,
          -0.38557553,
          -2.235777,
          0.25658965,
          0.547569,
          0.8936463,
          2.531847,
          1.0311961,
          -1.2457694,
          -0.00923172,
          0.7997933,
          1.9842519,
          2.7054913,
          0.61960346,
          -0.7927808,
          0.59622824,
          1.4080948,
          0.49049184,
          1.8515961,
          -0.3906826,
          1.3541232,
          -1.2540208,
          0.73936397,
          -1.020979,
          -0.60395324,
          1.3816006,
          1.3964161,
          -1.4899864,
          1.1259422,
          -0.042316396,
          -0.07472684,
          1.0627079,
          -1.0274029,
          0.5690054,
          1.9273657,
          -1.1870961,
          0.8875352,
          3.2715974,
          -0.9996959,
          0.63713557,
          -1.8330698,
          -0.7163396,
          -2.570011,
          -0.61157316,
          -2.9460073,
          2.3001041,
          -2.203922,
          -1.7987878,
          -0.54915684,
          -1.9523892,
          2.207247,
          1.1333401,
          -1.7864367,
          -0.55719745,
          -1.1343274,
          1.7935288,
          1.5071439,
          0.31201917,
          -1.5328126,
          -0.82031864,
          3.0926352,
          -0.78435034,
          -2.5315661,
          2.9158149,
          -1.9182723,
          0.6717264,
          -1.3301582,
          -1.3443162,
          0.22586082,
          -1.4904397,
          -0.46827483,
          0.18881285,
          2.2226229,
          -2.9461615,
          -0.66597044,
          -2.935693,
          -3.3197503,
          -1.7374482,
          1.3662173,
          -0.3378854,
          -3.7650077,
          -0.74683535,
          -3.0172515,
          2.9186502,
          -1.7503544,
          3.0647612,
          0.41818276,
          0.66670555,
          -3.4343858,
          -1.2212349,
          0.09563465,
          -2.4186332,
          -1.1376988,
          -0.49055713,
          1.652647,
          -0.11019581,
          1.8112206,
          1.8951644,
          -1.0133862,
          -0.53708035,
          -0.34787378,
          -0.14516452,
          -1.3741715,
          0.71141243,
          0.09511394,
          -1.6709088,
          1.243759,
          1.8851258,
          3.919423,
          -1.0129265,
          0.7082322,
          1.2238731,
          0.20396522,
          -2.3880808,
          0.17293943,
          0.3450963,
          2.6371868,
          -1.120353,
          0.57062656,
          0.9137747,
          -0.33226538,
          -0.083644636,
          0.33338782,
          0.40002903,
          -1.6146393,
          -2.057532,
          2.0291975,
          -1.808704,
          -0.15332016,
          1.1530131,
          2.1023989,
          -0.6702404,
          -1.1818258,
          0.2583745,
          1.3115084,
          -1.4184345,
          0.3922314,
          -0.8364116,
          -0.01823546,
          -1.1547393,
          2.4646547,
          0.032683875,
          1.9840521,
          2.915501,
          1.3194118,
          0.72649664,
          0.00041628256,
          0.88307333,
          -0.22166719,
          2.1463025,
          0.099196374,
          -0.35948157,
          -2.7793484,
          -2.4161618,
          -1.0329354,
          -2.5694637,
          2.2703924,
          -0.5644508,
          -0.6360684,
          1.9716936,
          -1.4995219,
          0.3416385,
          0.71677196,
          0.6184206,
          -2.0869076,
          0.29763985,
          0.26387027,
          -0.44001904,
          -3.2848053,
          -2.7429376,
          -3.4893656,
          -0.18020752,
          0.47223437,
          -1.8088346,
          -0.86611134,
          0.26856032,
          1.4259089,
          0.34590006,
          1.341469,
          -1.4364742,
          -4.466511,
          -1.8301,
          0.6051988,
          -0.8949173,
          0.16181414,
          1.6441547,
          -1.2792261,
          0.6573202,
          -0.7238289,
          1.7319336,
          0.673923,
          -1.947505,
          -0.93812066,
          2.143298,
          1.2327094,
          3.703708,
          3.6819713,
          1.3278937,
          -1.8079759,
          -0.28561845,
          -1.7546275,
          1.0813085,
          0.3447996,
          1.7053964,
          -0.6733043,
          -1.0834136,
          -1.2086909,
          -1.7971686,
          -2.524859,
          0.7074432,
          0.6726878,
          -0.3981255,
          -0.83936805,
          4.820477,
          -0.27196556,
          1.0978563,
          -1.1503468,
          -1.2559526,
          -1.5941585,
          -2.2407658,
          -0.24854657,
          0.9593896,
          1.7142712,
          1.5079339,
          -0.6579124,
          -0.1921567,
          0.54809165,
          -1.00567,
          0.383393,
          -3.2586975,
          0.68090767,
          0.33385563,
          -1.844787,
          -0.20629579,
          -2.2164314,
          0.7391516,
          -1.285123,
          3.010437,
          -1.8559235,
          0.5425332,
          -0.6024834,
          0.50049776,
          1.5680573,
          0.3660945,
          -0.1432451,
          1.0008287,
          -0.63325125,
          -1.2330784,
          1.6797915,
          1.2694219,
          -0.8705208,
          -1.4736347,
          2.0565677,
          0.9525146,
          -0.093560904,
          -1.2169485,
          0.7342221,
          -0.14338918,
          -0.7069514,
          0.26046407,
          -0.2836609,
          -1.1751459,
          -0.71722,
          -0.9131685,
          -0.74511045,
          -0.30902368,
          -1.928628,
          0.8128781,
          -1.1050029,
          3.1966622,
          -1.077626,
          1.6348913,
          -0.39877814,
          -3.0805745,
          -0.33002073,
          -1.5119071,
          -1.3739628,
          1.653501,
          0.9564003,
          0.4827646,
          0.052814066,
          1.7633129,
          2.0215137,
          2.0160384,
          0.24911487,
          -0.009496249,
          0.3361274,
          -0.94018006,
          -1.9296163,
          0.6753306,
          1.3502965,
          -0.82557875,
          -1.1607732,
          -0.35667598,
          1.1951882,
          -1.3535473,
          1.476208,
          0.11438005,
          0.3154469,
          -2.416365,
          -0.80055255,
          1.2521677,
          -0.99891853,
          0.18125802,
          -0.8552526,
          -3.2713835,
          -0.6492342,
          0.47080997,
          0.027684834,
          0.4201053,
          1.8622984,
          -1.4588708,
          1.2075671,
          0.4502795,
          2.0897658,
          -0.8796725,
          0.037616037,
          -0.6149971,
          -0.3190514,
          -2.6834326,
          -0.47202897,
          1.3595942,
          -0.37908277,
          0.8235007,
          -3.0591717,
          -1.5067797,
          0.5548801,
          -2.4307768,
          0.98339254,
          1.1006683,
          -1.5238993,
          2.745401,
          1.4124917,
          -0.7005764,
          0.10465172,
          0.4145418,
          -1.0833662,
          -1.0750451,
          -0.28150067,
          0.2228667,
          0.5120307,
          -0.50945586,
          1.4532979,
          0.17468557,
          0.070790276,
          0.8442399,
          0.81467664,
          -1.3143016,
          2.307042,
          0.6103507,
          2.0204215,
          -0.90887815,
          0.5448671,
          0.54370344,
          3.5750947,
          -0.13514335,
          0.51077336,
          1.8677799,
          0.2801248,
          -2.741095,
          -0.105537385,
          0.5880873,
          2.5856414,
          1.2422124,
          -0.3809698,
          -0.04639554,
          -0.69126934,
          -1.7459266,
          -1.0741225,
          6.0694637,
          1.361241,
          -2.4624662,
          -1.1303113,
          -0.89958096,
          1.3653855,
          -3.2509682,
          0.9680535,
          -1.0242858,
          -0.37359667,
          0.15063249,
          0.75125176,
          -1.285774,
          1.135262,
          1.383012,
          0.35189432,
          -1.2440602,
          -2.6569443,
          1.8347371,
          0.32529107,
          -0.66165364,
          0.22736786,
          -0.16447337,
          -0.99092215,
          0.09277315,
          -2.1067314,
          -1.0539188,
          -0.9925448,
          -0.9350824,
          -1.7445227,
          0.080399856,
          -0.327835,
          -0.40459552,
          2.018301,
          0.07609909,
          2.0888803,
          -0.060451537,
          3.2576764,
          -2.9792533,
          -1.9067144,
          -0.7410653,
          -0.47824818,
          4.448994,
          1.8825283,
          0.6373605,
          0.84242386,
          0.8919148,
          -0.30176336,
          0.16167389,
          0.44846773,
          -0.83301127,
          0.6623632,
          -0.45900124,
          -1.3549646,
          -1.9134595,
          -1.0674955,
          -0.1476025,
          -0.9847799,
          0.97893065,
          -0.8122109,
          0.3433533,
          1.231481,
          -0.9482002,
          2.1147447,
          0.061068725,
          0.07246482,
          -0.7073297,
          2.4503555,
          -2.2165043,
          1.2943034,
          -1.0778676,
          1.5104988,
          -0.097933166,
          -0.10098411,
          1.8274025,
          -0.043007843,
          1.6055936,
          -1.2812592,
          0.2114954,
          2.3609252,
          0.72428644,
          -0.62325865,
          1.5114617,
          1.00785,
          0.21120991,
          0.33033544,
          1.8760288,
          -2.7118008,
          0.48714578,
          -1.2699629,
          -1.5009842,
          3.2398372,
          1.3840094,
          -0.23164275,
          1.0394688,
          2.4573903,
          -0.17277868,
          -3.3811064,
          -2.234322,
          1.4616405,
          -0.8409432,
          -2.1923482,
          -0.45396957,
          3.4029942,
          0.46466327,
          -1.8403094,
          0.16844635,
          -0.19995822,
          -0.10260162,
          0.92699516,
          0.7184678,
          -2.1715446,
          -1.9548965,
          0.9930961,
          -0.017854597,
          -0.40485218,
          -2.0841188,
          1.3210058,
          -1.1867231,
          2.1676712,
          -0.69308054,
          0.57638514,
          -0.41061187,
          -0.379133,
          1.9715106,
          -0.051135287,
          0.45796445,
          0.4849623,
          -1.1265782,
          0.8028126,
          0.36379117,
          -0.50527984,
          -1.7954532,
          -1.6479443,
          0.13082948,
          -2.8549914,
          0.15334702,
          0.4375594,
          -0.061344586,
          -0.8063007,
          -0.23514132,
          -0.4975953,
          -1.7223604,
          -1.3625789,
          3.1904128,
          0.8644355,
          -0.53005415,
          -0.6349565,
          -0.5930873,
          -0.3672697,
          -0.86695653,
          -0.88293993,
          -3.6502411,
          -1.3608211,
          -0.46400085,
          -1.5096046,
          -0.7645825,
          -1.8295574,
          2.1213894,
          -1.5412247,
          -0.19859669,
          -0.43428078,
          -0.13024752,
          -0.65530056,
          0.8291425,
          1.2122493,
          -0.98234,
          -0.89740944,
          1.5631795,
          0.29528618,
          -1.4266742,
          2.1679225,
          -0.9199702,
          0.13527474,
          0.7880354,
          0.8051017,
          -1.1904955,
          -0.28744557,
          -0.06121546,
          0.082044125,
          1.7257645,
          0.0198363,
          -0.50237346,
          -0.99146533,
          -0.8066074,
          0.70906734,
          -0.71819377,
          0.3040768,
          0.2499387,
          1.3965781,
          -0.14455292,
          -2.8532126,
          -1.2239449,
          0.48421627,
          0.49025702,
          -0.052043006,
          -1.1247524,
          -0.55563205,
          0.84149694,
          -2.2743828,
          0.18976715,
          -1.7695593,
          0.2784916,
          -1.0353615,
          -0.9729996,
          2.5772128,
          -1.0115108,
          0.022549149,
          -0.7528679,
          -0.19728854,
          0.9040598,
          -1.2042205,
          1.7757138,
          -2.3277028,
          -1.6841445,
          0.9154538,
          1.2744734,
          1.5424842,
          -0.6805738,
          -0.5115588,
          0.7319456,
          -2.2442741,
          -0.26520228,
          0.5689271,
          1.1172183,
          1.0218756,
          4.088652,
          -1.8570533,
          -2.133757,
          -0.9744006,
          3.3163316,
          -0.6351984,
          -0.65942204,
          -1.237087,
          1.773675,
          -0.37925285,
          -0.040562455,
          -0.6432198,
          3.5611997,
          0.2644877,
          -0.70079744,
          -2.5330155,
          0.5264908,
          0.27203783,
          0.096725054,
          1.1591166,
          -1.3782883,
          1.1581734,
          2.4404364,
          -0.8330825,
          2.0037472,
          -1.058022,
          -0.5110765,
          -0.4901551,
          0.67208916,
          2.4831057,
          0.47335482,
          1.4565089,
          0.66670734,
          0.59788907,
          1.2406965,
          3.8782067,
          3.5967724,
          -0.35992995,
          1.601091,
          2.1958046,
          -2.3452175,
          -0.40879261,
          0.79883564,
          1.6804087,
          2.0989804,
          0.27014977,
          -1.7702813,
          -0.1835279,
          1.4196424,
          0.23952687,
          -1.4462851,
          -1.6509517,
          -0.73798347,
          0.6445467,
          -0.9182146,
          0.85698515,
          -1.7196281,
          0.6619115,
          2.1925743,
          2.0234132,
          0.72233146,
          -0.35796434,
          -3.0024009,
          -1.7641056,
          -1.4494542,
          -0.04525621,
          -0.835531,
          -2.0342915,
          -2.9108417,
          0.22577825,
          0.9132434,
          -0.061303332,
          0.41275477,
          -0.08545554,
          -1.3633013,
          0.36798093,
          0.26417318,
          -1.2974495,
          0.4834013,
          1.4981644,
          -0.34694135,
          1.3389596,
          -1.5903578,
          -1.6996198,
          1.9385469,
          -1.732256,
          0.084178135,
          0.09280992,
          -0.42129523,
          -1.276899,
          -0.5390912,
          0.031199336,
          -1.2019448,
          -1.889005,
          -1.3580139,
          2.0969644,
          -3.8409574,
          -1.571121,
          2.4068995,
          1.1735493,
          -1.1214069,
          1.5152613,
          -2.230741,
          -0.63288844,
          -0.68029946,
          -0.398354,
          -0.59676653,
          -1.2557102,
          -1.2344621,
          1.672233,
          2.0541368,
          -0.6768447,
          1.225282,
          -0.9718209,
          -0.94083214,
          0.61762995,
          -0.6166041,
          -0.6317612,
          -1.490467,
          -2.0404541,
          0.7222089,
          -0.77585644,
          0.26756465,
          0.59548104,
          -1.0391124,
          -0.6498476,
          0.5867322,
          2.381996,
          -1.0206509,
          -0.66859734,
          -1.0160165,
          1.634532,
          -0.36139348,
          -2.5298088,
          -2.6417117,
          0.6639457,
          -1.7442138,
          -0.89126635,
          -0.17042409,
          -0.8469462,
          1.4933368,
          -1.2319095,
          0.0033311136,
          -1.7257845,
          -1.9291232,
          1.5140079,
          1.2439722,
          1.3340652,
          1.4884316,
          -0.54352015,
          -0.65918946,
          -1.4725773,
          0.7812457,
          1.3625121,
          2.559786,
          0.08537944,
          1.6997424,
          -1.6348542,
          -3.2447772,
          1.3664137,
          0.02494304,
          -0.83238006,
          1.0969955,
          -0.5490825,
          0.4603266,
          0.86678636,
          1.5166478,
          -0.19893971,
          -0.14302064,
          -0.28763866,
          2.3045878,
          1.606462,
          0.65362346,
          0.24164385,
          0.4125892,
          1.6098038,
          -1.5309598,
          -0.7540132,
          1.8539296,
          0.16185719,
          1.9731401,
          -1.3915983,
          0.042873815,
          1.6412599,
          -0.38051373,
          -1.7985933,
          -1.1738815,
          2.5266602,
          0.21782836,
          -0.10657436,
          -0.3264542,
          -2.650355,
          0.76015717,
          0.7310544,
          1.5828639,
          -1.9231769,
          -0.41019434,
          -0.6348131,
          1.0953187,
          1.0967218,
          -0.061998382,
          1.9347918,
          -1.8801554,
          4.1395187,
          0.34176087,
          -1.2015574,
          -0.27014282,
          -1.4942589,
          0.24275176,
          0.44590995,
          -0.23303154,
          0.27611873,
          -2.9131296,
          -0.39160606,
          1.0026395,
          0.9509262,
          -2.9268134,
          -0.04938896,
          -1.7481217,
          1.8586965,
          -0.85761034,
          -0.47542354,
          -3.6191847,
          -1.1293786,
          0.85559225,
          1.4068136,
          -0.42547533,
          1.8875266,
          2.1533377,
          0.3180905,
          -1.0967835,
          0.60260314,
          -0.35600117,
          -1.2099181,
          -0.9842851,
          0.6307438,
          -1.0850972,
          -0.28958827,
          3.529569,
          1.4097496,
          0.7093236,
          -0.24526303,
          1.7768826,
          0.90555376,
          0.892555,
          0.68762064,
          1.0547438,
          -0.6530102,
          0.039273165,
          1.5924972,
          -1.0763469,
          -0.061928384,
          0.016551953,
          1.2419863,
          2.2302313,
          0.14052424,
          0.35321096,
          0.1518942,
          0.5000382,
          -1.0063186,
          1.4907838,
          1.7111688,
          1.5729648,
          -0.52135915,
          -2.3155968,
          -0.6177097,
          -0.39472312,
          -0.9679826,
          2.3488355,
          -0.47825873,
          0.7177798,
          -0.5660996,
          -2.079181,
          1.028693,
          -0.9889424,
          2.1867485,
          0.3484847,
          -1.8340508,
          -2.5710132,
          0.27627367,
          0.93056846,
          2.8684652,
          0.57120866,
          1.615866,
          0.84086454,
          2.0086265,
          0.27094078,
          0.3745213,
          1.7224703,
          1.2913413,
          -0.73752844,
          0.1690651,
          -1.1364449,
          -0.33087808,
          -1.601768,
          1.3172388,
          -2.0127072,
          0.21464412,
          1.2189909,
          -2.7218733,
          -1.8937362,
          2.1680374,
          0.6152692,
          2.2189004,
          -0.44363338,
          -1.1974329,
          -2.0700665,
          -2.0790648,
          -1.6439269,
          0.913797,
          2.5848985,
          1.5376728,
          1.4084761,
          -1.280011,
          1.0966458,
          -0.018285543,
          -1.5239189,
          2.8623471,
          -2.9890223,
          -0.785102,
          0.16582721,
          -1.0374138,
          2.9547796,
          0.8550545,
          -0.26158905,
          -2.24863,
          -0.25495023,
          0.7576638,
          0.57340163,
          0.16530481,
          0.7627016,
          -1.2653382,
          0.6457085,
          -0.5240501,
          2.803711,
          2.885971,
          0.54140645,
          -2.0273368,
          -1.170108,
          0.49649906,
          0.3392485,
          1.6619407,
          -0.50191396,
          0.88551605,
          -0.687592,
          0.00059368834,
          0.77566123,
          2.1480289,
          -0.35718003,
          0.9891842,
          1.3406047,
          -0.19448876,
          -0.46308112,
          0.5539527,
          -0.60576344,
          -0.55189323,
          1.4537909,
          1.0828369,
          -0.28010556,
          -0.17922716,
          2.1436682,
          1.0112841,
          -0.36272767,
          -1.9979291,
          -0.7863898,
          2.078686,
          1.2863754,
          1.4532838,
          -0.85611576,
          1.4177243,
          1.6289253,
          1.2362658,
          -2.1196084,
          -0.39366812,
          2.8625956,
          -0.8419754,
          1.1805983,
          -1.2885228,
          1.331295,
          0.36127618,
          1.3673189,
          0.61328095,
          0.5708305,
          2.6553254,
          0.37497264,
          -0.8865819,
          0.8993284,
          1.1357667,
          -2.7299888,
          -0.30923805,
          0.16699092,
          -0.8784701,
          1.3657889,
          -0.26670688,
          1.0605084,
          -1.122729,
          -0.8141911,
          1.1600991,
          0.4182122,
          -1.0029224,
          -1.7508949,
          -0.6469463,
          -0.7812832,
          -1.9495949,
          -1.4345578,
          -0.59337455,
          -1.7465903,
          3.2066185,
          1.7929169,
          -0.042819954,
          -0.028483875,
          2.1186664,
          -0.42493936,
          -1.9669605,
          -0.18464896,
          0.51937777,
          2.0265472,
          1.1744725,
          1.9198066,
          -1.0362898,
          0.79678047,
          0.6575009,
          2.4228988,
          0.5988501,
          1.2223434,
          1.1027749,
          0.0083415955,
          -0.5973328,
          1.1712612,
          -0.76957935,
          0.5105858,
          1.1862715,
          -1.6378058,
          -2.9947019,
          1.3837717,
          1.0100528,
          3.9082785,
          0.40349048,
          0.95547605,
          -1.2258569,
          -2.457528,
          1.5102606,
          0.39100748,
          -1.0741996,
          1.8900869,
          0.34731874,
          -0.15806553,
          -0.27280918,
          0.3010359,
          0.7158707,
          0.4093374,
          0.15691161,
          1.4152827,
          2.0896688,
          2.061529,
          1.0522325,
          2.8738937,
          -0.6760476,
          0.6057079,
          1.8320935,
          0.38226426,
          1.9029405,
          -1.0872328,
          0.13969292,
          1.6885571,
          0.19047567,
          0.8691226,
          -3.027652,
          -1.655423,
          0.38454375,
          2.5269732,
          -0.7512109,
          1.7862115,
          -0.05268634,
          -0.43121266,
          -1.9767138,
          -0.56817937,
          -0.79701304,
          -0.9310552,
          -0.6344012,
          2.3084862,
          0.53201145,
          0.35083908,
          -2.7439756,
          -1.2239256,
          -0.36975047,
          -1.249291,
          -1.0513568,
          0.735725,
          0.96141905,
          -2.3491888,
          -0.3737382,
          0.23671201,
          0.6230324,
          -1.0746409,
          0.67694795,
          -2.7494993,
          -0.9297484,
          0.4766678,
          -0.10503915,
          0.0143709965,
          -0.51037174,
          2.0428603,
          3.6004822,
          -0.6943403,
          0.33300743,
          0.8541453,
          -0.6661383,
          -2.0697665,
          2.2218692,
          0.11809082,
          0.3192426,
          1.9579406,
          -3.2571461,
          -0.34328192,
          -0.6082363,
          -1.9181612,
          -0.6608467,
          1.3832451,
          -0.15533863,
          -2.1701262,
          -0.013301842,
          0.17615378,
          2.4805198,
          -0.111918576,
          -2.9656508,
          -0.90751207,
          -0.5275851,
          -1.860534,
          0.7244071,
          -2.169479,
          0.8616691,
          1.4827205,
          -0.2632176,
          0.6229587,
          -0.29111978,
          0.16730253,
          0.75107574,
          -0.42568207,
          -0.11827912,
          1.3776894,
          1.7344825,
          -2.0298984,
          0.84648836,
          0.12184301,
          1.0554119,
          -0.4664418,
          2.2022843,
          2.1833906,
          0.7443982,
          -1.4539939,
          -1.5950537,
          -1.3067452,
          -0.034247436,
          0.20265636,
          0.4359398,
          1.113399,
          -2.0381615,
          1.350058,
          -1.7397401,
          -0.5963857,
          -1.2676762,
          0.90030503,
          1.3465161,
          -2.260097,
          1.0931588,
          -2.1724825,
          1.9057345,
          -1.513305,
          -1.0422207,
          2.1099577,
          1.6344509,
          -0.8399774,
          2.0673156,
          -2.1067355,
          1.5822041,
          -1.2842289,
          -1.2023927,
          0.42823148,
          -1.5216049,
          3.040932,
          2.0831854,
          1.6779014,
          0.3056867,
          -1.0666696,
          1.49099,
          0.93341917,
          -0.61603945,
          -0.19598047,
          -2.3510818,
          2.3964727,
          2.1573732,
          -1.2211052,
          1.0681458,
          -1.3585522,
          1.4873968,
          1.6149759,
          0.22611703,
          -0.23601262,
          -2.4728086,
          1.2283583,
          -0.6189678,
          1.0323436,
          0.4337444,
          2.0411124,
          -1.2143898,
          2.5505495,
          -0.95101726,
          -2.3696892,
          0.8946395,
          2.3766708,
          -1.4062245,
          0.8503412,
          -0.6136291,
          0.6540676,
          -3.8867195,
          0.18039632,
          -1.1596191,
          -1.1799272,
          -0.71749187,
          0.59167224,
          -1.1078027,
          0.5392626,
          -1.6571889,
          1.9583757,
          -0.40939513,
          1.6487151,
          -0.5243437,
          0.72025144,
          -0.88574475,
          -2.1532004,
          -1.2464185,
          -0.9486616,
          -0.13327268,
          0.32859707,
          -0.4568105,
          1.4427652,
          0.23602088,
          1.763319,
          0.3123558,
          -0.42481518,
          -1.9811021,
          2.5658853,
          -0.44165933,
          2.4200556,
          2.6279714,
          -2.3059616,
          -2.3082137,
          -0.5135312,
          -1.159785,
          2.036991,
          1.2391086,
          0.98084044,
          -2.006969,
          1.6742364,
          0.51720667,
          -0.9214713,
          -0.14256218,
          -0.24420343,
          1.0998404,
          1.7391454,
          1.0934792,
          0.016461413,
          1.2760066,
          -0.5404676,
          3.316383,
          -0.43026388,
          0.84363997,
          0.28556797,
          -1.2900368,
          1.2493933,
          1.1393253,
          -0.035037003,
          0.36835504,
          -0.67066914,
          2.5065916,
          -0.68479085,
          -2.6860068,
          -0.081740946,
          1.7668909,
          -0.6059901,
          0.6074758,
          0.6885342,
          1.592775,
          1.048713,
          -1.026368,
          0.73488975,
          -1.0079279,
          0.8888215,
          -1.6132854,
          -0.553926,
          -1.2824826,
          0.92416596,
          -0.6989509,
          0.75040823,
          -0.28561306,
          -0.108621545,
          2.389673,
          -4.06964,
          -0.057743005,
          1.1725898,
          2.5851774,
          -2.1011984,
          0.18463454,
          1.6788979,
          -0.23276284,
          0.29741526,
          -2.4435618,
          0.82479733,
          -0.16701613,
          2.1522005,
          0.18722606,
          1.6413306,
          0.63753796,
          -1.7241154,
          -1.3967636,
          1.1034522,
          0.9078342,
          -1.2018553,
          -2.5464091,
          1.2441571,
          -1.9890327,
          -1.7309964,
          0.10771311,
          -2.155074,
          0.06713107,
          3.103705,
          1.3246198,
          1.6556811,
          0.32735497,
          -3.619536,
          -2.2498338,
          0.13822621,
          1.0873815,
          0.23479193,
          -0.72312015,
          -1.8950237,
          1.1279132,
          -1.8135077,
          1.8222613,
          -2.1044614,
          3.0842803,
          -0.15308094,
          -2.1799238,
          1.5629108,
          0.2537339,
          0.403386,
          2.882773,
          0.01869591,
          -0.7157103,
          1.648886,
          -0.43565378,
          -1.4329109,
          -0.90963876,
          3.2025611,
          -0.9325553,
          0.7291733,
          -1.1122398,
          -0.052165493,
          1.6860547,
          -0.69321567,
          0.32704854,
          2.4980114,
          0.5180917,
          0.66271716,
          1.1710551,
          -1.1532632,
          0.073522925,
          -1.9209942,
          -3.2864218,
          1.5502781,
          0.8939825,
          -1.5426798,
          -0.27126282,
          -0.15399227,
          0.89998645,
          0.074959986,
          0.16899599,
          1.0905008,
          -1.9024184,
          3.2040753,
          -0.98071605,
          -1.6548992,
          -3.639371,
          0.8524033,
          -2.0879817,
          -0.73761535,
          -1.2586708,
          1.1437559,
          1.4493139,
          0.030666064,
          -0.92165774,
          -0.8051009,
          0.36979994,
          -1.7148776,
          0.07233547,
          -1.0229731,
          -1.4371263,
          -3.3043864,
          1.0514338,
          2.515593,
          3.2355597,
          1.7781723,
          0.6867021,
          3.2018096,
          2.29346,
          -0.10619308,
          -0.59754455,
          -0.1770425,
          -0.037098847,
          0.5087576,
          0.0345791,
          -2.7443888,
          0.54491556,
          0.2720614,
          -1.3290368,
          -2.2038543,
          1.5322294,
          0.08892411,
          -0.36293277,
          -1.568755,
          -1.4132187,
          -0.55568653,
          1.5743929,
          0.73304164,
          -1.2645713,
          -0.6122992,
          -0.36045963,
          -1.3227468,
          0.42949897,
          1.2400192,
          0.98794353,
          -0.94124836,
          2.0404181,
          -3.1383638,
          -1.0179213,
          0.9956308,
          1.1641475,
          -0.17565212,
          -0.7657367,
          -0.07367806,
          -1.0019277,
          0.24760363,
          -0.3099969,
          0.77660507,
          1.1669823,
          -2.3906317,
          -0.5557911,
          0.74662274,
          1.2297468,
          0.91909325,
          0.5094632,
          -1.6447895,
          0.6581723,
          -1.5822796,
          -0.07853591,
          1.4075849,
          -0.5738341,
          -1.6935061,
          1.2434908,
          0.31369328,
          0.38571057,
          0.61375856,
          -1.0345438,
          -1.8168577,
          -0.29779282,
          1.4631774,
          -0.31356868,
          0.96441495,
          1.5908911,
          0.51579636,
          1.1170719,
          1.201348,
          0.5646883,
          -0.11417573,
          1.2980846,
          0.83965087,
          1.0539278,
          0.6975299,
          2.0526984,
          -1.6910592,
          2.9182703,
          3.240067,
          -2.534472,
          -1.0427384,
          -0.17495322,
          0.57030433,
          0.57098883,
          -1.9416194,
          -1.0939527,
          1.6710582,
          -2.6624148,
          2.1818314,
          0.9087575,
          -1.7464359,
          1.3327057,
          -1.7270137,
          0.43072045,
          -0.49347216,
          0.9207191,
          -1.3186282,
          -0.38339633,
          1.5835321,
          0.15357152,
          -4.0835543,
          1.7324762,
          -0.5238857,
          3.4390438,
          1.2001761,
          2.4981592,
          -4.2742863,
          -0.059925124,
          0.6163337,
          0.8934479,
          -0.35513645,
          -0.15925014,
          2.2024066,
          0.4473642,
          -0.47149137,
          0.98260546,
          -1.3122312,
          -1.2515073,
          1.0450107,
          -2.0950255,
          -1.4062719,
          -0.06263478,
          -1.0036303,
          0.6713419,
          -2.2034802,
          0.11371766,
          1.1042802,
          2.7435255,
          0.5588636,
          -0.5272293,
          1.3876001,
          -2.6378694,
          -1.437531,
          -1.160747,
          0.1291223,
          -0.07122946,
          0.54736686,
          0.36524844,
          0.2804121,
          -0.031194773,
          -0.39741367,
          -1.8117508,
          -1.046296,
          1.4914289,
          -0.95071685,
          -0.15526864,
          -1.5150813,
          -0.2850197,
          -1.3547457,
          1.2530365,
          1.6286939,
          2.4119623,
          -1.4222397,
          0.9557205,
          1.9755095,
          0.7210942,
          2.2775238,
          0.035647564,
          0.19466233,
          1.4246175,
          2.5601628,
          -3.0890398,
          -0.63035107,
          -0.39642483,
          0.46259218,
          1.2979857,
          1.702768,
          -1.0411139,
          0.14341149,
          -0.7038379,
          0.43084005,
          0.17734492,
          -0.90268815,
          -0.33170062,
          0.3441897,
          -0.14615627,
          0.61192805,
          0.7560599,
          0.6285625,
          1.660085,
          -0.67195356,
          -0.8395624,
          -1.3248558,
          0.98928297,
          1.8978236,
          1.8672118,
          -1.4733156,
          0.8035312,
          1.5670234,
          3.3034058,
          0.74142903,
          -0.55068445,
          0.5850944,
          0.40213263,
          -1.1241053,
          -1.8869218,
          0.78969073,
          -2.291069,
          -0.7451637,
          -0.18008775,
          0.41891176,
          -0.95392674,
          0.18218535,
          0.5338688,
          -1.0621693,
          0.76524013,
          0.70546776,
          -2.555479,
          0.03983993,
          -1.490824,
          0.97824246,
          2.6208332,
          1.2913914,
          -0.4760133,
          -2.0301414,
          1.4260377,
          0.9172641,
          -2.191587,
          0.9446375,
          -2.8830352,
          1.5382736,
          -0.9443763,
          0.65609163,
          0.28742447,
          -0.77486056,
          1.2467921,
          0.038669705,
          -3.093574,
          -1.259044,
          0.9261806,
          -0.06985772,
          -2.3098602,
          -0.6065943,
          -0.47158402,
          -0.69478947,
          -0.9085925,
          -3.1678758,
          -0.9570577,
          2.6078806,
          2.5898218,
          -1.8861585,
          -1.0260063,
          -0.9586368,
          0.14528108,
          0.018602513,
          -0.49642637,
          2.337974,
          2.3635972,
          0.75196326,
          -0.18959206,
          -1.7940038,
          -0.972164,
          -1.0518358,
          1.0403272,
          0.4152221,
          0.9447354,
          3.1293738,
          1.0350567,
          -1.1881641,
          0.6644516,
          0.3234601,
          3.1187053,
          -2.7206304,
          0.41847575,
          0.24867529,
          -1.5152135,
          -1.2101958,
          -2.2664082,
          -0.18897116,
          -0.018941272,
          0.17801677,
          0.93248427,
          1.212554,
          0.55461156,
          -0.326702,
          0.8913518,
          -0.76670337,
          0.01597282,
          -1.2921911,
          -0.67269516,
          -1.4897034,
          2.8095882,
          -0.45942184,
          0.321768,
          0.6127961,
          -0.44646892,
          1.8307053,
          2.7890089,
          -0.6069869,
          -0.61568445,
          -0.40842804,
          -1.6101005,
          -0.7234982,
          0.054128435,
          0.36870182,
          0.48924628,
          0.5346117,
          2.3107593,
          1.9776648,
          0.6041324,
          0.71596617,
          1.3012961,
          0.16200747,
          1.0699013,
          1.4151856,
          -1.2069323,
          0.73394674,
          1.4598134,
          -0.114987195,
          -0.57223856,
          1.6540316,
          1.3924266,
          1.8864312,
          1.5300043,
          0.1066131,
          0.28417116,
          0.22322923,
          -1.1419895,
          0.93643636,
          -2.2943392,
          -1.0683199,
          -1.757105,
          0.44431376,
          -0.39739022,
          -2.0731337,
          -0.14240457,
          0.8003919,
          -0.16945828,
          -0.8423067,
          -1.9164724,
          1.572985,
          0.6484809,
          0.1766012,
          0.88271487,
          0.81924206,
          -0.6556998,
          -1.2687274,
          -0.47724694,
          -1.4952238,
          -1.6938982,
          -0.5517562,
          1.7580363,
          1.8368758,
          -0.90831,
          0.253885,
          0.9671932,
          0.7576961,
          0.68942326,
          1.1512862,
          -1.3073323,
          -2.644485,
          -0.8477775,
          -1.1030302,
          -0.30627772,
          -0.31103563,
          -1.3660975,
          0.88682973,
          -0.5597644,
          1.4931554,
          -0.44530588,
          0.83465576,
          3.6718485,
          -0.5220685,
          1.8496897,
          0.70468223,
          -1.0677469,
          -1.9143276,
          -2.9990234,
          1.8626925,
          -0.9235459,
          1.1797336,
          1.1086528,
          -0.7794129,
          -0.22615199,
          -2.0404344,
          1.2545228,
          0.16928771,
          -3.1403508,
          -2.1146257,
          0.49406284,
          0.917378,
          0.14578415,
          2.7300885,
          2.1424828,
          -0.5539832,
          0.6907238,
          -1.8565227,
          -2.721705,
          -1.2077641,
          -0.36045393,
          -3.0542579,
          1.3198415,
          -1.2996083,
          1.5584437,
          1.1229692,
          -0.6441099,
          1.2523704,
          1.8877413,
          -0.16974612,
          -1.9207205,
          -0.4398623,
          1.3611325,
          -1.0948669,
          -0.5360525,
          0.8818268,
          1.3522203,
          1.725614,
          -2.7384746,
          -0.49120942,
          -0.2893335,
          -1.5043486,
          -0.33175546,
          -0.6210178,
          1.3624654,
          -1.912234,
          -1.4491028,
          1.5595601,
          2.5647454,
          1.5897591,
          -2.6140656,
          1.2780709,
          -1.5332077,
          -0.667915,
          -0.9627743,
          0.8862443,
          -2.0523822,
          1.0821245,
          1.506552,
          0.21378437,
          2.495427,
          -0.437124,
          -0.60996926,
          1.4056878,
          -0.20997864,
          -1.4674187,
          1.1284093,
          2.2506557,
          1.0987453,
          -1.7788072,
          0.11334501,
          0.8512259,
          1.0215783,
          -0.40757394,
          -1.7973967,
          1.5146556,
          -1.0920994,
          -2.11037,
          -1.9581687,
          -1.5508476,
          0.053142957,
          -2.5528913,
          0.7213224,
          -0.25402007,
          -2.2520423,
          -1.4053215,
          -1.5882282,
          3.2599466,
          0.37257087,
          0.84949803,
          -0.7073182,
          -0.43565273,
          -0.8971211,
          -1.8621697,
          0.53467536,
          1.884973,
          0.76494867,
          0.5863476,
          -0.30564854,
          -0.24492407,
          0.3607725,
          1.1516135,
          -0.5085572,
          -0.99136144,
          0.92762965,
          -2.0553074,
          -1.646788,
          0.13833825,
          1.219528,
          0.24743083,
          0.8623366,
          0.20299351,
          -0.17403199,
          2.0219934,
          0.21475793,
          -0.287436,
          1.0727382,
          2.1873558,
          1.0954111,
          -0.42629197,
          0.42432562,
          -1.2780216,
          1.424353,
          1.2951452,
          2.1806462,
          0.5715178,
          -0.5403327,
          0.65267646,
          -1.660137,
          -1.7451379,
          0.58769333,
          0.09308159,
          0.7066935,
          1.7119094,
          0.05434248,
          0.5842512,
          -1.1177535,
          -2.2226276,
          -0.9041402,
          -1.7177991,
          0.8167415,
          2.6192737,
          0.57574815,
          -1.468688,
          -0.3300201,
          -1.3870583,
          0.76319474,
          -1.2563009,
          -0.6899696,
          1.5043074,
          -0.11398938,
          4.392577,
          1.0355858,
          1.802728,
          0.30902568,
          0.49381858,
          0.7715801,
          -0.5504843,
          -0.97728115,
          -0.34774995,
          1.8110344,
          0.26449746,
          0.073961355,
          -0.24182644,
          -1.4231298,
          0.14262311,
          -2.3725305,
          -1.1447581,
          -1.1809207,
          -0.67890227,
          -3.9079995,
          -1.6428578,
          0.57792646,
          -1.5685742,
          1.2512674,
          0.20768178,
          0.13335223,
          0.6907028,
          -0.052489035,
          -1.6370027,
          -0.8816472,
          2.4337745,
          1.3820217,
          0.7773006,
          0.0824848,
          -0.94295955,
          -0.108792566,
          1.6059742,
          -0.510594,
          -0.7062877,
          -3.1604264,
          -1.2350562,
          0.57861024,
          -1.2941452,
          1.9231055,
          0.2285608,
          -0.25847527,
          1.5852071,
          -1.499516,
          -0.29507083,
          -0.012228239,
          0.8403901,
          -0.08417562,
          -1.4341419,
          -1.8091867,
          0.008507401,
          -0.55452883,
          -1.5939505,
          -1.0631596,
          1.3023267,
          0.5871656,
          2.0730028,
          -1.3816249,
          -3.705193,
          -2.3411968,
          -0.70886654,
          -2.2741656,
          -1.2209555,
          -0.7422027,
          -0.6891862,
          -1.8828752,
          -0.5723159,
          -2.7419581,
          -2.801849,
          -0.88803816,
          2.5781953,
          2.8141005,
          1.4738166,
          2.6867485,
          0.7984961,
          -3.1533146,
          -0.50251865,
          1.5679083,
          -1.6775984,
          2.789138,
          0.6813491,
          -1.8929677,
          -0.72387123,
          1.480468,
          -1.6582136,
          -0.5051163,
          0.2216464,
          2.8791423,
          -2.977131,
          2.611357,
          0.39776978,
          1.8611519,
          -0.051289745,
          -0.7175425,
          2.489394,
          0.58786255,
          1.3570466,
          -1.3512671,
          -3.3718138,
          1.2780442,
          -1.2667458,
          -2.7857654,
          -0.5839655,
          -1.0694245,
          0.35524917,
          -0.026962738,
          0.18279532,
          -1.3289775,
          -0.7049162,
          -0.09194572,
          0.88343513,
          -2.1372306,
          1.2402228,
          0.7965471,
          1.2882336,
          -0.36181805,
          -2.0203862,
          1.2564197,
          -2.2476113,
          -1.8218272,
          -2.7097435,
          -1.1369289,
          1.5614257,
          0.6629682,
          -2.155928,
          1.3707132,
          -0.9499968,
          -3.723185,
          -3.075847,
          2.4523172,
          -0.41151667,
          -0.4141367,
          0.52662563,
          0.9251021,
          0.029917154,
          0.091341026,
          -2.459617,
          -0.16974573,
          1.8133389,
          0.39103797,
