{
  "path": "ML-saves/model.json",
  "iteration": 2,
  "cost": 5.218461,
  "layers": [
    {
      "from_amount": 784,
      "node_amount": 16,
      "weights": {
        "v": 1,
        "dim": [
          16,
          784
        ],
        "data": [
          -0.16078699,
          -0.58273804,
          0.007588625,
          0.16952646,
          0.06576145,
          0.74442875,
          0.33177388,
          -0.45971572,
          -0.51963985,
          -0.23733854,
          0.82666194,
          -0.37756574,
          0.11250901,
          -0.8778647,
          0.5873089,
          -0.15731537,
          -0.6334958,
          0.9112345,
          0.8694062,
          -1.2677509,
          -0.3366716,
          -0.6989685,
          0.45169616,
          -0.6793294,
          0.6136327,
          -0.91365254,
          -0.4643141,
          1.3508041,
          0.42477858,
          -1.0273534,
          -0.075419664,
          0.3622446,
          -0.5163306,
          1.3708063,
          -0.8826008,
          0.5045434,
          -0.8574058,
          0.7646531,
          0.08869696,
          -0.5705991,
          0.87673974,
          -0.08269215,
          -0.32280862,
          -0.1445347,
          0.8601116,
          0.822001,
          -0.3616035,
          -0.29055953,
          0.6820543,
          -0.279575,
          0.3336439,
          0.490461,
          1.3712854,
          0.8683245,
          -0.3628565,
          -0.53876007,
          0.8157346,
          -0.23185909,
          1.4246408,
          -0.24822378,
          1.1254561,
          -0.6391053,
          0.17282557,
          0.7991067,
          1.1348273,
          1.721957,
          0.3563521,
          0.02750504,
          -0.23801315,
          -0.21881855,
          -0.28840566,
          -0.31559741,
          1.1470315,
          -0.19480681,
          0.42414916,
          0.66075623,
          -0.029082656,
          0.75305223,
          0.68370056,
          0.6860771,
          -0.00017237663,
          -1.0735298,
          0.10554433,
          0.3027401,
          -0.2817402,
          -0.36350715,
          -1.1053071,
          -0.30467248,
          -0.86882997,
          0.5797771,
          -0.66195774,
          -0.5186471,
          -0.982108,
          0.5031377,
          0.31862962,
          0.5119908,
          -0.99320185,
          1.0152154,
          -0.5643747,
          -1.1735905,
          -0.5071794,
          0.51982784,
          -0.20550346,
          -1.023634,
          -0.7932683,
          0.8013973,
          1.2058889,
          -0.3942889,
          1.148687,
          -0.7897663,
          -0.47338295,
          0.68767774,
          -0.31460273,
          -0.024687529,
          0.94601095,
          -1.0388098,
          -0.41495705,
          -0.33500302,
          0.8081825,
          0.028180242,
          0.76709855,
          -0.20961118,
          0.62143874,
          0.2288878,
          -1.0278016,
          -0.6526704,
          -0.4605708,
          -1.137593,
          0.015316367,
          1.03566,
          0.23432565,
          0.88187575,
          -0.60145104,
          -0.016449213,
          -0.5386846,
          -0.33384848,
          0.08911383,
          0.05526209,
          -1.4817243,
          0.5016582,
          -0.010504842,
          0.01386106,
          -0.8726654,
          -0.0754019,
          0.13060224,
          -0.17055535,
          -0.34002542,
          0.113230705,
          -0.58408153,
          0.2384373,
          -0.31077766,
          0.91888857,
          0.22327852,
          -0.9311576,
          -0.36015332,
          0.41953158,
          -0.057247043,
          -0.27966332,
          -0.0698179,
          -0.5199226,
          0.1750853,
          0.7170559,
          0.112509966,
          0.28871107,
          -0.9783275,
          0.19567561,
          0.4690739,
          0.3903873,
          0.18085217,
          1.8406417,
          -0.38352418,
          0.5574558,
          0.41327047,
          -0.103394866,
          -0.2386117,
          -0.20836627,
          -0.3483578,
          0.8278382,
          0.7735659,
          -0.40467036,
          0.70867074,
          -0.09877467,
          0.10412514,
          -0.70005083,
          -0.62782145,
          0.43479526,
          0.2926041,
          -0.15587807,
          -0.016666412,
          0.070684075,
          0.81486785,
          0.83914995,
          0.665671,
          -1.0470638,
          0.28046322,
          -1.0430559,
          1.0849264,
          0.52325034,
          0.01954174,
          -0.82266235,
          0.8034369,
          0.7068347,
          0.4825492,
          -0.8888483,
          -0.28091502,
          -0.74188125,
          0.8999131,
          0.015942335,
          0.35697305,
          -0.36768496,
          0.5425067,
          -0.6185843,
          0.3547877,
          -0.92161274,
          -0.96051514,
          -0.89749897,
          -0.7565479,
          -0.18802857,
          -0.45591855,
          -1.1782916,
          1.0859293,
          0.8334588,
          0.76924014,
          -1.0279592,
          -1.4533685,
          0.44921672,
          -0.2192533,
          -0.29544294,
          -0.1435101,
          0.53587353,
          -0.2021538,
          0.09595895,
          0.37581742,
          -0.43603778,
          0.32547784,
          -1.226454,
          0.5113468,
          -0.37323737,
          -0.84692514,
          -1.0072762,
          -1.3317751,
          -0.32612705,
          -0.17707276,
          -1.1824989,
          0.3193407,
          1.3351885,
          0.022444367,
          0.32560885,
          1.02531,
          0.46770453,
          1.1556058,
          -1.2956673,
          0.8607788,
          0.31537342,
          1.1675351,
          0.92473054,
          -0.24557352,
          -0.17264259,
          0.34764874,
          0.2009691,
          1.2484372,
          -0.012223363,
          -1.2403464,
          -0.77751994,
          -0.044653773,
          -0.28145885,
          -0.3648436,
          0.42554605,
          -0.750422,
          0.46359766,
          -0.28128636,
          -0.44290137,
          0.49894714,
          0.5287576,
          -0.7894964,
          -1.3640157,
          -1.0208259,
          -0.38974094,
          -1.0661896,
          0.9260322,
          0.015130043,
          -0.6094233,
          -0.4624449,
          0.57125485,
          1.581615,
          -0.535571,
          -1.2176346,
          1.8799199,
          0.13907075,
          0.4916886,
          -1.4402597,
          -0.0002900362,
          -0.27039874,
          0.583779,
          1.039804,
          -0.18533432,
          0.41464758,
          -0.68318,
          -0.18861294,
          0.31694245,
          0.6694087,
          1.5465806,
          0.8767477,
          -1.1485984,
          0.2042656,
          -0.70841753,
          1.5630655,
          -1.0810201,
          1.447326,
          0.8752911,
          -0.23053765,
          0.92824614,
          0.72814417,
          -1.3137566,
          -0.81624806,
          -0.4082055,
          0.9542488,
          0.3283465,
          -0.22452927,
          0.14660823,
          -0.15785646,
          -0.15846848,
          0.619187,
          0.30625367,
          -0.48633003,
          -0.084498286,
          0.2902838,
          -1.1641495,
          -0.99653244,
          -0.8518326,
          0.15786147,
          1.4639118,
          -0.1382389,
          0.7028557,
          1.0204499,
          -0.7768197,
          0.8941853,
          0.06831825,
          0.6221348,
          -0.4864961,
          -0.45749938,
          0.15679741,
          -1.1582409,
          0.5446794,
          -0.14012825,
          0.8771335,
          -0.8479947,
          0.10901499,
          0.6406704,
          -0.7606107,
          0.8014003,
          -0.44895518,
          -1.1141139,
          -0.45298386,
          -0.32221866,
          0.6891376,
          -0.030589819,
          -0.9832895,
          -0.695027,
          0.49813914,
          0.29442394,
          -0.49930203,
          0.0496912,
          1.3887401,
          -0.35113025,
          -0.75023556,
          -0.0894295,
          -0.3918625,
          0.24238682,
          -0.23313224,
          -0.3103795,
          -0.35348225,
          -0.32089257,
          -0.023846507,
          0.5562607,
          -0.21627629,
          -0.06407881,
          0.22097278,
          0.63784456,
          -0.40599883,
          1.1809446,
          -0.4899099,
          1.1088947,
          -0.23108208,
          -0.7764776,
          -0.3990128,
          0.8988209,
          0.87383413,
          -0.2516743,
          -0.40798616,
          0.028755188,
          0.09286797,
          0.35226142,
          -0.5172566,
          0.6324221,
          0.8048217,
          0.31530595,
          -0.20023572,
          -0.24077475,
          1.090097,
          0.25350904,
          -1.0124533,
          1.2880033,
          -0.43882835,
          0.47849095,
          1.0891706,
          0.8377602,
          -0.7115482,
          0.6088476,
          -1.1992368,
          0.60124505,
          1.1690952,
          -1.2278938,
          -0.020343661,
          -1.0620501,
          1.0537053,
          0.08104348,
          -0.6762179,
          1.301564,
          0.7654891,
          -1.0957056,
          0.46144903,
          -1.6657068,
          -0.93545413,
          0.761925,
          0.41588902,
          -0.6292019,
          1.3297423,
          -0.05312884,
          -0.054451346,
          0.4693426,
          0.10378897,
          -0.34114015,
          0.16001666,
          1.1964054,
          -0.06754494,
          0.6363244,
          -1.5529703,
          0.6016338,
          -0.87372446,
          -0.007617831,
          -1.8032408,
          -0.9329505,
          0.31077647,
          -0.59503686,
          -0.53292346,
          0.14966583,
          1.3370011,
          -1.5591924,
          0.05997646,
          0.60005236,
          0.97836506,
          0.20342469,
          -0.2509594,
          1.1450925,
          0.52202415,
          -0.45027447,
          0.39142787,
          1.0082916,
          0.13257146,
          -0.5955647,
          0.9650755,
          0.6034844,
          0.07275367,
          -0.22182357,
          0.08108449,
          0.108631015,
          0.99520946,
          -0.8889077,
          -0.72124326,
          0.6844554,
          1.1770504,
          -1.0452746,
          -1.240694,
          0.4820696,
          0.109604836,
          1.106299,
          -0.5985738,
          1.1203837,
          0.031075478,
          -0.26042306,
          0.70100856,
          0.2585864,
          0.0736053,
          0.48101485,
          0.66577053,
          -0.48905933,
          0.051365018,
          0.6986989,
          0.48268855,
          0.44193923,
          0.77586484,
          0.7484795,
          1.1561255,
          0.13774836,
          -0.2350843,
          0.34122503,
          -0.8188169,
          -1.0419165,
          -0.20224845,
          1.3134809,
          -0.032501817,
          1.0228432,
          -1.4841601,
          -0.04697728,
          -0.52906847,
          0.21398675,
          -0.6121154,
          -1.2023994,
          -0.77433884,
          -0.011667609,
          0.17315555,
          -0.863711,
          -0.33964896,
          0.9119216,
          -0.8584801,
          0.05899155,
          -1.433938,
          -0.82795835,
          0.88279593,
          -0.21534288,
          0.19856238,
          -0.95550466,
          0.95016956,
          0.21713412,
          0.9490682,
          -1.4041048,
          0.23923111,
          0.15027928,
          -0.24756408,
          -0.32354963,
          0.34293103,
          -0.17151058,
          0.7864739,
          -0.2017237,
          0.18544579,
          0.9468,
          -0.63521063,
          -0.5280136,
          0.38368857,
          -0.9674071,
          0.19513083,
          0.10022402,
          0.82281816,
          -0.97551453,
          0.43629825,
          0.050151467,
          0.053050637,
          0.73126173,
          -0.33482993,
          0.69021297,
          -0.15258884,
          0.7474321,
          0.7601,
          -0.17700005,
          0.03335464,
          -0.7089329,
          0.5040889,
          0.8241247,
          0.19375896,
          0.6942029,
          0.5465783,
          1.4597851,
          -0.32373667,
          1.8002961,
          -0.8466939,
          0.43860614,
          -0.2778151,
          -0.11820173,
          -0.77666116,
          -0.26673615,
          1.6709858,
          0.048307896,
          -0.13314259,
          0.7201234,
          1.387097,
          -0.44365287,
          -0.14816976,
          0.14207411,
          0.12582958,
          -0.7986156,
          -0.48472416,
          0.15690732,
          -0.5496775,
          0.15786624,
          0.64994764,
          -1.0994718,
          1.7248313,
          0.04551816,
          0.88247347,
          0.6173214,
          0.29252493,
          1.3268794,
          -0.09461844,
          -0.4373623,
          -0.32575798,
          -0.5515528,
          -0.15629506,
          -0.842401,
          -1.0323198,
          -0.8334608,
          0.7595191,
          -0.7449354,
          1.3827448,
          0.04545355,
          0.41449702,
          -0.48996282,
          0.3436848,
          1.1403055,
          1.113189,
          0.17162478,
          -0.940009,
          -0.76257145,
          0.2650925,
          -0.6088706,
          1.2261077,
          0.8193481,
          0.26291645,
          -0.6121105,
          -1.289423,
          0.3949864,
          1.6254295,
          0.78324914,
          -0.84928775,
          -0.2694912,
          -1.0943989,
          0.76860845,
          0.33355808,
          0.088318825,
          -0.7972462,
          0.12564659,
          0.6199033,
          0.19377983,
          0.58821404,
          0.8580873,
          -0.24958277,
          1.2637863,
          -0.6640661,
          -0.026585698,
          -0.34785235,
          -1.3461132,
          -1.5048268,
          0.7066004,
          0.8477042,
          -0.35847342,
          0.7103647,
          0.025564194,
          -0.19565165,
          -0.13974237,
          -1.0608172,
          0.7716682,
          -0.24699628,
          0.21887672,
          0.39845252,
          -0.17946231,
          -0.8217089,
          -0.44010174,
          -0.2923199,
          0.15670264,
          -0.18223369,
          0.14041185,
          0.30659807,
          -1.3859028,
          -0.27146876,
          -0.84468794,
          0.023895502,
          0.22124648,
          -0.67188406,
          0.483454,
          0.634689,
          0.083351135,
          -0.92716026,
          -1.1285701,
          -1.1265012,
          0.12064147,
          -0.5033133,
          -0.1990323,
          -0.4550122,
          -1.6214675,
          -0.2814361,
          0.12953246,
          -0.36476326,
          1.1457884,
          1.0865073,
          0.50616527,
          -1.2797441,
          -0.3657999,
          -0.9796711,
          0.316041,
          -1.5765883,
          0.57293606,
          0.08225119,
          1.2912191,
          0.3437121,
          -0.3569312,
          1.2848173,
          0.9691957,
          -0.22486675,
          0.93661606,
          0.23570406,
          0.5629735,
          0.30635166,
          0.95846665,
          -1.5442983,
          0.9432914,
          -1.0031343,
          -0.91099155,
          -0.7021904,
          -0.08834612,
          -1.1774939,
          -0.28128588,
          1.3416408,
          0.6900469,
          0.6712694,
          -1.5826457,
          -0.11073029,
          -0.0103366375,
          -0.75369895,
          1.2289655,
          0.4731226,
          0.21850991,
          0.40169215,
          -1.1788296,
          -0.61303043,
          0.13788557,
          -0.63726246,
          0.6539029,
          -0.2491399,
          0.34933758,
          -0.7936269,
          -0.5366998,
          0.51769733,
          0.8311988,
          -0.31066024,
          0.1020273,
          0.60229516,
          0.041078687,
          0.66382384,
          0.12830853,
          -0.8020984,
          -1.2438613,
          0.67188394,
          -0.6474911,
          -0.6703459,
          -0.8343328,
          -0.029861212,
          0.6978979,
          0.7426373,
          1.3971387,
          -1.398399,
          0.026557088,
          -0.47251332,
          -0.28608322,
          0.052674532,
          0.7907597,
          0.15627873,
          -1.0460141,
          -1.2184715,
          -0.54029286,
          0.8545846,
          1.4109848,
          -0.9082968,
          -1.5210688,
          -0.84617007,
          -0.055577278,
          0.56896305,
          -1.5940089,
          0.19453824,
          -0.0831368,
          0.5785136,
          0.34900331,
          0.45790124,
          -0.2039516,
          -0.9466101,
          -0.8244021,
          0.5557921,
          1.3771914,
          0.93814087,
          -1.8241659,
          -1.3082429,
          -0.121975064,
          -0.44877136,
          0.55638623,
          -0.6396402,
          1.1830758,
          -0.027627349,
          -0.51293254,
          0.5279186,
          -0.47975397,
          0.91250145,
          -0.7180873,
          -0.009967685,
          -0.44381166,
          -0.72968626,
          -0.15244043,
          -0.24280524,
          0.13486648,
          0.77137125,
          -0.048662424,
          0.37269855,
          -0.8490701,
          -0.76080716,
          -0.06464505,
          0.7896366,
          1.1133605,
          0.5070261,
          0.7935566,
          -0.5728432,
          -1.0370986,
          -0.1473875,
          -0.7345302,
          0.9353204,
          1.4337804,
          -1.0141642,
          0.49888074,
          -0.4439932,
          0.21209145,
          -0.021144986,
          0.35447514,
          0.03930497,
          -0.4902414,
          -0.1105268,
          -0.15099776,
          0.41274798,
          0.39419234,
          0.8158661,
          -1.5457075,
          0.7609824,
          1.258884,
          -0.5558771,
          -0.9019029,
          -1.3093399,
          0.23188281,
          0.017997503,
          0.05471146,
          -0.2148,
          -0.52589345,
          0.7894846,
          -0.31854892,
          -0.34720016,
          -0.7989769,
          -1.1101539,
          1.4247273,
          0.04055345,
          0.45540047,
          -0.3198321,
          0.23327482,
          -0.14603138,
          -1.6478518,
          -0.42637062,
          0.58382773,
          1.1096584,
          -0.1238395,
          -0.763427,
          0.6884117,
          0.35363293,
          0.7143409,
          0.58369684,
          0.38307416,
          -1.1318157,
          0.9075879,
          -0.7105049,
          1.1198181,
          0.37849224,
          -0.4353248,
          -1.1853256,
          -1.0932608,
          0.031203628,
          0.5649059,
          -0.14291537,
          -0.37297618,
          0.09646273,
          0.37279296,
          1.0041231,
          0.9892752,
          0.3478874,
          -0.44767797,
          -0.2566129,
          -0.76064193,
          -0.26816797,
          0.64860904,
          1.0415399,
          -0.47371423,
          1.5958126,
          0.22190511,
          -0.44043434,
          -0.23236394,
          -1.050703,
          0.35576642,
          0.695524,
          -0.09253991,
          0.34793925,
          -1.5441402,
          0.2147553,
          1.1212589,
          0.70174503,
          1.0406524,
          1.1794801,
          0.9478297,
          -0.27989364,
          -0.013839483,
          -0.286978,
          -0.015610933,
          -1.3551437,
          0.053837895,
          -0.19607913,
          -0.124103546,
          -0.056874752,
          1.3570931,
          0.60758615,
          1.0437579,
          0.46796846,
          1.1233135,
          -0.42466223,
          -0.13241398,
          -1.4388669,
          -0.9489833,
          -0.5471046,
          -0.087641,
          0.1514926,
          0.7270504,
          0.6971669,
          1.1029636,
          0.40500367,
          -0.89504826,
          0.7599349,
          1.628482,
          0.6645254,
          0.8465431,
          0.20094955,
          -0.70717907,
          -0.15484369,
          0.44650745,
          1.0279078,
          -0.5104922,
          0.7814734,
          -0.44627142,
          -0.2272346,
          -0.54905534,
          0.36826313,
          0.5359508,
          0.6259134,
          0.8246236,
          -0.4104147,
          0.43999565,
          -0.57939565,
          0.56310153,
          0.44645917,
          1.1102312,
          -0.85758996,
          -0.15450418,
          -1.1454743,
          -1.2904012,
          -0.6086886,
          -0.47146642,
          0.81293595,
          -0.19731307,
          -0.14378119,
          0.9728919,
          -0.73676586,
          -0.3715713,
          0.17206812,
          0.04357004,
          -1.1159322,
          -0.97593915,
          -0.9964118,
          1.5743569,
          -0.6869197,
          -0.24960017,
          -0.6657915,
          0.4326781,
          -1.1270809,
          1.1660893,
          -1.0227015,
          -0.4614085,
          -0.083438635,
          0.8628441,
          0.09271443,
          0.8655642,
          -0.25782204,
          0.8589233,
          -0.18141425,
          1.11365,
          -0.7594949,
          -0.41780567,
          0.1380043,
          0.08451939,
          -0.5792633,
          -0.62224567,
          0.28714585,
          -0.76591253,
          0.37581718,
          0.066285014,
          -0.14070964,
          1.4422196,
          -0.18332243,
          0.53941,
          0.397743,
          0.9370258,
          1.1187084,
          -0.15156436,
          0.9753026,
          1.3362888,
          0.7601124,
          0.030960202,
          0.31755912,
          0.43433094,
          -1.3811363,
          -0.5182098,
          -0.2817099,
          0.5351317,
          -0.61581993,
          -0.86565197,
          -0.17934752,
          0.8196775,
          -0.55998707,
          -0.89347744,
          -1.3412973,
          0.38134146,
          -1.0607147,
          -0.36273587,
          1.1114568,
          -0.9205471,
          1.4718803,
          0.11272311,
          -0.5860715,
          -0.6535144,
          -0.5992845,
          1.2542351,
          -0.68048036,
          -0.09376085,
          -0.5874287,
          0.48134243,
          0.024641037,
          -0.9655447,
          0.2075479,
          -1.1657069,
          -1.1693951,
          1.0366973,
          0.37502813,
          -0.47687936,
          0.18078756,
          0.0492965,
          0.5602653,
          -0.21805573,
          0.7722273,
          0.5867369,
          0.63449574,
          0.65673363,
          0.5091058,
          -1.2749237,
          -1.6063685,
          -1.1598555,
          0.5294608,
          -0.22608066,
          0.95388126,
          -0.19175732,
          0.11189401,
          0.008142233,
          0.14513314,
          -0.8512573,
          -0.16360462,
          0.78144157,
          -0.4847498,
          1.2462304,
          -0.73248315,
          -1.0436252,
          0.7745496,
          0.9000169,
          0.72221375,
          0.0879668,
          0.72085035,
          0.39459598,
          -0.6766728,
          1.4149935,
          -0.14760554,
          -0.616511,
          -0.3896929,
          1.2541131,
          -0.2735635,
          -0.04740572,
          0.13282025,
          0.4110248,
          -0.5667721,
          -0.62713194,
          -1.3098013,
          0.13737404,
          -0.9967786,
          -1.5119271,
          0.7100866,
          0.24191833,
          0.9122976,
          -0.6025666,
          0.52369094,
          0.6796144,
          -1.3230059,
          0.96654093,
          0.39961958,
          0.73537576,
          0.29658353,
          -0.25245595,
          -1.3478934,
          0.65137744,
          0.44517422,
          -1.2746172,
          0.014932752,
          -0.42449093,
          -0.57713115,
          -0.16432822,
          -0.20666814,
          -0.036679387,
          -0.94262767,
          -0.2439363,
          -1.3399851,
          0.55119526,
          0.2104032,
          -0.30091178,
          0.89951015,
          0.1681633,
          -0.4435699,
          -0.41010237,
          -0.5705339,
          -0.8059989,
          0.35113025,
          -0.67248476,
          0.48975646,
          -0.23441839,
          0.07667518,
          -0.29875183,
          -0.4104836,
          0.7867651,
          -0.61802495,
          0.022660375,
          0.29971385,
          0.6556523,
          -0.33560228,
          -0.64787996,
          -0.6076671,
          -0.24152601,
          -1.108345,
          0.1009624,
          -1.0066801,
          -0.105769515,
          0.16390443,
          1.5971023,
          -1.0005683,
          0.6822839,
          0.27593338,
          -0.18909729,
          -0.10882318,
          0.52636266,
          -0.6949265,
          -1.2326733,
          -0.11124802,
          0.15810299,
          0.39908564,
          -1.1755626,
          -0.05233109,
          0.022239089,
          -1.2891979,
          1.3116649,
          -0.601377,
          -0.22308254,
          0.06073308,
          -0.5500554,
          0.16745102,
          -0.7338041,
          -0.013643503,
          0.8748362,
          0.87074435,
          -0.03549528,
          -0.6234337,
          -0.14279735,
          0.7533746,
          -1.0465587,
          0.15971708,
          -0.11773431,
          -0.10077524,
          -0.42695653,
          -0.22423518,
          0.20378017,
          -0.71552765,
          -0.9835994,
          0.020559907,
          0.9714768,
          -1.7303933,
          0.37351835,
          0.85051596,
          0.58714175,
          0.61355877,
          -0.7787578,
          -0.7279217,
          0.2969315,
          0.057124972,
          0.5797521,
          0.50282216,
          0.9166595,
          -0.07434976,
          -0.30451965,
          0.27807772,
          -0.7415215,
          0.2654593,
          1.1910826,
          -0.19589269,
          -0.25606215,
          0.43481004,
          0.26078475,
          -0.32119834,
          -0.88036966,
          0.5358993,
          1.0809569,
          -1.1209514,
          -0.2837813,
          -0.71720064,
          1.0819294,
          0.27233553,
          -0.25714064,
          -0.95668447,
          0.36289442,
          0.8361249,
          -0.16290283,
          0.27640235,
          0.374205,
          0.58944726,
          -0.5582266,
          -1.3542107,
          -0.28689837,
          -1.1375395,
          0.73843884,
          0.5662507,
          0.15620041,
          0.83846414,
          -1.5357691,
          0.2549585,
          -0.011955738,
          -0.06657624,
          -0.1830846,
          -1.1791811,
          -0.5595666,
          0.02863288,
          0.55169284,
          -0.044093013,
          -0.41955304,
          0.01657021,
          0.62375367,
          -0.0023766756,
          -0.074765444,
          -1.0437291,
          0.6256356,
          -0.443038,
          1.331177,
          -0.60835326,
          0.7524096,
          -0.4172175,
          -0.009268761,
          0.04010272,
          0.24747252,
          -0.6618012,
          -0.6011796,
          1.643844,
          0.7746719,
          -0.45247316,
          -0.2739675,
          0.3128786,
          0.2823857,
          -0.40475774,
          -0.21012175,
          -0.9901444,
          0.969224,
          -0.20011532,
          -0.6831887,
          -0.75561833,
          -0.1729089,
          -0.0640769,
          -0.9718162,
          0.5779861,
          -0.4885155,
          0.6017152,
          -1.0570931,
          0.6098043,
          -1.0678848,
          -0.62717426,
          0.95764375,
          0.43459463,
          0.85480034,
          -0.8982892,
          -0.13305628,
          0.20672345,
          -0.98184216,
          1.4896976,
          0.09201157,
          -0.16604507,
          -0.89775944,
          0.23142135,
          -1.0155675,
          0.4970461,
          -1.0962471,
          -0.23582828,
          -0.6418092,
          -0.68613124,
          -0.9181695,
          -0.2376306,
          -0.35858452,
          -0.8971772,
          0.17614305,
          -0.067204,
          -0.47242892,
          -0.93818605,
          -0.019327283,
          0.7406409,
          0.92782176,
          -1.3795146,
          0.78646183,
          0.53965247,
          0.42198706,
          0.00013947487,
          0.17650878,
          -1.1958405,
          -0.22881067,
          -0.41610587,
          0.24766743,
          0.07811034,
          0.22663903,
          -0.83124757,
          0.1759392,
          -0.59829843,
          0.48500764,
          0.15625119,
          0.5346674,
          1.1940013,
          -0.12610757,
          0.39286554,
          0.030302048,
          0.6550425,
          0.8099408,
          -1.4076,
          0.44836783,
          0.7453494,
          0.66065717,
          -0.85614204,
          0.9614352,
          -1.1399046,
          0.61670136,
          -0.87708986,
          -0.5953553,
          0.67679083,
          0.52070796,
          1.1415373,
          0.064852476,
          -0.03263831,
          0.58054304,
          -0.8520988,
          -0.2163428,
          0.12918735,
          0.17616987,
          0.6960838,
          -1.0483327,
          -0.9240334,
          0.7443229,
          0.082322,
          -0.2828462,
          1.07335,
          0.038163424,
          1.051992,
          0.3104514,
          0.45212412,
          1.1485814,
          -0.62651503,
          -0.91829574,
          -0.5093061,
          0.1323762,
          -0.09687126,
          -0.4326042,
          0.25976658,
          0.5812408,
          -0.03600228,
          -0.4537456,
          0.65162325,
          0.30846953,
          -0.93066275,
          0.51737523,
          1.520006,
          -0.5349213,
          -1.134318,
          -0.13856661,
          -0.7165365,
          -0.26677203,
          -0.7662296,
          0.9525318,
          0.32450342,
          0.13556647,
          0.7345339,
          -0.042341948,
          -0.32253158,
          0.37226808,
          1.5295924,
          0.17523181,
          -0.14369047,
          -0.17405772,
          -0.93564606,
          0.45724607,
          -0.60648894,
          1.3399705,
          0.25993836,
          -0.51657057,
          0.34267747,
          -0.6622871,
          0.15262485,
          0.69963944,
          0.33150673,
          0.026977658,
          0.5537069,
          0.7406367,
          -0.73574436,
          -0.058982372,
          -0.40844584,
          0.34816635,
          -0.13553786,
          1.3098423,
          -0.27694428,
          0.9249691,
          0.41196847,
          0.18321085,
          -0.79820263,
          1.0560246,
          -1.1023549,
          -0.8828895,
          -0.38955808,
          -0.68632245,
          0.55642986,
          -0.2581805,
          -0.29623103,
          -0.6871747,
          0.3320949,
          -0.77137005,
          -0.8884114,
          0.3168366,
          -1.2326452,
          -0.51644754,
          -0.49107492,
          -0.21791911,
          -1.1466032,
          -0.8311199,
          -0.7275264,
          0.042315483,
          0.08777821,
          -1.595125,
          -0.3829584,
          0.22717702,
          -0.35831296,
          -0.43111348,
          1.1500175,
          0.4375354,
          0.330078,
          -0.48343945,
          0.1886189,
          -1.145163,
          -0.36679697,
          0.97833586,
          -0.8606957,
          -0.2684257,
          0.64051986,
          -0.7166512,
          -0.6157274,
          -0.5131135,
          1.444168,
          0.14628601,
          0.8018638,
          0.037403822,
          -0.71827745,
          -0.582165,
          1.1188378,
          0.4140104,
          -0.5070394,
          -0.4215492,
          0.10312033,
          -0.6557853,
          -0.123022676,
          0.15373552,
          -0.47168028,
          -1.2891479,
          1.1496507,
          0.48231304,
          1.2566601,
          -1.0596484,
          -0.2503277,
          1.1649646,
          -0.5925126,
          1.3975732,
          1.1191244,
          0.17737949,
          0.6743003,
          -1.0649581,
          0.83319116,
          1.4984646,
          -0.07600546,
          -0.051281214,
          -0.46353352,
          0.3961351,
          0.6123818,
          -0.6096121,
          -0.29216266,
          0.57470477,
          0.30113494,
          1.0112839,
          0.114984155,
          0.26431954,
          0.19110787,
          0.035738945,
          0.5448588,
          -0.34044826,
          1.2042542,
          -0.21546352,
          -0.015226126,
          -0.13940346,
          -0.37768888,
          0.21914363,
          -0.19684327,
          0.31457627,
          -0.25047576,
          0.82902026,
          0.53010416,
          -0.80410933,
          0.1984359,
          0.22625363,
          -0.62523127,
          -0.46123946,
          0.6094036,
          0.80588984,
          -0.09997082,
          1.233286,
          0.5948789,
          0.9166584,
          0.069826126,
          0.27758503,
          -0.6025524,
          0.8554586,
          0.4241333,
          0.5627712,
          0.39677274,
          0.42886877,
          0.13731289,
          -0.46440077,
          -0.3885697,
          -0.49236453,
          1.361966,
          -0.19573951,
          0.084204555,
          0.42121089,
          0.32136023,
          -1.1734924,
          -0.8027383,
          1.2264022,
          0.77921355,
          -0.2897439,
          0.8691565,
          -0.7615495,
          -1.0276661,
          -0.6290394,
          -1.1082008,
          1.675969,
          1.100135,
          -0.6437999,
          -0.6420052,
          -0.023481965,
          0.106405616,
          -0.14005637,
          1.2867273,
          0.33482206,
          -0.2532189,
          0.18633807,
          1.0491879,
          0.5447874,
          -0.0683105,
          0.82863533,
          1.102709,
          -0.12093806,
          0.83541715,
          0.4346776,
          -1.2303436,
          -0.15547311,
          0.8823308,
          0.8068398,
          1.7640282,
          1.1039246,
          0.87947214,
          0.87024665,
          0.08222675,
          0.08554888,
          -0.40077984,
          0.6222831,
          -0.65063286,
          -0.33946145,
          0.06091535,
          -1.2827886,
          0.38140368,
          0.73021555,
          -0.3094653,
          -0.14822471,
          -0.9204223,
          -0.8834199,
          0.51791465,
          0.58692,
          1.2036176,
          0.676777,
          -0.41144872,
          -0.84309685,
          -0.45864022,
          -0.31777537,
          0.40790582,
          -0.8163725,
          0.12536287,
          1.1757383,
          0.15776396,
          1.6460066,
          -0.88846743,
          -0.9796696,
          -0.27670312,
          -0.4013275,
          0.49493527,
          -0.07281053,
          -0.9979836,
          -0.18680906,
          -0.7930931,
          -0.1797409,
          0.08431053,
          -0.727468,
          -1.6073009,
          0.87345326,
          0.86296916,
          1.0586147,
          -0.84475446,
          -0.49793553,
          -0.33787465,
          -1.2872542,
          0.27857327,
          -0.81193554,
          -0.3002553,
          0.81478524,
          0.3262229,
          0.254763,
          0.4752636,
          0.31576204,
          -0.23324502,
          1.4918181,
          1.0815289,
          -0.62600625,
          -0.4013697,
          -0.5499115,
          -1.0134046,
          0.11917949,
          1.116383,
          1.1934288,
          1.1521152,
          -0.39490974,
          0.05659783,
          -0.24021101,
          0.55986786,
          1.154258,
          -0.054559708,
          0.7187053,
          -0.8286618,
          0.95019233,
          0.34626138,
          0.11903167,
          -1.0892639,
          -0.87068737,
          -0.20950127,
          -0.7945478,
          -0.97123003,
          -0.75445366,
          -0.31367588,
          0.27356958,
          -0.18736053,
          0.8557838,
          -1.498774,
          0.10612166,
          -0.67013013,
          -0.40319848,
          -0.12322521,
          0.20729494,
          -0.49859405,
          0.75822556,
          0.6198871,
          -0.13582933,
          -0.826658,
          -0.10442281,
          -1.1332513,
          -0.5579674,
          0.19814098,
          -0.6775155,
          -0.05284798,
          0.879807,
          -0.6496079,
          0.38110304,
          -0.3605188,
          0.0652194,
          -1.1528466,
          -0.6339085,
          -0.30931485,
          -1.1546276,
          -0.45552015,
          0.09303498,
          1.3986125,
          -1.4729277,
          1.0436908,
          -0.6525277,
          -0.556141,
          1.5988518,
          -0.0082291365,
          0.22920847,
          0.9048238,
          0.21857381,
          -1.0951647,
          -0.4397627,
          -0.81865585,
          -0.40402102,
          -0.49720526,
          0.85149205,
          0.29124212,
          -1.6453909,
          -0.16043293,
          0.19190848,
          -0.908252,
          0.2779709,
          0.002931714,
          0.04478216,
          -0.9164945,
          0.8842963,
          -1.1667973,
          0.33833802,
          -0.7267132,
          0.47861838,
          0.8902159,
          0.56615806,
          -0.44178534,
          -0.17376745,
          -0.020154357,
          0.4603716,
          0.9542891,
          1.2798209,
          -0.11599302,
          0.5702528,
          0.20667422,
          -0.0357877,
          -1.1205882,
          -0.012858868,
          0.24836338,
          0.7998892,
          0.24874067,
          0.5811683,
          0.58644295,
          -1.3604054,
          1.033719,
          -0.45930016,
          0.7581345,
          0.08247459,
          -0.6816567,
          -1.2846762,
          0.24882114,
          -0.13906789,
          -0.1710056,
          -0.5692309,
          -1.3950624,
          0.53412354,
          1.0230728,
          -0.15781903,
          0.6558093,
          1.4354507,
          0.1653769,
          0.5385673,
          -0.836269,
          -0.5404322,
          0.23662865,
          -0.80636454,
          1.0873145,
          -0.9228499,
          1.1176202,
          -0.3407526,
          0.081647396,
          -0.69287205,
          -0.13183844,
          -0.09226072,
          0.08146894,
          1.042132,
          0.12206769,
          0.6743907,
          -0.5790237,
          1.1033789,
          -0.0201298,
          1.4045814,
          0.12283754,
          -0.2728287,
          -0.26894033,
          1.1106387,
          -0.2182256,
          0.97139037,
          -0.23283899,
          0.8725463,
          0.99942124,
          0.24940836,
          -0.51268446,
          0.62163126,
          0.7518952,
          -0.26109982,
          0.4608873,
          1.1248859,
          0.50001,
          -1.0479766,
          -0.25877106,
          -0.72793865,
          -1.0267177,
          0.5557076,
          0.51366055,
          -0.2811458,
          0.25900793,
          1.2199812,
          -1.1417192,
          0.64750016,
          1.2556441,
          -0.8071557,
          0.48752248,
          0.61482644,
          -1.4320836,
          1.6819566,
          -0.5541992,
          -0.19017768,
          -0.8351102,
          0.39662623,
          1.0275679,
          1.0046538,
          -1.0238994,
          0.6379769,
          0.5813767,
          1.3127208,
          0.79068506,
          -0.062636256,
          -0.18541384,
          0.30003083,
          1.2545676,
          -1.2380846,
          -1.1197233,
          -0.8928894,
          0.79787004,
          0.8070128,
          0.94187605,
          0.24686372,
          0.95118,
          -0.63485813,
          0.2783469,
          -0.075371265,
          -0.5460739,
          0.16410398,
          -0.94963264,
          -0.5506098,
          -0.24817908,
          0.36616337,
          0.0989548,
          1.1271267,
          0.3121066,
          -0.08951342,
          -0.9419296,
          -0.6791799,
          0.13971913,
          -0.06827772,
          -0.9828745,
          0.3263086,
          0.787627,
          0.19131851,
          0.90249085,
          -1.0644355,
          0.38938403,
          -0.21561635,
          0.25512302,
          -1.0137646,
          -0.034399867,
          1.2459512,
          0.103927255,
          -0.677384,
          0.28389692,
          0.5514058,
          0.54070306,
          1.1817278,
          -0.72183156,
          -0.10750127,
          -0.012519479,
          1.1691016,
          -0.37128747,
          1.3527837,
          1.0339339,
          -1.1817307,
          1.4546033,
          1.2385658,
          -1.0114728,
          0.2508837,
          -0.25511765,
          -0.5305625,
          -0.33827186,
          0.94306433,
          -1.0870169,
          -0.53460884,
          -0.13455808,
          -0.051961064,
          -0.5719019,
          0.72925365,
          0.13185823,
          0.8876401,
          0.18598819,
          1.0583816,
          -0.6037556,
          0.2320931,
          0.73487294,
          -1.0094695,
          -0.12632322,
          -0.67323124,
          0.8452513,
          -1.4518182,
          0.34175217,
          -0.90976083,
          -0.87765265,
          -1.0426302,
          0.6372427,
          -0.85615194,
          0.45546794,
          1.2487252,
          -1.027125,
          0.9489187,
          0.17627776,
          -0.12926602,
          0.37725437,
          -0.98315716,
          -1.4801303,
          0.36309302,
          0.5643859,
          0.6651472,
          1.2688943,
          0.9241508,
          0.811198,
          -1.0017068,
          -0.07375717,
          -0.8996701,
          -0.45882702,
          0.12935126,
          0.40065575,
          1.0861979,
          -0.19192207,
          -0.43654466,
          1.347783,
          -0.3664856,
          0.37247562,
          0.611181,
          -1.2964362,
          -0.38580227,
          0.07008481,
          1.0816501,
          -0.5320929,
          0.85258555,
          -0.44915676,
          -0.6528045,
          1.2066154,
          -0.13795626,
          0.50509834,
          0.29594266,
          -0.5529462,
          0.7138094,
          0.5013969,
          1.8528045,
          -1.0143535,
          1.1321731,
          0.6864532,
          0.0215168,
          -0.94455993,
          0.5002253,
          0.8028083,
          0.40996742,
          0.86753845,
          -1.126415,
          0.25399244,
          0.49378645,
          -0.5337595,
          0.036533713,
          0.023822546,
          -1.0472437,
          0.7247199,
          0.34877586,
          1.069715,
          -1.3449979,
          -0.7631278,
          0.13106585,
          -1.0105056,
          0.14079392,
          0.5855551,
          -0.47563148,
          0.35223234,
          -0.8112608,
          0.036672473,
          0.1396867,
          0.07755947,
          -0.74745786,
          -0.055275917,
          -0.04134822,
          -0.8945898,
          0.96687794,
          -0.7110808,
          0.67531514,
          0.08574903,
          0.63637805,
          0.13050771,
          0.07324004,
          0.7766086,
          -0.4309187,
          0.3427992,
          -0.13440299,
          -0.4445685,
          -1.4679224,
          -0.0816493,
          0.7326188,
          -0.90743613,
          0.9363612,
          -0.101248145,
          0.3666867,
          0.7355031,
          0.64350367,
          0.7195983,
          1.3738557,
          -0.3782394,
          0.74246216,
          0.8902997,
          -0.55926406,
          -0.33603036,
          1.1017948,
          -1.1809258,
          -0.6214777,
          -0.533535,
          -0.29526627,
          -0.90203154,
          -0.5495794,
          -0.17948258,
          -0.37646997,
          -0.611748,
          -0.9932467,
          -0.56301534,
          1.2888654,
          -0.7486578,
          0.40473402,
          -0.69534206,
          -0.5667089,
          -0.19949031,
          -0.24816322,
          1.0743879,
          0.20809531,
          -1.2649686,
          0.8982402,
          -1.1286861,
          0.83854043,
          1.1795734,
          -1.1067339,
          0.13920915,
          0.122894764,
          -1.4010576,
          -0.11816585,
          1.4707104,
          0.27506733,
          -0.25501347,
          -0.61207163,
          -1.3394508,
          0.020087242,
          -0.25881362,
          -1.2092083,
          -0.3017187,
          0.64886653,
          -0.8692725,
          -0.2506988,
          0.9963378,
          -0.3381524,
          -0.57139444,
          -1.1270903,
          -0.23709774,
          0.70715964,
          0.727896,
          -0.5216005,
          0.14885092,
          -0.8040855,
          -0.777298,
          -0.51142406,
          0.85693014,
          0.97073877,
          0.24615812,
          0.9956058,
          -0.3291006,
          1.1218369,
          0.9821087,
          -0.9916966,
          -0.5320368,
          0.65104365,
          0.8699858,
          -0.6149689,
          -0.40545654,
          0.12326634,
          -1.2143296,
          -0.46380782,
          -0.09420526,
          -0.44822896,
          0.74899936,
          0.39386773,
          -0.6076964,
          0.56981146,
          -0.1985116,
          -0.8967217,
          -0.38334858,
          -0.30195868,
          -0.04825008,
          -0.5878618,
          1.2246758,
          0.33729815,
          0.0647403,
          -0.052482247,
          -0.469741,
          0.18032277,
          0.17569089,
          1.4466801,
          0.4395957,
          0.60324025,
          0.0060966015,
          -0.66461647,
          -0.06163323,
          -0.13926113,
          0.41606236,
          0.9457432,
          -0.7689488,
          -0.1251868,
          -1.7766166,
          -0.73406935,
          -0.26046562,
          -0.99446285,
          0.15766263,
          0.14937091,
          0.15555012,
          0.51849115,
          0.36175787,
          -0.38255262,
          -0.063759685,
          -0.70808065,
          0.08571744,
          -0.9151089,
          1.3432866,
          0.86584353,
          0.09024143,
          -0.247504,
          0.18290484,
          -0.54126954,
          0.8401356,
          -1.0789335,
          1.0710702,
          -0.54946935,
          -1.823611,
          0.33921647,
          0.73501015,
          -0.845327,
          0.0064822435,
          -0.48693216,
          -0.10495162,
          -0.5253817,
          -1.3119274,
          -0.0033847094,
          -0.19856012,
          0.67022645,
          0.5423285,
          0.21606672,
          0.012955546,
          -0.20147586,
          -0.6603893,
          -1.3618046,
          0.68744636,
          -0.5806854,
          -0.5319389,
          -0.7213191,
          -0.1601938,
          -1.0422165,
          0.8980355,
          0.9769466,
          -1.4311478,
          0.1400981,
          -0.9148365,
          -0.3842224,
          -0.13073146,
          0.66826224,
          -0.47785664,
          -1.3986651,
          -1.330551,
          0.06436849,
          0.5374547,
          1.161042,
          -0.12130427,
          -0.45671403,
          -1.7615513,
          1.0749307,
          1.0664723,
          -1.4569844,
          -1.4936117,
          -0.51784647,
          -0.83997166,
          0.23715281,
          -1.5746458,
          0.23681998,
          -0.19936681,
          -0.203668,
          -0.5516248,
          0.92252374,
          0.6668924,
          -0.07025254,
          0.40143585,
          0.38014567,
          -0.12293506,
          -0.021861434,
          0.3180169,
          -0.76774406,
          0.5276574,
          0.1400708,
          -0.2253406,
          0.022646308,
          0.99376285,
          0.45417607,
          -0.18697274,
          -0.6499486,
          -0.21852148,
          0.7095963,
          0.23032296,
          0.6709616,
          0.6739725,
          -0.3123963,
          -0.083256364,
          0.24911535,
          0.60096705,
          -0.68739235,
          -0.20644033,
          0.3147415,
          1.2068509,
          -1.3040806,
          0.53038454,
          0.3356551,
          0.28564227,
          0.7994672,
          -0.41855347,
          0.37526584,
          0.25809157,
          -1.0084853,
          -0.48954415,
          -1.6959838,
          0.14363182,
          -0.15591013,
          -0.3573326,
          -0.5940988,
          -0.88763845,
          1.2373103,
          -0.0018662214,
          -1.127827,
          -0.94606686,
          -0.17606628,
          -1.3131707,
          0.48428893,
          1.0987643,
          0.98203194,
          0.60011506,
          0.5545263,
          -0.25715244,
          0.8167161,
          0.83474815,
          -1.5732098,
          0.018604875,
          0.34750724,
          -0.15810263,
          1.2489766,
          -0.0425694,
          0.076657414,
          -0.9898087,
          0.12896168,
          -0.7329229,
          -0.3082646,
          0.15489054,
          1.0110891,
          -0.15153527,
          -0.028672695,
          0.8212048,
          0.43990684,
          -0.6443138,
          0.35798025,
          -0.10861707,
          0.08315551,
          0.06945121,
          0.26841938,
          -0.5151967,
          0.42651558,
          -0.47453928,
          0.7470491,
          -0.69182336,
          -1.189155,
          1.0698117,
          0.84382904,
          0.42825508,
          0.59741735,
          -0.35517514,
          0.5013021,
          -0.56540537,
          -0.077809334,
          -0.28974867,
          -0.45434213,
          -0.6235821,
          -0.5040102,
          0.8524357,
          0.39852655,
          0.80355525,
          -0.4252708,
          -0.4160061,
          -0.43854606,
          1.3510818,
          -0.8363416,
          0.55862725,
          -0.18486798,
          -0.18691134,
          0.58912647,
          -0.36589026,
          0.19670379,
          0.677863,
          0.4053067,
          0.89572775,
          0.18817496,
          0.19496334,
          0.043849826,
          0.65562904,
          -1.1764292,
          1.5988376,
          0.4012202,
          1.2608476,
          -0.9809091,
          1.8059926,
          1.07192,
          -0.7220111,
          0.03231585,
          -0.051971674,
          -0.22073996,
          0.9380015,
          -0.011251688,
          -0.43406117,
          -0.48358262,
          -0.80633533,
          0.07516384,
          -0.21769595,
          -0.81190753,
          0.8309815,
          -0.121444464,
          0.46281648,
          0.6811763,
          0.58297074,
          -0.4544685,
          -1.2099452,
          -0.18029559,
          -0.011079788,
          0.699407,
          -0.19810236,
          -0.6034615,
          0.7570652,
          0.69181037,
          0.7473663,
          -0.24365854,
          0.18865359,
          0.17530906,
          -0.37433887,
          -0.51203763,
          -0.6810044,
          0.024568677,
          0.6684195,
          0.3514626,
          -0.2468909,
          0.29587185,
          -0.8871404,
          1.033788,
          -0.655903,
          -0.8369776,
          1.0964686,
          0.56209743,
          0.90921414,
          -0.66311324,
          0.74941444,
          -0.30490446,
          1.3692906,
          0.4117329,
          1.021898,
          0.92139053,
          -0.4278326,
          -0.286685,
          -0.72823846,
          0.4594108,
          0.2591262,
          0.1195004,
          1.0991046,
          -0.9162108,
          -0.18236995,
          1.1847744,
          0.7770102,
          -0.7772697,
          -1.2568002,
          0.544654,
          0.22450364,
          0.23574209,
          0.85761917,
          -0.30835223,
          0.43812072,
          0.1424663,
          -0.071914196,
          -0.7522124,
          0.6387737,
          -0.4346465,
          -0.315843,
          -0.41471183,
          -0.3506956,
          0.7424983,
          0.72332084,
          -0.60933673,
          0.5702983,
          0.43809998,
          0.20767963,
          -1.2850472,
          -0.010895371,
          -0.58187866,
          -0.23622096,
          -0.33264136,
          -1.3519876,
          -0.5462091,
          -0.607424,
          1.1568406,
          0.5605264,
          0.5360185,
          0.9744371,
          -0.5704024,
          1.3334084,
          0.46514606,
          0.09194982,
          -0.62222433,
          -1.1488922,
          -0.1260078,
          0.8063444,
          -0.67747164,
          0.7690767,
          0.15172231,
          -0.031088471,
          -0.52008,
          0.8197305,
          -0.2351836,
          -0.8973123,
          -0.4156047,
          0.16861284,
          0.8646214,
          -0.5304812,
          0.28391075,
          -1.1537881,
          -0.11977279,
          -0.71073365,
          -1.4364519,
          0.51005244,
          0.1677022,
          -0.45040154,
          1.1878221,
          -0.52202034,
          -0.612991,
          0.008906722,
          -0.6809473,
          0.027319431,
          -1.1937177,
          -0.03374183,
          1.2391875,
          0.10379696,
          -0.43508434,
          -0.426324,
          -0.07685435,
          0.77492774,
          0.92345583,
          0.35676706,
          -0.38575172,
          0.28697193,
          -0.032964468,
          -0.2965002,
          -0.1714642,
          0.31494677,
          0.016836286,
          0.5761496,
          -0.50033605,
          1.0069156,
          -0.7810757,
          -0.16436148,
          -0.98840964,
          0.68253946,
          -0.61729145,
          -0.51409125,
          0.032785177,
          0.3377452,
          -0.57163763,
          -0.09281397,
          0.84684265,
          -0.10664451,
          -0.3867445,
          -0.54861736,
          1.3443061,
          0.7505584,
          0.90887415,
          1.0610266,
          0.81471837,
          0.3810786,
          -0.45171463,
          -0.40428293,
          -0.96621835,
          0.095487,
          -1.0500939,
          -0.22941303,
          -0.3373202,
          0.0512352,
          1.346377,
          0.96112514,
          -0.08738577,
          -0.38987458,
          -0.4257276,
          -0.0913707,
          1.2340717,
          -0.99904466,
          -0.32665575,
          0.8267077,
          -1.2236903,
          0.67860353,
          0.06365013,
          0.4688021,
          0.118382215,
          0.43294835,
          0.8430412,
          -0.121334195,
          -0.36170983,
          -0.33979833,
          1.3584085,
          1.1372664,
          -0.079126835,
          -0.19648814,
          1.0569564,
          0.42194152,
          0.043542624,
          0.6092988,
          -1.0271497,
          0.9177463,
          -0.09387183,
          -0.3745172,
          -0.5449635,
          0.30764294,
          -0.1545217,
          0.69673693,
          -1.0688908,
          -1.5459423,
          0.65700555,
          0.3225509,
          0.6920006,
          -0.39332128,
          1.7764636,
          0.37702692,
          -0.34734714,
          0.39925802,
          -0.1258043,
          0.10333252,
          -0.34841704,
          -0.05922258,
          -0.9582466,
          0.000736475,
          -0.8006673,
          -1.0197625,
          -0.112901926,
          0.25312018,
          0.7797774,
          1.0577843,
          -0.2570691,
          1.1807564,
          0.17067516,
          0.3385464,
          -0.7568954,
          0.31926417,
          -0.8595015,
          -1.120045,
          0.886902,
          0.7885511,
          -0.55460095,
          0.16557443,
          0.607641,
          -0.16978061,
          0.76370263,
          -0.7906134,
          -0.27812457,
          -0.06572366,
          -0.09707844,
          0.7095072,
          -0.7504672,
          -0.9625864,
          -0.25538194,
          0.38827896,
          0.08703327,
          -0.9607662,
          -0.58487844,
          -0.35491538,
          0.38272083,
          -0.52834606,
          -0.47985053,
          0.7408805,
          0.17461812,
          0.52790153,
          -0.036709666,
          1.1256577,
          0.4096943,
          0.5842477,
          -0.325799,
          -0.8396572,
          0.45161963,
          0.6950617,
          -0.097136974,
          -0.014478207,
          -0.14569354,
          1.3238446,
          1.1096263,
          0.16729927,
          -1.1004562,
          0.33839667,
          1.2831216,
          -0.55683935,
          -0.9318049,
          1.2425878,
          0.026044607,
          0.7088852,
          -1.281451,
          -0.3916061,
          -0.8592603,
          0.41026664,
          0.12972486,
          -0.11615801,
          0.09544718,
          1.199337,
          -1.0021901,
          -0.83363485,
          -0.08965242,
          -0.55388796,
          0.82605267,
          -0.5663959,
          -0.5574534,
          -1.1450732,
          -0.46400023,
          0.492252,
          -0.71338713,
          1.1940298,
          0.21588945,
          0.7478299,
          0.1390338,
          0.35303044,
          -0.4828688,
          -0.3139969,
          0.06598449,
          -0.41822493,
          1.4324124,
          0.51966786,
          -0.0003836155,
          -0.25155258,
          1.0437933,
          -0.13013124,
          1.4669814,
          1.0087202,
          -0.07467842,
          0.77478945,
          0.24336994,
          -0.8094648,
          -0.04798305,
          -0.6721792,
          -1.0651013,
          1.2003968,
          0.15362036,
          -1.1588277,
          0.43518567,
          0.6210196,
          1.3361309,
          0.74885476,
          0.6659788,
          1.3708612,
          -1.1368965,
          -0.37198746,
          -0.3765123,
          -0.34748173,
          -0.08292496,
          0.20938313,
          -0.76236105,
          -0.50359845,
          0.57443285,
          0.27159274,
          -0.12032175,
          0.59429,
          -0.7180387,
          0.6835513,
          0.7401209,
          0.02927053,
          1.3038518,
          -1.281726,
          -0.73395836,
          1.1000351,
          1.1180696,
          0.26953197,
          -0.83924794,
          -0.7893553,
          0.54348874,
          1.1750605,
          0.33506823,
          0.2785672,
          -0.6316433,
          0.111318946,
          -0.8218776,
          0.6275345,
          1.1026274,
          -0.0664804,
          -0.44216585,
          -0.9069928,
          -0.3995074,
          -0.44040108,
          0.69123816,
          0.22687113,
          -0.3368081,
          0.16816413,
          -0.27778494,
          -0.3236388,
          0.22033799,
          0.9105929,
          0.28118026,
          -1.3825364,
          -0.45601296,
          -0.059343696,
          0.64346814,
          -0.81412756,
          0.5601492,
          0.5525416,
          0.6651509,
          0.53140914,
          1.0132424,
          0.6411679,
          -0.6449579,
          -0.028837442,
          0.27469456,
          -0.8450948,
          -1.0748988,
          0.8757081,
          -0.2578261,
          0.03251922,
          -0.23235798,
          0.06233239,
          0.54604197,
          0.9797796,
          0.19913733,
          1.7900599,
          -1.3844279,
          -0.25428367,
          -0.9345181,
          0.21685636,
          -1.236053,
          0.4834633,
          1.0703481,
          -0.5085645,
          0.21332145,
          -0.51702416,
          0.1366818,
          0.77815974,
          -0.5504705,
          0.17848969,
          -0.6150421,
          -0.13876164,
          0.13206708,
          -0.22223043,
          1.123195,
          -1.099535,
          -0.71855235,
          0.85409033,
          0.07844758,
          -1.573106,
          -0.39454663,
          0.18325984,
          -0.328277,
          -0.9357488,
          0.3022511,
          0.68222785,
          0.19754326,
          0.41707718,
          0.695837,
          -0.51329947,
          0.15272892,
          -1.544965,
          -0.41524136,
          0.9157231,
          -0.33805573,
          0.29229784,
          -0.6592051,
          -0.5455886,
          0.08559561,
          -0.20193994,
          0.9028307,
          0.7926549,
          0.08825374,
          -0.09342837,
          -0.27768874,
          -1.0565244,
          -0.978845,
          0.547595,
          -0.043780804,
          0.28439438,
          0.29710114,
          -0.41822386,
          -0.9901978,
          0.76889277,
          -1.243204,
          1.0281569,
          -0.39815366,
          0.71868587,
          0.014960289,
          -0.13648093,
          0.031360626,
          -0.20885849,
          -0.004577875,
          0.321759,
          -0.08822942,
          -0.71150553,
          1.3720609,
          -0.25471342,
          0.32156694,
          -0.4390459,
          -0.5474216,
          -0.67246735,
          -0.7781116,
          -0.027122498,
          1.1919417,
          -1.3866504,
          0.6760087,
          -0.22580612,
          0.14961982,
          1.06724,
          -0.38634408,
          1.2387478,
          0.6050581,
          0.22764993,
          -0.01606381,
          -0.016628385,
          0.74633455,
          -0.3595258,
          -1.0754405,
          -0.20231962,
          0.5591335,
          0.66104245,
          1.0820396,
          0.68411565,
          0.47254527,
          -0.2639569,
          0.69269824,
          0.67737865,
          0.6301489,
          -0.29623544,
          -0.80874586,
          1.0596635,
          -0.09065628,
          -0.8894355,
          0.05529225,
          -1.0456421,
          -1.080863,
          0.13437593,
          -0.019949317,
          0.38867712,
          -0.38408375,
          0.66016567,
          1.2639134,
          0.9216515,
          1.0857722,
          0.8795779,
          0.074013114,
          -0.52096117,
          1.0289488,
          0.38226783,
          0.37672997,
          0.32679188,
          -0.39597368,
          0.7595953,
          0.41835988,
          1.128445,
          -1.1252007,
          -0.9660574,
          -0.7863674,
          -0.20892107,
          1.2415904,
          0.0097408295,
          -0.20296288,
          -0.13669991,
          -0.19594038,
          0.481367,
          0.6735424,
          1.3002471,
          -1.137598,
          -0.4840716,
          -0.2848842,
          -1.2136984,
          0.32881343,
          -0.5961977,
          0.36221373,
          -0.8132435,
          -0.06104207,
          0.51646924,
          0.16723168,
          -0.7662692,
          0.9824513,
          -0.47020817,
          0.66313183,
          -0.7845235,
          0.43038774,
          0.047632217,
          -0.71916294,
          -1.0090734,
          -0.2170837,
          -0.5072582,
          -0.32332122,
          -0.7139727,
          0.26843262,
          -0.48531246,
          -0.3326342,
          0.82989216,
          -0.5052316,
          0.36579156,
          -0.11772525,
          0.14616323,
          0.9782249,
          -1.0859761,
          -0.91650414,
          -0.17674923,
          0.77646697,
          -0.47466445,
          0.45590067,
          -0.47021365,
          -0.0067754984,
          -0.27233505,
          -0.8848268,
          -0.43464243,
          0.28145313,
          -0.34934294,
          0.19898117,
          -0.04237473,
          0.10972047,
          -0.16530073,
          0.7205684,
          -0.68007493,
          -0.25786042,
          -1.3238205,
          -0.22706366,
          -0.21085382,
          -0.23827076,
          -0.3669865,
          -0.65356994,
          -0.439569,
          0.040554166,
          -0.17228162,
          0.5999435,
          0.18391502,
          -0.33066952,
          0.8845793,
          -0.79971445,
          0.73349285,
          -0.10938978,
          -0.52202535,
          0.017038584,
          0.566772,
          -0.14739275,
          -0.58192086,
          -0.5385294,
          1.3782486,
          0.55459225,
          -0.16162121,
          -1.1701516,
          0.61028445,
          0.84316695,
          0.8469635,
          0.40250683,
          -0.28203082,
          0.73932266,
          0.17625165,
          -0.24383152,
          -0.20127213,
          -1.13387,
          0.5834887,
          0.30504882,
          -1.290559,
          -0.50743866,
          -1.0482302,
          -1.1947731,
          -1.6118399,
          1.3065084,
          -0.699319,
          1.6141158,
          0.54781425,
          0.51593363,
          -0.5437826,
          -0.84828115,
          -0.059568644,
          0.24840176,
          0.7093302,
          0.890314,
          -0.054110527,
          0.52844965,
          1.1264997,
          1.0369118,
          -0.8140991,
          -0.3881545,
          -0.5727494,
          -0.88346076,
          -0.017616749,
          0.72772384,
          -0.17893624,
          0.14981663,
          0.078413725,
          -0.14058375,
          -0.7180532,
          -0.75235116,
          -0.09702504,
          -0.7311413,
          -0.23368037,
          -0.796545,
          1.1409122,
          1.6002766,
          0.49149418,
          -0.5034754,
          -0.8696078,
          -0.7455015,
          0.5767665,
          0.16564488,
          1.0448232,
          -0.23274076,
          -0.22507048,
          0.44505513,
          -0.11348498,
          -0.95071113,
          0.36057734,
          1.0871414,
          0.4055829,
          -0.0035618544,
          -0.6217977,
          0.6455487,
          0.15217698,
          0.28549767,
          0.45342112,
          0.8077496,
          1.099397,
          1.4690702,
          0.29268038,
          -0.49731553,
          0.1874026,
          0.78154397,
          0.17919469,
          0.1817416,
          -0.7632408,
          -1.2229743,
          -1.2872103,
          0.29788303,
          0.030552983,
          -0.16085637,
          0.47588873,
          0.4047631,
          -0.7412728,
          1.398287,
          0.9291147,
          -0.72443604,
          1.4920261,
          0.8303306,
          -1.2484589,
          -0.6930988,
          -0.48683918,
          1.1996384,
          1.0856464,
          0.84206426,
          -0.2247231,
          0.42610633,
          -0.31895995,
          -0.5600357,
          -0.01717627,
          -0.51636136,
          -0.9574969,
          0.20917082,
          -0.19872391,
          0.38829684,
          0.77986586,
          0.5937122,
          0.4013691,
          0.36402082,
          -0.016452909,
          -0.9194087,
          1.2350016,
          -0.6756451,
          -0.786374,
          1.0935078,
          0.016014814,
          -1.12584,
          -0.3028332,
          -0.6666126,
          -0.89428616,
          0.869653,
          0.066104054,
          -0.8038695,
          1.2851193,
          -1.446464,
          0.21050858,
          0.025436878,
          -0.77187765,
          -0.3818717,
          -0.120886564,
          -0.50031364,
          -0.43583202,
          -0.61335075,
          0.4908074,
          0.4163022,
          0.8928013,
          0.9204228,
          -1.0896866,
          -0.12734485,
          -0.023432255,
          -0.11872184,
          0.7032294,
          -0.52244675,
          0.38075292,
          0.61190677,
          0.9254079,
          -0.1687355,
          0.1564138,
          -0.9971092,
          -0.038899302,
          0.15287781,
          -0.16500604,
          -0.10996187,
          -0.028916001,
          -1.2645854,
          -0.48845744,
          -1.7205546,
          0.013900161,
          0.23590648,
          0.5003017,
          0.24878049,
          -0.66767955,
          -0.37477803,
          0.587034,
          0.28579783,
          0.22635746,
          0.58650696,
          -0.019111514,
          0.13377309,
          -0.030654907,
          -0.5512155,
          0.4469148,
          0.6165235,
          0.32292616,
          -0.4560442,
          0.43555737,
          -0.48985112,
          -1.1874193,
          -0.3824345,
          -0.5595521,
          1.0926235,
          -0.059937477,
          0.96897674,
          0.54842937,
          0.8552512,
          -0.69815886,
          1.2077452,
          0.45679832,
          0.8992405,
          -1.5985696,
          0.4098816,
          0.6414015,
          -1.0176965,
          0.9999176,
          0.60545826,
          -0.9998977,
          -0.038336158,
          0.6903281,
          0.27391827,
          0.08257222,
          0.6602055,
          0.22121406,
          0.37451077,
          0.38058448,
          1.5681423,
          0.84611535,
          0.5657717,
          0.88780844,
          -0.1366334,
          0.27079082,
          -0.32277918,
          -0.6569271,
          -0.9406494,
          -0.27298093,
          -0.11020553,
          0.12419939,
          -1.2235477,
          0.24231517,
          0.94579244,
          -0.52492225,
          -0.764179,
          -0.6545167,
          0.09440422,
          0.31012774,
          0.33262587,
          -0.38855493,
          0.5794914,
          0.021083236,
          0.47001028,
          0.06754506,
          -1.4021432,
          1.279888,
          0.14710999,
          -0.8267249,
          -0.29320717,
          0.22320044,
          -0.9095532,
          -0.18558645,
          0.05137372,
          -0.82082343,
          1.150236,
          -0.35776067,
          -0.51722264,
          0.20399725,
          -0.19105887,
          -1.0957845,
          0.16254866,
          0.51048064,
          -0.99530196,
          0.6898807,
          -0.16938257,
          -0.49110222,
          -0.84102225,
          0.5902902,
          -0.13216686,
          -0.065238476,
          -1.4232008,
          0.328498,
          -0.086117625,
          -0.43626213,
          0.20010841,
          -0.4905622,
          -0.63784146,
          -0.03612089,
          -0.10803497,
          0.36414444,
          -0.69562185,
          -0.21319818,
          0.29860127,
          -0.57752466,
          0.11340904,
          -0.6918156,
          0.33548367,
          0.8784344,
          -0.03768277,
          -0.2584232,
          -0.6594173,
          0.8593612,
          0.72574425,
          -1.149582,
          0.25321496,
          -0.06936765,
          0.8746886,
          -0.088263154,
          -0.25086057,
          -0.16902316,
          -0.01573813,
          0.62005544,
          0.84666324,
          0.16661084,
          -0.6324903,
          -0.23202229,
          -1.5703574,
          1.1023493,
          0.37142658,
          -0.7983062,
          -0.6446235,
          -0.22059548,
          0.009686351,
          -0.6856376,
          0.1382339,
          1.0781361,
          0.74446976,
          -0.28812587,
          0.2267505,
          -0.7735058,
          1.1827898,
          0.7855216,
          -0.4035641,
          0.9255738,
          -0.6673975,
          0.35040522,
          0.9272047,
          0.9198345,
          -0.7544962,
          0.72648036,
          0.018679142,
          -0.6144849,
          0.9182929,
          0.33179533,
          -0.16593981,
          -0.2834381,
          -0.3991902,
          -0.89502466,
          -0.584479,
          1.0524329,
          -0.78807235,
          0.71144855,
          -0.13603199,
          -0.5595008,
          -1.03875,
          0.35743952,
          0.7111285,
          -1.6021612,
          0.3329333,
          -1.0878259,
          -0.448817,
          0.3438102,
          0.41976595,
          0.015960336,
          0.5770103,
          -0.6581876,
          -0.386006,
          -0.16069508,
          -0.087705374,
          0.6112559,
          -0.26400626,
          -0.7535734,
          -0.93283224,
          0.4912411,
          -0.12762856,
          -0.2660705,
          0.38583207,
          1.346982,
          -0.62408364,
          -0.043082356,
          1.4175441,
          0.044141173,
          0.15455067,
          0.8405323,
          -0.057540417,
          1.3213577,
          -1.1581011,
          0.16093564,
          -0.057938695,
          -0.30141783,
          1.0977992,
          -0.80184364,
          -0.34907186,
          -0.30670297,
          1.0569223,
          0.08603358,
          -0.8014704,
          -0.3049562,
          0.99048924,
          -0.84801364,
          -0.341264,
          0.22201085,
          0.8279574,
          -1.3372113,
          1.1884823,
          0.8335568,
          0.8041637,
          1.5948919,
          -0.948863,
          -0.062187195,
          0.6061492,
          -0.5128027,
          -0.8902434,
          1.2902428,
          -0.25082994,
          -0.5535667,
          -0.45145583,
          -0.2301215,
          0.4162668,
          0.57793105,
          -0.8911263,
          -0.6395297,
          0.6209476,
          -0.48080778,
          1.2913605,
          -1.1672949,
          -0.5473268,
          1.6645628,
          -1.2374438,
          -0.32908738,
          -1.0627414,
          -0.4241835,
          -0.6375544,
          0.101309896,
          -1.5508182,
          0.16095018,
          1.0908766,
          0.060783982,
          -1.3652627,
          -0.56369185,
          0.6183846,
          1.1673526,
          -1.1283371,
          1.132241,
          -0.75734437,
          -0.572803,
          0.22666621,
          0.055303454,
          0.91948557,
          -0.31391442,
          -0.8973377,
          0.7275045,
          0.638553,
          0.87541795,
          -0.7910943,
          -0.9727974,
          -0.6337495,
          -0.22434115,
          -1.1652254,
          0.52185345,
          0.0013656616,
          -0.6341163,
          0.28667235,
          0.9168409,
          -0.9672754,
          0.060266376,
          -0.6142254,
          -0.4569385,
          0.008158207,
          0.33868754,
          0.4380628,
          0.5578785,
          0.4906106,
          0.12783313,
          -0.8098105,
          0.8421422,
          0.69665754,
          -0.7566049,
          -0.39405572,
          0.71685827,
          0.58118033,
          -0.778342,
          -0.30946875,
          0.4411614,
          0.31611276,
          1.457508,
          -0.63533676,
          0.1055398,
          0.46084785,
          0.12149477,
          0.49815834,
          0.7035519,
          -0.77610064,
          -0.05750501,
          -0.2791853,
          -0.58912635,
          -0.1754806,
          0.17167056,
          -0.17258346,
          -0.40820062,
          0.55048466,
          0.8573158,
          1.2480735,
          -0.65294826,
          0.42677534,
          0.3153491,
          0.25636947,
          0.10667789,
          -0.71362877,
          -0.5539627,
          0.7759738,
          0.2875998,
          0.47724378,
          -0.13991618,
          0.4795934,
          -0.7918638,
          -0.101682544,
          -0.07023573,
          1.2513812,
          -0.49789166,
          -0.06611097,
          -1.0561128,
          -0.9719889,
          0.99445796,
          -1.0142931,
          0.4708544,
          -0.8822068,
          0.19068134,
          -0.39112687,
          -0.9513453,
          -1.3749977,
          0.17834127,
          -0.12248039,
          0.21118641,
          0.72480404,
          0.4934652,
          0.74258626,
          0.43860888,
          -0.5799657,
          0.25000393,
          0.96867347,
          -1.6037209,
          1.0994543,
          0.0906961,
          0.17340887,
          -0.6197475,
          0.44884002,
          0.035698652,
          0.39982903,
          0.375041,
          -0.26764202,
          1.0908214,
          1.4907258,
          0.69712234,
          -0.83997715,
          -1.0497184,
          0.42927635,
          -1.2255026,
          1.1727257,
          -1.4518875,
          0.5411291,
          -0.27273703,
          1.7673388,
          0.605695,
          1.518119,
          -0.3427323,
          -0.21400774,
          -1.0128442,
          -0.00558424,
          -0.27234185,
          0.43825817,
          -1.0069326,
          0.6224761,
          -0.6407622,
          0.12655187,
          0.035357237,
          -0.90374935,
          -0.6021123,
          -0.611557,
          -0.6240066,
          0.0033584833,
          0.38893652,
          0.629977,
          0.12526453,
          -0.24037421,
          0.5584935,
          -0.50350213,
          -0.63665485,
          -0.047872424,
          -0.34869695,
          -0.4600917,
          -0.6701956,
          -0.49581742,
          -0.7930641,
          -0.94718254,
          -0.08729601,
          0.08923185,
          -0.30130887,
          0.21724927,
          0.48298955,
          1.221227,
          0.4078977,
          -0.057763815,
          -1.3737473,
          -0.33812594,
          0.00820446,
          0.38578618,
          -0.050530195,
          -0.8826541,
          -0.75471854,
          -0.9691559,
          -0.7258452,
          0.9378556,
          0.020036459,
          0.10015297,
          1.4287404,
          -0.5269307,
          -0.412791,
          -0.29729986,
          -0.33691978,
          -1.1471361,
          -0.1011076,
          0.2591045,
          -0.22821367,
          0.8041011,
          0.53994286,
          0.43150485,
          -0.9197341,
          -0.069565415,
          1.1969413,
          -0.33247805,
          -0.30780816,
          -1.1775532,
          0.31633282,
          0.56703043,
          -0.2198844,
          0.92472315,
          -0.50274825,
          -0.93632126,
          0.94613886,
          -0.857442,
          -0.34727776,
          -1.0384061,
          0.8760003,
          0.114424706,
          0.5721607,
          0.029365182,
          -0.2961601,
          -0.8965739,
          0.6629422,
          -0.6182054,
          0.08425951,
          0.4180585,
          -0.64362204,
          0.54934025,
          0.07767522,
          -1.3085624,
          -0.061898828,
          1.019843,
          1.05401,
          -0.09580231,
          0.5517281,
          -0.42078197,
          -0.07112372,
          1.0168608,
          -0.8492335,
          1.1272287,
          -0.47484243,
          0.8758267,
          -0.18331397,
          -0.14328122,
          0.12701058,
          0.103863955,
          -0.6925359,
          1.6233737,
          -0.83226097,
          -0.15472913,
          0.69749415,
          -0.5414703,
          0.84408104,
          -0.12788486,
          0.90801835,
          -0.7971194,
          -0.025262475,
          0.36163545,
          -0.81975746,
          -1.3560898,
          -0.07844782,
          -1.6431277,
          -0.57066894,
          0.28944433,
          -1.563851,
          0.13019419,
          -0.3172711,
          -0.87456465,
          -0.02357173,
          0.06518638,
          0.68163943,
          -0.5340513,
          0.8359252,
          0.021824121,
          1.4846226,
          0.90226984,
          -0.92415214,
          0.38132071,
          -0.61191356,
          1.1591337,
          0.00075244904,
          1.074215,
          0.12434554,
          1.6648431,
          1.0527103,
          0.19386983,
          0.21938789,
          0.55345464,
          0.7219696,
          0.13333404,
          0.7621175,
          1.1705896,
          1.4287587,
          0.06859863,
          0.35923886,
          -0.7273469,
          0.22730577,
          -0.05204928,
          -0.22949469,
          0.48898268,
          -0.5824549,
          -0.4056983,
          -0.8205333,
          1.2672486,
          -0.13223314,
          0.16571426,
          0.39415348,
          -0.81968,
          0.051388383,
          0.30943787,
          -0.4723345,
          -0.88607574,
          0.2026701,
          -0.499516,
          -0.19320345,
          -1.0736283,
          -0.90817297,
          -0.2997061,
          0.6493138,
          0.47096825,
          0.24686623,
          1.1591212,
          0.90608335,
          -0.031056166,
          -0.838838,
          -0.07825434,
          -1.1587868,
          0.33603764,
          0.02323246,
          0.38184714,
          0.52048457,
          0.72351384,
          -0.14641416,
          -0.53737366,
          -0.033096552,
          -0.25443208,
          0.6400492,
          -0.17844558,
          1.3198049,
          0.7667079,
          0.65810966,
          0.6148536,
          -0.054080606,
          -0.12488568,
          0.33556545,
          -0.64012253,
          0.18896854,
          -0.5761838,
          -0.25221705,
          0.9350344,
          -0.6702392,
          0.09979057,
          0.78581035,
          0.5583283,
          0.38383687,
          -0.6273564,
          0.64092934,
          0.8875272,
          -0.8049394,
          -0.27553248,
          0.6709858,
          -0.20634496,
          -0.21659064,
          0.45647562,
          -0.85141194,
          1.1354125,
          1.0105975,
          -0.4983251,
          -0.7408745,
          -0.753523,
          -0.62547207,
          0.006885171,
          0.8630272,
          0.45748568,
          1.3497553,
          -0.317829,
          0.31213343,
          0.0669353,
          0.60471165,
          0.26167643,
          -0.3367951,
          -1.5226578,
          0.66327786,
          -0.435681,
          0.07517123,
          1.504573,
          0.64683473,
          -1.4314678,
          -0.7899107,
          -0.040831804,
          0.33439076,
          0.526314,
          -1.0222859,
          -0.71891344,
          -1.3462158,
          0.03576553,
          1.4463319,
          -0.6692469,
          1.0875537,
          -0.21094453,
          0.26229584,
          0.052099347,
          -1.0838331,
          0.92829585,
          0.56511784,
          0.6837106,
          -0.76789343,
          -0.236063,
          1.2859402,
          -1.0544366,
          -1.3472806,
          0.44091868,
          -1.0916027,
          0.38069975,
          0.07596612,
          1.1650624,
          -0.82218146,
          0.5039822,
          0.95573115,
          0.6697842,
          -1.4847234,
          0.04941857,
          -1.1578062,
          -0.25964153,
          0.3715105,
          -0.9073838,
          -0.45226932,
          1.3577538,
          -0.33952665,
          -0.31888676,
          -0.63336027,
          0.10584164,
          -0.49516976,
          0.21927917,
          0.58698535,
          -0.64826274,
          0.749045,
          -1.025335,
          1.1955184,
          0.7706851,
          -0.19578278,
          -0.8967701,
          0.45559466,
          -1.6473378,
          0.57964575,
          -0.32731056,
          -0.29768062,
          -0.8301449,
          -0.32451367,
          0.006466508,
          0.5288209,
          -0.6052481,
          1.3010451,
          1.2288878,
          0.25781643,
          0.9634783,
          0.4755484,
          0.6011213,
          -0.17713249,
          0.68938863,
          -0.62153614,
          0.005956292,
          0.23669195,
          0.024474025,
          -1.4480431,
          -0.02804482,
          0.48543835,
          0.27283442,
          0.23959863,
          -0.4408809,
          -1.1221105,
          -1.1823103,
          1.2895355,
          -0.24840224,
          0.89373267,
          0.21498299,
          -0.78978395,
          0.06303406,
          0.43205154,
          -1.7994746,
          0.3003205,
          -0.14217603,
          -0.17863226,
          0.90677774,
          0.75788975,
          -0.7090459,
          0.903227,
          0.82530355,
          0.090898514,
          1.3285534,
          1.0700849,
          0.08923638,
          -0.070335984,
          0.44203818,
          0.025653481,
          -1.3510563,
          1.0308506,
          0.07147813,
          -1.0316405,
          -0.061247468,
          -0.33137548,
          0.8425411,
          -0.0352329,
          -0.35704434,
          1.1588441,
          0.21788621,
          -0.7070302,
          0.031813383,
          1.2028296,
          -0.14765346,
          -0.5004139,
          1.0943779,
          1.0216784,
          0.40731227,
          0.42095459,
          -0.052170753,
          -1.3359952,
          0.8238008,
          -0.4164375,
          0.5658932,
          0.79778326,
          -0.114699006,
          -0.0077900887,
          -1.0169585,
          0.73939,
          0.7341068,
          0.8840616,
          -0.08646774,
          0.6189915,
          -1.3397478,
          -0.04355514,
          0.3168615,
          0.6797483,
          0.77350664,
          -0.21831596,
          0.7604208,
          -0.4264084,
          -1.2457414,
          -0.25458276,
          0.5551027,
          -0.06376791,
          0.6072577,
          0.7377852,
          -0.92946684,
          0.39092696,
          -1.4816325,
          -0.10371196,
          0.041298866,
          0.022886753,
          0.42470717,
          0.62530386,
          -0.12478042,
          -0.999951,
          -0.19367099,
          0.6348697,
          0.8288193,
          0.81855583,
          0.7267294,
          0.14978814,
          0.77498126,
          -0.24332416,
          0.88520753,
          -0.48943555,
          0.74947524,
          0.76389027,
          0.8442311,
          0.0034748316,
          -0.60096824,
          -0.6249385,
          -0.7336482,
          -1.3911211,
          -0.9904661,
          -0.16730702,
          0.44878018,
          0.21356237,
          -0.7618431,
          -0.26671755,
          -0.27197504,
          -0.58186316,
          -0.6480478,
          0.53904974,
          -0.8240969,
          0.23171341,
          1.2605575,
          0.12126267,
          -1.251447,
          -0.43088162,
          -1.4602942,
          0.645887,
          0.67331743,
          -0.61853373,
          -1.0864186,
          -0.35149932,
          -0.23021686,
          -0.30459273,
          0.46426344,
          0.595592,
          -0.9985602,
          -0.6517345,
          0.6354468,
          0.42265832,
          0.02770698,
          -1.17868,
          -1.3711308,
          -0.46265268,
          -0.25205004,
          -0.85342836,
          1.2109041,
          0.33139336,
          -0.18551338,
          0.3698151,
          0.7222738,
          0.12500417,
          -0.75951004,
          1.0391914,
          -0.5119926,
          -0.679317,
          -0.86863303,
          -0.43728352,
          0.45614624,
          0.3458537,
          -1.433817,
          -0.97204685,
          -0.5142906,
          -1.1366017,
          -0.83146274,
          -0.07328606,
          -0.3849672,
          0.07910633,
          0.24931479,
          -0.88494956,
          0.45226526,
          1.5066462,
          1.6965818,
          0.7504102,
          -0.31998467,
          -1.3111674,
          -0.49314904,
          0.4793167,
          0.3585559,
          -0.8979316,
          0.28484213,
          0.15332985,
          0.25651646,
          -0.14838588,
          -0.287282,
          0.7752274,
          0.2621752,
          0.15014136,
          0.09974122,
          -0.3883115,
          -0.77076304,
          1.3844761,
          -0.1340183,
          0.7781521,
          -0.89311993,
          0.3159529,
          0.7706586,
          0.8363066,
          0.64801025,
          0.60218465,
          -0.707392,
          -0.31901586,
          0.044996977,
          -1.2028478,
          0.14589632,
          -0.51584065,
          -0.2499845,
          0.7600914,
          -0.24667084,
          -0.8037404,
          -0.22371829,
          0.20531476,
          -0.1842252,
          1.4648408,
          -1.241074,
          -0.97576404,
          -0.52360666,
          0.3337221,
          -1.4443675,
          1.6920567,
          -0.49288714,
          -1.0222661,
          0.6505302,
          0.2745167,
          1.0629966,
          0.14517593,
          0.45854652,
          1.0986129,
          -0.717978,
          -0.9806137,
          0.29238188,
          0.34410262,
          0.26209342,
          -0.19087613,
          -1.0398916,
          0.13589454,
          0.4051937,
          0.47371268,
          -0.16201413,
          0.891263,
          -0.26479614,
          0.25262594,
          0.5986639,
          0.08933139,
          0.3146689,
          -0.762578,
          0.61405337,
          -0.19449937,
          0.5454699,
          1.0016103,
          -0.97090924,
          1.0132682,
          1.2272753,
          -1.2029723,
          1.1676806,
          -0.042583823,
          -0.086861014,
          1.0741785,
          -0.15452635,
          0.90867877,
          -0.111086965,
          -0.12094104,
          0.38244975,
          0.344355,
          0.5209764,
          -0.6172701,
          -0.02914846,
          0.052673936,
          -0.13508844,
          -0.5063677,
          -0.018568754,
          1.7931017,
          -0.68590295,
          -0.43511736,
          0.19936419,
          0.24420989,
          1.5543009,
          -0.5280242,
          0.029045105,
          0.6126168,
          -0.40089226,
          1.0059164,
          0.90696347,
          -0.3664515,
          0.86436677,
          -0.13493776,
          0.9945438,
          -0.06753719,
          0.36817372,
          0.30540848,
          -1.0395404,
          0.5225221,
          0.07463884,
          0.64099765,
          0.14123285,
          -1.3649776,
          1.5340444,
          -0.41622794,
          -0.3501073,
          1.2099669,
          0.13729095,
          -0.43090165,
          -1.6079311,
          -0.69669116,
          0.35456824,
          0.17755139,
          1.0247138,
          -0.2746173,
          1.2775326,
          1.3344635,
          -0.54087806,
          -0.10697806,
          -0.6737803,
          0.91049397,
          1.4310114,
          0.3507905,
          -1.2813786,
          -0.51495886,
          0.6958338,
          0.2232225,
          -0.11062908,
          -0.21764314,
          -0.12540019,
          -0.082368135,
          -0.4232124,
          1.2819148,
          0.82884336,
          0.6186509,
          0.85230684,
          0.63134444,
          -1.1540918,
          0.25172496,
          0.956372,
          0.5405886,
          -0.25769305,
          0.3497498,
          -0.26193774,
          0.10170221,
          1.4656377,
          0.8918321,
          -0.36394882,
          0.17358398,
          -0.23760521,
          0.010512948,
          1.4263726,
          0.6825237,
          0.3933828,
          0.50142205,
          0.14659452,
          0.83567,
          0.3854853,
          1.0214589,
          0.07508409,
          -1.0177865,
          -1.246457,
          -0.6717676,
          -1.5237135,
          0.8116199,
          -1.0746298,
          0.14581406,
          -1.0416901,
          0.09766424,
          -1.072956,
          0.102697015,
          0.5412401,
          -0.9181982,
          -1.0851071,
          0.14753962,
          1.5366652,
          0.71584284,
          0.9384148,
          -0.3849883,
          0.054384828,
          0.36470878,
          -0.43730533,
          -0.4080348,
          0.53236973,
          0.2797656,
          -0.10172653,
          -1.141336,
          0.9024751,
          -0.15698063,
          0.51842296,
          1.2674335,
          -0.46086264,
          1.3062962,
          0.4116068,
          0.9938201,
          -0.38108277,
          0.19249666,
          -0.2651267,
          -0.8681605,
          -0.6380216,
          0.31228077,
          0.13978815,
          0.32596278,
          -0.40559208,
          -0.6063769,
          0.27148497,
          0.40494573,
          0.9079814,
          0.21483064,
          0.53781986,
          0.7262093,
          0.97541296,
          0.9107249,
          0.94195914,
          0.6084353,
          -0.39693117,
          -0.5722587,
          -1.3094337,
          -0.17068732,
          0.31071615,
          0.1187439,
          -1.1995623,
          -0.36151552,
          0.73657763,
          0.27494752,
          -0.95974576,
          0.18918562,
          1.1354561,
          1.1665592,
          -0.008229971,
          -0.032845736,
          -1.1844872,
          0.84673333,
          -1.2827594,
          -1.2053934,
          0.2409184,
          0.124643326,
          -0.7392118,
          0.20365524,
          0.4439342,
          1.1275278,
          -0.044118047,
          -0.10091078,
          -0.37456012,
          -0.35009897,
          -0.41301644,
          0.13444161,
          -0.2118398,
          -0.53886354,
          0.45927656,
          -0.3314818,
          0.17769098,
          -1.4163121,
          -0.83471525,
          0.16295528,
          0.09811962,
          0.6303464,
          0.39557898,
          -0.0043331385,
          0.042684317,
          -0.5261401,
          -0.891256,
          -0.5918827,
          1.7832357,
          -0.4528085,
          0.11686659,
          0.39875853,
          -1.4454235,
          0.068582654,
          0.25681162,
          0.8313595,
          -0.026067495,
          0.46723902,
          -0.3422805,
          0.4704697,
          -0.08356035,
          -0.1073271,
          -0.43274236,
          0.39607537,
          0.785565,
          -0.3332907,
          0.15003848,
          -0.9616604,
          0.5923927,
          0.18192339,
          0.93711317,
          1.2978802,
          -0.7082013,
          -0.14337754,
          0.8091825,
          -0.9378382,
          -0.35355067,
          -0.6902516,
          -0.66007996,
          0.20923257,
          -0.0254035,
          0.08081353,
          0.86186826,
          0.04271972,
          0.6122688,
          -1.085513,
          1.30614,
          0.6714716,
          0.046643257,
          1.0637742,
          0.24741924,
          -0.022048235,
          0.550859,
          -0.087236285,
          0.027786136,
          1.3846236,
          1.174543,
          0.12112105,
          -1.4690313,
          -0.6132908,
          0.35124922,
          -0.16295111,
          0.45013046,
          0.68688715,
          -0.4703182,
          -1.1434039,
          0.6921327,
          1.3801186,
          1.0725107,
          -0.51393044,
          0.22209811,
          -0.518191,
          -0.61627054,
          -0.6310972,
          -0.33602476,
          -0.70943975,
          0.26062047,
          -1.0611742,
          0.32727826,
          -0.26729524,
          -0.5397544,
          -0.8637104,
          -0.47078848,
          -0.8909495,
          -0.0052427053,
          0.6170875,
          0.21189761,
          -0.2918768,
          -0.3280362,
          1.7824942,
          0.49548674,
          0.36226916,
          -0.5372231,
          -0.72288406,
          0.368883,
          0.46378672,
          -0.3460741,
          1.2835017,
          -0.35026693,
          -0.6875138,
          -0.28012002,
          0.5455682,
          -0.79590595,
          -1.3124259,
          1.252431,
          -1.0038205,
          -1.057117,
          0.45235872,
          -0.1194576,
          -0.44762444,
          -0.73433924,
          0.091118455,
          0.19853783,
          -1.2690583,
          1.7161943,
          0.53438234,
          0.30925226,
          -0.92896044,
          0.57758284,
          -0.05471599,
          0.13729978,
          0.98027813,
          0.44338858,
          0.5097934,
          1.108932,
          -1.0801162,
          0.089343905,
          -0.28023684,
          1.5932754,
          0.2579149,
          0.59299123,
          -1.5942389,
          -0.28406107,
          1.3992981,
          0.7970532,
          1.4454294,
          -0.49393177,
          -0.8089286,
          -0.7976297,
          1.6693158,
          -0.4589932,
          -0.8304659,
          -0.537995,
          0.7029979,
          0.109963655,
          0.73469305,
          0.02240789,
          -0.10150397,
          0.9844371,
          -0.9082378,
          0.9364518,
          0.6622709,
          -0.49782586,
          1.0261568,
          -0.40221024,
          0.45449567,
          0.9226632,
          0.6030146,
          0.058216214,
          1.4062815,
          -0.8300152,
          0.7386267,
          0.5489881,
          0.9725038,
          0.17234349,
          -0.71392536,
          0.7182497,
          0.14767301,
          -0.9075247,
          0.30080664,
          0.63810384,
          -1.1918508,
          -0.80381346,
          0.77056193,
          -0.21128583,
          0.17447841,
          0.44454932,
          1.0106175,
          1.0633515,
          0.8625233,
          0.41747093,
          1.015191,
          -0.97422135,
          -0.2920699,
          -0.25595915,
          -0.58239615,
          1.2573122,
          -0.8670993,
          0.68175304,
          1.2381837,
          0.25489414,
          -0.24261248,
          -1.3502353,
          -1.1806595,
          -0.7119173,
          0.25300586,
          -0.7096473,
          0.003077507,
          -0.23452795,
          1.0033668,
          0.24619114,
          0.046673656,
          0.6077523,
          0.4484365,
          0.56276333,
          0.64158845,
          -0.6648221,
          -0.2607268,
          -1.7586128,
          -0.66905487,
          0.16193688,
          -0.123361826,
          0.11534345,
          0.1676979,
          0.44236887,
          -0.51918554,
          -0.029054761,
          -0.09513235,
          0.3254757,
          -1.076084,
          0.24184573,
          1.2608279,
          0.09239817,
          0.5710511,
          -0.4304974,
          -0.67006886,
          0.80990493,
          -1.4790164,
          0.7078948,
          -0.8477241,
          -0.9913453,
          -0.64915454,
          0.48389137,
          0.13488495,
          0.4154569,
          -0.46222043,
          -0.7760476,
          0.3607303,
          0.576216,
