{
  "path": "ML-saves/gradiant-4.json",
  "iteration": 87500,
  "layers": [
    {
      "from_amount": 784,
      "node_amount": 128,
      "weights": {
        "v": 1,
        "dim": [
          128,
          784
        ],
        "data": [
          0.06547829,
          -0.0028005913,
          0.06366391,
          0.055907242,
          0.030307658,
          -0.042655725,
          0.031146824,
          -0.018699922,
          -0.07449486,
          -0.0040287673,
          -0.044243883,
          0.051586293,
          0.019737456,
          -0.04669536,
          0.059617408,
          -0.05979509,
          -0.03515378,
          -0.04548424,
          0.021157742,
          -0.077775314,
          -0.061005995,
          -0.016016267,
          -0.06062547,
          -0.030702587,
          -0.038920823,
          0.07746477,
          0.07156322,
          0.08049411,
          -0.0068309084,
          0.07482348,
          -0.060956717,
          -0.045009255,
          0.045114808,
          0.016541444,
          -0.07098494,
          -0.060947206,
          0.07318602,
          -0.0024329147,
          0.037710115,
          -0.05724247,
          0.052687187,
          -0.037798278,
          -0.03985409,
          -0.06419738,
          0.017682444,
          0.060394857,
          0.045317132,
          -0.047964323,
          -0.022511724,
          0.027212081,
          0.039198108,
          0.026144184,
          -0.05374183,
          0.03610778,
          -0.079016715,
          -0.058225453,
          -0.03705833,
          0.03984452,
          0.075630374,
          -0.074715674,
          0.07979744,
          0.0718969,
          0.064476915,
          0.07811874,
          -0.024484945,
          0.026321521,
          -0.037967246,
          0.06506299,
          0.04850541,
          -0.07951487,
          -0.017905429,
          -0.05093839,
          0.044850126,
          -0.05313445,
          -0.060223464,
          -0.07129478,
          0.03202689,
          -0.007029714,
          -0.031956293,
          -0.011383834,
          -0.024748996,
          0.03973133,
          0.02294781,
          0.034951657,
          -0.06752938,
          -0.028528884,
          0.031388585,
          0.04306636,
          0.0068275533,
          -0.026629906,
          -0.022868702,
          -0.0072649173,
          -0.068666644,
          -0.04046449,
          -0.014314478,
          -0.00009225616,
          0.005962987,
          -0.005514354,
          0.012524986,
          0.01369146,
          0.096706666,
          0.09459773,
          0.014150031,
          0.024448397,
          0.07720789,
          -0.06448611,
          0.017098168,
          -0.008691441,
          -0.046742212,
          -0.07629941,
          -0.0714415,
          0.027737081,
          -0.0051539466,
          0.010187993,
          0.021765314,
          -0.033895295,
          0.016853608,
          -0.014937897,
          -0.005766891,
          0.06137969,
          0.042381108,
          -0.008854032,
          0.044400275,
          0.09776744,
          -0.009993882,
          0.08660666,
          0.05419501,
          0.11427152,
          0.042330008,
          -0.0044382205,
          0.010357202,
          0.010695852,
          -0.008807329,
          0.0563579,
          0.072157025,
          -0.043020498,
          -0.034227803,
          -0.032290276,
          0.011804966,
          -0.009652864,
          0.031488612,
          -0.014703102,
          -0.041129164,
          0.010388015,
          -0.0418137,
          0.08015053,
          -0.024484608,
          0.0912594,
          0.02455024,
          -0.023358146,
          0.058587022,
          -0.02101067,
          0.04642286,
          0.06543541,
          0.019403595,
          0.0134650115,
          0.00071424077,
          -0.00042687976,
          0.09759849,
          0.059464373,
          -0.02349627,
          -0.08562328,
          -0.100155234,
          -0.068964645,
          -0.07543557,
          -0.03804039,
          -0.02941585,
          0.06520253,
          -0.068849996,
          0.012488182,
          -0.013976433,
          0.009342603,
          -0.04059891,
          0.022271687,
          0.095823474,
          0.089193135,
          0.069339916,
          0.033207998,
          0.005593973,
          0.13200466,
          0.0141050825,
          0.08736937,
          -0.046738327,
          -0.018191127,
          -0.03974919,
          -0.029471776,
          0.048792463,
          -0.044047322,
          -0.071468495,
          0.025818147,
          -0.09486709,
          -0.024079008,
          0.04516367,
          0.031760424,
          0.051766403,
          -0.062467124,
          -0.0012878573,
          -0.03215879,
          0.021537682,
          -0.020173395,
          0.023133434,
          0.05318661,
          0.028161665,
          0.0051463395,
          0.086965874,
          0.04418461,
          0.07263746,
          -0.018828671,
          0.106962495,
          0.09221231,
          -0.061128303,
          0.0625912,
          0.030176234,
          -0.05807947,
          -0.0668973,
          0.05106685,
          0.0022442262,
          -0.032613434,
          0.023719098,
          -0.0015913052,
          0.069469504,
          -0.058151066,
          -0.061098095,
          -0.07936731,
          -0.051785517,
          0.07026218,
          0.026842633,
          -0.030832112,
          -0.025948917,
          0.017692322,
          -0.040751603,
          0.0625835,
          -0.025925176,
          -0.027050853,
          0.056986984,
          -0.0671776,
          0.035190657,
          0.1133045,
          -0.017384067,
          0.019991737,
          0.04868317,
          -0.02833075,
          0.027792903,
          0.0052263765,
          0.021918591,
          0.044247232,
          0.08919758,
          0.026764553,
          0.07216164,
          0.07434745,
          -0.06325211,
          -0.06121262,
          0.016397197,
          0.070382975,
          -0.07337271,
          0.079041615,
          -0.029243333,
          0.029211612,
          -0.043559726,
          -0.012078615,
          0.10066532,
          -0.010437986,
          0.006048453,
          -0.010693699,
          0.12470035,
          0.122941315,
          0.059829634,
          -0.007523391,
          0.07569167,
          0.07151399,
          0.099243626,
          -0.01033836,
          0.007428033,
          0.0402841,
          0.03739667,
          0.13492574,
          0.08285201,
          0.024178227,
          -0.03196601,
          0.017666971,
          -0.03446368,
          0.07881582,
          0.04654835,
          0.07148463,
          -0.021076623,
          0.013124754,
          -0.08937812,
          0.030490628,
          -0.0031826114,
          0.0075158942,
          -0.015902976,
          0.05233346,
          0.12585804,
          0.050328866,
          0.08681902,
          0.00014480356,
          0.020399678,
          0.09706668,
          0.06804899,
          0.046335876,
          -0.03583489,
          -0.02494764,
          0.08041621,
          0.035282634,
          -0.008477276,
          0.079558045,
          -0.049817447,
          -0.0354586,
          -0.010381759,
          -0.002743389,
          -0.022611612,
          -0.02478581,
          0.05927558,
          0.016924474,
          -0.07644903,
          -0.117162585,
          -0.08551562,
          0.00807371,
          0.08454047,
          0.1829691,
          0.03703113,
          0.039445855,
          -0.032614183,
          0.010808923,
          -0.043421045,
          0.10843875,
          0.13063887,
          0.024449574,
          -0.02041833,
          -0.0014983092,
          0.06302374,
          -0.021944163,
          -0.0044258144,
          -0.031377435,
          0.056751985,
          -0.0705238,
          0.070851676,
          -0.057042774,
          0.04473679,
          0.009607047,
          -0.0077826446,
          0.09431374,
          -0.0008759406,
          -0.05990099,
          -0.13872455,
          -0.07183867,
          0.14654179,
          0.094424404,
          0.012826952,
          -0.023849826,
          -0.040148564,
          -0.036278855,
          0.01201004,
          -0.028896892,
          -0.03243196,
          -0.048310135,
          -0.0026751873,
          -0.042111155,
          0.05084177,
          0.007590909,
          0.03793991,
          -0.059225537,
          -0.06745768,
          -0.013411557,
          -0.02713956,
          -0.059205927,
          -0.050400753,
          -0.012209311,
          -0.061458647,
          0.005737084,
          -0.074833535,
          0.005465577,
          -0.068971455,
          -0.022147687,
          0.144714,
          0.06052963,
          -0.03206486,
          0.016877668,
          0.06618087,
          0.092141025,
          -0.03559147,
          0.016384073,
          0.06243291,
          -0.055434212,
          0.05322843,
          0.018938,
          -0.0727047,
          -0.015669625,
          0.005877815,
          -0.0032133276,
          0.024470907,
          0.04237909,
          -0.020006059,
          0.08091565,
          0.031063622,
          -0.039169136,
          0.019086996,
          -0.01809982,
          -0.080496,
          -0.11698682,
          0.04756904,
          -0.03606845,
          0.020452078,
          0.033437397,
          0.05890214,
          0.047773384,
          0.12692045,
          0.01700558,
          -0.003314614,
          0.042309873,
          -0.1095998,
          -0.061549287,
          -0.05298055,
          -0.009868415,
          0.03120981,
          -0.091725655,
          0.021647599,
          0.04207707,
          -0.01224862,
          0.003850917,
          -0.018005764,
          0.052402,
          0.0050040707,
          -0.0042263325,
          -0.023401843,
          -0.027464006,
          -0.03363611,
          -0.08445746,
          -0.12191271,
          -0.030554995,
          -0.004589638,
          -0.009950536,
          0.113714404,
          0.006851835,
          0.0623537,
          -0.032763038,
          0.040572617,
          0.05391756,
          0.029608393,
          -0.017299432,
          -0.0401466,
          -0.043190826,
          -0.018655665,
          0.07360708,
          -0.016454346,
          -0.05106575,
          0.061000016,
          0.066727936,
          -0.05256022,
          0.038134933,
          0.066910066,
          0.037257213,
          0.03520746,
          -0.047973495,
          -0.096970595,
          -0.09413894,
          -0.08615725,
          -0.11402727,
          -0.11870626,
          -0.0076807286,
          -0.040220868,
          0.03937707,
          -0.034584597,
          0.08911584,
          -0.05274269,
          -0.07238688,
          -0.005485758,
          0.032123946,
          -0.005357331,
          0.06311816,
          0.02494069,
          -0.0074564097,
          -0.032564685,
          -0.08491837,
          0.053882074,
          -0.04260567,
          0.07253025,
          0.05716536,
          -0.0037981593,
          -0.039438855,
          -0.02671687,
          -0.004450098,
          -0.103776604,
          0.014565669,
          -0.04459138,
          -0.046749968,
          -0.096924536,
          -0.011115299,
          -0.00044184906,
          -0.016102348,
          -0.036015548,
          -0.03416733,
          0.034430698,
          -0.033920962,
          -0.05785608,
          0.033856142,
          0.049770877,
          -0.03314744,
          0.055404786,
          0.0041238484,
          0.037191167,
          -0.014804576,
          0.034579735,
          0.031080902,
          -0.07545987,
          -0.058730084,
          -0.04069127,
          0.044842407,
          -0.045639258,
          -0.0116599165,
          0.0022305306,
          0.04720864,
          0.06849854,
          -0.09168324,
          -0.02320921,
          -0.01959939,
          -0.0644188,
          -0.026662309,
          -0.037644796,
          -0.015160743,
          0.041522413,
          -0.11655793,
          0.043194477,
          0.0041579017,
          0.04284842,
          0.039747145,
          0.040622022,
          -0.008053493,
          -0.11363998,
          -0.08889656,
          -0.035904285,
          -0.016385464,
          -0.048090316,
          0.006792954,
          -0.02458325,
          0.0016379546,
          -0.034981534,
          0.08792164,
          -0.030161593,
          -0.05766323,
          0.019988006,
          0.015752938,
          -0.0002953825,
          -0.033996217,
          -0.04110639,
          -0.10117285,
          0.04931515,
          -0.10447046,
          -0.08198586,
          0.050381217,
          0.018154435,
          -0.0075630196,
          -0.007649579,
          0.035945076,
          0.0029940438,
          -0.0042528952,
          -0.006313566,
          0.05126053,
          0.05007157,
          0.06695432,
          -0.04523588,
          -0.017132433,
          0.0032028216,
          0.022300806,
          0.048415553,
          0.07446166,
          0.027261302,
          0.070361756,
          -0.019425778,
          -0.023583943,
          -0.03974983,
          -0.06800152,
          -0.02911953,
          0.03938735,
          0.012279332,
          0.0070946133,
          -0.024197737,
          -0.01842918,
          -0.086000465,
          -0.005971709,
          -0.052206986,
          0.06105215,
          -0.067040995,
          -0.07745682,
          0.0020302786,
          -0.086756475,
          0.013907372,
          0.05911262,
          -0.040984847,
          0.031706166,
          -0.025702529,
          -0.012315232,
          0.031931084,
          -0.030306317,
          0.13746269,
          0.13077272,
          0.005141099,
          -0.022333153,
          0.027046934,
          -0.044441137,
          -0.11589945,
          -0.0032321184,
          0.06266555,
          0.089553,
          -0.018113595,
          -0.11116337,
          0.025436474,
          0.05158833,
          0.024684539,
          0.08261934,
          -0.07814202,
          -0.11286759,
          -0.12661475,
          0.0029253003,
          -0.00056026445,
          -0.06696047,
          -0.02164253,
          -0.009704102,
          0.010828756,
          -0.062459968,
          0.027677463,
          -0.0076332595,
          0.0050362158,
          -0.029159617,
          0.070864566,
          -0.013952786,
          -0.0529228,
          0.055631876,
          0.039421905,
          0.011420926,
          -0.030152816,
          0.057983253,
          0.06461199,
          0.06542305,
          0.03269115,
          0.052820124,
          0.06165972,
          0.073629364,
          -0.020232074,
          0.02655513,
          -0.052276123,
          0.013783382,
          0.011081899,
          -0.0043976586,
          0.04703722,
          0.07395478,
          0.019075751,
          0.009244889,
          0.07770457,
          0.08734177,
          -0.010780302,
          0.061638057,
          0.027412467,
          -0.097022794,
          0.06437916,
          0.05662509,
          0.06967696,
          0.08287318,
          0.03326477,
          0.039289553,
          0.10947845,
          0.013395079,
          0.09539524,
          -0.057498302,
          -0.09493506,
          -0.063438684,
          -0.013088569,
          -0.038102306,
          -0.014333586,
          0.029464632,
          -0.020570504,
          0.053076394,
          -0.0012386963,
          0.071276926,
          -0.048010524,
          -0.01340762,
          -0.024146868,
          0.026799977,
          -0.0023538787,
          -0.04308306,
          0.013169657,
          0.057532962,
          -0.058633626,
          0.042959593,
          0.13253579,
          0.010457075,
          0.089581884,
          0.036183868,
          0.13863474,
          -0.042539425,
          0.09839174,
          0.039501045,
          -0.013650085,
          -0.017814044,
          -0.08734907,
          -0.07291045,
          0.037179485,
          -0.040355198,
          -0.024633098,
          0.022940584,
          -0.072469406,
          -0.01204405,
          0.032787833,
          0.034965567,
          0.03139291,
          0.023017047,
          0.06323317,
          0.005881652,
          0.013777578,
          0.06977011,
          0.027948447,
          0.08077503,
          -0.005121817,
          0.03338369,
          0.039981224,
          -0.020624103,
          -0.005554833,
          0.05282285,
          -0.013348099,
          0.04190024,
          -0.031261828,
          0.019710684,
          0.02441419,
          -0.0059992196,
          -0.010851251,
          0.0799859,
          -0.051242765,
          0.056676053,
          0.016442426,
          0.070685394,
          -0.003520906,
          0.043162625,
          -0.0318671,
          0.083293945,
          -0.033342928,
          -0.040364664,
          0.055572666,
          0.019848969,
          -0.059971824,
          -0.058184642,
          -0.06540421,
          -0.02006951,
          -0.024456449,
          0.040576737,
          -0.06976948,
          -0.01393198,
          -0.0635886,
          -0.0799034,
          0.030568406,
          -0.017257284,
          -0.063406505,
          -0.014110467,
          -0.06842062,
          -0.035828624,
          -0.06761903,
          0.063685276,
          0.023274861,
          -0.056692295,
          -0.054436155,
          -0.06498394,
          0.03396593,
          0.018778808,
          -0.067075185,
          0.034366183,
          -0.066352144,
          -0.06040626,
          -0.051353976,
          0.067351416,
          -0.014846615,
          0.05833133,
          0.039599758,
          -0.043410126,
          -0.07157419,
          0.041844442,
          -0.021181557,
          -0.0078009153,
          -0.025899807,
          0.030367186,
          0.019551449,
          -0.041866932,
          0.0664388,
          0.05129037,
          -0.0035805479,
          0.031152762,
          -0.020031985,
          0.06574807,
          0.0076579303,
          0.05211834,
          0.07240745,
          0.057301186,
          0.07212097,
          0.011458851,
          -0.06218408,
          -0.03394415,
          -0.07634952,
          0.07681797,
          0.030510807,
          -0.027191674,
          -0.00075417303,
          0.031362377,
          0.06832913,
          0.009451866,
          0.03324014,
          0.07214398,
          -0.020254683,
          -0.05330053,
          0.056845345,
          -0.013044246,
          -0.0042443722,
          0.043332703,
          -0.011882015,
          -0.049036495,
          0.003355585,
          0.052083664,
          -0.034422077,
          0.071111746,
          0.080878936,
          -0.042963244,
          0.07665758,
          -0.05592124,
          0.03420911,
          -0.044606555,
          0.05447641,
          -0.07829573,
          0.029697666,
          -0.024613116,
          0.044633336,
          -0.041193057,
          -0.075596854,
          -0.07906117,
          0.042545993,
          -0.007777722,
          -0.064894885,
          0.018619219,
          0.07881601,
          -0.011859431,
          -0.0424601,
          -0.051980942,
          0.07190927,
          -0.03647275,
          -0.034680378,
          0.03143154,
          -0.07771245,
          -0.07931542,
          0.00089885434,
          -0.016441265,
          0.035537556,
          -0.038488217,
          -0.068961695,
          -0.035609175,
          0.07253244,
          0.01939178,
          -0.03720686,
          0.046779294,
          0.018116789,
          -0.017887287,
          0.036482092,
          0.0012635686,
          0.05497715,
          -0.005055966,
          0.013471218,
          0.04910484,
          0.03312691,
          -0.0005618252,
          0.009208019,
          -0.057169363,
          0.05316799,
          -0.036981385,
          -0.059070732,
          -0.022553291,
          0.04243026,
          0.03905601,
          -0.006942339,
          0.035245396,
          0.060401883,
          0.03037273,
          -0.013051452,
          -0.011784418,
          -0.012903118,
          0.024290932,
          0.028139755,
          -0.013334328,
          -0.013528154,
          0.054436754,
          0.06093434,
          -0.083042294,
          0.035178658,
          0.057194307,
          0.069043875,
          -0.014913109,
          -0.009702368,
          -0.053600144,
          -0.045015533,
          -0.016645974,
          -0.046446685,
          0.037038416,
          -0.04934175,
          -0.07356249,
          -0.036303673,
          0.07167004,
          -0.03650604,
          -0.06393467,
          -0.028912056,
          0.0717427,
          -0.014475269,
          -0.033977613,
          -0.037937947,
          -0.07804802,
          -0.0907282,
          0.04359714,
          -0.09836697,
          -0.040162288,
          -0.09175901,
          -0.023942528,
          -0.023416322,
          0.011744088,
          0.06996932,
          -0.03360374,
          0.061628528,
          0.05781252,
          0.06222054,
          0.018454768,
          -0.08047033,
          -0.014340018,
          -0.05916947,
          -0.07966608,
          0.03215036,
          0.046189036,
          0.005585131,
          0.016303517,
          0.052278336,
          0.02195993,
          0.07469593,
          -0.080514304,
          0.044511266,
          0.09843762,
          0.013938482,
          -0.08146528,
          -0.027632836,
          -0.0005542508,
          0.025941221,
          0.052850228,
          0.05149748,
          -0.018960357,
          -0.06848401,
          0.007649814,
          -0.056784,
          0.0052259527,
          0.001960029,
          0.054814298,
          0.02901778,
          0.045634307,
          -0.07470346,
          -0.033085298,
          0.012416728,
          -0.06402902,
          -0.034385487,
          -0.05259811,
          -0.08454211,
          -0.07311023,
          0.033859245,
          -0.022804372,
          0.06369156,
          0.0947143,
          0.013337218,
          0.021623718,
          -0.10399038,
          -0.013005614,
          -0.010768639,
          0.028141702,
          0.055342965,
          0.035343423,
          -0.050184444,
          -0.031652004,
          0.051099297,
          -0.05536115,
          -0.06293453,
          0.06878751,
          -0.07381877,
          0.028179813,
          0.02785305,
          0.012098887,
          0.019189263,
          0.06256732,
          0.048907094,
          -0.06404939,
          -0.07590727,
          0.006271703,
          -0.05533732,
          0.0765065,
          0.010589478,
          0.13369016,
          0.025196712,
          -0.00881642,
          0.03682756,
          -0.046577588,
          0.02777711,
          -0.02038653,
          0.046476346,
          -0.0059584356,
          0.05177854,
          0.02790829,
          0.022093458,
          0.041856643,
          -0.015998237,
          -0.0033077423,
          0.023002716,
          -0.00037817078,
          0.07862773,
          0.07070316,
          0.02823562,
          0.015813624,
          0.001304255,
          0.030617787,
          -0.03204265,
          0.05547488,
          -0.019496951,
          0.09519808,
          0.055720404,
          0.053935237,
          0.0062816027,
          0.083898686,
          0.031572927,
          -0.059784934,
          0.052830912,
          0.00193879,
          -0.016358312,
          0.014592881,
          -0.061661445,
          -0.06763037,
          0.049786687,
          0.060120992,
          0.020282704,
          -0.003815052,
          -0.07718058,
          0.048291665,
          -0.061216183,
          0.011615048,
          -0.005936542,
          -0.03886536,
          -0.037230846,
          -0.06909577,
          -0.057054676,
          -0.045206837,
          -0.06752993,
          0.005683342,
          0.088795975,
          0.11036759,
          0.0154357245,
          0.045837604,
          -0.039439544,
          0.07156458,
          0.08556037,
          -0.05965069,
          -0.060198747,
          -0.020460872,
          -0.102503955,
          -0.004125361,
          0.0432556,
          0.089421704,
          -0.0022072818,
          0.006748289,
          -0.06542806,
          0.04993526,
          0.06498092,
          0.038028054,
          0.07137414,
          0.04677661,
          -0.07513692,
          0.05340088,
          -0.0035178133,
          -0.055174988,
          0.012458932,
          0.041942596,
          -0.023957564,
          0.028645054,
          0.042184923,
          -0.07685448,
          0.0005487572,
          -0.016683165,
          0.032838807,
          -0.07499956,
          0.024808563,
          -0.05755641,
          -0.027964931,
          0.010424884,
          0.029031793,
          0.0019856466,
          0.014529468,
          0.019261356,
          -0.035656128,
          0.054520693,
          -0.027880307,
          -0.028395986,
          -0.025726872,
          0.059712842,
          0.05079236,
          0.06266295,
          0.060012843,
          0.007524976,
          -0.03254662,
          -0.019034425,
          -0.013911206,
          -0.03729314,
          -0.051896077,
          -0.0912697,
          0.017830856,
          0.0775349,
          -0.022248466,
          -0.009852857,
          -0.07721206,
          -0.0631149,
          -0.05232046,
          0.013106063,
          0.041140273,
          0.0023049796,
          -0.05454115,
          0.025500514,
          -0.06078103,
          -0.057410307,
          0.005981624,
          0.042299073,
          -0.07352096,
          0.014079088,
          0.0037692646,
          0.060100745,
          -0.026342776,
          -0.09290046,
          0.032615073,
          -0.03882574,
          -0.020298285,
          0.05645532,
          -0.02455878,
          -0.070227236,
          -0.07205877,
          0.017563796,
          -0.018533587,
          -0.045339007,
          0.01845498,
          -0.040063623,
          0.04164384,
          -0.025092961,
          0.051260997,
          0.03513693,
          0.008555607,
          -0.0006486321,
          0.011080879,
          -0.035374496,
          0.07190519,
          0.029720748,
          -0.080778286,
          -0.026593732,
          0.080184765,
          0.011264087,
          0.027598424,
          -0.080388315,
          -0.013526743,
          0.034276552,
          0.05330767,
          0.090467975,
          0.072691,
          -0.04554857,
          -0.04317349,
          -0.029081503,
          0.029422542,
          -0.015652198,
          0.07225317,
          -0.017521182,
          0.09607516,
          0.12481902,
          0.11419454,
          0.101438455,
          0.06343245,
          -0.043744598,
          -0.042032618,
          -0.070856825,
          0.041915912,
          -0.054211047,
          0.048006464,
          -0.008228529,
          0.08242579,
          -0.047591522,
          0.008374843,
          -0.055240974,
          0.055980265,
          -0.043508105,
          0.12117106,
          -0.014653399,
          -0.041455947,
          -0.07869545,
          0.02524788,
          0.023441846,
          -0.028155897,
          -0.060264528,
          0.06715518,
          0.051533725,
          0.036332145,
          0.060312353,
          0.0010777254,
          -0.05253543,
          -0.048331268,
          -0.018064823,
          0.021877283,
          -0.044203464,
          0.016034815,
          -0.03550469,
          -0.054852776,
          -0.018021787,
          0.023402037,
          -0.027666347,
          0.008780367,
          -0.0067233364,
          -0.022448983,
          0.07822005,
          -0.022275448,
          0.024508625,
          -0.040501293,
          -0.10667555,
          -0.025084523,
          -0.07833701,
          0.052752007,
          -0.039978474,
          -0.0073665516,
          -0.041814487,
          -0.02775613,
          -0.05462282,
          0.04111228,
          0.001316797,
          -0.07254758,
          -0.068162985,
          -0.04304762,
          -0.023552462,
          0.0513475,
          0.01277737,
          0.06340157,
          -0.017910695,
          -0.025071649,
          -0.0592507,
          0.0192758,
          -0.0801061,
          -0.04781167,
          0.029644396,
          -0.058515713,
          0.08280962,
          -0.024973487,
          -0.040100116,
          0.0032940307,
          0.020136047,
          -0.03269591,
          0.03546048,
          0.042877033,
          -0.083915874,
          -0.0076785074,
          -0.035242986,
          0.0666896,
          -0.086224586,
          -0.026670989,
          -0.035930973,
          0.015640836,
          0.06564672,
          0.0020630509,
          -0.02385416,
          -0.031758066,
          -0.030647082,
          0.05874282,
          0.04447839,
          -0.09442431,
          -0.0829354,
          -0.013234235,
          0.0048580747,
          0.046736892,
          0.041756548,
          0.087445945,
          0.066022195,
          -0.029668974,
          -0.07452176,
          -0.05280873,
          -0.03966591,
          0.029722763,
          0.07249213,
          0.023610642,
          0.03938278,
          0.07048023,
          -0.054849997,
          0.021252701,
          0.06209568,
          -0.017758675,
          -0.052549575,
          -0.072843835,
          0.07350855,
          0.022659741,
          -0.04541792,
          0.0057324003,
          -0.01169703,
          -0.025103286,
          0.0071855257,
          0.035980914,
          0.09537598,
          0.080030344,
          -0.060869716,
          -0.02037669,
          -0.09551078,
          0.061419226,
          0.06731891,
          -0.07807614,
          0.00600421,
          -0.05307552,
          0.04723863,
          -0.05805112,
          -0.014492258,
          0.018004812,
          -0.08278452,
          0.073607616,
          -0.08255017,
          -0.051385578,
          0.03902243,
          -0.030103292,
          0.032918345,
          0.01365046,
          -0.041649222,
          0.047930896,
          0.03817154,
          -0.040510606,
          -0.04516226,
          0.115922034,
          0.031609897,
          0.06915196,
          -0.09481568,
          -0.04367007,
          -0.07629283,
          -0.01968246,
          0.046258762,
          -0.10307769,
          -0.09054783,
          -0.070211716,
          -0.0830893,
          0.03943572,
          0.07117775,
          0.040482573,
          0.048228625,
          0.053002976,
          -0.0705387,
          0.026435805,
          -0.03382578,
          0.031011596,
          0.046996567,
          0.05366469,
          -0.0076495577,
          -0.025105968,
          -0.07912821,
          -0.02452761,
          0.0176586,
          0.12161406,
          0.019861102,
          -0.030236514,
          -0.086698666,
          0.050491735,
          0.03077004,
          0.05923891,
          0.09824091,
          -0.12234173,
          -0.07963077,
          0.07766088,
          0.031735033,
          -0.029420704,
          -0.04447382,
          0.046634678,
          0.034786467,
          0.010508456,
          -0.0742858,
          -0.031062488,
          0.024530612,
          0.0628468,
          0.027515685,
          0.021720532,
          0.025287488,
          -0.03828225,
          -0.048310965,
          0.088315986,
          -0.024410332,
          -0.022668898,
          0.1083082,
          0.06041382,
          -0.009292631,
          0.021948976,
          0.052810196,
          -0.009099483,
          -0.027813653,
          -0.048568174,
          0.031248344,
          0.026409436,
          -0.0045681316,
          0.0071497345,
          0.112288594,
          -0.0052836533,
          0.06086816,
          0.052229505,
          0.07735744,
          0.06384078,
          0.05474802,
          0.039694607,
          0.036564954,
          0.003057688,
          0.0074268784,
          0.06475401,
          -0.05072162,
          0.054483738,
          -0.00003804669,
          0.012530856,
          -0.05031272,
          -0.025953636,
          -0.062545665,
          0.04692635,
          -0.05695049,
          -0.007356042,
          -0.057946563,
          -0.063798584,
          0.03158998,
          -0.08607195,
          -0.05839734,
          -0.014189702,
          0.012626163,
          -0.015704187,
          -0.049716324,
          0.0024462286,
          0.07410696,
          -0.043325022,
          -0.061279923,
          -0.040182106,
          0.07043522,
          0.06718661,
          0.07020094,
          0.025389913,
          -0.058418505,
          -0.034043327,
          0.08753241,
          0.058524292,
          0.006028356,
          -0.0008738819,
          0.0070081754,
          -0.05356509,
          0.014292261,
          -0.043137547,
          0.07437833,
          -0.036650687,
          0.027828172,
          -0.048446998,
          -0.03742832,
          0.014413412,
          0.04139221,
          0.015746795,
          -0.08765739,
          -0.044605054,
          0.039766826,
          -0.027986359,
          0.056517027,
          0.011605747,
          0.00052367896,
          0.039376188,
          -0.07821746,
          -0.05645494,
          -0.00031881034,
          -0.053558476,
          -0.022818496,
          0.031816695,
          0.043530326,
          0.020095631,
          0.05822897,
          -0.0047139996,
          0.06290657,
          0.024994867,
          -0.0446791,
          0.06771457,
          -0.067954056,
          -0.073410206,
          0.0020427452,
          0.019333366,
          0.026724566,
          -0.05381551,
          0.013131233,
          0.05257881,
          -0.04019569,
          -0.07945102,
          -0.047913868,
          0.06619545,
          0.06572995,
          -0.03636626,
          0.061969806,
          -0.06635213,
          -0.051461153,
          -0.06413235,
          0.0840407,
          0.07647196,
          0.049805757,
          0.011509045,
          0.032924626,
          0.057015512,
          0.07011244,
          -0.02768161,
          0.012577927,
          0.08699991,
          0.037533123,
          -0.0491692,
          -0.05191881,
          -0.08342428,
          0.040774833,
          -0.00015104297,
          0.01849706,
          -0.01509301,
          0.051575832,
          0.04313141,
          -0.022368766,
          -0.037514426,
          0.024799787,
          -0.016846985,
          -0.045669813,
          -0.07101536,
          -0.07413137,
          0.045982525,
          -0.016295275,
          0.06376019,
          0.034765404,
          -0.0385697,
          0.01867233,
          -0.063140094,
          0.017418716,
          0.02027199,
          0.059950992,
          -0.05083406,
          -0.0033967542,
          0.017389474,
          -0.048989743,
          0.07594871,
          -0.067286655,
          -0.017069584,
          -0.064271204,
          0.07694878,
          0.016492138,
          0.06433601,
          0.03167391,
          -0.04424926,
          -0.050299827,
          -0.06322844,
          0.036076486,
          0.031043302,
          -0.0034369812,
          -0.056928407,
          -0.06664655,
          -0.06567505,
          0.06357318,
          0.0011732952,
          -0.035837684,
          -0.048660938,
          0.024689535,
          -0.035456646,
          0.010506868,
          0.035483338,
          0.077537335,
          -0.054575805,
          -0.03788957,
          -0.0331186,
          -0.047705896,
          0.052791927,
          0.03692759,
          -0.046294305,
          -0.009120695,
          -0.07350321,
          -0.03085329,
          0.048660733,
          0.0074940547,
          -0.005402349,
          0.064990036,
          -0.0016597658,
          0.048496954,
          0.021742903,
          -0.06546873,
          -0.031935267,
          -0.06776661,
          0.053445823,
          0.02975855,
          -0.027703349,
          -0.080693945,
          0.00096106256,
          0.03263344,
          0.00066944957,
          0.022445597,
          0.054063104,
          -0.020471271,
          -0.007444203,
          -0.04960672,
          -0.06859119,
          -0.059037797,
          -0.05958782,
          -0.038409848,
          0.000027284026,
          0.020786352,
          0.02523718,
          0.07995308,
          -0.06956133,
          -0.004980214,
          0.05754774,
          0.054645844,
          -0.05573958,
          0.052141957,
          -0.06499317,
          0.012912803,
          0.015215568,
          0.029040156,
          -0.07296947,
          -0.039827414,
          0.0031336495,
          -0.038488526,
          -0.041935883,
          0.058760736,
          -0.07523999,
          0.042365108,
          0.018973604,
          0.06557678,
          0.050944865,
          -0.07618585,
          0.035821766,
          0.0045226887,
          -0.015321694,
          -0.030293446,
          0.026035964,
          0.06700622,
          -0.020457154,
          -0.047398172,
          -0.045298886,
          -0.05238838,
          -0.08110683,
          0.026705155,
          0.03716603,
          -0.07485371,
          -0.028491884,
          0.06644338,
          0.028430305,
          -0.015300149,
          0.0063364184,
          0.010914138,
          -0.047620676,
          -0.08787518,
          -0.048149686,
          -0.037358083,
          -0.057308726,
          -0.0029462094,
          -0.009635385,
          0.022609117,
          -0.05773712,
          0.026712442,
          0.054703288,
          0.030421913,
          -0.07868399,
          0.006364502,
          -0.068614304,
          0.06503148,
          -0.011109481,
          -0.015104021,
          0.04279818,
          -0.02195371,
          0.029376667,
          0.011638589,
          0.006680272,
          -0.07847349,
          -0.015722075,
          -0.032924898,
          0.020882916,
          -0.07259315,
          -0.0029779118,
          0.0044655763,
          -0.02454831,
          -0.026865164,
          0.049275655,
          -0.053429402,
          -0.06210674,
          0.06456804,
          -0.065541804,
          -0.07734788,
          0.05109935,
          -0.05763109,
          -0.042009536,
          0.032693893,
          0.062035024,
          -0.042811517,
          0.07346311,
          0.06927919,
          0.028364407,
          -0.087724335,
          -0.07534846,
          -0.053857476,
          -0.049993698,
          -0.039240524,
          0.09544014,
          -0.057123233,
          -0.038784426,
          0.03664404,
          0.008932508,
          0.008292845,
          -0.05266836,
          -0.086140074,
          0.020049045,
          0.098618746,
          -0.010035419,
          0.02426007,
          -0.01689565,
          0.017494056,
          0.0017715378,
          0.044929713,
          0.080111794,
          0.02857402,
          0.07635231,
          -0.0059561394,
          0.021294277,
          0.068082444,
          0.035285197,
          0.043443725,
          0.058204237,
          0.032457687,
          0.007999324,
          0.021994932,
          0.018015746,
          -0.12326867,
          -0.09952274,
          -0.1376784,
          -0.06071555,
          -0.046173535,
          0.02074971,
          -0.0028303124,
          -0.0034796677,
          0.07154236,
          0.06990143,
          -0.046995,
          -0.011330363,
          -0.07614254,
          -0.043223098,
          -0.01928974,
          0.072710164,
          0.034657232,
          -0.003198065,
          0.028892381,
          0.032914843,
          0.002538539,
          -0.011487777,
          -0.077367604,
          0.08872944,
          -0.025430765,
          0.08794608,
          0.0056410735,
          0.023096772,
          -0.122276984,
          -0.12728904,
          -0.16281334,
          -0.0019275983,
          -0.08774773,
          0.033535212,
          -0.028953332,
          -0.041810345,
          -0.051074553,
          -0.0043575363,
          0.099284194,
          0.11647773,
          0.015670417,
          -0.02107837,
          -0.0428456,
          -0.055719864,
          0.040784452,
          0.014953037,
          0.02495393,
          -0.076837026,
          -0.048625298,
          -0.055911347,
          0.0062832027,
          -0.021947175,
          -0.021748258,
          0.13348609,
          0.040963512,
          0.13871682,
          0.01039185,
          -0.15391092,
          -0.10963527,
          -0.07496881,
          -0.059592832,
          -0.051017005,
          0.0070380815,
          -0.06754444,
          0.03790217,
          0.0041474504,
          0.11648278,
          0.090478376,
          0.029202247,
          -0.03521187,
          0.020099284,
          0.022333166,
          0.06698056,
          0.0049079163,
          -0.035298377,
          0.05077953,
          0.013314706,
          -0.07028099,
          0.05251368,
          -0.098934524,
          0.055777162,
          -0.048339598,
          0.16225217,
          0.15847604,
          -0.09612668,
          -0.20588873,
          -0.1230817,
          -0.01681027,
          -0.09878995,
          0.073860824,
          -0.028556501,
          0.068435624,
          0.0693772,
          0.018123059,
          0.01831907,
          0.11477219,
          0.12288139,
          0.010529114,
          0.032790862,
          0.07667409,
          0.023824098,
          0.07909794,
          0.07305835,
          0.06324614,
          -0.02094106,
          -0.0247653,
          -0.120739944,
          -0.04657871,
          -0.072933614,
          -0.051344823,
          0.05796042,
          0.11595218,
          -0.008282568,
          -0.06946695,
          -0.08214391,
          -0.11151731,
          -0.0032831235,
          0.0031773283,
          0.023905965,
          -0.072013855,
          0.16423962,
          0.08317554,
          0.061744206,
          0.09174909,
          0.078397885,
          0.069406554,
          0.054282095,
          0.0008344917,
          0.027598972,
          -0.040212385,
          -0.053553652,
          -0.0030878657,
          0.04368092,
          -0.06474502,
          -0.15258396,
          -0.042561192,
          -0.07451425,
          0.048770286,
          0.20823191,
          0.16452754,
          -0.08191469,
          -0.17185615,
          -0.12953566,
          -0.041532665,
          -0.005285933,
          -0.071730696,
          0.02720451,
          0.100757405,
          0.07689694,
          0.046591487,
          0.12021977,
          0.03658766,
          0.057067428,
          0.097814426,
          0.06022491,
          -0.06905922,
          -0.018311854,
          -0.0314715,
          0.075363696,
          0.0075789206,
          0.01331116,
          0.04094522,
          -0.050995015,
          -0.050698623,
          0.028790323,
          0.06439252,
          0.076029286,
          0.1155485,
          -0.08272984,
          -0.073901385,
          -0.107928105,
          0.10682605,
          0.019493822,
          0.039911054,
          -0.05367185,
          0.039981402,
          -0.014158929,
          -0.04559199,
          0.06758277,
          0.01569804,
          0.06981879,
          0.05268326,
          -0.045245867,
          0.023594217,
          0.028700864,
          -0.026729513,
          -0.054042067,
          0.028681234,
          -0.09088575,
          0.006064999,
          0.0047881897,
          0.0039312635,
          0.031138979,
          0.19329001,
          0.07971698,
          0.052893158,
          0.04942586,
          -0.031900067,
          0.062008094,
          -0.019422432,
          -0.07050414,
          -0.060415074,
          0.08310209,
          -0.0662706,
          -0.03769862,
          0.07679103,
          -0.074317686,
          -0.016735155,
          -0.012079468,
          0.014505625,
          0.07829497,
          -0.04603376,
          0.021411877,
          0.049669947,
          0.03714748,
          0.012587812,
          0.09177605,
          0.044412784,
          0.011171438,
          0.111781396,
          -0.008212908,
          0.15753669,
          0.13379684,
          0.01311229,
          0.06958599,
          -0.03030347,
          0.060125247,
          -0.1393015,
          0.07028754,
          0.017233102,
          0.06828246,
          -0.1047067,
          -0.02191401,
          -0.09775023,
          -0.11510102,
          0.021888264,
          -0.06785636,
          0.01427039,
          0.06840608,
          0.002918852,
          -0.01809545,
          -0.022495897,
          0.057557028,
          0.060827315,
          0.10385434,
          -0.017831901,
          0.016105281,
          0.0046333247,
          0.0060515357,
          0.018673223,
          0.070780516,
          0.0054118168,
          0.10895557,
          0.032798667,
          0.07954655,
          -0.051565066,
          0.08854527,
          -0.09919784,
          -0.030929847,
          0.04278581,
          -0.006204753,
          -0.031124605,
          -0.04553913,
          0.09402556,
          0.054665394,
          -0.06414432,
          -0.03389116,
          -0.06131956,
          0.007315402,
          -0.051776346,
          -0.025106695,
          0.042570747,
          0.03352548,
          -0.0115711605,
          0.0779173,
          -0.08340604,
          0.03975871,
          0.06843537,
          0.09451599,
          0.15845448,
          0.031924076,
          0.021516345,
          0.049677934,
          -0.08758837,
          -0.012002181,
          0.11519884,
          0.09002556,
          -0.052267455,
          0.026305618,
          0.043936647,
          -0.052990668,
          0.03153309,
          -0.02731935,
          -0.056758787,
          0.023344828,
          -0.017378857,
          -0.040335443,
          -0.0036074556,
          -0.0053136274,
          -0.045990705,
          -0.04047173,
          -0.0501697,
          0.06829283,
          0.024292637,
          0.068653315,
          0.05608156,
          0.044994406,
          -0.024258887,
          0.05544826,
          0.06386505,
          -0.09169151,
          -0.032105222,
          -0.0036657322,
          0.01020697,
          0.14079142,
          -0.083023734,
          -0.01004087,
          -0.035738844,
          -0.06834071,
          0.03307152,
          0.027497334,
          -0.058619145,
          0.017796878,
          -0.038143754,
          0.06362898,
          -0.00013039382,
          0.045024123,
          0.026426049,
          0.0713847,
          0.04084603,
          0.010557983,
          0.009192103,
          -0.063202135,
          0.07309435,
          0.012958116,
          0.03548821,
          -0.09056521,
          -0.06479259,
          -0.038856387,
          -0.11281821,
          0.057891633,
          0.17490855,
          -0.014483542,
          0.026567189,
          0.08115058,
          0.04180799,
          -0.013492042,
          0.04766117,
          0.034068648,
          0.018564638,
          -0.0784532,
          0.057808615,
          0.022213189,
          -0.013808567,
          0.02746115,
          0.06709513,
          -0.004370286,
          -0.018415632,
          -0.0067574806,
          -0.10993382,
          0.04596352,
          0.021590423,
          0.03742103,
          0.008563889,
          -0.09354938,
          -0.07982163,
          -0.11253985,
          -0.0040293587,
          0.032845642,
          0.053766236,
          0.04309306,
          0.032714013,
          0.040853232,
          0.008466712,
          0.06325876,
          -0.007093953,
          -0.07101061,
          0.06538302,
          -0.07836604,
          -0.036927663,
          -0.022466406,
          -0.055158865,
          0.07529476,
          0.015473228,
          -0.052436613,
          -0.10050839,
          0.03786743,
          -0.0026981256,
          0.011645675,
          -0.05821485,
          0.011887022,
          -0.12031222,
          -0.04387097,
          -0.09308805,
          -0.115395606,
          0.10328174,
          0.044403985,
          0.055796504,
          -0.08710934,
          -0.024422945,
          -0.026836077,
          -0.074256994,
          0.051848963,
          0.061975013,
          -0.07974102,
          -0.06269231,
          0.020263078,
          0.07629008,
          -0.047730185,
          0.00071754487,
          0.041601636,
          0.089999855,
          -0.06203852,
          0.0011008226,
          -0.021345116,
          0.025140604,
          -0.030562721,
          -0.04251481,
          -0.1291041,
          -0.19015922,
          0.0002874368,
          -0.11453209,
          -0.071394995,
          0.0721587,
          0.081539705,
          -0.008743366,
          0.020844603,
          -0.0738152,
          -0.113592975,
          0.042577565,
          -0.068684,
          -0.044894475,
          0.059497118,
          0.025792874,
          -0.051276565,
          -0.04049585,
          0.040510315,
          -0.06114482,
          0.022155836,
          0.045546535,
          -0.007976124,
          -0.045980595,
          -0.044517748,
          -0.044442814,
          -0.041547526,
          -0.1232652,
          -0.15487057,
          -0.04612717,
          -0.13281682,
          -0.12841538,
          -0.018323664,
          0.00583817,
          0.07683334,
          -0.014144744,
          0.069128685,
          -0.050288085,
          -0.033708584,
          -0.048655342,
          0.0758808,
          -0.018293194,
          -0.034969293,
          -0.00048688508,
          -0.043371595,
          0.028810084,
          0.00096558535,
          0.035598222,
          -0.0253953,
          -0.03948569,
          0.003679872,
          -0.05684457,
          0.014841051,
          0.014277093,
          -0.012206883,
          0.011802158,
          -0.054947317,
          -0.06505742,
          0.03856775,
          -0.070745386,
          0.03212673,
          0.014171586,
          0.043878935,
          0.0033869557,
          0.046872176,
          -0.05831322,
          -0.0575184,
          0.004128365,
          0.011968677,
          -0.021520445,
          -0.07297982,
          0.0066231503,
          -0.028412525,
          -0.06848957,
          0.066471614,
          -0.009010186,
          0.026880587,
          0.041399255,
          0.004897253,
          0.036895066,
          0.05259137,
          0.03870801,
          0.061742086,
          0.06945504,
          0.07252095,
          0.09739342,
          0.067227006,
          0.0028571289,
          -0.053326085,
          0.0032171935,
          0.14208066,
          0.05215119,
          0.09064651,
          -0.005847015,
          0.013251113,
          -0.052028738,
          -0.059382606,
          -0.047741365,
          0.00048010415,
          -0.03739078,
          0.0019525513,
          0.0106940195,
          0.027631067,
          0.03886746,
          0.020715011,
          -0.031496823,
          0.024496553,
          0.04428376,
          -0.06124995,
          -0.09074878,
          -0.019639933,
          -0.043637786,
          0.0650919,
          0.0044134865,
          0.044548016,
          -0.051149193,
          0.06524701,
          0.043166883,
          0.04776952,
          0.073078215,
          0.036129113,
          0.056300703,
          -0.04584178,
          -0.06838748,
          -0.0005282781,
          0.017907303,
          -0.0656503,
          -0.037432574,
          -0.0044889227,
          0.06710183,
          -0.057312533,
          -0.051465567,
          0.020512424,
          -0.069813326,
          0.06292571,
          0.03363516,
          -0.06836487,
          -0.061427537,
          -0.07530833,
          -0.057302628,
          0.07244101,
          0.0022206136,
          0.08879007,
          0.019699212,
          0.066829965,
          0.071690686,
          -0.04523078,
          0.021954259,
          -0.08423938,
          -0.061589476,
          -0.02018812,
          0.07579068,
          -0.027954718,
          0.044049527,
          0.06853802,
          -0.034783702,
          0.041160703,
          -0.03545801,
          0.018780373,
          -0.07599915,
          0.07164741,
          0.06568525,
          0.06248588,
          -0.08217444,
          -0.08193886,
          -0.05836605,
          -0.027566573,
          0.024631351,
          -0.054567657,
          0.022270197,
          -0.058154717,
          -0.11695484,
          -0.058808796,
          -0.090860166,
          -0.050615992,
          -0.08868146,
          -0.011345854,
          -0.025219416,
          -0.103095435,
          0.055959515,
          0.04598362,
          -0.00029349598,
          -0.0379658,
          -0.027716443,
          0.04019568,
          -0.0325926,
          -0.014071807,
          -0.05991845,
          -0.026911564,
          0.06049903,
          0.06887135,
          -0.026932864,
          -0.005124014,
          0.04019569,
          -0.001034691,
          -0.044859987,
          0.024415642,
          0.07535601,
          -0.061897673,
          -0.07973814,
          0.053753696,
          -0.076805905,
          0.029123038,
          -0.04813803,
          0.037351564,
          -0.03104731,
          0.0029849904,
          0.025264388,
          -0.029575411,
          0.07336847,
          0.0032815188,
          -0.06833022,
          -0.01922376,
          0.045465507,
          0.070765786,
          -0.0055995435,
          0.026980042,
          -0.064386964,
          0.02748721,
          0.017235726,
          -0.075280055,
          0.07488058,
          -0.03540328,
          -0.02257238,
          -0.0049409717,
          0.054665867,
          -0.017540539,
          0.0015572412,
          0.067866914,
          -0.06881439,
          -0.04173942,
          -0.045240097,
          -0.049913738,
          -0.0265586,
          0.0055073127,
          -0.07364487,
          -0.078847274,
          0.022200659,
          -0.0189485,
          0.068258055,
          0.0642362,
          0.011375599,
          -0.019000828,
          -0.056292456,
          0.05823768,
          0.034546033,
          0.026751444,
          0.05738908,
          0.004186562,
          -0.006818084,
          -0.015750697,
          -0.032895766,
          0.011036322,
          -0.019041607,
          -0.026665883,
          -0.0037774388,
          0.07499081,
          0.058291387,
          0.069271356,
          -0.03323794,
          -0.036539886,
          0.063999765,
          -0.050148014,
          -0.0005822498,
          -0.026956316,
          0.06129972,
          -0.008133516,
          0.044352897,
          -0.0693286,
          0.07223689,
          0.036324695,
          0.039598025,
          0.0023834163,
          0.018830044,
          0.055086724,
          -0.08055662,
          -0.04356684,
          0.0014244653,
          -0.050581582,
          -0.019926568,
          0.005320306,
          0.06745314,
          0.060857333,
          -0.0676532,
          -0.03606805,
          -0.06458861,
          0.06839459,
          0.016210832,
          -0.07612558,
          -0.05365152,
          0.035502236,
          -0.07024895,
          0.05625202,
          -0.067551665,
          -0.0019944254,
          -0.052491087,
          0.037094086,
          -0.012442052,
          0.057498105,
          0.036633477,
          0.013892452,
          0.05238824,
          -0.05852715,
          0.08067138,
          -0.016759127,
          -0.004206118,
          -0.017252605,
          0.008717122,
          -0.015813816,
          -0.05832051,
          0.094222516,
          -0.05574173,
          0.026763042,
          0.022704145,
          -0.006621708,
          -0.020066524,
          -0.056464523,
          -0.08553289,
          -0.054140605,
          -0.05155075,
          0.027669905,
          -0.05006101,
          -0.020832015,
          0.06436855,
          -0.010340132,
          -0.016864851,
          0.04727423,
          -0.0328695,
          -0.07751614,
          0.010009472,
          0.041680504,
          0.019536303,
          0.0804707,
          0.00029237123,
          0.07085224,
          -0.02102739,
          -0.06028993,
          -0.029509796,
          -0.013471495,
          -0.026741581,
          0.09969011,
          0.074980326,
          0.035622615,
          -0.041350286,
          0.019999424,
          0.022080963,
          0.015866429,
          0.0031534783,
          -0.0069047012,
          0.060643148,
          -0.062014565,
          0.027138302,
          -0.022654217,
          0.06539602,
          0.06428937,
          0.048630353,
          -0.03902811,
          -0.042633053,
          -0.060379058,
          -0.018395945,
          0.052055556,
          0.038781628,
          -0.036184117,
          0.036341846,
          0.014823085,
          0.1288028,
          0.08424606,
          0.07117041,
          -0.045731105,
          0.0670009,
          0.023486922,
          0.04956551,
          0.09515043,
          -0.0047369115,
          0.0000035415824,
          0.04449653,
          0.025806764,
          -0.037579644,
          0.03604252,
          0.05784413,
          -0.012553527,
          0.06305883,
          0.04054522,
          -0.0436221,
          -0.023596855,
          -0.0058616386,
          0.013947575,
          0.006693537,
          0.04809628,
          0.06741893,
          0.04446027,
          0.036826298,
          0.072550714,
          -0.063680395,
          0.049944147,
          -0.05383254,
          0.024434868,
          -0.06991783,
          -0.009939387,
          -0.021434745,
          0.011657984,
          0.05986682,
          -0.02263713,
          -0.061152857,
          -0.0139496755,
          -0.008094844,
          0.00077966583,
          0.06435401,
          0.037258357,
          -0.003164702,
          0.056847762,
          -0.022926114,
          0.051732063,
          0.014432674,
          -0.02964285,
          0.009236988,
          -0.013847943,
          0.1312056,
          0.028303178,
          0.023396578,
          0.014497752,
          -0.007643462,
          -0.03222127,
          -0.018063428,
          -0.037136693,
          -0.0026937935,
          -0.087544434,
          -0.1553189,
          -0.043405905,
          0.012449733,
          -0.090174355,
          -0.0032651257,
          -0.104713455,
          -0.01992582,
          0.0020149862,
          -0.0047668167,
          0.057701655,
          -0.04290501,
          0.05851844,
          0.05882099,
          0.046725444,
          0.05357304,
          -0.061072472,
          -0.02316173,
          0.013561582,
          -0.021049278,
          -0.022268288,
          0.049697317,
          -0.048278164,
          0.024717037,
          -0.07523785,
          -0.0073831338,
          0.018746695,
          -0.057321247,
          -0.038840514,
          0.047979668,
          -0.026109515,
          -0.001268999,
          0.050815407,
          -0.020681255,
          0.030830305,
          -0.058891226,
          -0.025625696,
          0.038218234,
          0.055412184,
          -0.06157647,
          0.015082015,
          -0.041805923,
          -0.04026772,
          0.028891606,
          0.04696438,
          0.028092157,
          -0.028169503,
          0.06446592,
          -0.053331904,
          -0.0047676475,
          0.08545066,
          0.004235817,
          -0.035385646,
          -0.084760174,
          0.019611228,
          0.02476543,
          0.11449385,
          0.07262597,
          0.010147104,
          0.031441223,
          -0.0017199091,
          0.050086603,
          0.012912679,
          -0.11119063,
          0.04335511,
          -0.051037736,
          -0.007903908,
          -0.06874746,
          0.076642886,
          -0.061159022,
          0.022278646,
          -0.025254078,
          -0.021345906,
          0.03085347,
          -0.0077822213,
          0.010053485,
          -0.051561445,
          0.057320055,
          -0.09066325,
          -0.06112822,
          -0.12858403,
          -0.10358765,
          -0.19650121,
          0.015553454,
          0.013598498,
          0.1403916,
          0.025735792,
          0.1460521,
          0.024595248,
          0.034159154,
          -0.003748819,
          -0.103990205,
          0.018241016,
          -0.015144358,
          0.01334196,
          -0.009838787,
          0.025806228,
          -0.07346787,
          -0.050639585,
          -0.03975686,
          -0.013837391,
          -0.045105994,
          0.089797884,
          0.049427062,
          -0.0023203585,
          -0.059173606,
          -0.029994013,
          0.017099863,
          -0.06344671,
          0.0623036,
          -0.021115882,
          0.08323121,
          0.10235976,
          0.08015844,
          0.095015146,
          0.03143034,
          -0.04050841,
          -0.022551913,
          -0.0076581216,
          0.0006921677,
          0.04359224,
          -0.036203783,
          -0.024730597,
          0.059428465,
          -0.045979578,
          0.059128374,
          -0.076199256,
          -0.041622095,
          0.075459115,
          -0.014446173,
          0.051505465,
          -0.01119518,
          -0.011877296,
          0.14020337,
          0.1432598,
          0.049966455,
          0.12606323,
          0.16212381,
          0.1111789,
          0.17659411,
          0.100053616,
          0.058606077,
          0.04102038,
          -0.07910326,
          -0.08040762,
          -0.054129142,
          0.04241045,
          -0.020362005,
          0.06542424,
          0.06801079,
          -0.011329171,
          -0.07121365,
          -0.06777175,
          -0.00034332983,
          -0.06506452,
          -0.008860959,
          -0.022262748,
          0.0001063205,
          0.015728397,
          0.044892866,
          0.11821235,
          0.037395537,
          0.14997308,
          0.10460024,
          0.116402425,
          0.09963692,
          0.179017,
          0.016593063,
          0.029347735,
          0.031088004,
          -0.021561189,
          -0.08488204,
          -0.044566188,
          -0.10043317,
          -0.023118949,
          -0.075146265,
          0.028088251,
          -0.0007126162,
          0.061837617,
          0.01189467,
          -0.02508165,
          0.019964818,
          0.0033158103,
          0.03387449,
          -0.07073717,
          -0.05026633,
          0.09173797,
          -0.060637195,
          0.012804114,
          0.042182803,
          0.07040502,
          0.098234735,
          0.16889662,
          0.09034169,
          0.055186983,
          0.050613984,
          -0.042812575,
          -0.112976745,
          -0.034427498,
          -0.062367067,
          -0.0029463032,
          -0.08278577,
          -0.095781356,
          -0.019390743,
          0.041090485,
          0.07213547,
          0.044222236,
          -0.04788202,
          -0.052451063,
          0.054713223,
          -0.04517674,
          -0.030502612,
          0.043108676,
          -0.052078836,
          0.057517253,
          -0.031255566,
          -0.06852432,
          -0.05458738,
          0.07126456,
          0.051276647,
          0.09373457,
          0.12406909,
          -0.049813922,
          -0.006325353,
          0.002309245,
          -0.13281389,
          0.0032993786,
          -0.0937823,
          -0.028328368,
          0.00568152,
          0.004172937,
          0.004786712,
          0.08350299,
          -0.042396314,
          0.0076576327,
          -0.025536079,
          0.07718535,
          0.017538486,
          -0.02232625,
          0.008378738,
          -0.11000464,
          -0.038130388,
          0.08360439,
          0.047979616,
          0.052353892,
          -0.092494994,
          0.080491014,
          0.0907231,
          0.033124637,
          0.0652289,
          -0.054267798,
          -0.015064784,
          -0.054604046,
          0.08104467,
          -0.07252402,
          0.017013194,
          0.06441075,
          -0.0672171,
          -0.022824109,
          -0.020772804,
          0.050189152,
          0.06723514,
          0.07513657,
          -0.08097041,
          -0.039550573,
          0.08556536,
          -0.055992555,
          0.006755208,
          0.0005160018,
          -0.0036651036,
          0.070024714,
          -0.06369839,
          -0.102250904,
          -0.046519212,
          -0.0051521976,
          -0.0055997074,
          -0.07136721,
          -0.12602192,
          -0.09962105,
          -0.07303435,
          0.0074057425,
          0.07751785,
          0.03359588,
          0.015626486,
          0.006462472,
          -0.112403624,
          -0.036102444,
          0.015776847,
          0.07792029,
          0.043877415,
          0.029408751,
          -0.05606631,
          -0.034898724,
          -0.021775289,
          0.022314625,
          0.0070291576,
          0.097775385,
          0.030689737,
          -0.014489115,
          0.026790773,
          0.01940529,
          -0.05760101,
          -0.0997691,
          -0.0942517,
          -0.05147392,
          -0.09337593,
          -0.07964349,
          0.029362831,
          0.115493685,
          0.11909496,
          0.16582546,
          0.052119624,
          0.058476944,
          -0.042904332,
          -0.03491643,
          -0.04670154,
          0.00522413,
          -0.035283845,
          0.07854169,
          -0.060310584,
          0.01122463,
          -0.031050669,
          -0.038430866,
          0.05940265,
          -0.042745613,
          0.033508826,
          0.050318886,
          0.014004558,
          -0.008965649,
          -0.116764694,
          -0.21991663,
          -0.118599646,
          -0.07332696,
          -0.0826221,
          -0.0043414244,
          0.13275254,
          -0.000010068211,
          0.054251686,
          0.054950237,
          -0.07482277,
          -0.04127288,
          0.06001598,
          0.04509063,
          -0.086163975,
          0.019169988,
          -0.07688964,
          -0.036951825,
          -0.023543257,
          0.015773645,
          0.06083187,
          0.04713873,
          0.04799736,
          0.0826969,
          -0.024210775,
          -0.0061824527,
          0.005178484,
          -0.07984553,
          -0.066213585,
          -0.078394115,
          -0.1439429,
          -0.09855414,
          0.07232594,
          0.0060462765,
          0.028026711,
          -0.07384371,
          0.12415666,
          0.071447596,
          0.036412153,
          0.0808889,
          0.026121845,
          0.055174388,
          -0.058510587,
          0.06094521,
          0.011315615,
          0.07492055,
          0.06335403,
          -0.015238022,
          0.07113549,
          -0.024574906,
          0.103444606,
          0.09480903,
          -0.004764413,
          0.055945467,
          -0.013528949,
          -0.03328878,
          -0.071562774,
          -0.0042388397,
          -0.05748682,
          0.017296689,
          -0.025747126,
          0.016879352,
          -0.047719322,
          -0.03571621,
          0.04163715,
          0.10688169,
          0.0001972309,
          -0.004129659,
          0.008628703,
          0.06408261,
          0.034570675,
          -0.06115872,
          0.021282839,
          0.073953256,
          0.0013418505,
          0.048412003,
          -0.06275748,
          0.044570465,
          0.028903423,
          -0.052350245,
          -0.004753799,
          -0.026238829,
          0.03885892,
          0.027491674,
          0.07363728,
          0.05429492,
          -0.034041774,
          -0.06120131,
          0.03255852,
          -0.114384525,
          0.031838056,
          -0.06740331,
          -0.022630163,
          0.06497687,
          0.02261696,
          0.06747686,
          -0.040271036,
          0.017755402,
          0.07597367,
          0.056207992,
          -0.06380453,
          -0.074177295,
          -0.06753091,
          0.048655204,
          0.045745227,
          -0.07011257,
          -0.055488754,
          0.06690249,
          -0.057965275,
          0.048017662,
          -0.020219669,
          -0.028712815,
          0.02229893,
          -0.062258948,
          -0.029259436,
          -0.080837294,
          -0.05033038,
          -0.047632646,
          0.013722925,
          0.0027052339,
          0.0607956,
          0.04572105,
          0.094428845,
          0.022728294,
          0.03328411,
          0.0820523,
          0.07401021,
          -0.0041816034,
          -0.005137313,
          0.037629955,
          0.00748197,
          0.06358645,
          -0.047098484,
          -0.048266783,
          -0.080465555,
          -0.091713496,
          0.009958974,
          -0.082749866,
          0.026646748,
          -0.033677094,
          0.11158947,
          0.053500164,
          0.03832904,
          -0.05651728,
          -0.087756865,
          -0.11446857,
          -0.07121294,
          -0.06133373,
          0.027888961,
          0.08266307,
          0.046240866,
          0.09032877,
          0.016407328,
          -0.0229741,
          0.033890698,
          -0.06596836,
          0.024523472,
          0.06377903,
          0.046324633,
          -0.05424223,
          0.061466306,
          -0.081913926,
          -0.025655443,
          -0.047341384,
          -0.05173544,
          -0.0555757,
          0.08135236,
          -0.012838846,
          0.040091414,
          0.024169423,
          -0.03335885,
          -0.018168965,
          -0.015539169,
          0.08342395,
          0.099197894,
          -0.023059629,
          -0.047906738,
          -0.064076394,
          -0.05106399,
          -0.033680677,
          -0.013612572,
          -0.008638768,
          -0.026657486,
          -0.0036143046,
          -0.07546207,
          0.014880665,
          -0.059065375,
          0.04502701,
          -0.038733263,
          -0.006006042,
          -0.06993889,
          -0.05145023,
          0.0438203,
          0.04682023,
          0.062070403,
          0.08982238,
          0.016353557,
          0.02985324,
          -0.056017075,
          0.030938959,
          0.07448546,
          -0.01552603,
          -0.048242442,
          0.028253833,
          0.03899437,
          -0.080906235,
          -0.019657547,
          -0.043148417,
          -0.049189746,
          -0.07438811,
          0.002950517,
          0.078278236,
          0.06411124,
          -0.033509195,
          -0.041171413,
          -0.05439448,
          -0.0008632019,
          -0.007020034,
          -0.067021176,
          -0.047233656,
          0.07692363,
          0.061577782,
          0.03276789,
          -0.03278401,
          0.027541196,
          0.024981877,
          -0.0021099562,
          -0.000041251154,
          0.05789111,
          -0.05737873,
          -0.009517127,
          0.05027996,
          -0.043420054,
          0.036310032,
          -0.0682449,
          0.037059203,
          -0.020705005,
          -0.06171552,
          -0.016862743,
          0.006269574,
          -0.02952388,
          -0.042366233,
          -0.04560942,
          -0.03957498,
          -0.0440277,
          0.077306576,
          -0.06732325,
          0.057954945,
          0.015331462,
          0.0029966831,
          -0.05745724,
          0.008751236,
          -0.01487042,
          -0.0069233403,
          0.045292687,
          0.06064219,
          0.01928442,
          -0.04692209,
          0.050416954,
          -0.079075605,
          0.013880007,
          -0.05180545,
          0.08039846,
          0.027461447,
          -0.07543784,
          -0.026812706,
          -0.06830419,
          -0.026994623,
          -0.034730792,
          -0.0153485015,
          0.028530821,
          -0.05641514,
          0.067174576,
          0.060317196,
          -0.021251978,
          -0.06949418,
          0.061544623,
          -0.031542704,
          0.077485405,
          -0.003800974,
          -0.005311837,
          0.032351106,
          0.012589649,
          -0.052882258,
          0.040045492,
          0.06841207,
          -0.05323897,
          -0.019204877,
          0.0060076197,
          0.05477935,
          0.015557411,
          -0.057719152,
          0.008908414,
          0.020269305,
          -0.017251968,
          0.00569091,
          -0.05972448,
          0.0045271963,
          0.01753483,
          0.009896569,
          0.06298109,
          0.022679843,
          -0.05823812,
          0.06859667,
          -0.068539776,
          0.059474528,
          0.017288793,
          -0.04159147,
          -0.010791007,
          -0.032615576,
          0.036456253,
          0.031733863,
          0.046542607,
          -0.007088609,
          -0.061276555,
          0.030097974,
          0.05327856,
          0.027821464,
          0.06225233,
          0.07040574,
          0.05442416,
          -0.07663509,
          0.026147842,
          0.080450475,
          0.027865157,
          0.038704216,
          0.06631894,
          -0.07207413,
          -0.052380305,
          -0.022638667,
          -0.057294823,
          0.0688092,
          0.08193753,
          0.07344033,
          0.07411006,
          0.059917837,
          0.02389029,
          -0.0042689373,
          0.09132189,
          -0.029884025,
          -0.02315063,
          0.06954035,
          -0.05464647,
          -0.017356468,
          -0.0059273425,
          0.019937158,
          0.03298404,
          -0.058441956,
          0.06592464,
          -0.08039159,
          -0.022660565,
          -0.024941683,
          0.02569566,
          -0.078621425,
          0.06452926,
          -0.067672774,
          -0.009190673,
          -0.053599104,
          0.049217153,
          -0.034230724,
          0.07061264,
          0.085225664,
          0.058502935,
          0.06909656,
          0.075736314,
          0.09423969,
          0.07698558,
          0.11272963,
          0.036671434,
          0.023131067,
          0.023741914,
          0.04522361,
          -0.06198776,
          -0.04141888,
          0.016287541,
          0.02875977,
          0.012977341,
          0.006372046,
          0.0018084068,
          0.07459548,
          0.0053869626,
          -0.015368219,
          -0.06252809,
          -0.020968053,
          -0.023267578,
          -0.0334389,
          -0.012373735,
          -0.05237782,
          0.056281954,
          0.042587224,
          0.029735256,
          -0.016260704,
          -0.054551307,
          -0.07143573,
          0.043982893,
          0.052599665,
          0.051898554,
          -0.039629262,
          0.04671814,
          0.008183655,
          0.036064062,
          0.04575816,
          -0.018866688,
          0.03998782,
          0.008515705,
          -0.006911727,
          0.017855294,
          0.062114708,
          -0.023221664,
          -0.08099572,
          -0.061447136,
          -0.006852369,
          -0.04334625,
          0.06359553,
          -0.029599842,
          -0.030495051,
          0.01578967,
          0.0385948,
          -0.121382676,
          -0.05158262,
          -0.0054621683,
          -0.13002221,
          0.000982244,
          -0.10402588,
          -0.11435004,
          0.020459877,
          -0.009124583,
          0.10630574,
          -0.04420138,
          -0.042842854,
          -0.023749895,
          0.092431016,
          -0.038043473,
          0.10064258,
          -0.049682602,
          -0.020489223,
          0.03496538,
          -0.0013073889,
          0.042660076,
          -0.06823939,
          0.0683353,
          0.035733983,
          0.061161637,
          -0.043451898,
          -0.06615917,
          -0.093379796,
          -0.019415867,
          -0.117055744,
          -0.06889985,
          -0.19097114,
          0.0014822022,
          0.005368001,
          0.04674,
          0.042558763,
          0.033129815,
          0.074663594,
          0.038957875,
          -0.030589273,
          0.021402704,
          0.029544005,
          0.027610125,
          -0.04890758,
          -0.050021943,
          -0.029563233,
          0.022410644,
          0.0007669622,
          -0.05356748,
          -0.020988572,
          -0.06621364,
          0.07313171,
          0.06624289,
          0.03515968,
          -0.016674327,
          0.0097591,
          -0.009458565,
          -0.007257427,
          0.0009525357,
          -0.022113409,
          -0.04560477,
          0.042393185,
          0.052497417,
          0.013433422,
          -0.05005645,
          0.05559443,
          -0.08546951,
          0.047949716,
          0.10633935,
          0.082986884,
          0.12891404,
          0.0859204,
          0.024598472,
          0.076009445,
          0.06487152,
          -0.011651936,
          0.023917373,
          -0.031428315,
          -0.043592814,
          0.0081242025,
          -0.005421978,
          -0.036429957,
          -0.03588308,
          0.002578117,
          0.03586319,
          -0.06684536,
          -0.021566642,
          -0.040525027,
          0.0767839,
          -0.018121546,
          0.07255736,
          0.066298105,
          -0.036178593,
          -0.025506137,
          -0.090492696,
          -0.044222478,
          0.049582288,
          0.0030003528,
          0.10050242,
          0.0035321736,
          0.017198892,
          -0.018246938,
          0.081294134,
          0.044259515,
          -0.057770222,
          -0.027103236,
          0.034297787,
          0.012026103,
          0.038785126,
          0.02213514,
          -0.089737326,
          0.041013688,
          0.016649747,
          0.048898414,
          0.0013505017,
          0.06284626,
          0.068981625,
          -0.04268801,
          0.02436961,
          0.03799786,
          -0.01742905,
          -0.05844307,
          0.061954472,
          -0.023590893,
          0.06371455,
          -0.017804103,
          -0.005450236,
          0.04162788,
          -0.034061413,
          -0.025996255,
          -0.019249793,
          -0.06993666,
          -0.064220674,
          0.010503683,
          0.05428064,
          -0.038911656,
          -0.05010641,
          0.052144043,
          -0.07622624,
          -0.042509574,
          -0.10312612,
          -0.025782958,
          -0.042022124,
          -0.12206798,
          -0.16114163,
          -0.10936444,
          -0.07760615,
          0.017411819,
          0.0014790306,
          -0.05689438,
          -0.004981644,
          0.009097823,
          0.019031879,
          -0.07726971,
          0.01403253,
          -0.10204096,
          -0.0482041,
          -0.054038607,
          0.07417252,
          0.018398765,
          -0.027614802,
          0.004961421,
          0.04420148,
          -0.021177456,
          0.029109068,
          -0.083807305,
          -0.012281222,
          0.017152773,
          -0.032709822,
          -0.0376139,
          -0.12271892,
          -0.20147166,
          -0.17758378,
          -0.09120981,
          -0.043199178,
          -0.009522168,
          0.033876814,
          -0.05547706,
          0.050288484,
          0.048009314,
          -0.012201732,
          -0.08734479,
          -0.06645721,
          -0.023898177,
          -0.09251386,
          -0.023285568,
          -0.010448772,
          0.023995832,
          -0.004461198,
          0.051871162,
          -0.003610679,
          -0.068658605,
          -0.006838953,
          -0.050497647,
          0.013845124,
          -0.0095362095,
          -0.08301496,
          -0.06326435,
          -0.046138845,
          -0.007935994,
          -0.16186136,
          -0.0830587,
          0.06752245,
          0.051973578,
          0.099175826,
          0.055842433,
          0.039987363,
          -0.0014435408,
          -0.044019748,
          0.015091764,
          -0.026057428,
          -0.04075901,
          -0.10714858,
          0.026927387,
          -0.046797812,
          -0.020930992,
          0.023838133,
          0.05847887,
          0.0063195997,
          -0.03223512,
          -0.0590959,
          -0.015875299,
          -0.07380011,
          -0.08380956,
          -0.11665642,
          -0.059467297,
          -0.0075662695,
          -0.01541271,
          0.0015943222,
          0.027907236,
          0.070979945,
          0.09853451,
          0.022721305,
          0.14125636,
          -0.003798861,
          0.022860236,
          -0.042106736,
          -0.02296844,
          -0.027430898,
          -0.071570925,
          -0.068087384,
          -0.04917063,
          0.028935619,
          -0.057459444,
          0.080924086,
          0.045601893,
          0.017915303,
          -0.0537404,
          0.02107009,
          0.05210084,
          -0.026223736,
          -0.06285171,
          -0.15981928,
          -0.16680035,
          -0.1500506,
          -0.05351477,
          -0.0022186677,
          0.039644036,
          0.051809337,
          0.018172057,
          0.03825582,
          0.058576807,
          0.020116614,
          0.030191898,
          0.05041055,
          -0.028877733,
          -0.08815362,
          0.0034502738,
          -0.086702675,
          -0.04132157,
          0.06776827,
          0.07377908,
          0.050045997,
          -0.052734412,
          0.020039648,
          -0.07078975,
          -0.031353947,
          0.04555921,
          -0.09915805,
          -0.06680502,
          -0.12714517,
          -0.13213466,
          -0.12553428,
          -0.067572385,
          0.029611666,
          0.10687512,
          0.028443914,
          -0.008101746,
          0.085978515,
          0.14249085,
          -0.014669138,
          0.0049888827,
          0.021283885,
          -0.11951068,
          -0.009506505,
          -0.12644407,
          -0.0145488335,
          -0.034540787,
          -0.023178015,
          5.624579e-7,
          0.072001494,
          0.077391654,
          0.016761893,
          0.03401643,
          0.10515437,
          -0.046285596,
          -0.0014466639,
          0.11341325,
          -0.0463659,
          -0.07589979,
          -0.13788325,
          -0.06419091,
          -0.0663376,
          -0.10852172,
          0.08014655,
          0.06331238,
          0.09258246,
          0.15164681,
          0.10899632,
          0.05296888,
          0.038053848,
          -0.050806094,
          -0.12334477,
          -0.058888298,
          0.022097139,
          0.06177491,
          0.04534552,
          0.041109033,
          -0.07197991,
          -0.054106634,
          0.073041275,
          0.024145646,
          -0.017482268,
          0.10771537,
          0.10772892,
          -0.020850815,
          0.06507061,
          0.069745325,
          -0.0040369746,
          -0.0016776363,
          0.032834355,
          -0.07624661,
          -0.03845184,
          0.07892352,
          0.03971268,
          0.0057700905,
          0.0281304,
          0.09490113,
          -0.06288041,
          0.030866517,
          -0.087704234,
          -0.0639967,
          -0.03720741,
          0.021553347,
          0.022777388,
          0.036646847,
          0.07446833,
          -0.03648575,
          0.0296135,
          -0.052802783,
          0.013188819,
          0.055148106,
          0.028471181,
          0.041783936,
          0.01393699,
          0.05959413,
          0.06537859,
          0.13052487,
          0.052807305,
          -0.028044388,
          -0.076419234,
          0.08842908,
          0.12282321,
          -0.02206211,
          0.032926403,
          0.07001046,
          0.007025184,
          -0.036827073,
          -0.051882077,
          -0.06687429,
          -0.05296571,
          -0.07432512,
          -0.07587089,
          0.0038091785,
          0.0389169,
          0.04861565,
          -0.035949517,
          0.0593089,
          -0.010426416,
          0.0141780395,
          0.051420912,
          0.034845036,
          -0.028014818,
          0.07959836,
          0.03126818,
          0.10074145,
          0.118641175,
          0.058569394,
          0.045043524,
          -0.039702885,
          0.051970247,
          -0.05732617,
          0.06945599,
          0.08623693,
          0.0059611434,
          0.021843364,
          -0.03188124,
          -0.07842998,
          0.024979938,
          -0.011031136,
          0.015717987,
          0.07745733,
          0.037790567,
          -0.046081945,
          -0.054249927,
          -0.011232592,
          0.0023606862,
          0.054200538,
          -0.000020375863,
          -0.018493379,
          -0.06651216,
          0.015753204,
          0.09818859,
          0.09745784,
          0.09484451,
          0.044949133,
          0.055993967,
          0.023927076,
          -0.060047105,
          -0.050384298,
          -0.08096698,
          -0.072662584,
          0.02413077,
          -0.011591123,
          0.05372225,
          0.053214554,
          -0.030355608,
          0.04856664,
          -0.037667185,
          -0.046074692,
          -0.0035143336,
          0.0788318,
          -0.07556276,
          -0.030054288,
          0.032635026,
          0.028939271,
          0.015035461,
          0.04051288,
          0.049438648,
          0.033182107,
          0.047937024,
          0.06758374,
          0.04044854,
          0.07327696,
          -0.009475226,
          -0.07704462,
          -0.054796036,
          -0.060890254,
          -0.08986472,
          -0.0037352229,
          0.0840157,
          0.007510416,
          0.011139166,
          -0.020210903,
          0.04825311,
          0.0031591398,
          -0.06499559,
          -0.027463622,
          0.06616715,
          -0.071738,
          -0.009718809,
          -0.04101403,
          0.09008572,
          0.014547008,
          -0.032294534,
          -0.04326096,
          -0.07150529,
          0.03999701,
          -0.02255755,
          -0.054149557,
          -0.08172777,
          -0.0039872997,
          -0.06125067,
          0.06772952,
          0.033093844,
          -0.023270557,
          0.051312804,
          0.00884004,
          -0.05114414,
          0.039893527,
          -0.0011127989,
          -0.0868948,
          0.0051590125,
          -0.007189633,
          0.035687275,
          -0.05334215,
          0.08025987,
          -0.06443572,
          0.019163221,
          0.04251036,
          0.08772815,
          0.07171156,
          -0.02024136,
          0.036641523,
          -0.01647002,
          -0.014976471,
          -0.07902714,
          -0.036141396,
          -0.034083944,
          -0.014331444,
          -0.025297234,
          0.04250493,
          0.0074528237,
          -0.056447465,
          -0.081265345,
          0.061564494,
          0.039407704,
          0.07427822,
          -0.07278695,
          0.050207306,
          -0.071532935,
          0.00092695426,
          -0.072260514,
          -0.033864457,
          0.0352064,
          -0.025233079,
          0.038374882,
          -0.040162303,
          -0.05781526,
          0.04649579,
          -0.06261643,
          0.035661362,
          0.099400125,
          -0.013929083,
          0.022274522,
          0.046333995,
          0.064613044,
          -0.052209474,
          0.014238153,
          -0.05244937,
          0.013805766,
          0.024958571,
          -0.0036176986,
          -0.062374722,
          -0.013353877,
          -0.022823477,
          0.027885582,
          0.02933683,
          0.07682263,
          -0.051799506,
          -0.0032230548,
          0.06070254,
          0.06104318,
          -0.059465542,
          -0.07193927,
          0.033537257,
          0.018733991,
          -0.04615746,
          -0.028533693,
          -0.0287701,
          0.053935844,
          -0.023254666,
          -0.060236793,
          0.012037208,
          -0.03742883,
          0.079489164,
          -0.06871011,
          -0.03770004,
          -0.033102248,
          0.004602073,
          0.0018512409,
          -0.022094514,
          0.048967462,
          0.03806459,
          0.050578225,
          0.018176539,
          0.0005688549,
          0.007295674,
          0.066293456,
          -0.016381688,
          0.046507023,
          0.028139219,
          0.07259592,
          -0.014557175,
          -0.062689506,
          -0.027575476,
          -0.064130716,
          -0.028217273,
          -0.051353544,
          -0.066219516,
          0.061560962,
          0.05646214,
          0.005423915,
          0.025775496,
          -0.075102806,
          0.0039799097,
          -0.052026276,
          -0.08045759,
          -0.02639383,
          -0.03643597,
          0.02247844,
          -0.03391881,
          -0.068785146,
          0.012280211,
          0.07311838,
          -0.052687235,
          -0.06451253,
          -0.029498797,
          0.0092525035,
          0.0042557046,
          -0.080866694,
          0.025490627,
          0.009689592,
          0.06949604,
          0.049258776,
          0.0030826181,
          0.01272957,
          -0.022347938,
          0.015590847,
          -0.05766894,
          -0.017346993,
          -0.047013223,
          -0.0047468543,
          0.008381702,
          -0.055098683,
          0.044334568,
          -0.017465286,
          0.070871584,
          0.019761734,
          0.020798884,
          0.056208335,
          0.058827244,
          0.07193855,
          -0.0012174398,
          -0.0118646845,
          -0.06047593,
          0.0071013942,
          -0.042136494,
          0.06612656,
          0.015855856,
          0.0063278377,
          0.05549527,
          0.020868659,
          -0.0008272536,
          0.020920213,
          -0.043504037,
          0.06704959,
          -0.059904307,
          -0.08122981,
          0.016184917,
          -0.029088954,
          -0.04379085,
          0.04249273,
          0.043378923,
          0.062308576,
          -0.025984207,
          0.006157639,
          0.05371916,
          -0.046226595,
          -0.05087618,
          0.07623734,
          -0.034264393,
          -0.009901091,
          -0.015897222,
          0.059194632,
          -0.048256215,
          0.06842636,
          0.054882042,
          -0.016135227,
          -0.0507021,
          0.07515701,
          0.040304944,
          0.06801667,
          -0.045728706,
          -0.058548715,
          0.043451145,
          0.07587392,
          -0.037868507,
          0.007309296,
          0.02012463,
          0.044740617,
          0.056204267,
          0.027470488,
          0.054467592,
          -0.01920849,
          -0.038668863,
          0.07338479,
          -0.04477097,
          0.024366349,
          0.0031613118,
          0.028286189,
          -0.012328476,
          -0.045239244,
          0.008710727,
          -0.0048988448,
          0.061664935,
          -0.03623186,
          0.0799405,
          -0.034879524,
          0.001227078,
          0.046636663,
          -0.03520025,
          0.046843626,
          0.07948219,
          0.069482744,
          -0.028268766,
          -0.08165229,
          -0.004274722,
          -0.039069064,
          0.06927295,
          -0.04627896,
          0.009623179,
          0.07918657,
          -0.01267681,
          -0.07508995,
          0.07378824,
          0.018568309,
          -0.04129583,
          0.008105284,
          0.0047859177,
          -0.022929326,
          0.08016778,
          0.07342036,
          0.00033715114,
          0.048791066,
          -0.064667545,
          0.069077164,
          0.02292436,
          -0.07031962,
          0.04877485,
          -0.00729165,
          -0.059414297,
          0.05626412,
          0.02264104,
          -0.07355114,
          0.015195541,
          -0.072732404,
          -0.08701515,
          -0.048406314,
          0.07202525,
          0.03781541,
          0.09854575,
          -0.06913134,
          0.015526904,
          0.06320774,
          -0.00182815,
          0.033091214,
          -0.03942209,
          0.049517967,
          -0.0097662285,
          0.022847883,
          -0.011229215,
          -0.021471538,
          -0.04643508,
          -0.012964198,
          -0.023033855,
          0.028141456,
          -0.0076919664,
          -0.08336158,
          0.0602188,
          -0.07035598,
          -0.044758532,
          -0.04031105,
          -0.009806361,
          -0.02864155,
          0.038397286,
          -0.060939815,
          -0.012782346,
          -0.008739286,
          0.04969773,
          -0.037392817,
          0.049600765,
          -0.051996592,
          -0.06877398,
          0.034056928,
          0.04943098,
          0.028529018,
          0.024642158,
          -0.0577602,
          -0.072890215,
          -0.03540605,
          0.05394937,
          -0.060152385,
          0.043363042,
          -0.04485222,
          -0.021946859,
          -0.0013212191,
          0.03414998,
          0.06664206,
          0.051483538,
          0.09390522,
          0.012090196,
          -0.022780998,
          -0.046877556,
          -0.061770845,
          0.06394688,
          0.076775774,
          -0.059482593,
          0.037280515,
          -0.04474293,
          0.054186095,
          -0.0072336467,
          0.067451574,
          -0.022113737,
          0.07210512,
          -0.025325654,
          -0.033619527,
          0.043969456,
          0.014400031,
          -0.038305353,
          0.016530976,
          0.045247976,
          -0.035138164,
          -0.055223476,
          0.016951554,
          -0.029717522,
          -0.06489346,
          -0.028772816,
          0.006758491,
          0.015874939,
          0.03177091,
          -0.02545054,
          -0.106467396,
          -0.016891444,
          0.032587178,
          -0.030225981,
          0.024577066,
          -0.004405115,
          -0.06122195,
          0.05388738,
          0.024092715,
          0.01609343,
          0.08077238,
          -0.020343952,
          0.00015658303,
          0.06160803,
          -0.048261303,
          0.016643418,
          0.026966544,
          -0.00930632,
          -0.048602764,
          -0.04880443,
          -0.07747509,
          0.06763583,
          0.08177909,
          -0.024549061,
          -0.023240868,
          0.04422906,
          -0.048678126,
          -0.07290802,
          -0.086479425,
          0.012981702,
          -0.10298735,
          -0.036308896,
          -0.086944334,
          0.035592206,
          -0.024017176,
          0.094385505,
          0.00560846,
          0.011242613,
          -0.04047444,
          0.0043056505,
          -0.048035033,
          0.042528104,
          -0.021079918,
          0.031632297,
          -0.017429775,
          -0.015259251,
          -0.07100042,
          -0.0812106,
          -0.00501168,
          0.06283061,
          -0.04640927,
          -0.042789612,
          -0.05591082,
          0.02733338,
          0.059683155,
          0.088420905,
          -0.002537207,
          -0.06692195,
          0.002464973,
          0.017989194,
          0.08348266,
          0.08690251,
          0.030297568,
          -0.033105224,
          -0.024302183,
          0.075227916,
          -0.033918876,
          -0.055768132,
          -0.05421148,
          0.03543673,
          0.05915827,
          -0.064091705,
          0.042176224,
          -0.07502185,
          -0.004960975,
          -0.033854194,
          0.040944148,
          -0.013535031,
          0.057403676,
          0.016572665,
          0.03807171,
          0.007736677,
          -0.03255246,
          0.12865862,
          0.09447921,
          0.034657646,
          0.04814127,
          -0.043798283,
          0.023366991,
          0.020087076,
          -0.017343193,
          -0.047333796,
          -0.0013503426,
          0.0057061533,
          -0.026076911,
          -0.07035387,
          -0.06828884,
          0.043039445,
          0.025251146,
          -0.010015691,
          0.027003575,
          -0.079760045,
          0.079934366,
          -0.03655042,
          -0.04551928,
          -0.07253948,
          -0.022327205,
          -0.021127574,
          0.048823606,
          -0.0020839425,
          0.0532561,
          0.101645805,
          0.13363773,
          0.061161462,
          0.014679078,
          0.007651172,
          0.028983437,
          -0.019980012,
          0.052722543,
          0.055272985,
          0.06403519,
          0.04425496,
          0.06832616,
          0.06784993,
          0.02819915,
          0.018505977,
          0.008004364,
          -0.015917037,
          0.035427954,
          0.08452357,
          -0.043485973,
          0.026357295,
          -0.0813171,
          -0.03125423,
          -0.016787915,
          -0.021239363,
          -0.057823315,
          -0.06601557,
          -0.078779146,
          0.041760974,
          -0.015761284,
          -0.031208841,
          0.030921727,
          0.0050113047,
          0.058892734,
          -0.02696397,
          -0.024844415,
          0.03763396,
          0.06893842,
          -0.07602119,
          0.045809448,
          0.013650611,
          -0.07480735,
          0.008789326,
          0.022377593,
          -0.022836706,
          -0.011321372,
          -0.04990623,
          0.06888416,
          0.089793585,
          -0.079007454,
          -0.018245855,
          -0.026638746,
          -0.025479704,
          0.03880813,
          -0.03842909,
          -0.076346844,
          -0.10360194,
          -0.09174942,
          -0.086410575,
          -0.077929005,
          -0.060858473,
          -0.025475597,
          0.03607519,
          -0.022130987,
