{
  "path": "ML-saves/second-attempt.json",
  "iteration": 200100,
  "layers": [
    {
      "from_amount": 784,
      "node_amount": 10,
      "weights": {
        "v": 1,
        "dim": [
          10,
          784
        ],
        "data": [
          -1.7470132,
          -2.8471968,
          -7.647077,
          7.0209174,
          3.7575889,
          7.122301,
          6.2240515,
          -3.634474,
          -0.30261314,
          3.9312596,
          -2.4706933,
          -5.5686603,
          4.400703,
          -22.929018,
          -8.332611,
          -9.4198,
          -1.3018457,
          -19.050667,
          2.7158048,
          9.844451,
          -4.153956,
          -2.1865275,
          20.187246,
          -2.0810819,
          -8.937829,
          6.59041,
          0.775808,
          6.484689,
          -15.56537,
          10.970447,
          -2.6684742,
          12.349801,
          2.7097964,
          1.3337272,
          4.0977964,
          -4.2366734,
          18.675161,
          15.089832,
          2.6574407,
          1.8393054,
          -8.057362,
          9.337303,
          -12.049256,
          -1.1499763,
          6.0610733,
          10.531135,
          -1.7781264,
          4.0768194,
          7.324857,
          6.2439666,
          -9.530029,
          -10.238733,
          -5.0132575,
          -1.1334645,
          19.40094,
          0.89814395,
          5.085797,
          1.1159921,
          -5.820343,
          5.714495,
          0.62860256,
          9.308789,
          -1.5250958,
          9.9561205,
          -11.368392,
          5.0130177,
          1.2474202,
          -23.639906,
          -8.077827,
          14.098102,
          4.220657,
          -7.7744675,
          -8.7526045,
          -0.24023467,
          -10.767501,
          1.2882246,
          -1.2119864,
          2.570563,
          -9.865178,
          1.8774793,
          16.658852,
          -6.4765987,
          -13.2798815,
          -6.9804087,
          2.1678028,
          -17.71066,
          -5.7968273,
          19.05879,
          3.2386806,
          -5.1802087,
          -15.123166,
          1.5353425,
          -8.205254,
          11.983528,
          2.6230373,
          0.5086754,
          7.913587,
          3.1190116,
          -1.1138372,
          -1.9033265,
          -12.768258,
          1.5140017,
          -6.9137764,
          -7.0833154,
          19.090412,
          3.408535,
          -4.6144013,
          4.609633,
          -0.9490263,
          10.076922,
          -7.8892555,
          16.052996,
          -1.5272477,
          -6.6220555,
          4.5161605,
          10.559859,
          11.713823,
          -10.158034,
          -4.081904,
          -7.6009483,
          3.0221553,
          7.5833106,
          4.855878,
          10.538028,
          -4.2884493,
          23.970322,
          -14.742176,
          -4.5099072,
          12.912103,
          18.28265,
          5.282481,
          -4.742253,
          6.1503572,
          -17.102283,
          -6.9999285,
          -6.3479576,
          -6.1422887,
          -8.319602,
          -0.9518405,
          -8.611822,
          9.711624,
          19.657557,
          17.177832,
          -1.8192649,
          -5.6058235,
          -10.387286,
          -11.008969,
          -8.029052,
          -5.202673,
          -11.461018,
          -5.239313,
          1.4234895,
          1.0703305,
          2.1450963,
          -22.8545,
          2.0830219,
          -10.657823,
          6.3240433,
          2.17305,
          -4.1781907,
          -3.739602,
          -1.9590027,
          -0.15767814,
          2.5616379,
          -10.754683,
          -27.838137,
          5.8231683,
          -14.148789,
          -6.0074015,
          -2.464792,
          -12.954358,
          8.590008,
          -2.294562,
          -2.2168846,
          -0.69844997,
          -1.2424855,
          -0.9414331,
          -2.9448125,
          -4.2535996,
          -5.2911053,
          8.441264,
          2.8610675,
          -1.3752588,
          9.112639,
          12.342894,
          -6.389132,
          3.7467613,
          0.2140048,
          -6.82605,
          19.635227,
          -3.55027,
          -0.016278662,
          -16.166855,
          8.528481,
          3.4919224,
          -3.0220864,
          -1.7922547,
          6.189786,
          -0.41746065,
          6.7159786,
          0.7458441,
          -1.5106984,
          6.656764,
          6.373017,
          -3.3223536,
          -9.109685,
          13.737,
          -1.9843076,
          -11.311948,
          -8.046131,
          -4.508695,
          0.65333444,
          13.560856,
          9.817898,
          15.5517645,
          -2.884622,
          -0.92263496,
          -14.334729,
          6.333793,
          2.7612438,
          -5.476772,
          3.9694204,
          -3.060604,
          -0.0013346114,
          -4.547077,
          -1.7241485,
          12.116124,
          -10.7654505,
          -10.354595,
          -1.7091895,
          -16.921358,
          -2.1419444,
          14.91547,
          -2.6619914,
          -1.8640666,
          -0.24035132,
          19.361633,
          4.9910283,
          3.122521,
          -11.655866,
          0.22430794,
          0.5613769,
          4.6888566,
          6.197382,
          -13.762697,
          -1.0315727,
          -0.6135947,
          -6.925153,
          6.320687,
          4.2198176,
          3.3350024,
          -8.28654,
          -1.9679396,
          6.607796,
          -13.572026,
          7.846814,
          19.52507,
          -13.616759,
          0.7936288,
          1.0230882,
          -11.534375,
          6.565772,
          -15.601671,
          7.405799,
          10.708535,
          -1.5523628,
          11.818796,
          -0.10208648,
          6.328591,
          -3.5702,
          -8.961047,
          -0.0092036445,
          0.97645885,
          9.9385195,
          7.496118,
          9.568984,
          8.453964,
          -1.8376015,
          -4.8483872,
          12.86499,
          -2.4630034,
          12.077264,
          5.7349734,
          4.1422324,
          -0.7488637,
          19.65857,
          -0.06255732,
          -9.152095,
          -7.5869665,
          -0.07920583,
          -5.2466397,
          -6.949917,
          -6.0217266,
          -1.7363626,
          -5.003088,
          3.7777445,
          -4.089015,
          1.0750427,
          -3.931716,
          16.955734,
          -0.7239255,
          7.783212,
          -10.403477,
          13.691985,
          6.163768,
          -0.4061133,
          -4.837406,
          -9.718796,
          -13.842764,
          -14.1407,
          -1.784072,
          -7.6991625,
          4.6387644,
          -0.41599524,
          6.2905903,
          0.13429421,
          -2.7169182,
          2.154896,
          -17.93991,
          5.5080996,
          3.9907286,
          -7.727418,
          -6.7274466,
          -1.1642616,
          2.4632359,
          -4.1018834,
          10.5500555,
          1.8492316,
          1.5100204,
          4.635055,
          3.7921045,
          9.457668,
          -10.91079,
          -7.4712067,
          4.9481444,
          5.291956,
          -9.777194,
          -7.14477,
          -0.086179025,
          4.417717,
          5.1820364,
          -14.508229,
          3.622794,
          -10.196974,
          4.8511896,
          9.321524,
          11.644045,
          8.390577,
          -18.786045,
          -5.892602,
          -6.997111,
          -7.4906764,
          -0.12141509,
          -5.432157,
          1.9581822,
          0.7500822,
          2.1910212,
          -5.4918623,
          -3.8485935,
          -0.37309724,
          2.9350793,
          2.0747144,
          -2.1652572,
          5.775428,
          -5.4529867,
          -0.059499566,
          20.837461,
          5.514948,
          -5.991893,
          15.675877,
          8.783515,
          7.8046255,
          -5.8457565,
          -7.1177573,
          0.23162673,
          3.5990267,
          -3.5757852,
          5.4757195,
          -7.5207124,
          -15.137372,
          -9.889197,
          4.410025,
          -13.050446,
          -0.97679293,
          0.8340591,
          14.661646,
          6.0960145,
          7.9187202,
          -0.04890056,
          -15.311511,
          3.869455,
          -6.194701,
          7.2519236,
          4.096014,
          -17.738369,
          6.6995125,
          -26.207222,
          12.191604,
          -2.9393144,
          -9.697288,
          11.529223,
          5.78169,
          -2.655943,
          7.357122,
          1.546004,
          -19.809227,
          -10.684079,
          -5.4310827,
          -23.455416,
          -7.718016,
          -30.601662,
          1.4375764,
          0.886117,
          -5.159705,
          -1.2641463,
          6.9985895,
          -13.774624,
          1.2041365,
          -7.5165553,
          3.3849869,
          11.727541,
          3.9664044,
          -12.725154,
          -11.996944,
          8.438493,
          -0.47560614,
          14.65281,
          6.8058047,
          9.863174,
          -3.6993198,
          -8.677534,
          -5.7894545,
          -19.168945,
          -6.57736,
          -3.0615845,
          -26.300543,
          0.92067623,
          -3.5666592,
          -10.001182,
          4.663864,
          8.19477,
          0.63255525,
          2.1222777,
          1.0218081,
          -10.598534,
          -4.8765025,
          -6.20854,
          -1.9902328,
          1.0169467,
          -8.340992,
          -4.020369,
          6.1443524,
          -9.506631,
          10.635743,
          11.717339,
          -5.3302236,
          5.492296,
          26.194178,
          -7.321417,
          -1.6506473,
          -15.212119,
          -15.673781,
          -14.529011,
          -0.48071098,
          -25.33578,
          16.743015,
          2.9711215,
          3.0040717,
          -4.9862266,
          17.73382,
          10.672572,
          12.993008,
          1.9712875,
          11.363171,
          8.993075,
          -4.3279133,
          8.075715,
          -0.7458714,
          -0.72611916,
          8.1037035,
          13.697782,
          5.5064163,
          24.132374,
          10.596886,
          -5.338344,
          12.62591,
          18.890184,
          -0.89580995,
          -0.7170509,
          -8.305472,
          -5.523168,
          -16.591816,
          17.004545,
          3.0619354,
          -2.9214232,
          -7.4730873,
          -2.1523001,
          -11.252291,
          -16.713839,
          10.864076,
          1.5822664,
          -3.8880825,
          -8.223723,
          10.2449,
          4.549683,
          -4.156626,
          -0.28114703,
          -7.126569,
          -8.075278,
          0.5724255,
          -9.9524355,
          -5.011084,
          16.021078,
          -0.6597279,
          10.507672,
          8.870073,
          -18.168835,
          -18.749285,
          -6.221388,
          -10.400565,
          -15.808367,
          -1.0420471,
          4.7969513,
          -6.255601,
          -8.798688,
          7.868923,
          8.020019,
          -8.314788,
          -11.955351,
          -5.4019914,
          9.190738,
          -4.732702,
          -4.6028066,
          -2.7095773,
          3.9831924,
          4.4864974,
          -3.9378464,
          0.7279716,
          -4.721305,
          0.9996929,
          -0.68485415,
          -3.9432352,
          2.1196291,
          0.4869694,
          -11.772525,
          2.8985503,
          -2.5422094,
          -10.941905,
          -15.336118,
          4.3400297,
          -7.1014657,
          9.755033,
          -13.229643,
          -4.0022306,
          -12.173605,
          21.06352,
          -9.979897,
          -11.137172,
          -5.0502186,
          -1.2426956,
          2.1519442,
          -14.354414,
          -0.26757908,
          0.79963905,
          -4.9250007,
          4.323582,
          3.9042065,
          21.40353,
          0.25576812,
          5.1883373,
          -4.000805,
          -1.2908423,
          1.9044161,
          -1.1831727,
          7.2274723,
          -4.8434434,
          -9.7349,
          -0.7245838,
          -10.084839,
          2.5245,
          -4.3483257,
          -14.89247,
          0.22533402,
          3.222328,
          -12.570467,
          15.973327,
          3.937022,
          -3.9518166,
          0.90609616,
          11.786488,
          -9.362909,
          -23.269213,
          15.549152,
          -8.609141,
          -2.2376995,
          -13.230923,
          6.5393777,
          9.602662,
          9.222993,
          12.324058,
          -0.98934567,
          7.1710763,
          -17.417048,
          -1.4374275,
          -11.696218,
          8.854916,
          -6.310769,
          11.588086,
          0.9481246,
          -14.609791,
          0.033161383,
          -9.117687,
          -5.6160026,
          -12.999183,
          12.667989,
          -3.980413,
          12.782586,
          -8.735635,
          8.807208,
          -16.338549,
          14.045801,
          -17.433056,
          1.5198749,
          5.7977,
          -1.4589051,
          -0.66362417,
          2.56155,
          16.752592,
          1.266567,
          8.329449,
          -5.9222608,
          9.906371,
          1.3695567,
          -12.660627,
          17.761662,
          -10.202858,
          -5.364139,
          -7.57592,
          -4.74521,
          4.017565,
          -9.053619,
          -1.9384701,
          8.091865,
          11.879937,
          0.92694163,
          5.1264625,
          -13.530908,
          -14.924841,
          -8.413196,
          -4.357654,
          12.056129,
          -3.368205,
          0.9789723,
          14.042928,
          -1.8404604,
          0.24541788,
          -5.901847,
          9.440664,
          -10.104252,
          -14.3742,
          -13.046892,
          0.3621329,
          -9.4094305,
          -15.802116,
          21.181318,
          -4.437412,
          -1.3802698,
          -2.9353147,
          -2.48459,
          4.926111,
          5.5788245,
          -8.387808,
          14.315875,
          -6.6378236,
          -4.7565074,
          0.21503034,
          -7.310257,
          8.224821,
          4.702661,
          8.536045,
          0.45917752,
          -19.370674,
          3.299147,
          9.540735,
          3.477357,
          22.035845,
          3.6882892,
          -7.8530912,
          -5.4046516,
          9.734346,
          -0.87196124,
          -1.7306598,
          14.738679,
          -1.0336878,
          -8.572419,
          -14.404555,
          -6.599966,
          -13.4502735,
          6.5259027,
          -12.452808,
          -1.0087643,
          -7.7871547,
          -4.3494735,
          2.2440064,
          6.6295805,
          -7.083274,
          20.62576,
          7.5812526,
          -3.2303605,
          9.595979,
          -11.814453,
          -12.050149,
          -5.8690815,
          -1.7948436,
          7.497965,
          -9.306821,
          -20.013186,
          -16.403276,
          9.177495,
          -2.7777889,
          1.216534,
          -4.1678896,
          8.369484,
          -2.277467,
          -0.04050163,
          -17.042534,
          0.77456063,
          -10.136083,
          -9.622777,
          -5.720192,
          16.979752,
          4.566662,
          -5.359073,
          0.67558396,
          -4.369382,
          15.209791,
          -11.045956,
          4.7889814,
          -9.027073,
          22.784117,
          -3.063819,
          -3.896939,
          -10.030915,
          13.093445,
          4.05743,
          11.080413,
          -1.3783938,
          -4.1384554,
          8.493,
          -19.153454,
          1.0604836,
          2.2343636,
          -10.829657,
          -6.509528,
          -7.8531084,
          1.7951448,
          -0.8204132,
          5.752364,
          5.6720867,
          -2.8414197,
          11.353084,
          -2.5095735,
          4.3003573,
          2.7042153,
          -0.99271476,
          10.009823,
          6.3397336,
          1.1833625,
          0.59062386,
          3.4916627,
          5.7269425,
          -3.9418771,
          2.421066,
          -0.73400605,
          -1.3621513,
          -15.185244,
          -7.8090243,
          -14.182764,
          -7.1751924,
          9.649097,
          12.267586,
          -8.426945,
          -2.4092433,
          4.0994043,
          -5.3981857,
          -11.092937,
          -14.783677,
          -8.592988,
          -0.34623212,
          -2.134268,
          -7.4966,
          11.614601,
          5.018919,
          -7.298603,
          -3.6271448,
          14.8468485,
          9.857771,
          -7.6361294,
          3.030268,
          1.9505004,
          7.7947564,
          17.615685,
          -10.1842,
          3.6437612,
          -2.3628173,
          0.31816968,
          -3.3670914,
          -2.6800437,
          -6.1677637,
          -15.7136345,
          -3.2292755,
          7.8592906,
          8.369701,
          13.9000845,
          4.6157613,
          -3.723572,
          0.90197486,
          0.6414682,
          12.557396,
          -6.7584743,
          -0.8643772,
          -2.2634256,
          -3.2555602,
          4.7449956,
          3.4562962,
          0.12853114,
          -4.8004804,
          0.5136461,
          7.5912466,
          21.50866,
          2.4660487,
          8.682768,
          4.0220814,
          -2.934194,
          -4.9014897,
          -1.4441848,
          -5.5609107,
          -13.260358,
          -3.3068106,
          -17.34922,
          7.3074555,
          -13.487049,
          -14.614244,
          6.838098,
          8.055266,
          2.4659345,
          6.1762877,
          6.0731153,
          -13.569822,
          -4.7794557,
          -4.4328,
          2.4308586,
          -4.3898935,
          -1.344445,
          10.469339,
          3.3194895,
          -15.201216,
          -5.500293,
          13.929775,
          -7.0815115,
          -4.281802,
          -1.8662469,
          2.5715215,
          -3.8469398,
          -1.2482996,
          9.179545,
          4.7291107,
          2.4016361,
          -3.0772605,
          1.6376069,
          12.1468315,
          -2.7170508,
          -9.309565,
          1.8505929,
          2.0105524,
          5.255431,
          -15.931418,
          -7.2117977,
          7.5257297,
          1.2530731,
          3.0783615,
          6.4765043,
          -1.9278326,
          -13.601499,
          -16.17297,
          -2.9605544,
          6.0751953,
          -6.5335417,
          -10.781466,
          1.2621596,
          -4.553729,
          -11.317905,
          3.0217862,
          4.612635,
          -1.7747895,
          1.1918817,
          -0.5753579,
          -0.10071166,
          -10.18561,
          -9.166412,
          -3.8978112,
          8.591161,
          -0.5329966,
          14.885834,
          -15.219026,
          -12.036795,
          -11.661956,
          6.344705,
          -0.2556791,
          2.2208881,
          9.718459,
          -15.164141,
          -4.1777925,
          -3.443329,
          -5.6820145,
          -8.345518,
          -4.888643,
          -0.9075168,
          15.735719,
          -2.4578812,
          4.3388944,
          14.590609,
          -0.11526412,
          1.4277128,
          6.42694,
          2.9305284,
          -0.5081934,
          -1.2039534,
          9.192481,
          -3.7209198,
          12.2044115,
          -5.1994452,
          -1.6146028,
          -4.400048,
          -5.8372087,
          4.585968,
          9.566563,
          -0.23448594,
          5.15559,
          -2.8461578,
          -2.1475797,
          4.03341,
          4.7827015,
          -2.1257677,
          14.286376,
          15.072319,
          7.4348254,
          -1.7760354,
          -9.291687,
          -9.143359,
          -6.3258076,
          -4.433226,
          6.402393,
          -9.280867,
          3.1533134,
          16.51818,
          8.733321,
          5.0505867,
          -3.7343783,
          -2.179585,
          19.092602,
          -11.497702,
          2.1347022,
          -24.406822,
          5.2654085,
          -3.4904063,
          3.8759785,
          0.41714442,
          -21.360857,
          10.996336,
          -3.9351733,
          -23.379343,
          4.5858583,
          14.201931,
          3.1124578,
          -4.0416384,
          -14.216669,
          12.507204,
          3.467427,
          -4.753734,
          -13.690568,
          -11.012768,
          7.7872677,
          9.107564,
          -4.2352858,
          -16.77602,
          4.670835,
          7.3859577,
          -0.8345532,
          -3.0102205,
          -9.360267,
          -6.980824,
          14.191158,
          -9.48188,
          3.830256,
          -7.3091583,
          8.215582,
          -10.1363325,
          11.7596855,
          -1.5384649,
          -12.289744,
          -0.8642774,
          15.571345,
          -5.0968513,
          -4.7281966,
          -3.206618,
          -4.871223,
          -14.491601,
          -0.3821173,
          -6.281464,
          -9.702534,
          1.024373,
          -14.958059,
          5.9869328,
          -12.340524,
          4.3663573,
          -1.9248594,
          -7.6505423,
          19.02092,
          -18.633995,
          -20.440355,
          9.477053,
          0.67809707,
          -4.5271134,
          -10.449123,
          -11.84937,
          -11.089387,
          -0.93488604,
          -7.0788584,
          -25.86819,
          -17.814543,
          9.107991,
          -1.0549713,
          -14.120575,
          5.282656,
          2.2731245,
          -9.7424345,
          12.433019,
          -1.0454822,
          19.367737,
          -0.047786612,
          -5.9626617,
          4.7001214,
          3.4797459,
          -19.524652,
          4.5219293,
          -2.7593117,
          -4.4407425,
          1.9545923,
          4.409218,
          8.029385,
          0.99613315,
          9.040541,
          9.429313,
          9.203109,
          7.454417,
          11.375295,
          -11.881547,
          -6.0339384,
          6.340633,
          -2.440759,
          3.977605,
          6.6931977,
          8.528421,
          0.9440784,
          6.3487754,
          4.5869026,
          -7.8094153,
          14.888583,
          8.909906,
          14.611435,
          -4.85973,
          13.865885,
          -19.282314,
          4.21564,
          9.688765,
          -2.8133354,
          -8.356137,
          -1.5326368,
          12.044954,
          -8.431619,
          -6.907235,
          -9.435574,
          -17.36151,
          -2.5501883,
          2.524575,
          -20.639977,
          3.0335913,
          -0.41258734,
          -8.599176,
          -6.323978,
          5.7481647,
          -4.4468017,
          -16.937534,
          10.91246,
          -2.5785587,
          -7.5792875,
          -3.9842753,
          -3.4577568,
          7.898168,
          -6.6395755,
          1.2024103,
          4.487995,
          0.20790383,
          2.7308712,
          0.9541179,
          8.550973,
          -2.300038,
          4.525553,
          -1.0945245,
          -0.33821478,
          -16.786896,
          -2.799725,
          -2.0950544,
          0.77681094,
          1.7804797,
          6.2454853,
          -0.8666486,
          -6.8910294,
          16.882492,
          -16.52964,
          -3.6691675,
          -0.729859,
          -13.574408,
          19.134604,
          -11.515372,
          10.342958,
          -9.75287,
          -5.2119374,
          2.989812,
          -9.41081,
          -17.053898,
          -5.279876,
          6.238801,
          20.679583,
          14.917604,
          -7.9693046,
          -10.485718,
          6.857651,
          0.91683435,
          -7.454948,
          -3.2531219,
          4.2581573,
          4.689904,
          4.593038,
          17.86219,
          -2.180996,
          -7.0737114,
          9.45704,
          -15.550266,
          2.9220114,
          -11.537813,
          -10.056628,
          -12.43099,
          -19.983873,
          -7.5773096,
          3.209281,
          -7.242634,
          -3.254877,
          -6.9478073,
          7.6688004,
          -3.5982785,
          22.068554,
          5.7983856,
          11.356279,
          5.6299005,
          -4.624728,
          14.945119,
          -16.507448,
          6.281277,
          12.021474,
          11.676372,
          8.956724,
          -7.84725,
          -3.708924,
          5.113611,
          -9.360624,
          -12.302881,
          -5.282716,
          -13.513782,
          -0.25764826,
          1.1497146,
          -6.851367,
          -7.8542614,
          7.1856933,
          -8.096357,
          1.1286772,
          -9.440714,
          -4.3289,
          0.9402239,
          16.138475,
          1.8961473,
          -3.5318894,
          3.0576484,
          -4.499809,
          -7.551471,
          -29.79328,
          -0.30972558,
          -2.6221182,
          -4.271782,
          17.295038,
          -9.651669,
          -11.700207,
          -0.86931986,
          3.6674778,
          7.943998,
          -9.905112,
          -4.9996815,
          -7.1852846,
          -17.129232,
          -3.5589051,
          8.495097,
          -22.115713,
          3.56108,
          5.277014,
          2.2098277,
          1.9862974,
          0.4078924,
          8.924671,
          8.763326,
          -12.824435,
          -12.234131,
          -2.5434523,
          -15.4970875,
          -7.9432116,
          -0.1979893,
          -1.0710969,
          9.706497,
          8.4000025,
          -1.0817444,
          7.9366035,
          -4.01419,
          12.207217,
          9.874029,
          10.235191,
          -7.8425508,
          -4.824445,
          14.850578,
          2.694533,
          7.240556,
          -2.6481705,
          -7.320611,
          -5.833955,
          -19.022366,
          8.888354,
          -6.3607225,
          9.48427,
          10.722158,
          -10.411794,
          -9.519286,
          1.97092,
          -24.586782,
          -14.424756,
          -6.4199057,
          -4.658148,
          3.943741,
          8.64176,
          5.813768,
          -6.3716083,
          0.30410743,
          2.563297,
          -16.893543,
          -4.578138,
          -7.7928095,
          -5.0767193,
          -12.358274,
          -2.4709148,
          12.22049,
          -1.7360225,
          -1.1551203,
          8.471763,
          14.916713,
          -4.168407,
          7.0371995,
          8.781117,
          -4.592653,
          9.717491,
          -17.11558,
          -15.1887045,
          -0.41452816,
          -4.7346926,
          8.585194,
          -11.468077,
          -2.2995982,
          -0.7360971,
          -8.198318,
          -1.2192482,
          -1.1437085,
          -8.905715,
          2.5813415,
          14.945665,
          -2.8956008,
          -10.575193,
          -13.0778055,
          -2.4026756,
          6.4870515,
          -9.494636,
          3.4236624,
          -2.584108,
          -0.6465649,
          7.986837,
          1.3457304,
          -4.43057,
          -1.7163454,
          -9.323454,
          -3.4409022,
          6.2090235,
          -2.8899865,
          2.6871862,
          -1.0463184,
          2.8623745,
          -14.779639,
          -6.7018876,
          -1.4222853,
          0.6929415,
          -8.735052,
          10.943987,
          10.772788,
          -4.556529,
          -6.4956665,
          2.0438607,
          -6.275566,
          -5.8855414,
          5.0861564,
          -3.733719,
          -5.222676,
          -6.5936055,
          6.0085588,
          -8.348315,
          15.532891,
          -1.1536838,
          3.4589615,
          -6.4590783,
          -1.0357498,
          -11.914856,
          -1.8104329,
          -6.866844,
          -15.054924,
          -13.289945,
          9.555142,
          -9.154712,
          -5.398199,
          -21.042536,
          3.0427973,
          -2.7231743,
          -9.361058,
          -0.8797876,
          0.7229358,
          3.8411052,
          -3.6639564,
          0.24947152,
          14.552581,
          -8.639764,
          2.9115767,
          -3.7092173,
          6.14413,
          3.869323,
          -3.8322105,
          -0.150477,
          -4.831738,
          -3.023562,
          -10.042745,
          3.0381076,
          1.3731709,
          -3.0218787,
          -16.368555,
          1.7671711,
          7.927348,
          -4.5645866,
          -4.9679513,
          -10.933696,
          12.844472,
          -8.876614,
          -6.644277,
          -9.951128,
          -2.0155118,
          -23.023521,
          -2.6743875,
          -0.25766516,
          -1.2430143,
          8.559297,
          15.963007,
          -6.4377165,
          -1.9991573,
          4.661963,
          -4.300523,
          4.8430395,
          7.158046,
          -1.1742293,
          -5.070206,
          -0.13997965,
          -20.784082,
          -4.4888186,
          -4.5589633,
          -11.439868,
          8.625668,
          -7.0320477,
          -1.640263,
          11.7377825,
          -11.088453,
          -15.792761,
          17.944942,
          2.1591759,
          -12.433693,
          -6.0712566,
          11.746514,
          -21.848427,
          -0.18532379,
          -4.885499,
          -5.2515845,
          -8.348746,
          -7.6665926,
          2.608592,
          -2.5960522,
          -16.244709,
          2.1721017,
          12.148148,
          0.22682521,
          -11.266956,
          11.962753,
          -23.1476,
          -10.480274,
          4.9090266,
          5.1886845,
          -5.8284607,
          0.35426596,
          12.19246,
          3.8991086,
          -3.4571145,
          0.5911021,
          9.81319,
          -2.9177058,
          5.162094,
          -3.2981079,
          24.091593,
          9.218579,
          -8.310891,
          0.7625092,
          -0.9392038,
          -2.1582747,
          -1.5995483,
          -15.202643,
          2.0462406,
          -16.513365,
          -4.2638497,
          21.724186,
          5.060976,
          -1.6035973,
          1.8780125,
          -9.922409,
          16.431698,
          11.592922,
          7.8696065,
          13.58608,
          0.25633657,
          -11.381535,
          4.7546873,
          -5.06374,
          10.326988,
          -7.4993763,
          -20.801777,
          -3.9525206,
          -14.523054,
          -2.375186,
          -15.699377,
          8.940685,
          -13.239693,
          -11.652312,
          -0.16904028,
          -13.2059765,
          -0.37797824,
          1.6088434,
          -17.038242,
          5.401921,
          -5.9825306,
          -2.9808676,
          3.5046253,
          -4.8031316,
          0.30590042,
          22.980423,
          -16.58792,
          -0.505594,
          -2.9837222,
          -0.2119368,
          8.860265,
          -1.0677851,
          -0.18799865,
          -5.44305,
          2.0128372,
          3.2975008,
          -1.748844,
          -5.0100822,
          -17.132267,
          -10.846669,
          14.263847,
          -1.4614623,
          0.58143437,
          -11.374609,
          -3.8614254,
          -11.434815,
          8.0838175,
          -1.8538991,
          -0.8767124,
          3.5550706,
          8.635575,
          4.1173635,
          -5.5217414,
          1.6595744,
          -3.8648157,
          3.531479,
          -8.628584,
          -0.8422754,
          -1.571171,
          8.322114,
          -1.9556772,
          1.1748358,
          8.433984,
          -9.825826,
          -13.115608,
          6.391916,
          0.4776028,
          -7.6252456,
          3.1884847,
          -10.231337,
          11.38224,
          5.8269615,
          19.76916,
          -2.1502676,
          -16.821354,
          12.109784,
          8.709837,
          -16.380888,
          7.5048637,
          -3.987167,
          10.341535,
          -9.584845,
          2.1570783,
          -2.4298756,
          -16.425356,
          19.120113,
          -20.472301,
          -4.393412,
          5.357657,
          -2.9196575,
          -5.491019,
          -0.10261095,
          -1.6660289,
          -2.9503028,
          6.670905,
          -10.0619,
          3.0984406,
          1.8358716,
          2.1994033,
          4.364623,
          -15.119645,
          17.274878,
          9.494756,
          4.9163027,
          0.0376879,
          -1.0311671,
          7.708172,
          13.675352,
          23.189795,
          2.7857652,
          8.001653,
          -15.188826,
          -7.708677,
          7.195438,
          13.404536,
          0.082023054,
          -0.27163154,
          -3.515854,
          4.949535,
          2.7810967,
          5.7070475,
          11.663492,
          13.592774,
          -6.075228,
          -22.043547,
          21.197037,
          -7.029996,
          -11.707007,
          -18.051914,
          -0.19233961,
          -4.154944,
          -18.736938,
          -9.8539505,
          -4.0355077,
          15.995611,
          -1.6598694,
          10.048341,
          -4.2461343,
          -20.625608,
          -2.5818865,
          -15.431027,
          -1.8261682,
          -3.2924922,
          -1.3472093,
          -6.0359077,
          -2.524119,
          -11.596339,
          0.77001363,
          9.302459,
          8.06695,
          -2.9596105,
          21.61404,
          -11.969932,
          3.9753077,
          -0.97749126,
          -12.775252,
          -1.0090023,
          -2.888717,
          1.6661093,
          -12.86824,
          18.889751,
          7.6651464,
          -0.20651348,
          14.441058,
          -2.5098379,
          12.045297,
          0.6358037,
          1.9267683,
          0.14151742,
          4.679628,
          -0.7035097,
          -1.9827846,
          4.0815015,
          -10.128027,
          5.797307,
          8.346306,
          20.360212,
          -9.684972,
          1.7755034,
          -2.7153,
          5.4266934,
          19.140709,
          13.740493,
          -4.7117977,
          7.6194763,
          -14.148619,
          -7.1981053,
          2.5475466,
          5.326092,
          1.4956028,
          8.359126,
          -6.76956,
          4.6487417,
          0.90272593,
          -9.162367,
          -5.983327,
          5.2302046,
          -17.196611,
          12.036811,
          -4.058699,
          -6.744258,
          -6.699964,
          6.145359,
          0.022084324,
          7.1856875,
          -4.206233,
          7.984007,
          3.768642,
          -2.2438464,
          -4.0580225,
          -7.965636,
          -7.43768,
          9.650178,
          -5.764054,
          2.7252495,
          5.5899143,
          3.9622,
          -9.667417,
          7.648312,
          14.590441,
          -4.180987,
          -5.67623,
          3.0355775,
          -3.6942987,
          8.928264,
          15.949839,
          3.962855,
          -6.026917,
          8.390607,
          -3.5742254,
          -10.063057,
          3.305487,
          -7.3704047,
          8.706202,
          -0.076588795,
          14.77623,
          -13.144168,
          3.6019418,
          28.638117,
          -8.115048,
          4.4012218,
          18.887321,
          -9.630613,
          1.4100671,
          0.44212452,
          0.40418988,
          -2.2322674,
          3.929145,
          6.441597,
          -7.49171,
          3.7921202,
          7.915731,
          4.788132,
          -1.4423717,
          0.18971199,
          -15.107136,
          2.9602263,
          1.2820363,
          -10.707596,
          1.1126027,
          8.83409,
          8.379711,
          7.9739947,
          -20.39295,
          12.502369,
          1.4672904,
          -10.21581,
          13.366245,
          2.9808655,
          1.8277661,
          -5.948732,
          10.542055,
          -9.727052,
          1.491348,
          -0.7978633,
          -3.6450973,
          -5.6121325,
          14.42685,
          10.577772,
          -2.3328989,
          -10.155015,
          -2.1769135,
          11.009001,
          -14.409193,
          -16.814383,
          0.081266485,
          3.2870467,
          3.2959993,
          -14.39271,
          3.6739578,
          -7.6975474,
          -1.5360427,
          -4.3272815,
          10.655568,
          4.043077,
          3.5970376,
          -1.1480877,
          7.8126483,
          5.515667,
          9.144773,
          3.422507,
          -4.3572755,
          1.8169191,
          -1.2207626,
          -11.548561,
          -4.1778636,
          -2.6771345,
          -9.978963,
          19.547155,
          0.7426922,
          4.388048,
          1.8044536,
          -6.9024973,
          12.248911,
          -8.229236,
          4.4804516,
          5.195446,
          14.426349,
          -14.472569,
          5.644056,
          3.3496475,
          -3.252101,
          -12.983334,
          4.5669823,
          3.7098124,
          -5.2202277,
          -5.289249,
          10.046747,
          4.003926,
          -3.7871377,
          -6.2685657,
          1.2450653,
          -0.7907907,
          -5.807757,
          -14.153683,
          4.642369,
          17.836737,
          -1.7492553,
          25.088455,
          8.373687,
          4.006987,
          15.35749,
          1.0926462,
          -5.257496,
          7.4478183,
          -2.3130944,
          1.9417299,
          -10.035712,
          12.534653,
          2.7747037,
          -5.3521433,
          6.3453283,
          -3.8263886,
          12.323212,
          -6.5274315,
          -4.72548,
          -14.320362,
          2.5743077,
          15.584271,
          -14.678352,
          8.958848,
          10.01812,
          -5.1217036,
          0.29714063,
          -12.543114,
          0.778855,
          -2.0393581,
          -1.0846311,
          5.736505,
          5.7284846,
          1.1558597,
          -9.500412,
          5.515876,
          3.7279809,
          -3.9774888,
          -2.0148227,
          2.6716328,
          3.3749337,
          -11.746029,
          -1.9196573,
          -0.6042002,
          -9.525143,
          2.9863114,
          -1.4008652,
          4.235425,
          0.20174575,
          -7.6230526,
          4.8547506,
          -3.5620432,
          2.2335682,
          -13.881932,
          16.356611,
          2.2823992,
          8.135652,
          3.8288643,
          17.17524,
          -14.608626,
          11.388452,
          -17.333931,
          -1.3892634,
          -19.041742,
          -6.6691475,
          -7.8552465,
          -12.555806,
          -19.341711,
          -8.277047,
          -9.769293,
          -12.423816,
          -0.88972205,
          0.8558474,
          -15.161326,
          16.313524,
          4.4192085,
          -10.71496,
          14.698747,
          -6.649141,
          -1.0811695,
          7.9391055,
          3.1769047,
          -11.755088,
          0.65698934,
          -11.271375,
          -2.0802176,
          2.9287684,
          9.175838,
          -10.300475,
          16.087038,
          4.821356,
          -5.4413896,
          -13.261527,
          -12.993158,
          -2.480749,
          -1.746516,
          -9.092245,
          -1.7429571,
          -11.016929,
          -5.3552775,
          0.32618165,
          5.111582,
          5.3980017,
          -1.0292045,
          7.2767844,
          5.3266287,
          -5.5243373,
          -3.3154895,
          8.544916,
          -0.6160719,
          0.51047,
          1.6995299,
          -2.561906,
          7.7585635,
          -14.7300205,
          -8.932381,
          8.156822,
          0.98719835,
          -7.0895185,
          -4.2902684,
          -8.372133,
          -2.2253623,
          -15.410498,
          -13.831454,
          -10.502557,
          -14.042186,
          -8.816961,
          -4.906181,
          -12.124796,
          -11.490804,
          -0.61789334,
          -11.428837,
          6.226652,
          -5.4360194,
          4.4191523,
          -17.406488,
          -7.575307,
          6.9070373,
          -0.76796174,
          -10.09171,
          -0.3676453,
          9.297923,
          -9.394022,
          -3.9224405,
          -8.397563,
          5.5286665,
          -6.4002457,
          -10.544448,
          -4.1523976,
          -13.4397955,
          -11.0286455,
          5.0499954,
          -5.5550723,
          -9.177548,
          -11.334584,
          -1.5439293,
          -5.6369534,
          -1.7949673,
          -15.506011,
          -2.6201658,
          10.029772,
          2.966739,
          -25.282246,
          -5.283965,
          -5.741685,
          8.102662,
          -0.7637018,
          0.38033345,
          15.388398,
          -5.4169145,
          -13.768252,
          -8.025963,
          4.026757,
          11.323172,
          -3.012854,
          -13.443294,
          -9.094839,
          -14.500004,
          -11.1619,
          -6.234679,
          -3.098618,
          -5.836709,
          4.6361413,
          -8.028089,
          7.0114036,
          -1.0522941,
          -4.338957,
          6.6475,
          -0.80403316,
          -3.4639952,
          -7.403065,
          -2.6603339,
          -12.383297,
          4.7028565,
          -7.96128,
          -2.7722607,
          -5.0495276,
          -26.996397,
          -3.9398537,
          -0.7059943,
          5.516996,
          -0.76194465,
          4.0206757,
          3.1293223,
          -18.639103,
          -2.950193,
          -3.7124302,
          5.0069656,
          -2.9658155,
          8.759121,
          9.664925,
          2.7088907,
          -14.59184,
          -4.177765,
          -0.025916627,
          -5.571864,
          -7.2739043,
          2.575119,
          -3.648201,
          0.21634023,
          12.747844,
          -2.9912105,
          2.9055548,
          5.174927,
          -3.690473,
          0.7104195,
          -4.064959,
          7.858538,
          5.9827557,
          -2.2111776,
          -7.9201326,
          -3.5188913,
          0.97004074,
          6.77648,
          2.8176663,
          -3.822269,
          11.146864,
          -7.7042522,
          0.04784961,
          11.045448,
          -10.222587,
          15.785104,
          -5.4719925,
          0.8901643,
          3.9373982,
          -9.930085,
          -7.4836,
          13.938905,
          -0.16829753,
          8.3420925,
          1.0270962,
          -3.2488775,
          4.631371,
          -4.548862,
          -1.2915995,
          16.292994,
          9.733811,
          0.404755,
          4.069571,
          12.540109,
          12.83285,
          4.4552207,
          9.033954,
          -1.0327572,
          2.9846969,
          15.550769,
          -5.25167,
          10.34323,
          2.6010258,
          14.159355,
          -2.108381,
          4.5414996,
          -6.0911818,
          -7.5639033,
          16.350224,
          0.0051243315,
          8.904215,
          13.661747,
          12.811577,
          -5.268975,
          -7.3887386,
          -6.005426,
          -6.565558,
          5.2987795,
          1.1722456,
          -4.3863683,
          -14.037333,
          7.269958,
          4.652499,
          -6.001122,
          3.1805406,
          -2.930326,
          -1.7652156,
          10.057557,
          5.2756677,
          8.164903,
          10.952257,
          -1.3775747,
          5.69405,
          -6.8251653,
          16.802305,
          -1.1699295,
          8.408376,
          0.052747708,
          -1.7770269,
          7.0743604,
          -4.6128182,
          -9.5020685,
          -4.468698,
          -3.0415044,
          -0.8336279,
          -5.408487,
          5.4709044,
          -0.31873608,
          -5.7061253,
          7.211935,
          -4.380846,
          -0.6473513,
          11.465699,
          -3.4491553,
          7.710267,
          6.0922422,
          5.5374026,
          3.107667,
          1.606434,
          6.7294774,
          5.4381237,
          2.2489908,
          -3.255087,
          3.4170225,
          4.5355163,
          5.3086967,
          4.709381,
          5.5024047,
          -3.3757007,
          9.488994,
          4.4249234,
          -12.038426,
          7.7143326,
          -6.604889,
          0.36395383,
          2.7323363,
          5.792285,
          24.425312,
          -9.092804,
          -0.60253924,
          15.412151,
          11.341038,
          -8.885148,
          -3.99098,
          7.0201535,
          -9.410277,
          -1.8792248,
          -10.201586,
          5.647408,
          5.849716,
          8.827358,
          14.184918,
          2.1864376,
          5.3529186,
          3.2345922,
          13.253473,
          16.93285,
          2.08057,
          5.1181154,
          23.654585,
          2.8079982,
          11.682016,
          -7.7419405,
          9.504165,
          -13.789362,
          13.267727,
          8.1296,
          5.634509,
          2.3724873,
          -0.43027627,
          -1.1200407,
          -0.35859093,
          -1.2830756,
          7.0218,
          4.9792786,
          0.53243124,
          12.275334,
          -5.0054803,
          -9.175481,
          -1.9516146,
          -4.736497,
          19.099619,
          5.9975057,
          5.8932915,
          1.2668309,
          -5.007787,
          -0.35254243,
          -0.2596961,
          8.456426,
          3.3894873,
          -15.755219,
          2.1748178,
          4.5047355,
          -5.117726,
          -0.48092377,
          -7.8112054,
          -6.742094,
          1.0666316,
          5.077625,
          -7.927237,
          -16.383652,
          7.334101,
          -4.484832,
          -9.857001,
          6.5869226,
          3.4949448,
          16.82054,
          13.414431,
          12.343187,
          4.8903627,
          -5.3994026,
          -0.92566174,
          11.406152,
          -11.081648,
          4.8657613,
          1.7880797,
          0.7763428,
          0.85165304,
          -6.1904526,
          -0.4557602,
          16.526594,
          17.472689,
          -6.198224,
          -1.483371,
          0.7162122,
          -7.330207,
          6.898006,
          -2.905932,
          5.8274417,
          -3.2445793,
          -1.3556237,
          0.8634128,
          0.48673296,
          16.829742,
          1.9978398,
          1.9087822,
          1.820428,
          -5.3634205,
          12.680543,
          -3.7618704,
          -4.3752203,
          -2.8077154,
          12.396626,
          5.6006866,
          2.4943297,
          11.106034,
          13.860222,
          11.501735,
          -20.384567,
          -18.015448,
          4.583501,
          -14.452881,
          -7.5573187,
          -7.666275,
          1.8398585,
          -9.298705,
          -7.834351,
          -17.469425,
          -6.608261,
          -0.023611654,
          -2.8381422,
          10.798952,
          -5.086163,
          6.6870527,
          11.230618,
          2.6834486,
          2.7149742,
          -7.138389,
          3.9068627,
          -6.5900745,
          0.60125077,
          -15.997315,
          -10.736496,
          14.098695,
          19.010551,
          3.499815,
          -8.799553,
          -11.546059,
          12.092571,
          -11.279429,
          6.574959,
          -8.486481,
          7.5509934,
          -3.8549485,
          4.817054,
          -3.1260982,
          18.564121,
          6.044398,
          -16.690773,
          4.8706245,
          -7.792653,
          -7.652077,
          -2.198711,
          4.6963625,
          0.791466,
          11.223442,
          12.936591,
          -0.55686134,
          16.082996,
          -2.2223291,
          1.8879424,
          11.523317,
          -4.025023,
          19.120956,
          1.8019041,
          8.347158,
          4.3078413,
          -2.294029,
          -7.3297353,
          -15.540445,
          -10.481859,
          -4.340802,
          -9.025957,
          -4.3380947,
          -14.275365,
          -8.650322,
          3.0297961,
          9.875912,
          -11.665151,
          -2.3124576,
          6.5010476,
          3.6977162,
          5.698772,
          5.3524494,
          -15.799523,
          -0.14275417,
          -6.7638874,
          10.511342,
          -0.92873085,
          -3.367293,
          12.779461,
          -1.312773,
          6.0874033,
          -12.936486,
          2.820058,
          6.28607,
          8.426,
          -12.006528,
          -2.8699853,
          7.0813622,
          0.6809232,
          -13.894452,
          8.180231,
          -3.5109076,
          11.137213,
          7.884461,
          2.0447109,
          -0.17274016,
          -9.676061,
          5.266732,
          6.1026607,
          -2.4904628,
          7.1362424,
          -3.5013726,
          1.0242305,
          5.782784,
          7.5314536,
          -7.5473747,
          7.162182,
          6.680089,
          2.7647347,
          1.69119,
          10.678346,
          -14.244868,
          -9.996897,
          1.1505,
          8.036732,
          5.3632426,
          0.7637326,
          -6.2318106,
          -0.050643295,
          2.87238,
          -20.051083,
          -1.4608055,
          8.195202,
          -1.1722628,
          4.8082604,
          -7.1486554,
          0.62673545,
          12.300444,
          14.884903,
          7.9501786,
          -2.0994222,
          2.6373062,
          12.12347,
          -0.9663383,
          -12.595582,
          -15.036671,
          2.0845056,
          -4.224011,
          -16.832033,
          -3.2340715,
          -12.648711,
          11.061868,
          5.8370075,
          -4.361423,
          7.0254135,
          -2.1268206,
          -4.8894024,
          -2.6499598,
          -9.966072,
          -7.4036374,
          -5.9888306,
          3.3800325,
          -0.25865698,
          9.391339,
          -16.353554,
          -14.942672,
          -12.551338,
          -14.322184,
          8.765921,
          -10.037868,
          -3.8025987,
          -2.1814067,
          -3.9526792,
          -8.829691,
          -0.6232547,
          -9.82851,
          12.607197,
          -5.9305444,
          -10.640969,
          -8.217073,
          10.3540945,
          2.8509629,
          6.779836,
          14.717555,
          22.71209,
          3.684155,
          1.774711,
          -11.282005,
          4.774399,
          13.14616,
          18.326927,
          3.785613,
          2.4685967,
          -3.2435324,
          10.156473,
          18.176662,
          8.315916,
          -5.1941676,
          -12.28369,
          -18.496138,
          -3.4347026,
          -21.986172,
          5.135047,
          9.02474,
          -1.0568578,
          -18.333004,
          1.4102951,
          -0.30427337,
          -4.9053345,
          -0.09996553,
          11.270147,
          -10.729906,
          14.966548,
          -3.3947861,
          8.344222,
          18.217705,
          -11.131097,
          -14.457283,
          7.0730314,
          3.4117453,
          16.471848,
          13.552063,
          3.7436364,
          -1.4851512,
          -7.5974464,
          -6.4635596,
          -13.240362,
          3.8171344,
          0.4355717,
          -2.3345394,
          -8.094929,
          8.399471,
          -10.222238,
          19.181047,
          9.638512,
          -8.53207,
          16.915506,
          6.0913315,
          0.09207329,
          5.6397333,
          1.2475007,
          -12.221495,
          5.227008,
          3.896467,
          -10.312994,
          1.8459661,
          -10.1778345,
          0.62057954,
          -1.5048019,
          4.92723,
          -32.7821,
          6.618513,
          -9.616968,
          -0.5691094,
          2.663028,
          9.11851,
          -0.25277954,
          14.103339,
          1.8113428,
          13.164411,
          -4.720389,
          -2.0410533,
          7.5882697,
          13.621725,
          7.9628744,
          -7.8443203,
          -14.956015,
          -6.8162174,
          9.179794,
          10.095953,
          -18.401821,
          -4.018187,
          15.221857,
          -13.187902,
          1.3014997,
          -4.6230097,
          -9.030452,
          4.2914553,
          8.3126745,
          6.2393427,
          5.6009088,
          15.332838,
          -6.587308,
          -0.7525324,
          -11.497665,
          7.082511,
          -6.7884984,
          -1.4939442,
          -0.9544528,
          14.474185,
          11.773699,
          -2.1780891,
          13.132465,
          13.32811,
          16.642193,
          8.801926,
          3.2661967,
          -6.1476464,
          2.242437,
          -4.4884086,
          16.394804,
          1.4533268,
          -1.9253851,
          -5.1443477,
          -8.362,
          5.1704473,
          -11.870858,
          -5.047845,
          9.658044,
          6.129987,
          1.1904083,
          -4.055001,
          -13.032064,
          -2.3444648,
          6.954869,
          -3.270835,
          -5.103033,
          0.40771845,
          10.573648,
          -9.348473,
          6.164953,
          11.852029,
          -3.821815,
          -4.875428,
          3.2991343,
          2.1637857,
          3.3500934,
          9.079898,
          -2.7205796,
          -15.955615,
          -12.430334,
          7.1508727,
          20.192291,
          -0.97713447,
          -6.4555984,
          -7.912627,
          0.7290295,
          3.5024498,
          -2.8467672,
          -3.9389455,
          -8.759247,
          17.383944,
          -5.1585383,
          3.1598368,
          18.14388,
          4.8388658,
          -8.204685,
          -11.486871,
          -5.656035,
          1.989112,
          -3.4372523,
          0.22826807,
          -3.1832786,
          8.833164,
          -4.509544,
          13.978686,
          -1.0717136,
          8.037893,
          4.8235226,
          13.585563,
          -11.937628,
          -11.337276,
          5.341073,
          8.150635,
          -10.549795,
          -0.25192106,
          -11.312206,
          20.714981,
          -0.9110858,
          1.130416,
          4.0823216,
          2.1008942,
          19.974117,
          -18.826923,
          14.2624,
          -9.18682,
          -9.040568,
          11.1922245,
          -7.0114446,
          6.108714,
          4.969675,
          -1.4826223,
          7.519156,
          -2.472137,
          -3.8257844,
          3.914893,
          4.2492247,
          -7.4436355,
          -3.7022204,
          4.0941477,
          -3.311248,
          2.2547188,
          -12.689433,
          4.720153,
          -6.9372478,
          -11.344146,
          -17.081144,
          7.078623,
          -13.116508,
          -5.7224693,
          -14.091046,
          -22.013063,
          -16.826359,
          -1.9346209,
          -19.751074,
          -3.0463648,
          -5.602634,
          2.9233792,
          8.085661,
          6.780763,
          3.5723052,
          -4.226772,
          7.5321503,
          -1.7493927,
          4.745596,
          -6.2615457,
          11.955747,
          7.7453365,
          -10.0910635,
          -8.970072,
          10.559141,
          -11.253503,
          3.2487252,
          -7.6872907,
          8.345312,
          -14.864863,
          11.643971,
          16.154753,
          -9.079426,
          -14.889884,
          -8.025843,
          4.4052563,
          -5.6268964,
          -4.7498665,
          8.445479,
          9.254388,
          14.979572,
          -10.780437,
          16.214922,
          11.913679,
          -9.696992,
          2.5983758,
          -12.556113,
          9.563582,
          -10.78786,
          7.3254495,
          -13.248167,
          -0.2265257,
          1.3704501,
          17.703112,
          -15.661802,
          2.3797302,
          6.207923,
          -11.509848,
          -2.9501276,
          -1.6886283,
          -11.35045,
          9.781902,
          -11.111525,
          -5.274923,
          -14.817538,
          1.8723893,
          12.033084,
          10.298508,
          1.4646922,
          4.633644,
          4.649402,
          -0.77235204,
          -0.66701925,
          3.282267,
          -2.3552618,
          -7.0050483,
          -9.124048,
          4.1966033,
          0.42729327,
          1.0699044,
          10.36887,
          7.2625933,
          -2.6309621,
          16.456156,
          17.024132,
          -18.143024,
          -6.799754,
          -12.322061,
          -17.883242,
          -1.8425452,
          -9.006654,
          -1.8243482,
          0.19627135,
          11.203287,
          -0.43956053,
          2.0240417,
          6.130458,
          9.354644,
          -1.8622247,
          -7.9518547,
          7.4875355,
          -1.4892873,
          -6.70373,
          3.0857117,
          13.312287,
          -1.9396439,
          -4.4359865,
          -1.535904,
          1.9270378,
          5.746607,
          -13.847545,
          -1.4737872,
          13.390325,
          4.6035724,
          6.6244926,
          -15.460598,
          0.6718731,
          -18.425026,
          -12.506174,
          -4.5585465,
          -2.9521546,
          13.682321,
          12.514937,
          -9.563164,
          -1.666984,
          -2.4953568,
          6.6663256,
          -1.1094775,
          -3.8900642,
          -8.073137,
          5.234942,
          -12.165148,
          4.9072723,
          1.3263292,
          10.641158,
          -8.488298,
          4.087285,
          19.43199,
          13.316414,
          -15.783317,
          2.895098,
          8.774033,
          1.4114112,
          -5.5044656,
          1.3853859,
          -6.0590444,
          11.144543,
          0.24495602,
          12.64777,
          8.353636,
          -12.139472,
          -6.3141127,
          5.952278,
          -5.257458,
          -2.8836622,
          -3.2000573,
          3.2577686,
          7.207215,
          -12.958202,
          -4.8966403,
          -4.1403127,
          -2.9480317,
          9.962262,
          -10.781321,
          -10.345019,
          -12.021871,
          -4.496454,
          -3.319819,
          -8.84926,
          0.46765265,
          3.4068103,
          -2.610181,
          -20.728653,
          -3.870341,
          -0.6697648,
          -1.7915318,
          -17.549223,
          12.350545,
          -21.355127,
          -2.6425896,
          -12.971506,
          1.6927055,
          -1.7611508,
          9.204298,
          12.182665,
          -6.19946,
          11.164924,
          5.3746257,
          3.9899049,
          -5.774586,
          8.099724,
          12.341309,
          3.9996154,
          15.542223,
          -10.7482195,
          -0.8728165,
          4.089108,
          3.9225261,
          0.77993816,
          8.006161,
          -14.770362,
          2.874199,
          -12.009102,
          -9.551831,
          -10.164128,
          1.7226429,
          -20.980722,
          -15.669301,
          -1.6594796,
          2.729518,
          -12.275017,
          6.73923,
          -1.823767,
          20.299044,
          -2.6793196,
          -1.806703,
          -1.8478637,
          3.104157,
          -9.514768,
          -1.3146636,
          -8.244054,
          -4.148177,
          -4.266104,
          -0.47943047,
          14.724079,
          -6.8670483,
          3.4434156,
          -13.85844,
          2.3131135,
          -11.690778,
          -6.4130607,
          -17.187172,
          -11.957977,
          5.288043,
          -21.944439,
          0.54268724,
          -11.376685,
          3.5548801,
          -10.658745,
          -3.92317,
          -0.25102368,
          -9.194047,
          13.736055,
          -1.0213529,
          -7.352851,
          1.0292943,
          -13.864656,
          5.130765,
          3.5139525,
          10.147911,
          -1.4447265,
          -0.2853068,
          -10.964441,
          1.3922275,
          16.634289,
          7.70082,
          -4.4565887,
          7.954037,
          -4.9275093,
          -11.9548645,
          -17.806927,
          0.16317385,
          3.9782612,
          -5.0966873,
          0.33459887,
          -4.3124337,
          20.50887,
          15.250324,
          6.622317,
          -4.7455416,
          -7.3827453,
          -13.02705,
          -3.4172883,
          5.186009,
          1.9786953,
          -11.616592,
          4.1003103,
          5.1617417,
          9.062331,
          5.626443,
          -4.890564,
          -0.7405971,
          -6.714911,
          3.9134843,
          -7.818249,
          2.040329,
          -13.097891,
          -13.46317,
          -8.378963,
          -3.3749497,
          -7.3086104,
          7.16517,
          -10.839946,
          10.712105,
          -19.970734,
          -7.0181303,
          6.052876,
          17.051819,
          5.7990212,
          4.266415,
          -0.8986958,
          -8.61163,
          2.794081,
          5.4698906,
          4.388449,
          -11.404815,
          -8.640195,
          -0.23154177,
          1.5999779,
          -3.6259465,
          4.8781533,
          7.0417533,
          13.06669,
          -2.6381924,
          8.102388,
          -7.524168,
          1.7012151,
          9.252663,
          -7.643902,
          0.16030115,
          -6.285454,
          1.7937894,
          -18.249374,
          -0.5730432,
          6.2801185,
          -1.1414188,
          -1.444383,
          -10.014806,
          -7.4377203,
          -12.848689,
          7.5943365,
          15.212723,
          2.5454795,
          4.811042,
          -4.688978,
          -0.20233783,
          6.8964295,
          9.829454,
          13.520097,
          -7.484079,
          -1.2033708,
          10.951788,
          3.326198,
          2.9744027,
          5.880968,
          -9.325719,
          -2.4221907,
          1.51188,
          0.9891231,
          -3.710418,
          12.175342,
          -11.00228,
          -15.23737,
          4.354511,
          2.5184064,
          -12.241163,
          -4.932669,
          0.8885653,
          8.395636,
          -15.183926,
          -13.782363,
          -6.1752324,
          -19.655104,
          -8.377848,
          22.837372,
          4.2547135,
          -2.9230366,
          -7.1629043,
          2.530212,
          -2.587896,
          -0.4782221,
          12.998997,
          6.4455657,
          -3.667929,
          4.7028584,
          0.26633626,
          10.866445,
          -2.0074105,
          -0.6957208,
          2.7173607,
          3.1513948,
          -19.595541,
          -2.8515427,
          -15.877881,
          -9.019116,
          6.910749,
          -10.496583,
          -8.715561,
          -0.98589337,
          -7.181376,
          -4.326092,
          -3.454434,
          7.4267097,
          0.86417,
          2.2494164,
          1.3333546,
          -2.0468743,
          -5.9148755,
          11.503263,
          -17.000694,
          -6.4796886,
          7.376855,
          -11.230255,
          0.5287721,
          -1.586839,
          -15.172318,
          2.1139216,
          5.554423,
          13.909028,
          -13.048481,
          3.3995786,
          -10.717407,
          0.62410045,
          8.3375435,
          -0.05633118,
          3.146421,
          2.0338497,
          -14.6476555,
          9.294466,
          10.238769,
          2.6453824,
          4.749629,
          3.484173,
          4.2363625,
          0.24165776,
          5.966944,
          3.9077172,
          1.3204073,
          -9.531095,
          -2.6949933,
          13.352395,
          -18.398312,
          2.053128,
          -3.4321423,
          0.9302658,
          -12.623355,
          0.10972984,
          -2.0234587,
          -0.6618668,
          2.0121617,
          6.3286476,
          -8.398516,
          1.6917363,
          -2.807322,
          23.25882,
          -7.9532804,
          -3.758164,
          -14.478186,
          -1.7100763,
          -6.7871885,
          1.5625238,
          11.045639,
          5.3487263,
          -26.517544,
          -11.907298,
          -3.9531536,
          -4.2024813,
          12.390773,
          8.229417,
          12.661473,
          -11.860447,
          -8.333759,
          7.575272,
          -2.9531906,
          2.0276062,
          8.201293,
          -10.297888,
          4.7948294,
          2.3657887,
          8.766055,
          0.24267793,
          3.6509728,
          -6.423639,
          -15.438266,
          -0.9281443,
          -8.0972,
          7.134811,
          14.224115,
          -0.47954202,
          -8.064048,
          -6.993311,
          7.694182,
          9.260282,
          -13.024176,
          -5.843754,
          8.362728,
          5.366218,
          7.259546,
          4.5942674,
          -9.087868,
          2.842685,
          10.612181,
          -14.763475,
          -12.070524,
          10.731999,
          -3.9518187,
          -5.856697,
          14.849445,
          10.378102,
          7.916517,
          22.707685,
          15.4517565,
          -2.5216289,
          2.0141685,
          4.289119,
          13.514687,
          11.867676,
          2.0122051,
          7.8924017,
          -4.8790646,
          -1.5049547,
          2.8690753,
          0.96138793,
          -3.888135,
          10.928588,
          -5.646042,
          -8.478553,
          8.574999,
          4.6379023,
          -11.840397,
          0.20451497,
          19.513483,
          5.6259866,
          7.6582627,
          -10.937904,
          -20.98164,
          6.2913165,
          14.524035,
          3.046568,
          5.045578,
          -8.26509,
          -1.1733247,
          19.45424,
          2.06565,
          14.136574,
          4.2942147,
          -0.8802445,
          4.9420223,
          -7.496761,
          2.6952083,
          15.591112,
          1.6948011,
          7.6040845,
          -6.818901,
          3.1546707,
          -7.193237,
          9.163371,
          12.844486,
          5.379075,
          -18.26213,
          -25.712284,
          9.728189,
          -3.2371926,
          -2.9280121,
          0.21660717,
          -11.621286,
          1.779162,
          -7.4908757,
          -5.2476034,
          2.657513,
          -8.848864,
          -23.107784,
          3.8798149,
          1.5999397,
          -19.934734,
          -4.8005676,
          13.9775095,
          8.712254,
          -6.625993,
          6.2467713,
          -6.5182676,
          -15.264398,
          -23.405293,
          -16.70898,
          -4.61035,
          0.00074299634,
          -9.25903,
          -6.597232,
          8.260038,
          -5.151303,
          -1.7168349,
          -21.276278,
          11.032956,
          2.658382,
          6.6165733,
          1.1416461,
          4.7758384,
          2.4134212,
          -7.219718,
          -12.527996,
          4.9627023,
          1.7502977,
          16.320713,
          11.688612,
          -6.9756174,
          4.361182,
          -5.6170435,
          4.4918957,
          -0.6668224,
          -9.002774,
          -0.84247106,
          -18.206339,
          -1.853981,
          11.5033655,
          6.288701,
          -8.672551,
          5.204853,
          8.984419,
          -12.63195,
          8.475002,
          -4.8115044,
          -0.11926039,
          18.848768,
          2.4989798,
          0.82137734,
          -21.531029,
          -7.6409955,
          -9.739323,
          -3.6237392,
          17.12864,
          1.214292,
          0.20822117,
          3.4247131,
          0.6005114,
          -2.4973884,
          -8.717221,
          -4.751062,
          -9.261469,
          9.459137,
          9.013003,
          -19.037565,
          5.395743,
          12.136765,
          -7.512462,
          -2.487622,
          -5.6049666,
          3.1768854,
          -6.3644476,
          -6.998995,
          -7.9932714,
          13.444916,
          3.9128911,
          -0.021998068,
          8.358666,
          2.160767,
          5.1122074,
          -7.2138233,
          -17.90918,
          10.319158,
          4.751797,
          9.100229,
          -3.2423186,
          -7.4241867,
          -19.964941,
          6.30992,
          -24.90128,
          -0.09660782,
          -2.88663,
          -0.9343766,
          -8.960877,
          -4.6194644,
          0.0018959123,
          2.9919498,
          2.5723915,
          -2.230776,
          11.894863,
          -16.036848,
          18.36689,
          -4.9418216,
          -2.3173544,
          -2.3646133,
          4.788566,
          1.3652045,
          -0.9084375,
          9.959392,
          -2.623178,
          19.39482,
          -1.8056208,
          -14.003861,
          17.724676,
          -5.3994308,
          2.006301,
          -7.2721195,
          5.364387,
          -7.2011347,
          7.6800137,
          -6.9132743,
          11.159942,
          22.855194,
          -8.480529,
          0.16638759,
          12.72913,
          -6.935427,
          -7.6339817,
          17.755814,
          -8.238181,
          2.2777176,
          2.0064566,
          -1.2446647,
          -6.4084535,
          -7.420663,
          6.2556586,
          -1.9287508,
          1.6968272,
          -0.50092137,
          1.5261223,
          5.0532227,
          -11.101559,
          -1.5090419,
          -3.8501933,
          -12.732076,
          -31.14796,
          -9.6757145,
          -27.761625,
          -2.9833558,
          -16.630373,
          -1.1855339,
          -4.759516,
          5.545233,
          -7.5663714,
          3.3230824,
          3.3487337,
          13.586667,
          1.8202354,
          10.081004,
          17.964033,
          -14.423032,
          9.726548,
          -7.3768554,
          -1.2537946,
          -20.714386,
          0.42675963,
          -0.17647481,
          5.2267613,
          -3.8114665,
          10.195776,
          -10.831718,
          -3.987568,
          -13.572975,
          -23.894968,
          4.5914707,
          -3.8273501,
          -6.605796,
          -0.2043445,
          -3.3290606,
          1.2925045,
          -10.032314,
          12.235175,
          -9.480464,
          8.699472,
          -2.6717255,
          1.6591649,
          2.9818337,
          -7.280236,
          -6.288759,
          14.286661,
          15.150313,
          8.361926,
          -7.451514,
          -24.36593,
          -5.878519,
          -9.010192,
          -7.8844404,
          4.5988064,
          -0.5386935,
          -5.391268,
          6.3475785,
          -16.093477,
          -7.9443507,
          8.524543,
          -2.0514104,
          -20.381699,
          -2.6749427,
          1.6651735,
          0.08241089,
          7.400302,
          -8.661903,
          3.0536294,
          7.5606203,
          5.907962,
          7.4127035,
          -6.3545246,
          5.7340117,
          -6.099603,
          -4.1077332,
          3.7836194,
          3.5540798,
          -12.383616,
          -5.639911,
          -3.1428578,
          -5.539705,
          0.26863262,
          1.0879928,
          0.6764065,
          8.070719,
          -18.87902,
          -9.187494,
          -6.2495584,
          -5.7324495,
          20.021145,
          3.1484997,
          -2.7637525,
          0.23137382,
          11.462177,
          -5.8198733,
          -11.533467,
          9.993993,
          -9.292479,
          -3.6278794,
          -1.5410557,
          -0.58634347,
          -1.6399839,
          -1.7587167,
          -14.777459,
          -3.6325614,
          -1.498821,
          12.844325,
          -7.418043,
          -1.5987506,
          -5.3487644,
          20.13273,
          -5.6423845,
          5.117542,
          4.125339,
          -0.65854317,
          -8.335904,
          15.764755,
          -1.7568091,
          -16.972052,
          9.080013,
          7.701881,
          1.0046825,
          -11.763657,
          -15.7939,
          9.152206,
          2.5140865,
          -6.172025,
          -8.522372,
          6.5414815,
          3.0407553,
          9.496529,
          -4.925508,
          16.876251,
          -2.7440953,
          7.083757,
          0.3783359,
          6.1602964,
          8.884749,
          2.7164235,
          5.502914,
          -1.7742734,
          -4.501104,
          -7.8306384,
          9.520344,
          -16.718,
          -0.50061625,
          -5.8028407,
          -6.9109387,
          -4.9184628,
          -6.417404,
          -5.460191,
          -12.195009,
          -11.340379,
          1.1193398,
          9.697807,
          -10.263995,
          17.497484,
          3.359508,
          3.8706164,
          -5.055093,
          -7.721109,
          -7.655015,
          11.31831,
          1.2733617,
          9.816476,
          4.50564,
          -7.2517133,
          19.4298,
          -7.9422956,
          -5.1816893,
          11.625382,
          3.220772,
          12.446855,
          -0.2010298,
          4.786322,
          -9.9013605,
          4.920048,
          7.9584856,
          -2.6254394,
          4.8421783,
          -3.3402438,
          23.310781,
          -6.5820446,
          5.8233385,
          -0.2962361,
          -2.1936288,
          -3.2958736,
          1.1544118,
          14.837626,
          18.495451,
          2.616376,
          10.947251,
          -0.61698747,
          5.3813686,
          22.724411,
          8.31454,
          4.04226,
          -5.702363,
          -6.10664,
          9.941397,
          20.85349,
          -7.2292924,
          1.6127697,
          11.745533,
          -1.1684142,
          4.7826176,
          1.2583371,
          7.5006647,
          -6.647222,
          -3.0785508,
          -8.608786,
          -1.4383503,
          -5.774487,
          11.348143,
          -8.813237,
          13.189207,
          10.26904,
          -10.139402,
          5.443272,
          -7.321271,
          -4.0368204,
          7.921594,
          3.9565735,
          5.6128654,
          -12.566679,
          11.975029,
          -2.9884655,
          2.7575517,
          -2.4072745,
          16.057432,
          -0.6343381,
          -1.1899176,
          9.842435,
          2.3673766,
          -3.5182793,
          -3.461047,
          0.7699377,
          -2.2534163,
          -10.370239,
          7.6878233,
          -13.31151,
          6.91811,
          7.9465113,
          -2.4542267,
          -12.657179,
          2.709845,
          17.944859,
          7.2043533,
          12.867595,
          4.7774005,
          -0.7247428,
          6.757288,
          -0.3543303,
          4.737833,
          11.258188,
          7.253028,
          -2.8335524,
          1.5776052,
          1.0326331,
          0.7902014,
          0.5716221,
          1.8910372,
          0.7427123,
          -1.0896454,
          -8.648411,
          -4.111666,
          8.495651,
          -13.918551,
          0.6716279,
          -16.172213,
          11.766745,
          0.55954504,
          12.362,
          -0.26806888,
          6.458752,
          -2.307379,
          -2.4082198,
          4.0718756,
          11.300115,
          0.7826084,
          10.008523,
          17.892567,
          1.951671,
          9.512081,
          -0.95717406,
          11.021619,
          2.506005,
          -8.65922,
          16.238028,
          2.4897401,
          -9.034073,
          -3.3666892,
          -5.0052824,
          21.101807,
          -13.534692,
          -4.602659,
          22.954926,
          -2.9940917,
          -15.87859,
          4.3024383,
          0.5501384,
          -11.307016,
          -6.858884,
          -5.2022038,
          -1.9206209,
          -10.261507,
          -5.137375,
          -10.676116,
          16.633932,
          -3.7099764,
          8.581201,
          -3.345982,
          -9.064714,
          -10.785962,
          -16.285112,
          -23.32789,
          1.4164679,
          4.5577784,
          -11.034659,
          2.2382145,
          -7.7359824,
          -0.47091815,
          -1.2350123,
          4.0949802,
          -2.540517,
          -6.673651,
          2.0409129,
          -1.6810021,
          -5.5645504,
          -14.0349655,
          0.35765824,
          10.14534,
          -22.79612,
          -0.21510686,
          -16.306416,
          15.290622,
          -16.281584,
          -2.976663,
          6.38148,
          2.706114,
          -4.2058063,
          2.0493994,
          -12.690619,
          -19.542013,
          -0.293128,
          1.8929554,
          6.991087,
          8.317054,
          -6.4140534,
          8.296683,
          -1.0358964,
          -5.7629323,
          -13.083268,
          16.43758,
          15.762238,
          -7.4410768,
          -9.5477295,
          0.81663036,
          -0.6776518,
          -19.572275,
          -5.95749,
          -7.704186,
          -8.901852,
          -16.729065,
          -5.3341885,
          0.21679574,
          -7.52569,
          -4.486669,
          3.4886775,
          4.2983212,
          -9.5878725,
          14.366674,
          9.703056,
          13.766619,
          -14.584786,
          8.332705,
          -8.626765,
          13.164948,
          -8.070171,
          -2.5198169,
          -3.65397,
          -11.411708,
          -0.30340677,
          -3.653176,
          -6.8267503,
          -11.334657,
          -7.702623,
          -15.228833,
          -15.274833,
          -12.751101,
          1.6652501,
          -9.999423,
          -1.6700495,
          -11.1788845,
          4.0394998,
          -5.276829,
          -3.7523606,
          -5.214453,
          -0.049472343,
          7.125516,
          2.9006982,
          2.8803053,
          -7.9263554,
          -4.3378863,
          -2.691281,
          -5.4321995,
          -2.8807545,
          -24.364592,
          -10.537686,
          -10.5185175,
          5.257086,
          -11.7508,
          0.12560977,
          5.881022,
          -3.0777016,
          -15.67924,
          1.2762986,
          -2.123206,
          1.5365846,
          3.5363328,
          -3.78592,
          -8.1927185,
          -9.725891,
          1.8258163,
          -7.2736635,
          -6.855118,
          25.785223,
          -23.750036,
          -2.1338234,
          3.1351843,
          -3.9376638,
          -14.981873,
          8.636374,
          12.846635,
          0.35762078,
          7.8537498,
          -2.9810526,
          8.183542,
          -5.8513455,
          -6.887911,
          -15.216506,
          -10.241599,
          -4.1109986,
          15.818782,
          -7.095864,
          1.4388368,
          -8.601941,
          -5.7834244,
          -4.956596,
          -14.309523,
          -1.3219666,
          -0.6688459,
          -9.455734,
          -6.210813,
          30.366905,
          1.23556,
          -2.2102878,
          7.932568,
          15.65788,
          11.221683,
          -11.793795,
          -3.9723494,
          9.389928,
          -4.1947637,
          -9.073086,
          -9.3839445,
          -9.136296,
          -7.5806456,
          2.4555035,
          1.600702,
          13.050178,
          -5.313194,
          4.9748454,
          -3.0364628,
          -9.421119,
          -5.0902143,
          9.177895,
          0.60206324,
          7.2728205,
          1.0006027,
          7.1095114,
          9.282961,
          -2.8600698,
          -1.9634647,
          16.297178,
          -0.16062571,
          -20.615492,
          0.700681,
          -4.5079885,
          -4.93017,
          5.8345203,
          -10.684357,
          -2.5458632,
          5.741739,
          0.4036842,
          5.103211,
          5.300776,
          -6.834646,
          -4.8917465,
          -8.189228,
          -7.757476,
          -0.2493218,
          -8.766038,
          10.262629,
          -3.2234871,
          -7.8603773,
          -3.1149983,
          -6.301967,
          16.560886,
          -11.572465,
          2.9144213,
          5.241428,
          -10.332881,
          1.3266516,
          -5.626,
          2.0694833,
          -7.655355,
          1.0900652,
          9.803437,
          -3.9258,
          -2.0847173,
          9.079057,
          11.635773,
          8.947378,
          -9.884169,
          2.827732,
          -4.315394,
          -3.8200047,
          -5.8543615,
          -5.3140874,
          -7.4999795,
          -0.28040585,
          -7.443745,
          -10.612574,
          -5.9222045,
          8.10598,
          -10.14479,
          -6.9385614,
          -3.714254,
          14.86334,
          13.758373,
          -11.979981,
          -1.0964547,
          -16.381182,
          -7.4368877,
          -5.684325,
          -4.0884504,
          6.45223,
          -5.7351127,
          0.24921463,
          4.5707936,
          -7.5236382,
          -4.594889,
          -2.493931,
          -1.2628893,
          2.9529684,
          -11.890333,
          -11.809705,
          -12.260411,
          10.352097,
          2.776023,
          5.9597487,
          -5.6535797,
          10.816463,
          -3.611237,
          -5.808803,
          3.7430916,
          -7.638889,
          -5.949244,
          13.268551,
          -8.002351,
          -16.20496,
          7.145792,
          6.108737,
          -11.578146,
          -4.236606,
          11.936703,
          -4.964535,
          0.6814553,
          -1.0432665,
          15.33599,
          4.437746,
          -2.716293,
          -4.6183777,
          4.0137253,
          4.495241,
          -12.245694,
          -13.327964,
          -4.611299,
          -5.942181,
          3.2128499,
          1.9333875,
          -3.9422932,
          9.861412,
          -5.684109,
          1.8426675,
          -0.6160653,
          -14.35272,
          -6.972281,
          -0.773885,
          5.449521,
          8.553653,
          2.8470466,
          1.1709229,
          -11.906562,
          -1.0499092,
          9.934503,
          -3.0258257,
          1.0987223,
          2.3892353,
          17.016182,
          -14.300741,
          8.47971,
          0.27150667,
          1.0141888,
          -9.4185095,
          -8.541391,
          1.1305767,
          12.865324,
          -4.0104003,
          3.400733,
          14.718602,
          1.6873827,
          -14.715887,
          -0.34188432,
          -3.853822,
          7.402762,
          7.004446,
          -9.83508,
          -10.263982,
          6.5774207,
          5.04441,
          -7.761313,
          3.9814076,
          7.7244554,
          -5.3725595,
          -8.596158,
          17.62153,
          14.042281,
          -3.3499796,
          -2.5540366,
          -3.5711973,
          4.181664,
          1.5741733,
          -5.618807,
          -6.4565153,
          3.950146,
          1.1370027,
          3.178621,
          8.754782,
          -4.0861983,
          17.008322,
          -5.789761,
          5.746506,
          -4.5357184,
          -3.6987212,
          -3.100606,
          2.4887543,
          2.419386,
          2.3325565,
          1.4062405,
          11.347148,
          -9.234827,
          -10.644643,
          -0.88843066,
          -15.191269,
          -12.548957,
          -2.227244,
          11.372327,
          -13.367834,
          0.6403382,
          -7.206649,
          -4.793946,
          -12.872417,
          -1.0191684,
          -6.4488864,
          7.5789137,
          -7.604512,
          -17.693775,
          3.738023,
          -10.022059,
          16.339518,
          -3.7553823,
          -17.754503,
          9.233368,
          1.8687997,
          10.673159,
          -9.144215,
          4.104145,
          7.3702445,
          1.6563336,
          15.290914,
          4.730084,
          -1.4466771,
          9.492887,
          2.8690426,
          2.163901,
          -9.325182,
          -3.8987947,
          -4.765525,
          5.454348,
          -6.007636,
          7.5055184,
          2.705895,
          -8.192869,
          8.726098,
          -27.96772,
          -18.498877,
          11.256363,
          11.36776,
          1.4528202,
          -8.03544,
          -9.980061,
          -5.4776883,
          -3.90496,
          -8.867882,
          6.958177,
          0.2504376,
          -7.3514056,
          -4.037689,
          8.933781,
          8.51273,
          1.604377,
          -7.7788196,
          -3.9976442,
          -6.605035,
          7.2517767,
          -11.817402,
          -1.0536184,
          -15.7934675,
          -8.376245,
          -7.7526755,
          -3.176666,
          8.2962885,
          14.916166,
          12.641178,
          5.2583065,
          11.555919,
          5.1023884,
          4.4879937,
          2.3797894,
          -12.960451,
          3.67649,
          -6.70373,
          -3.7592862,
          14.403666,
          -13.611377,
          -0.43073618,
          4.855282,
          3.5460122,
          5.660823,
          -1.2245842,
          1.9832536,
          -0.39853597,
          -2.3419325,
          -2.0655124,
          4.4898453,
          0.7702725,
          13.941031,
          -13.904359,
          10.564205,
          -5.753485,
          4.809501,
          3.567226,
          -5.2494135,
          -0.8264449,
          0.6646367,
          -11.670462,
          5.1006517,
          17.52491,
          16.977911,
          12.88253,
          1.4273767,
          13.9002695,
          -6.622663,
          26.16646,
          -6.4358025,
          -13.940858,
          -3.8673918,
          0.4661862,
          1.681543,
          15.546387,
          7.421204,
          -4.6633453,
          1.5531176,
          -10.031185,
          -5.6079555,
          -7.8790054,
          -10.205006,
          3.424235,
          -8.185449,
          2.6348863,
          -1.261416,
          17.838573,
          20.275421,
          13.331137,
          2.7989485,
          -4.097643,
          -11.99894,
          -6.9495635,
          11.064776,
          5.8168983,
          1.1950821,
          -3.1678078,
          5.5314727,
          8.479314,
          0.5686262,
          -1.7038016,
          -3.6757073,
          -0.26227656,
          -0.5969247,
          -14.134595,
          10.357847,
          2.0499744,
          -4.0720057,
          -1.4675882,
          7.2434072,
          -16.692028,
          11.189594,
          4.0566177,
          -6.1252885,
          -8.561296,
          -0.7859028,
          -0.6613871,
          20.001205,
          1.297298,
          -3.9428613,
          13.214319,
          -8.240911,
          -9.708331,
          -1.1749719,
          13.59534,
          -15.439593,
          14.329518,
          3.4516065,
          -0.5456523,
          -15.200816,
          -9.1174965,
          12.034021,
          -15.439461,
          4.0271635,
          -3.5203772,
          -3.8005023,
          -16.343925,
          -2.9259,
          -2.957969,
          2.226803,
          10.513782,
          0.94369775,
          7.236749,
          2.8825603,
          2.2568958,
          15.231759,
          2.330194,
          0.07024385,
          6.966448,
          -8.65863,
          2.660048,
          1.9808692,
          -8.343196,
          -5.0227013,
          -3.3421621,
          1.4605447,
          20.900072,
          12.193851,
          15.702779,
          16.25133,
          2.260692,
          7.0628214,
          6.1121755,
          -9.813787,
          5.490302,
          4.399866,
          -16.317701,
          -24.455858,
          -2.6409643,
          -7.804698,
          -10.292183,
          10.4047575,
          13.544559,
          10.990707,
          -5.041363,
          7.391156,
          -5.0396986,
          7.000079,
          14.20046,
          11.773649,
          -13.343965,
          3.4939017,
          4.815057,
          -13.027071,
          9.383719,
          1.8791217,
          -6.1078773,
          12.418645,
          6.857901,
          14.571578,
          1.4045265,
          -3.205027,
          -20.608984,
          -2.0916688,
          -7.2562203,
          -8.984739,
          -10.191325,
          -14.682172,
          -6.7931094,
          2.1462426,
          8.681113,
          7.28795,
          -6.4421825,
          -2.9635408,
          -7.568604,
          0.08530695,
          -5.7515035,
          9.236634,
          -6.428292,
          -0.41534343,
          1.3873209,
          10.232906,
          -3.8138487,
          9.015585,
          22.30104,
          11.488772,
          6.669046,
          -1.7411685,
          -1.9421653,
          16.576645,
          -15.162002,
          -4.2940097,
          -10.779053,
          -5.9032626,
          -5.303376,
          -16.167511,
          -18.46025,
          -10.548689,
          12.618859,
          4.703596,
          -9.422057,
          3.674372,
          -1.7465502,
          -10.044374,
          -13.276184,
          -6.9146013,
          -13.488993,
          4.631122,
          -7.5842867,
          8.734995,
          17.191977,
          -0.13263795,
          3.789181,
          8.246881,
          8.861,
          19.760674,
          -9.060099,
          -1.8850954,
          -6.47141,
          -17.693401,
          -1.153491,
          5.3731637,
          -9.3375025,
          -3.452789,
          -8.178901,
          -9.607429,
          1.0610507,
          -12.599254,
          -4.269759,
          -3.118397,
          2.264048,
          2.7535102,
          16.57284,
          -8.998056,
          8.448212,
          -2.8204575,
          8.221167,
          -9.294568,
          -1.0563624,
          4.4525375,
          2.3127549,
          6.9802423,
          7.5270944,
          -3.0997546,
          -5.4663777,
          9.09256,
          -8.20183,
          -13.728192,
          -2.7690926,
          -1.8008455,
          -4.8645816,
          -4.0876946,
          -9.617741,
          11.939538,
          -0.00062091823,
          -17.835289,
          9.190992,
          -12.472027,
          2.192776,
          -8.704185,
          14.188303,
          0.44895557,
          13.83433,
          -5.080845,
          -12.498909,
          -19.499252,
          1.3240813,
          6.240399,
          5.571636,
          8.900851,
          0.49893793,
          -8.900918,
          -6.3969226,
          -13.472737,
          -1.2913343,
          17.275991,
          -3.739464,
          -2.2287123,
          -11.746372,
          -9.206808,
          -5.6392365,
          -6.2086062,
          -9.349013,
          -7.99053,
          -9.042926,
          -7.8709683,
          -8.831557,
          4.5658298,
          1.5875398,
          4.842577,
          -2.9505866,
          -23.453697,
          -10.431068,
          7.1314526,
          -12.949345,
          -6.3236227,
          -5.8207455,
          -10.533832,
          -3.9318511,
          11.07825,
          -5.702099,
          3.3646731,
          -19.194294,
          -17.339016,
          -19.439829,
          2.1006656,
          -4.3671317,
          -6.631166,
          -8.379789,
          1.1029315,
          4.0207396,
          5.918606,
          12.074425,
          7.39556,
          -2.1721275,
          2.970174,
          9.61933,
          -2.6223927,
          14.702101,
          -1.5061357,
          -4.9217467,
          2.2133749,
          -23.12588,
          9.5021305,
          -13.926334,
          7.08864,
          -18.439402,
          -5.367779,
          -7.492131,
          -7.5383,
          10.839435,
          10.725361,
          2.7638125,
          -2.1417406,
          0.383327,
          9.871255,
          0.92028034,
          12.873342,
          -9.489309,
          2.2550027,
          -3.1884134,
          8.457062,
          -14.372817,
          14.027312,
          8.624419,
          20.978214,
          -6.0530243,
          7.5782466,
          12.009721,
          21.06277,
          -12.193243,
          9.766188,
          -19.279543,
          3.6034155,
          -18.031736,
          9.917479,
          -7.5254703,
          -2.1645477,
          -11.786432,
          12.233027,
          -5.0583787,
          12.116589,
          -4.390398,
          7.5353,
          4.301498,
          -13.241885,
          5.3085914,
          5.3544693,
          0.1037494,
          10.71689,
          -10.253399,
          3.3984032,
          -6.2958193,
          -0.6379914,
          -19.250322,
          -3.8520417,
          8.240683,
          -17.06969,
          6.0869794,
          -11.162288,
          3.0724516,
          -5.51456,
          2.689196,
          -1.8203919,
          0.53128535,
          -8.691689,
          15.581778,
          -16.275059,
          -2.0178196,
          -13.679743,
          0.3931645,
          -2.6983151,
          -10.650918,
          13.28136,
          7.129261,
          16.909605,
          -23.065718,
          18.258377,
          -1.2314014,
          -2.2457676,
          0.7800168,
          -2.0732527,
          -1.4819032,
          13.10988,
          -4.508889,
          19.266558,
          -1.5048693,
          10.734218,
          2.6782691,
          0.6642093,
          2.9889588,
          -9.693852,
          -0.78855693,
          -6.0370464,
          -4.105204,
          -9.1689625,
          3.9879453,
          8.083761,
          -7.4577518,
          1.1878057,
          17.943047,
          0.76052547,
          -9.369207,
          -1.5124642,
          11.483483,
          17.637508,
          -0.585668,
          -4.05251,
          -7.1469874,
          -1.9802448,
          11.833151,
          -6.5174556,
          6.633877,
          0.5768535,
          -5.757489,
          21.181267,
          3.4190629,
          -2.2126448,
          15.174446,
          -2.19196,
          -7.619581,
          8.576773,
          -3.7855713,
          5.3173714,
          3.7522562,
          4.2116823,
          -0.8210305,
          16.626137,
          4.1006746,
          8.285606,
          -5.4923244,
          9.991365,
          4.592602,
          8.133788,
          1.9071757,
          -15.376478,
          -9.761087,
          -14.923102,
          -10.87212,
          -5.1255455,
          4.457104,
          -10.671654,
          1.559924,
          -12.380816,
          -3.621092,
          -1.1721028,
          11.546624,
          -21.530846,
          5.460527,
          2.7020872,
          3.5268555,
          -3.6670752,
          -9.402383,
          -5.0348225,
          -2.8732662,
          -0.31964225,
          -0.32134748,
          2.6571374,
          -1.8451096,
          6.2117863,
          -7.611885,
          7.0596986,
          12.978791,
          8.882967,
          -0.21076353,
          -7.874831,
          -2.9126654,
          -4.640355,
          4.3569202,
          5.840757,
          11.231281,
          2.372702,
          -9.10588,
          6.3787866,
          21.503265,
          -1.5704206,
          4.845433,
          -2.0497444,
          -7.5543623,
          8.859272,
          2.268155,
          11.40562,
          -5.1782513,
          -4.203994,
          -2.207553,
          2.395813,
          12.188284,
          20.152477,
          11.900401,
          -13.699974,
          7.0320234,
          18.238394,
          -5.4901967,
          8.165837,
          8.645042,
          -11.210997,
          -14.922066,
          14.047756,
          3.971971,
          -6.7928405,
          4.839804,
          -1.2658048,
          -10.367661,
          12.494559,
          4.5468845,
          -7.9181094,
          -0.51117456,
          -7.3167214,
          6.7301803,
          8.596873,
          2.2002766,
          5.891503,
          -3.2105384,
          -5.041255,
          3.002853,
          0.5920732,
          2.1991916,
          0.7640677,
          -6.8922086,
          6.250376,
          0.05260484,
          -5.310423,
          -16.792166,
          -1.2285751,
          -0.38044342,
          10.519624,
          -0.34944895,
          -2.5413334,
          2.7302525,
          -3.4878836,
          0.45626897,
          -2.5800688,
          -5.6406302,
          -11.217215,
          11.175741,
          -7.2731023,
          24.145647,
          0.49714366,
          11.536401,
          12.928853,
          -3.3314836,
          0.50742877,
          5.160266,
          -10.988715,
          -7.9601912,
          32.138622,
          16.92647,
          -5.4927464,
          6.218118,
          5.547188,
          4.8525295,
          -2.1452115,
          -4.6907163,
          -15.248529,
          -1.9663653,
          0.49804994,
          2.9016201,
          -10.128961,
          2.506746,
          -3.1258159,
          12.012612,
          -2.316356,
          -2.8014312,
          -14.0168705,
          -5.349814,
          2.8856332,
          -2.9144826,
          5.4399467,
          -0.8108805,
          4.3086643,
          11.628983,
          -1.3260565,
          1.6971816,
          9.227445,
          8.177559,
          3.3983195,
          16.661058,
          -17.475212,
          -15.29194,
          -20.517124,
          -13.044162,
          -0.564982,
          -0.3893455,
          3.9792995,
          5.972225,
          -7.314914,
          -5.872001,
          -2.688219,
          1.4959942,
          -1.7533472,
          2.436972,
          7.2932706,
          0.26932216,
          -12.521602,
          12.579066,
          -0.9487052,
