{
  "path": "ML-saves/third-attempt.json",
  "iteration": 384100,
  "layers": [
    {
      "from_amount": 784,
      "node_amount": 10,
      "weights": {
        "v": 1,
        "dim": [
          10,
          784
        ],
        "data": [
          0.025495382,
          -0.13994755,
          -1.7360568,
          -0.23720558,
          -0.15396854,
          0.92989457,
          -2.9592965,
          -2.4022663,
          0.55393124,
          -2.181388,
          2.108282,
          4.26277,
          0.067154676,
          1.7864144,
          -0.74115616,
          0.9733385,
          -0.29364038,
          0.7343087,
          0.06605106,
          0.22338107,
          -0.6809985,
          0.38757035,
          -2.0574882,
          -2.83187,
          3.3263142,
          -1.4309316,
          -0.89670664,
          -4.9032364,
          -1.1579685,
          3.3729777,
          0.24913612,
          0.8394471,
          -2.1912122,
          2.1839244,
          -0.91313744,
          3.7662814,
          0.84579605,
          -3.5300286,
          -4.59931,
          4.9988666,
          -3.3104904,
          2.928687,
          0.15321474,
          0.84908414,
          1.8352312,
          0.681344,
          3.336999,
          0.13314232,
          -1.0899526,
          -1.7712022,
          -1.5150801,
          2.5002747,
          2.4010088,
          2.9698613,
          -1.5112033,
          -0.19304721,
          -2.1029985,
          0.062864706,
          -1.6401145,
          1.1806656,
          0.9779179,
          -1.8725768,
          -1.8852899,
          0.9419473,
          -0.8132571,
          -0.30354738,
          1.9153616,
          -1.8465408,
          1.0610478,
          4.654801,
          1.220867,
          0.1493569,
          -1.1489041,
          -1.3979261,
          -0.49405077,
          -0.49596524,
          -4.2591934,
          -0.8936468,
          -0.40661085,
          2.063522,
          0.28721547,
          2.058765,
          -1.9775101,
          -0.6373632,
          -2.1310277,
          2.7504802,
          -4.486092,
          -0.011973825,
          2.6451151,
          -2.8190777,
          2.7347684,
          -3.1366003,
          4.155268,
          3.6227493,
          -1.0532808,
          -2.2587047,
          0.8259944,
          1.4866394,
          -0.651925,
          -1.2345283,
          -0.9947987,
          -2.4871898,
          -1.7977797,
          -3.4873042,
          2.2255414,
          -2.7856681,
          -1.3912956,
          1.3372284,
          0.526001,
          -1.1441203,
          -1.6060466,
          0.9960205,
          3.5082016,
          -4.9220943,
          0.06764845,
          1.5457591,
          0.9292217,
          1.420834,
          0.6375593,
          2.9154503,
          -0.39390442,
          -1.6090415,
          1.865528,
          0.24024448,
          -2.4673193,
          -0.76066244,
          -4.541606,
          -1.204225,
          2.264252,
          -2.0715542,
          0.4062951,
          -0.8143978,
          -0.6966629,
          -1.6288764,
          -2.62523,
          -5.63394,
          0.7330496,
          0.35681254,
          -0.38742456,
          0.95683503,
          1.4052644,
          -0.28112602,
          0.34067434,
          1.535671,
          1.4480385,
          -2.4972606,
          1.0669192,
          4.7929525,
          -4.1757526,
          -1.3168478,
          0.18427724,
          -0.83376694,
          0.90894693,
          1.3358939,
          -0.4873892,
          1.4285496,
          -0.42575508,
          -1.1160238,
          2.9136212,
          2.1925664,
          -1.3793834,
          -1.3047502,
          -1.9767572,
          -0.61273086,
          3.9166896,
          1.1918067,
          -3.3866029,
          1.3756061,
          0.5108634,
          1.3834678,
          -0.3768754,
          -0.24163535,
          2.0543916,
          2.2859952,
          -0.36101782,
          -1.6729063,
          -1.158792,
          1.5125803,
          -0.98459595,
          0.38486892,
          -0.69458085,
          1.5667417,
          1.5298018,
          -0.33672038,
          0.369192,
          2.6824753,
          0.5443107,
          -1.6993115,
          -0.019075386,
          0.79324144,
          0.42912582,
          -5.254336,
          -3.1298776,
          0.8952811,
          -1.4759552,
          2.5090878,
          2.0112467,
          -1.7142253,
          0.57721144,
          0.98822975,
          -0.062853,
          1.3092563,
          -4.210685,
          -0.7063684,
          -4.0540905,
          1.2555555,
          -3.801708,
          0.29996145,
          0.6253084,
          -2.9527397,
          3.0873344,
          -0.15510759,
          0.9636811,
          2.4275992,
          0.06730562,
          -0.30660275,
          1.6127338,
          2.4878054,
          -0.5026428,
          1.3071994,
          0.53799814,
          -0.21741782,
          -0.42709824,
          2.3488636,
          -3.4083395,
          0.09568448,
          1.6691079,
          -3.0532098,
          1.7396381,
          -0.48605716,
          -0.7582814,
          1.9564978,
          -1.1199081,
          1.7476696,
          0.07794917,
          0.15123613,
          -2.0080028,
          0.37544352,
          -1.8228304,
          3.0139618,
          3.9949152,
          0.13690642,
          -0.6240058,
          -0.5950671,
          1.6467111,
          -0.7935989,
          -2.5981836,
          2.386597,
          0.8534613,
          -2.2978354,
          -0.13638037,
          -1.86563,
          -1.6343224,
          0.18898576,
          0.9880898,
          0.31999153,
          -1.8093305,
          -2.6754262,
          1.1450496,
          3.3622215,
          -2.4404144,
          -1.4135613,
          1.5562195,
          -0.40807575,
          -0.23297434,
          -2.0764365,
          0.4782267,
          -1.592538,
          -0.3668919,
          -0.27674937,
          3.4133122,
          -1.0300798,
          -0.18610986,
          0.57324666,
          0.47262883,
          1.1879277,
          -1.4643086,
          -1.9366509,
          1.1386721,
          -0.7595219,
          -0.34693938,
          -1.2193187,
          -5.6534085,
          0.011127268,
          -0.51101846,
          -1.8252469,
          -0.79896677,
          -0.32371768,
          -3.3645315,
          0.39726302,
          -0.15088038,
          4.1778154,
          -2.3455663,
          -0.6669485,
          -0.689577,
          5.0052705,
          -2.7947438,
          1.3633609,
          0.4212918,
          4.614697,
          0.9662921,
          0.30387703,
          -0.5800623,
          0.75740635,
          0.069316216,
          2.8386323,
          -0.59672236,
          1.5330014,
          0.4888379,
          -1.5515041,
          2.74691,
          2.7275383,
          -1.435443,
          3.1940038,
          1.2346346,
          2.2997675,
          0.74819446,
          -0.27960905,
          -1.6816088,
          0.7084418,
          3.0071256,
          -1.1527466,
          -0.80369246,
          -1.9006577,
          -0.7351533,
          0.92122054,
          3.8132865,
          -1.4125497,
          0.40300298,
          -1.4126769,
          4.091818,
          0.15738077,
          -1.2313366,
          -2.0887249,
          1.6162978,
          -3.8784654,
          -2.1242557,
          -2.044757,
          -2.8086922,
          -1.6287419,
          1.5320029,
          -2.3036125,
          1.5237051,
          -0.97244453,
          2.506741,
          1.2954497,
          -2.5136268,
          1.8377621,
          -2.4366019,
          -4.232772,
          1.2247434,
          -2.9502099,
          -1.9524271,
          -3.0146487,
          -0.9044456,
          -0.72938925,
          0.9537325,
          1.4693426,
          -0.72169274,
          0.92996573,
          -2.1327345,
          -3.7368119,
          1.0294769,
          -0.6371955,
          -1.5296764,
          -2.1369882,
          -1.8595284,
          3.3518977,
          -2.7186866,
          1.32451,
          -1.4729407,
          -1.9840778,
          -2.9351935,
          -0.23916873,
          1.3740677,
          1.3730159,
          -1.6925386,
          -1.509024,
          -4.7372317,
          -4.7329445,
          -3.8027174,
          -1.6031102,
          -4.141096,
          0.24962758,
          -0.17412004,
          1.1137737,
          0.007448868,
          3.5365033,
          1.7429343,
          3.7749445,
          -0.6423532,
          0.09385434,
          1.0157938,
          3.8401878,
          -0.69342047,
          0.5216887,
          2.6587718,
          1.1137071,
          -1.5949785,
          2.3544538,
          0.69138557,
          0.9545662,
          0.83148885,
          3.8516176,
          -2.4580097,
          -1.6791775,
          -4.573702,
          -3.1888406,
          -1.001498,
          -0.48816538,
          -2.0694559,
          -1.5975742,
          1.6696084,
          1.4088128,
          2.159314,
          -0.40361917,
          -2.7945526,
          -0.7551512,
          -1.5909781,
          5.5278707,
          4.0312233,
          0.38671055,
          -2.132805,
          -0.9194487,
          -3.3288665,
          2.06835,
          0.99429363,
          4.4109898,
          -0.5348446,
          1.5596845,
          0.2023591,
          -1.5184591,
          -5.73149,
          -3.2721841,
          -1.6419557,
          -1.7063307,
          -2.3082635,
          -1.0957162,
          -1.3194907,
          0.49703243,
          -3.4427586,
          3.3256931,
          2.1764634,
          0.098942235,
          1.6611922,
          -2.5138874,
          2.4024596,
          0.18153211,
          -1.5070281,
          2.1415095,
          2.5280745,
          -3.7264767,
          -0.8063054,
          2.290175,
          2.9981477,
          -0.6694048,
          4.1011305,
          -0.60654044,
          5.2873573,
          0.19875407,
          -3.186149,
          -7.9592,
          -6.733587,
          0.21665294,
          -4.3005724,
          3.22789,
          -2.3387728,
          1.3929812,
          0.31811637,
          -1.1475427,
          0.04204754,
          1.629606,
          -0.6928242,
          -2.8008792,
          -4.1959767,
          -2.197446,
          5.1632733,
          0.6815392,
          -0.91109437,
          1.1414068,
          0.91843885,
          3.924852,
          1.3780248,
          1.1193825,
          1.2841439,
          4.018608,
          1.5150086,
          -0.21338716,
          -1.9404764,
          -2.0563126,
          -1.718798,
          -4.0376596,
          -0.1594079,
          -2.5208435,
          -0.2872458,
          1.2359986,
          -0.34362325,
          0.57659584,
          -2.1977143,
          -0.08259418,
          -0.9016816,
          4.1445427,
          0.14501192,
          0.16590331,
          -1.692194,
          2.9868631,
          -1.8591782,
          -2.1157205,
          -3.20888,
          1.1752985,
          -0.64435965,
          0.52700037,
          2.9020586,
          0.19776091,
          3.7671962,
          -0.6842079,
          -2.1288693,
          -2.9807312,
          -2.9580817,
          1.221909,
          -1.0975882,
          -3.5288749,
          2.153687,
          -2.646894,
          -1.2584505,
          3.113333,
          -0.5476467,
          0.9889189,
          0.95551515,
          1.2642434,
          2.9878068,
          -3.6201563,
          -1.6654351,
          -0.6762433,
          -0.33928794,
          4.0737534,
          -0.78945535,
          -3.2009158,
          -2.8969278,
          4.146848,
          1.464707,
          -1.260363,
          0.38389045,
          1.9069633,
          -0.6253812,
          -2.5436542,
          -1.5010471,
          -0.8069024,
          0.4690255,
          -3.1679096,
          0.73939097,
          0.040561933,
          -0.021363098,
          -2.9959016,
          0.7776346,
          -1.905972,
          -3.801236,
          1.083034,
          -0.11958165,
          0.4371318,
          1.0051256,
          -1.3728524,
          -2.2480066,
          1.4972067,
          1.6468436,
          -0.12793745,
          0.69860077,
          2.7267911,
          -3.7861369,
          4.850065,
          0.41920248,
          1.1269633,
          0.86061263,
          -2.3424313,
          0.7917082,
          -2.767552,
          1.8484843,
          -3.126533,
          -3.9117851,
          -4.7796793,
          -0.40890428,
          3.706043,
          -2.5755036,
          -4.271904,
          -2.7338202,
          0.376896,
          -0.42402664,
          0.41900483,
          0.9170733,
          1.0514433,
          -0.72703665,
          -0.6784631,
          0.036145274,
          -1.105927,
          -0.42769054,
          0.12902841,
          -0.344327,
          3.4770103,
          1.5503033,
          -1.9363235,
          3.369391,
          0.79434097,
          0.51326364,
          0.2649731,
          -3.0883162,
          1.5664564,
          -1.9351109,
          -1.4059098,
          0.29065904,
          -2.5904868,
          1.4290806,
          -2.6678112,
          1.338074,
          -3.2626278,
          -0.08864736,
          -3.1798975,
          1.7226279,
          0.9100162,
          -1.7823601,
          -1.261893,
          -1.5419574,
          -0.4442935,
          5.90136,
          2.3332984,
          0.38318875,
          1.4502869,
          0.58617914,
          1.3810779,
          0.88868827,
          -0.8790624,
          1.1169953,
          0.41877857,
          2.9059577,
          -0.03903006,
          -1.2867424,
          -2.649814,
          -2.422146,
          -2.8814666,
          -1.9570812,
          -0.30390415,
          -1.7813513,
          -4.3011146,
          -0.52653444,
          0.6867945,
          -2.5917275,
          3.1661677,
          0.537179,
          0.65859735,
          1.4550283,
          -2.3809185,
          -1.5225242,
          -1.9950285,
          2.9265094,
          -0.24835324,
          -2.1893995,
          -0.33037782,
          0.04867992,
          0.31739718,
          1.5855575,
          1.2542197,
          -3.738182,
          -1.5358188,
          -0.975858,
          1.5633144,
          -0.5569144,
          -5.656866,
          -0.9060993,
          0.40123692,
          -1.1669549,
          -3.0092883,
          0.96775603,
          -1.9748255,
          0.14467359,
          3.0115392,
          -0.4107624,
          -3.041454,
          2.4139578,
          5.335703,
          -1.939372,
          0.9801749,
          1.8878416,
          -2.3520427,
          -0.5918824,
          1.1209736,
          0.4921593,
          2.0578754,
          -2.5259478,
          2.7336242,
          -1.8394912,
          0.90625656,
          -0.2765308,
          2.4403114,
          -1.720557,
          -1.0118035,
          0.14213996,
          0.5891518,
          0.024009649,
          -3.562086,
          4.260477,
          -2.30071,
          -1.8976121,
          -1.4353745,
          -0.18410502,
          0.9651484,
          -3.3435044,
          -4.600006,
          0.9185515,
          -0.8416965,
          -3.4156475,
          1.3019804,
          -4.1673756,
          -1.5536427,
          -0.23657125,
          -2.4224026,
          -2.4030232,
          -1.4488374,
          1.8434403,
          -1.9370384,
          -3.0280268,
          1.8831815,
          -5.583245,
          -1.9286907,
          -0.9534412,
          0.41223356,
          -1.469847,
          1.7713223,
          0.6046839,
          -3.223055,
          -0.6074706,
          -0.62189406,
          1.5687633,
          0.49572796,
          0.014184158,
          -1.1438289,
          -0.8522031,
          -2.7395134,
          -0.11032059,
          -1.4708143,
          -2.0422096,
          -2.235393,
          0.78407156,
          -2.218278,
          -1.1967125,
          -4.7408633,
          1.8875865,
          -0.81617546,
          0.5931375,
          3.4855974,
          0.18186925,
          1.6337247,
          -1.8979627,
          0.7252146,
          2.7230034,
          0.60025173,
          -2.0779943,
          -2.297897,
          -2.1382413,
          5.036176,
          -2.1116617,
          -1.8349326,
          -2.184201,
          2.1651425,
          0.95301425,
          1.7706405,
          0.45065972,
          1.8419108,
          -2.1415527,
          -4.9283185,
          -2.978984,
          0.26143757,
          0.7849439,
          -0.26176116,
          -1.3291615,
          0.25410688,
          -4.5526357,
          2.3586097,
          -2.7002795,
          0.92002445,
          1.0970403,
          -3.0024714,
          -0.21584998,
          -0.6622227,
          -0.38753626,
          3.969245,
          -2.0427907,
          3.4120948,
          0.13254596,
          0.52470154,
          0.80516857,
          -0.6109903,
          0.24446197,
          3.5000856,
          0.772001,
          0.33544663,
          0.45874524,
          -1.1627915,
          -0.13508269,
          2.5932524,
          -0.20142557,
          0.883384,
          1.0454191,
          -1.437166,
          7.3559003,
          0.14181195,
          -0.87429076,
          -1.7847706,
          2.4644234,
          -0.16150628,
          0.6381058,
          -0.63970584,
          -1.2866973,
          -0.5001771,
          1.4120599,
          -1.584112,
          2.828309,
          -3.3018107,
          3.2854602,
          0.3473137,
          -0.23743394,
          1.283772,
          2.1052625,
          -3.6977563,
          1.9471549,
          0.5177493,
          2.3162951,
          -2.0819206,
          -2.2184916,
          1.4748253,
          2.058535,
          1.3394936,
          1.5113984,
          -2.6059027,
          0.36656728,
          -2.1279984,
          2.640423,
          1.0091283,
          -1.7194304,
          -1.8820618,
          0.3041065,
          1.1319702,
          -1.2032013,
          -1.2500807,
          3.9917533,
          4.1701293,
          2.1501436,
          0.11858483,
          1.7713015,
          4.081254,
          3.6672735,
          4.6008563,
          0.09046208,
          -1.0152066,
          1.2426962,
          -2.8487935,
          2.189986,
          2.1922133,
          -0.7049987,
          0.2385417,
          0.6309358,
          -0.8902588,
          0.15674378,
          -0.9603174,
          2.258689,
          5.378527,
          1.2516402,
          2.8192263,
          1.3217223,
          4.5276537,
          1.1977153,
          -3.204548,
          -0.27435097,
          -2.8147762,
          -1.8770066,
          2.6892574,
          3.5347185,
          -4.672106,
          2.0409093,
          0.61209387,
          -0.6956902,
          0.64696276,
          -2.4474223,
          1.8107975,
          -6.1227775,
          3.7124174,
          -1.4008625,
          0.90529066,
          -1.2616962,
          -0.010657896,
          -1.4505872,
          0.7415107,
          -2.3548717,
          0.21022867,
          2.3843174,
          -1.5229183,
          -2.9756095,
          -1.1448485,
          0.4590014,
          0.76766235,
          3.0630832,
          0.19534123,
          1.4981511,
          -0.175942,
          0.77156913,
          0.566738,
          1.244543,
          4.3451147,
          -0.77563965,
          -0.24376939,
          -0.8097451,
          0.18553019,
          1.9959807,
          0.67641455,
          0.13331787,
          -0.7422209,
          -0.9270026,
          -3.0596385,
          0.19264315,
          -2.2001352,
          -1.3602782,
          6.338862,
          -0.59227765,
          0.87469476,
          -1.4078916,
          0.55037606,
          -1.3214557,
          1.8519542,
          2.039776,
          -1.2676467,
          -3.1057887,
          0.4166122,
          -0.30309653,
          3.854383,
          -3.0271397,
          -3.115179,
          -2.042321,
          1.2364197,
          -0.60431385,
          -1.6085671,
          0.29107544,
          -1.7841442,
          -0.3963702,
          0.12967823,
          -2.5189896,
          2.371596,
          2.8064663,
          1.8790611,
          0.56346214,
          -0.6836205,
          3.35349,
          1.485672,
          1.2256093,
          4.7314115,
          -3.9195333,
          0.78812,
          -0.35490128,
          -0.32723805,
          -2.7984629,
          3.0817242,
          0.4241512,
          -0.38766474,
          -1.1777649,
          -0.99666786,
          0.2922665,
          -1.3688834,
          -1.3245159,
          -0.001632576,
          -2.170043,
          3.4408643,
          -1.5684688,
          -1.3984753,
          1.8880419,
          -0.9067409,
          0.56961775,
          -1.2302463,
          0.0001757053,
          -0.29792702,
          3.5276482,
          -3.1835241,
          4.499835,
          -1.7919859,
          -0.30821443,
          -1.274319,
          -2.5332732,
          -1.5224009,
          0.68793446,
          -3.537112,
          -0.8718841,
          -0.25914615,
          -3.6552358,
          -3.104851,
          1.023026,
          -1.3453329,
          -0.052469913,
          2.1471915,
          -2.7914,
          -1.8042356,
          -0.38044888,
          -3.9658065,
          -1.3030015,
          2.2587082,
          -1.6488087,
          0.4098415,
          -1.2312614,
          -0.69560564,
          3.130284,
          -0.10770508,
          -0.9828161,
          -0.31785676,
          3.6579797,
          -0.9119922,
          -2.3694289,
          -0.78947365,
          -1.2540293,
          0.5721673,
          1.2913431,
          -3.6672904,
          -0.07505745,
          -2.1146626,
          -2.615081,
          -0.2597886,
          -0.8496107,
          -2.2964878,
          1.9107573,
          1.778208,
          -0.7928153,
          0.232163,
          -0.75645673,
          -3.4269538,
          -0.84056026,
          -2.871746,
          0.84865355,
          -1.8868556,
          -2.231916,
          -2.382324,
          2.5719507,
          4.426041,
          -1.2794477,
          -0.45911333,
          -1.1070629,
          0.858279,
          -0.39906153,
          -3.4234104,
          -3.1115167,
          -2.4479198,
          0.13062058,
          -1.5178255,
          -2.3131897,
          -3.1787357,
          0.39660403,
          -2.5344167,
          1.1670618,
          -2.0927787,
          -0.76970404,
          -0.40816242,
          -1.4442506,
          1.1277224,
          0.3025922,
          -3.8088284,
          -1.7952214,
          -2.3124495,
          1.8107004,
          -1.8844186,
          -1.7176918,
          -0.91067755,
          2.4301896,
          -0.17633902,
          0.62289745,
          -1.695954,
          -0.79250205,
          -2.1415918,
          -0.24915747,
          4.0928693,
          -1.8618714,
          -2.6671495,
          -3.1026115,
          -0.84289736,
          0.80615985,
          -0.55575687,
          3.8644843,
          1.9402729,
          3.1886163,
          -0.1539282,
          -0.51007897,
          1.1541154,
          -1.8682091,
          -0.6909175,
          -0.90847963,
          1.6970338,
          -3.3593478,
          -0.7027774,
          -0.89630026,
          1.766467,
          3.8527834,
          -1.3418,
          -2.4838688,
          -1.470055,
          -1.5217702,
          0.6307596,
          0.9120289,
          0.7162757,
          -1.1572376,
          -0.49726734,
          -6.5830765,
          -2.78283,
          -0.13568383,
          1.7862594,
          0.49624118,
          3.199192,
          -0.16707614,
          -1.2458593,
          0.8473666,
          2.3148544,
          -2.222909,
          -2.0853992,
          -2.3234634,
          1.3056536,
          0.9222364,
          1.1390483,
          3.4079847,
          0.8788102,
          3.7007039,
          5.169327,
          -3.097408,
          5.7736697,
          0.80266255,
          -2.035286,
          -3.0921605,
          -0.8000396,
          4.1583652,
          0.15420908,
          -1.6331266,
          0.20164478,
          -1.9362653,
          2.0545359,
          0.98019034,
          0.85540664,
          -2.2112467,
          -0.7199968,
          -0.45648378,
          -4.0019197,
          -0.15699725,
          -1.1308113,
          -2.3895576,
          -0.4918765,
          -4.5340548,
          -0.3201087,
          -5.280854,
          -3.3323586,
          0.497462,
          2.615825,
          2.3475616,
          -1.0405827,
          0.03518033,
          -3.257348,
          2.6176875,
          1.7618175,
          -1.3644699,
          3.0982862,
          -2.097063,
          -5.064668,
          0.049457833,
          4.9593086,
          2.7147555,
          3.036455,
          -1.9748203,
          2.1683571,
          -0.139637,
          -2.1090171,
          -3.570416,
          2.16046,
          -1.775076,
          3.7125912,
          1.2585038,
          0.9699927,
          -1.9644877,
          0.46992666,
          -1.971702,
          2.0478864,
          -3.0363023,
          -3.0420415,
          1.083286,
          1.1861969,
          -1.6603309,
          -0.7584339,
          -3.611072,
          -2.0639758,
          -5.0329933,
          2.02461,
          -2.2095869,
          2.0315113,
          2.3016346,
          3.6593823,
          -3.243186,
          -0.61123216,
          -6.0512037,
          -2.5343552,
          -3.7261121,
          -3.153236,
          -1.0472122,
          1.0710843,
          -1.1789794,
          -3.3097034,
          2.710911,
          2.624895,
          1.1507523,
          2.275945,
          -2.0194702,
          5.757306,
          -2.4094021,
          1.247162,
          -0.14863019,
          -0.8033066,
          2.1028392,
          -1.7045311,
          -1.6649078,
          -1.4699167,
          0.068599775,
          2.308023,
          2.7107084,
          2.581063,
          -0.7023154,
          2.4056718,
          -0.58576477,
          -0.9578814,
          -1.3099182,
          3.5308306,
          0.49074274,
          -1.9664105,
          0.9797006,
          2.3012474,
          -5.410516,
          0.031083751,
          2.390606,
          0.8475276,
          -0.000035730423,
          0.8777857,
          2.9334295,
          -2.165945,
          -0.31759194,
          -1.4400476,
          -0.34856755,
          1.114489,
          -2.4802568,
          -2.0388248,
          0.19177239,
          0.22145824,
          2.3912923,
          -0.5111653,
          -0.78717387,
          -3.4501662,
          -3.0485992,
          -0.82892793,
          -3.5239234,
          1.2245141,
          -0.9540165,
          0.5247655,
          1.9365467,
          -0.7906719,
          1.3402405,
          0.7305088,
          -1.3200982,
          2.282785,
          -0.29138774,
          -0.27338466,
          -1.0859323,
          -1.2468663,
          -2.34612,
          0.73101884,
          1.7071068,
          -1.9141909,
          -0.5198777,
          0.4863337,
          2.1920495,
          1.8736662,
          -0.4233246,
          -0.3781316,
          -1.1517239,
          -5.5025625,
          -1.8862616,
          1.1423204,
          -4.3889093,
          -3.0630393,
          -0.097379714,
          -2.063952,
          -4.2527943,
          0.915713,
          -0.4825163,
          0.91011137,
          1.5340576,
          2.9945047,
          -2.823223,
          -1.2246002,
          -0.110542156,
          -1.6722182,
          -4.0760355,
          -1.5815008,
          0.19218817,
          1.500164,
          0.25354788,
          -1.3533571,
          1.4514037,
          1.4031526,
          0.1414749,
          0.5766981,
          -2.0742726,
          -1.7053602,
          0.055587236,
          -0.50211006,
          -4.935677,
          -1.3786242,
          3.069526,
          2.0891042,
          -0.7289189,
          -0.8290093,
          3.5434136,
          -1.3923821,
          -1.7922218,
          -2.6372406,
          0.19024262,
          0.5386258,
          -2.2518663,
          -1.4198883,
          -2.3497598,
          -0.60038215,
          -0.98002636,
          -0.0015121168,
          -1.6933666,
          -3.0623798,
          1.4188803,
          -2.6789055,
          0.5824921,
          1.410716,
          1.6561627,
          -1.8208054,
          -1.9549385,
          -1.7746439,
          3.408686,
          1.9139404,
          -1.1896707,
          -4.202276,
          3.3884068,
          0.26757044,
          2.6242893,
          -1.5168804,
          -0.36423492,
          -4.5949416,
          0.555033,
          2.675446,
          3.7010934,
          -1.576049,
          -0.38399863,
          -1.6378561,
          1.4635535,
          -2.0600495,
          4.0111675,
          -2.2059922,
          2.6585264,
          -0.29626402,
          0.048245512,
          -1.7822083,
          -2.9285707,
          -2.0730107,
          1.4331428,
          -6.092749,
          -1.1364775,
          -1.6945957,
          4.19041,
          -3.3967147,
          0.9857562,
          -3.781056,
          3.2728877,
          4.122542,
          1.5240043,
          3.4685137,
          -2.6303482,
          0.22991394,
          -4.064144,
          -0.7867492,
          2.6877217,
          2.3892772,
          -0.63032097,
          -3.8054874,
          1.6374755,
          -2.3845372,
          0.92107695,
          -1.3287592,
          0.37305298,
          -0.33300477,
          -0.3311982,
          -3.4600189,
          0.30438387,
          -1.9755117,
          -2.0753844,
          -2.465768,
          -2.7008293,
          1.3535897,
          0.621206,
          1.42819,
          -0.022793716,
          -0.932515,
          2.2043283,
          -0.637145,
          0.8833354,
          -0.11145068,
          0.3405758,
          -0.96728206,
          0.049070835,
          -0.5524262,
          -1.461597,
          1.5735981,
          -2.3777928,
          1.8581896,
          -0.7117666,
          -2.5531147,
          -3.0209515,
          -0.3967634,
          -0.05924861,
          0.6532586,
          -0.38652205,
          1.3008748,
          -2.5929317,
          2.7438698,
          -3.6136622,
          0.10361286,
          -3.237998,
          2.733402,
          0.6322032,
          -2.204375,
          2.570329,
          1.3363689,
          3.4199924,
          3.2086494,
          -1.0985472,
          0.71855235,
          -2.7142785,
          1.2226622,
          0.027756905,
          -0.44141772,
          -1.0697494,
          -2.2717118,
          -3.3138635,
          -0.9862426,
          0.5143635,
          0.73246956,
          3.5715435,
          2.7346034,
          -2.988006,
          3.2966976,
          2.062269,
          0.2010294,
          -0.67585117,
          1.7977465,
          1.6613275,
          -0.9748936,
          -3.653754,
          1.603658,
          3.9158776,
          0.46529812,
          -2.0721486,
          2.0456872,
          3.1438012,
          -1.1945943,
          -0.47327927,
          -1.1026369,
          -1.4902238,
          -2.9091272,
          -0.42797458,
          -1.7008427,
          -1.0895619,
          0.9399676,
          -0.6642394,
          -3.0406713,
          -1.0279399,
          -1.2208595,
          0.26092646,
          -0.5236805,
          -3.9435706,
          -0.21178891,
          2.2920268,
          -2.898101,
          0.71368694,
          -0.7235242,
          -0.47647652,
          -0.9412472,
          -0.13356683,
          0.9091481,
          -0.25215557,
          -0.6425111,
          -2.4026034,
          0.5783297,
          3.887522,
          2.6610513,
          -0.48226345,
          -1.5177865,
          1.3038772,
          -1.5217249,
          0.17714699,
          -1.9448199,
          -2.6752853,
          0.48595604,
          1.0820929,
          1.2215209,
          1.6069325,
          -0.7934543,
          -2.5082982,
          3.9708683,
          0.80172855,
          3.5250022,
          0.8025234,
          -3.4097831,
          1.0317461,
          -1.078146,
          2.1541204,
          1.5264093,
          1.3555009,
          -3.5656896,
          3.074312,
          -0.07096055,
          -1.6967796,
          -1.5825733,
          0.21343994,
          -4.4596076,
          0.12260999,
          4.5494413,
          1.6675594,
          -1.309412,
          -0.3590944,
          1.1890923,
          -2.333829,
          -2.776143,
          1.3193473,
          2.192451,
          2.7542775,
          2.694609,
          -1.0371081,
          -0.79392344,
          -3.4585645,
          -4.12941,
          2.6402204,
          4.670667,
          0.1627348,
          -2.8788476,
          1.4671776,
          3.6714497,
          -0.24920844,
          0.6476755,
          -2.2343054,
          -0.18625927,
          2.619548,
          1.8879945,
          1.6506484,
          -0.45343173,
          -0.025819896,
          0.55887854,
          -2.6301486,
          -0.3417131,
          -0.8977286,
          -2.8898563,
          -0.17905751,
          -0.59721786,
          1.9944899,
          0.1758344,
          -1.7443547,
          -0.18381324,
          1.5610557,
          -3.152333,
          -1.2551851,
          -1.6128196,
          3.3893113,
          -1.8194917,
          -0.8763335,
          -1.100875,
          1.0059658,
          -0.6313841,
          2.9638605,
          3.11314,
          -2.7713084,
          -2.2942874,
          -1.3488541,
          -1.1871794,
          1.3872535,
          -0.38689816,
          -0.39401075,
          -2.5825307,
          4.159387,
          -2.8629668,
          -0.4256445,
          -2.5996854,
          1.0508306,
          -0.83166367,
          1.4033955,
          -2.499595,
          -0.44056424,
          1.0555987,
          -1.3379931,
          -4.675538,
          3.5643017,
          -1.067962,
          -4.3406396,
          -2.219898,
          0.2923016,
          1.1177661,
          -0.8832463,
          0.31690317,
          -2.117589,
          2.938274,
          -0.32055184,
          0.6306149,
          1.6818528,
          0.7514636,
          0.41420653,
          -1.1742471,
          0.65772784,
          -0.5361612,
          4.0807242,
          -0.73102856,
          2.2793746,
          4.240281,
          -3.3456275,
          2.5128832,
          3.5004022,
          2.22148,
          1.0496342,
          -1.4704356,
          2.4672456,
          -1.2846178,
          -0.8020989,
          1.7410108,
          -4.9723597,
          1.4355922,
          -0.14846897,
          -0.476595,
          -3.6530163,
          -0.2651207,
          -2.1828115,
          -0.006932022,
          -0.3903052,
          -1.6825501,
          0.13612467,
          -1.6502075,
          2.7027526,
          -3.3034585,
          1.9647743,
          -2.0431018,
          -0.28776088,
          -1.8503344,
          -2.5358863,
          2.594461,
          -2.3129997,
          -0.41022944,
          2.630089,
          -0.7451713,
          1.4251665,
          -1.4423788,
          2.2235332,
          -2.5369914,
          1.7425203,
          -0.7872692,
          -4.6759357,
          -0.24045146,
          -0.56288916,
          1.9971265,
          -2.3356519,
          -2.0568087,
          1.0015914,
          -0.09056289,
          1.8558849,
          -2.7976577,
          -2.916632,
          -0.658074,
          0.041207336,
          1.3059539,
          0.82298553,
          1.0073929,
          4.891598,
          0.25654206,
          -0.49165657,
          -0.802978,
          -3.0323355,
          1.0373628,
          -1.0040188,
          3.39514,
          0.2330707,
          -0.29864785,
          0.03808988,
          1.7083067,
          2.9320247,
          2.855029,
          -0.7481463,
          -2.555821,
          2.6682897,
          0.8005129,
          1.6606764,
          1.3180908,
          -0.83979285,
          -0.4429509,
          0.9108046,
          0.74816906,
          -3.2887723,
          -0.78962916,
          1.2844816,
          -2.3168147,
          -2.6109886,
          -2.3344002,
          -0.20690484,
          1.0003412,
          -1.8909801,
          0.98818904,
          -0.3226437,
          1.0164596,
          -0.83394253,
          -1.0042766,
          -0.44341335,
          -0.18943599,
          -4.5335555,
          2.27554,
          2.904478,
          1.4085711,
          0.6335218,
          -0.546032,
          0.4261437,
          0.5259119,
          0.46781725,
          3.347612,
          2.9522703,
          1.1967796,
          1.796419,
          -1.5438749,
          -1.699339,
          -5.9485893,
          -1.7188026,
          -2.2839303,
          -1.2436687,
          -1.285265,
          1.4349163,
          2.8265777,
          3.460256,
          -3.0573952,
          1.495144,
          -1.0221715,
          2.9746668,
          -2.2237484,
          0.76932466,
          2.7591033,
          3.1702936,
          -1.8477349,
          2.417817,
          0.78571826,
          1.4769176,
          3.8919625,
          -0.068006165,
          -0.90899575,
          1.1695117,
          -4.7788267,
          1.9099132,
          -2.3836112,
          -2.957084,
          4.329657,
          2.8244123,
          -1.6224715,
          2.2929618,
          -2.9273887,
          2.8200214,
          -0.34876728,
          -0.7226645,
          1.8536505,
          -2.273554,
          1.4354197,
          -1.158229,
          -0.12120185,
          -0.46896154,
          -0.26631105,
          0.81614196,
          -0.047594663,
          0.34795436,
          1.0296333,
          1.2672623,
          -4.0876026,
          2.229136,
          -0.7835174,
          1.1751685,
          0.004413358,
          -1.7258698,
          2.5784197,
          -1.6536189,
          -1.5241338,
          -0.869986,
          -2.2796576,
          0.33322555,
          -0.03537432,
          -2.4047918,
          2.3665369,
          -0.101986706,
          0.07064503,
          1.6933987,
          -1.096933,
          -4.526474,
          0.035460345,
          1.4484787,
          -1.2433573,
          0.43987936,
          -1.1633422,
          1.8920085,
          0.63224155,
          2.486464,
          -0.8172077,
          -2.2051377,
          1.5001305,
          -0.30912685,
          -1.730999,
          3.2788959,
          -1.6266673,
          -0.5014733,
          1.8357445,
          1.0813069,
          -2.2787638,
          0.767277,
          -0.40971354,
          -0.20480451,
          3.10306,
          -2.4135933,
          -4.846219,
          -0.0810507,
          -1.0964108,
          6.043493,
          3.9319963,
          0.76782346,
          1.8960836,
          -0.9456795,
          0.24264722,
          0.7868838,
          -1.5517219,
          1.5755489,
          0.47607526,
          0.6874818,
          -1.99948,
          1.1152253,
          -1.8677996,
          -0.77478826,
          -1.8677882,
          -3.8277698,
          -1.3439574,
          -1.470969,
          -0.8419262,
          -0.6636416,
          -1.8482951,
          -1.9142618,
          -1.1408149,
          -1.9889523,
          0.646757,
          0.34002247,
          4.3450837,
          0.102085665,
          -0.75355697,
          -1.1769204,
          2.3573267,
          0.57060903,
          -4.7485805,
          -0.004673699,
          -0.2069548,
          -3.8245003,
          -3.168377,
          -0.08169714,
          2.028728,
          -2.1489275,
          0.9919468,
          2.8262014,
          2.1229138,
          -0.37926978,
          2.2307758,
          -4.7835183,
          -3.1073434,
          -0.4551684,
          -0.14291663,
          -1.678623,
          2.877206,
          0.57705444,
          4.0623465,
          -1.5705471,
          -1.4170185,
          1.4081695,
          0.29085204,
          -3.8428922,
          -3.5454798,
          -3.8312292,
          -0.6766336,
          -5.8511715,
          -5.7181835,
          1.0456219,
          -2.3162522,
          -4.209312,
          -1.4889997,
          -0.52592355,
          1.8181436,
          -3.4820166,
          -0.6179802,
          0.87402266,
          0.71097964,
          -1.686095,
          -0.21079725,
          0.40556812,
          -0.47109208,
          1.8009104,
          -0.2304363,
          2.3263018,
          -0.3099279,
          0.9268763,
          -3.6267085,
          0.18351194,
          -0.66577506,
          -5.4224544,
          -5.927548,
          -4.590077,
          -3.959888,
          -3.0004237,
          -4.787164,
          -2.860745,
          -4.104782,
          -4.619879,
          -0.99383426,
          -2.3364303,
          -0.95357645,
          -0.37566182,
          0.39452004,
          0.6927259,
          -1.8393073,
          -3.583536,
          0.38155237,
          1.102398,
          -1.9021763,
          2.4271276,
          -1.6137594,
          -2.7890265,
          2.2829888,
          1.5238132,
          0.5440714,
          1.0618393,
          -0.62070525,
          -3.682448,
          -0.9407661,
          -3.5252373,
          -0.98085153,
          -2.2510235,
          -3.2909079,
          -4.2369523,
          -1.8754398,
          0.5210954,
          0.31731203,
          -0.51403993,
          -3.8685892,
          1.6538408,
          -2.4971545,
          -1.3913491,
          -1.549479,
          0.87007844,
          0.62909853,
          -0.6282026,
          -0.5875759,
          -1.6631736,
          0.91497535,
          -0.25590187,
          -2.076434,
          -0.5352395,
          1.4147345,
          1.6009903,
          -4.614237,
          -3.2637985,
          -1.7918977,
          0.41093877,
          -0.4711105,
          -1.3576242,
          2.9125235,
          0.6717833,
          0.32158825,
          -1.260325,
          -2.9662528,
          0.88864017,
          -1.0520015,
          -2.061304,
          -0.02753883,
          0.15438144,
          -0.17285053,
          -0.8929372,
          -1.6923839,
          2.8829596,
          -0.58242923,
          -3.774069,
          -2.786789,
          -0.7868839,
          0.45908234,
          1.521085,
          -0.81422925,
          -1.4949282,
          -1.7300506,
          2.1241076,
          1.1210297,
          -2.5749686,
          0.6650587,
          0.83026516,
          -0.47830793,
          2.651893,
          0.21330233,
          -0.8973905,
          1.1145777,
          -0.24639067,
          0.28683728,
          -0.8682914,
          0.9896981,
          -1.6048869,
          -1.2059711,
          2.0241632,
          -5.102401,
          -2.6419194,
          3.6290355,
          0.5806742,
          0.4831442,
          0.7242681,
          1.1073738,
          2.4647074,
          1.7102296,
          1.3093755,
          -3.5285125,
          2.2100608,
          0.8565304,
          -0.8104051,
          3.1667323,
          -0.33378574,
          3.170704,
          -2.615158,
          0.76229495,
          0.36678556,
          -2.2990706,
          2.966904,
          -2.6399686,
          -2.0026433,
          1.5610037,
          -0.6807609,
          -1.265254,
          -0.7631687,
          -0.80851865,
          2.6255264,
          -1.9245341,
          2.4604788,
          0.892365,
          -0.55709404,
          -1.6985434,
          3.0403674,
          2.7780874,
          0.9350127,
          3.0969129,
          0.13598697,
          2.375265,
          0.2416382,
          2.0786283,
          1.069227,
          1.3543133,
          1.4747775,
          1.8883293,
          -0.035753623,
          1.6600142,
          1.3399222,
          1.3974012,
          -1.2315623,
          -0.7320067,
          1.840724,
          -1.1685429,
          2.581633,
          5.010237,
          0.06066056,
          4.1013484,
          0.98909,
          -3.5073566,
          2.2295568,
          0.50859475,
          0.9952241,
          -0.2411866,
          3.7989602,
          3.4234707,
          0.9426256,
          1.6822065,
          -1.4157238,
          0.40253672,
          -3.4410162,
          4.098835,
          3.6556842,
          0.6802116,
          1.1209449,
          2.3500948,
          -0.32293874,
          -0.16989478,
          0.34774825,
          2.6200008,
          -0.68271524,
          -0.8741187,
          0.8011987,
          2.0792902,
          -1.3555249,
          6.9016104,
          -1.549487,
          4.8317285,
          0.8608152,
          3.8459687,
          -1.2361486,
          -0.057311736,
          1.6966113,
          0.009521347,
          3.3233435,
          2.240625,
          3.607306,
          3.8920252,
          3.700192,
          -0.74604744,
          -0.34449914,
          1.4897945,
          -0.08146895,
          -0.34012595,
          2.311325,
          2.7833598,
          -2.3048356,
          -2.200078,
          0.8224555,
          0.2826622,
          -1.8619623,
          2.8894944,
          2.6794746,
          2.3836284,
          -0.012832955,
          0.55757654,
          -0.13130055,
          0.6677937,
          -3.7320805,
          -0.7370035,
          0.74451876,
          0.16203311,
          1.2843822,
          1.3831425,
          -0.5820906,
          -0.7514606,
          -0.48353684,
          1.4418805,
          0.3673673,
          0.21841581,
          0.60615915,
          0.53112006,
          1.0240421,
          -1.6277939,
          -0.27661684,
          1.7818588,
          2.2100842,
          1.8149949,
          0.9819168,
          4.243052,
          3.77108,
          1.3401495,
          4.2058544,
          0.4624555,
          0.56268144,
          0.6211593,
          1.1996142,
          1.8823869,
          0.8376075,
          3.421496,
          0.3574067,
          0.082424186,
          2.867189,
          0.035975393,
          3.1655865,
          -0.51580715,
          -0.18776959,
          1.7189204,
          -4.838602,
          0.39836898,
          -1.443122,
          0.07852878,
          2.1062114,
          1.1827687,
          -0.2022635,
          0.37344274,
          -0.3245229,
          2.7948742,
          -1.1997304,
          0.5974558,
          1.6128173,
          0.21935059,
          -0.842097,
          -0.70260465,
          -0.33753416,
          -2.9277706,
          1.0942799,
          -0.3539482,
          0.6937783,
          4.387212,
          1.5848428,
          1.4251646,
          -0.7032871,
          1.915102,
          0.1453402,
          0.4248536,
          0.5877614,
          -4.1449513,
          1.163997,
          1.2749225,
          1.7447675,
          -2.6008682,
          2.8759475,
          -1.6018366,
          2.1139822,
          0.6167749,
          -2.454542,
          0.3574015,
          -1.732167,
          -2.9852908,
          1.4418449,
          2.4864767,
          1.7779149,
          -2.5970495,
          1.950403,
          0.94248754,
          -1.7352864,
          -1.1033932,
          -5.1122503,
          -0.7657863,
          -1.0547595,
          -1.7503963,
          -3.796302,
          -1.3172865,
          2.5023956,
          -3.6063302,
          1.2805349,
          -1.1206926,
          0.88380814,
          3.469318,
          -2.9215117,
          2.9495006,
          0.32047507,
          -0.39910188,
          0.3057642,
          -0.34781212,
          2.2404218,
          0.41242668,
          0.14142486,
          -0.12596963,
          -3.4887273,
          -0.028880253,
          0.4399651,
          4.6370153,
          -2.2843072,
          2.0735362,
          -4.3662415,
          -2.3268762,
          -0.89050114,
          -1.0318943,
          -2.2722788,
          -0.88729334,
          0.64114875,
          -0.68933743,
          -0.7572087,
          -1.7967387,
          0.42022866,
          -0.8916039,
          0.5477126,
          -1.0220969,
          0.43244442,
          0.5832908,
          0.62152815,
          -0.011483315,
          -1.3356175,
          -3.2979288,
          0.81670296,
          1.6930636,
          5.5864906,
          0.5630799,
          -3.1030633,
          0.2626534,
          0.26062253,
          0.070982635,
          -1.0666351,
          1.389225,
          0.07163841,
          -0.31413847,
          0.24808812,
          -1.0124328,
          -1.1506923,
          -1.5969733,
          -0.12495637,
          0.3678596,
          0.1542691,
          -0.5031965,
          -0.028118104,
          -1.2812802,
          -1.4389085,
          -1.5571775,
          -4.4280095,
          -0.12871327,
          1.0346004,
          -3.4105353,
          0.4520757,
          1.9630945,
          -0.06101178,
          -2.9421208,
          2.129454,
          -0.045606375,
          0.33106208,
          1.849558,
          -0.97531253,
          -0.90657717,
          -0.036787562,
          -0.08408882,
          3.1115885,
          0.12138203,
          -3.8224332,
          -3.4059129,
          -0.35758516,
          3.141456,
          2.089845,
          0.5359971,
          3.0395477,
          -1.3590668,
          -0.5415475,
          1.3007518,
          -1.3023716,
          1.6888114,
          2.6676369,
          0.21942231,
          0.8605156,
          -1.8052638,
          0.8133315,
          -2.2752302,
          0.8386239,
          -2.7836797,
          -3.351107,
          -2.7432892,
          1.0874116,
          1.8814075,
          -3.6575255,
          -2.714089,
          -1.1042726,
          2.3263326,
          2.0208535,
          -3.0498495,
          -0.46784148,
          0.3053735,
          2.616592,
          0.10566049,
          0.77631986,
          0.4404883,
          0.4176433,
          0.14256123,
          -3.132618,
          -3.6091568,
          -1.8859056,
          -0.08082426,
          1.3036982,
          -2.6480978,
          1.1034595,
          -0.3386879,
          0.7010316,
          1.7159401,
          -0.47044784,
          0.83307356,
          -0.15691765,
          -3.3766806,
          3.6463568,
          1.6201377,
          -5.1253147,
          -2.6144798,
          -2.9693708,
          -3.9004953,
          5.5569873,
          4.490092,
          -1.397047,
          0.10553313,
          -2.1107123,
          -1.9018697,
          -3.0433288,
          -0.81524104,
          -0.29437605,
          2.5108125,
          6.5704894,
          1.7307736,
          2.6959622,
          -1.1385099,
          -2.6105702,
          1.697772,
          -0.020307826,
          -0.99280804,
          1.6565878,
          0.93755287,
          -0.5266401,
          4.435389,
          -1.4069086,
          -3.328716,
          2.1966553,
          2.453384,
          0.41751468,
          -0.6485036,
          -3.8723986,
          1.6980873,
          0.3826356,
          0.11283188,
          -0.86960506,
          0.5865689,
          2.4260802,
          -0.027364135,
          0.035747822,
          1.5283391,
          -0.6014771,
          1.0345716,
          -0.44053975,
          0.01341012,
          -2.1302943,
          -2.5367093,
          1.4000288,
          2.9108977,
          -0.846652,
          -0.14239202,
          -0.44844487,
          -0.38153663,
          1.8165549,
          -2.0088964,
          1.9053218,
          -2.0864668,
          -2.7043428,
          -1.2808652,
          -1.125383,
          -1.8414863,
          0.3543274,
          -1.5961754,
          3.298934,
          2.6135197,
          2.093234,
          0.4271919,
          0.59866244,
          6.085017,
          -3.3973687,
          -1.4863023,
          2.1281002,
          -1.2913125,
          0.04922231,
          -0.077406906,
          3.9601943,
          -0.47629884,
          -0.0851624,
          -2.2701647,
          -2.5497868,
          4.1559205,
          0.7519502,
          1.6078328,
          -0.6446088,
          0.62462664,
          0.16264111,
          0.9546296,
          0.027968548,
          -0.57109034,
          1.524019,
          -1.2698649,
          -2.670416,
          -0.49375272,
          0.5627248,
          1.7872595,
          2.1406116,
          -0.42888314,
          -1.2255226,
          -0.6389721,
          1.6774322,
          0.45033905,
          -0.6299825,
          2.1687725,
          -4.6554184,
          1.117368,
          -0.26782987,
          0.6645528,
          -0.9199916,
          2.4979243,
          3.7672243,
          -4.1281643,
          3.1359942,
          0.21853188,
          2.4484403,
          -1.2730142,
          0.93764806,
          -1.5666747,
          0.032466277,
          0.857382,
          0.16180721,
          1.445546,
          -0.49716303,
          0.013593299,
          -0.97069234,
          -0.054078348,
          -0.95905244,
          1.0320435,
          -2.8191137,
          -4.4138503,
          -0.46436045,
          1.8488722,
          3.7515442,
          0.6930123,
          1.1905607,
          -3.1056805,
          -0.12057364,
          1.352116,
          1.3892655,
          1.3575157,
          -0.5837333,
          0.6602643,
          -1.1761297,
          -0.9799334,
          -0.8939804,
          0.7894671,
          -1.7182573,
          2.1254518,
          -0.7340901,
          -1.7742639,
          -5.321655,
          -0.85764146,
          2.123658,
          2.3733473,
          0.24276863,
          3.5800238,
          1.8139515,
          2.9828606,
          -3.4256153,
          0.8068377,
          7.1442094,
          0.18894364,
          3.0075235,
          3.280374,
          -1.5308009,
          -0.9473466,
          0.5947431,
          -0.072027005,
          2.146083,
          0.7732822,
          1.2301974,
          1.404803,
          0.39859882,
          0.39940047,
          -3.0775237,
          -3.1355886,
          -1.1436951,
          -1.529647,
          -2.1796205,
          -2.820104,
          0.4644912,
          0.40137413,
          0.61270684,
          1.8360535,
          1.3155235,
          0.1065151,
          1.1501839,
          3.5199609,
          0.22941133,
          1.138504,
          -0.7793891,
          2.1025686,
          -1.217057,
          1.8977951,
          0.80194825,
          -2.233118,
          2.4529808,
          1.1291022,
          -1.4328063,
          1.6878675,
          1.5390345,
          -1.7685356,
          3.4252987,
          2.59533,
          -0.26818717,
          -0.30514356,
          -3.7310555,
          -0.21594305,
          -1.23458,
          2.201253,
          0.26058728,
          -2.9759953,
          0.9754684,
          -0.9999444,
          -0.41422302,
          -1.657858,
          -1.6158453,
          -0.41283736,
          -1.9969889,
          2.081883,
          -2.8246012,
          0.28751907,
          -2.01564,
          2.0070758,
          -1.4609526,
          0.6930677,
          -0.9921263,
          0.8923609,
          0.62404704,
          -0.55521977,
          0.1695656,
          2.54086,
          0.1199487,
          2.096948,
          -0.97795856,
          -3.3450634,
          -0.35924095,
          -0.7052936,
          0.63803095,
          -0.81113946,
          -2.8484633,
          -1.1224211,
          0.77235323,
          0.38318545,
          0.36461326,
          -0.40326798,
          1.1160523,
          -0.37982023,
          0.2575929,
          -1.4273338,
          -2.531163,
          -3.6519089,
          -1.6996382,
          0.82111335,
          -0.27279547,
          -1.208087,
          0.6151639,
          0.938787,
          -2.6195755,
          1.946313,
          -3.5841346,
          2.213626,
          2.2085211,
          -3.773233,
          -0.8937177,
          3.0406566,
          0.44619766,
          -5.3576694,
          2.344996,
          -0.4627325,
          2.5160036,
          5.432308,
          1.3609065,
          -0.28940988,
          -0.8920419,
          -0.9758602,
          -3.8974903,
          -3.5870683,
          -3.110632,
          -1.1093947,
          -1.4770731,
          -0.7377323,
          1.8346325,
          3.2849343,
          0.02018687,
          0.19134927,
          1.5033382,
          2.983628,
          0.077567235,
          2.8485472,
          -3.2903044,
          -0.39561644,
          -0.88734865,
          2.5402293,
          1.8845361,
          -2.9027994,
          2.2478006,
          0.110682525,
          -1.9769195,
          -2.700466,
          -0.69697076,
          -1.7712501,
          -0.38097817,
          -2.9554262,
          -1.8018618,
          -3.520012,
          -3.3577902,
          -2.041629,
          0.039325688,
          -0.13702852,
          2.2016265,
          -0.39346614,
          4.590635,
          -0.85788435,
          -0.54664195,
          0.8247273,
          -3.0725362,
          -0.16693017,
          -0.34729856,
          -0.6722484,
          -0.048401218,
          0.38024178,
          -2.075626,
          2.374476,
          1.8633986,
          1.5237198,
          -2.624331,
          3.269359,
          -1.4950776,
          -1.9116578,
          -0.007699263,
          -3.9938056,
          0.09542753,
          -2.464017,
          -2.6290965,
          0.17352523,
          -0.6970267,
          1.9844056,
          -0.06665145,
          0.36305058,
          2.0364969,
          1.2551563,
          1.6262159,
          -1.4693347,
          0.53326005,
          -4.3562665,
          -2.5444417,
          0.9085018,
          -2.2408116,
          0.66568583,
          2.004322,
          0.5264169,
          -1.297881,
          0.020222642,
          -5.8119183,
          0.11750838,
          -2.3781555,
          0.17230071,
          -1.8756579,
          -4.771229,
          0.6089143,
          -2.2992597,
          0.55259144,
          -0.5392882,
          3.1664155,
          -3.1325262,
          2.5127928,
          -0.5655576,
          2.3171499,
          0.34302872,
          0.99926496,
          0.35776505,
          -0.99619895,
          3.0581722,
          -1.3263601,
          -3.0070157,
          -0.5060841,
          1.8646573,
          0.35497588,
          0.84492356,
          -0.73055226,
          6.0000696,
          -0.3250792,
          1.7071674,
          1.9060061,
          -2.0382116,
          0.032443933,
          0.407579,
          1.5690292,
          0.14583687,
          -4.1140633,
          -0.7000816,
          4.3144827,
          -0.3067348,
          2.1010482,
          -1.2408079,
          -0.73852664,
          -0.0005122323,
          -1.2732394,
          -2.1227343,
          -2.2014604,
          -0.66741115,
          -1.9766679,
          -4.4175577,
          1.7283355,
          0.9919087,
          -1.8482821,
          -5.9618964,
          4.5786014,
          0.8963093,
          -0.46433628,
          1.0854577,
          -4.50607,
          -0.46327534,
          -1.9790833,
          -2.4239392,
          -5.210135,
          -2.1484854,
          -1.6148406,
          1.6938623,
          -0.80639374,
          2.1090539,
          -2.7235897,
          1.0150777,
          0.6441449,
          -0.90512216,
          -0.8243994,
          3.7930741,
          1.1810967,
          -1.2061515,
          0.79725724,
          1.4199164,
          0.6131975,
          0.9683716,
          1.7292011,
          -2.7295985,
          0.8499735,
          2.5905716,
          -0.5727629,
          1.0459105,
          0.85699284,
          2.104134,
          -0.07138634,
          -2.6526155,
          2.900069,
          -0.2363576,
          -3.482178,
          -0.77784795,
          0.11005351,
          -1.6588016,
          -0.5979711,
          -4.216991,
          -0.14599583,
          0.04747787,
          0.7148802,
          2.5951726,
          0.9262472,
          -0.78628653,
          3.287336,
          -2.3510714,
          2.4817865,
          1.2422899,
          -1.8153672,
          -3.5309677,
          -2.6905856,
          0.25328708,
          -1.2610273,
          2.9591107,
          1.2047184,
          0.7843194,
          1.3203514,
          -2.2249615,
          -0.72697216,
          -1.3849947,
          -1.1647457,
          -4.0059457,
          -4.999364,
          -0.35694084,
          -2.529478,
          -3.1050549,
          0.54388756,
          -0.06396273,
          -1.522876,
          1.9340254,
          -1.3584785,
          -0.7913876,
          -2.3785858,
          1.9997396,
          -3.7399762,
          0.4406776,
          1.049538,
          -1.1860887,
          1.9871476,
          -2.9602656,
          2.079971,
          3.0061061,
          5.344637,
          1.250832,
          1.9423118,
          -3.0045533,
          -0.7983811,
          -5.343965,
          -5.599046,
          -5.9404316,
          -1.8211172,
          -5.2598143,
          -1.1531975,
          1.1712524,
          -0.4148862,
          1.6897616,
          2.8494642,
          -0.65394515,
          0.20725715,
          3.1182387,
          4.658622,
          0.3268199,
          -0.44762623,
          0.88722724,
          2.5619102,
          -1.1935179,
          0.31280822,
          -2.1135337,
          -1.6306909,
          1.7314916,
          0.39135006,
          3.5775685,
          -0.043033343,
          1.5241786,
          -0.515474,
          1.129756,
          -2.4441159,
          -3.8714511,
          1.5009929,
          -3.264588,
          -1.6665496,
          -1.1401212,
          0.8685399,
          -0.86992186,
          2.9959764,
          1.4158992,
          0.36752573,
          1.5947217,
          -1.4186703,
          -3.2175553,
          -0.2207071,
          -0.38239267,
          -5.1599646,
          -4.0917773,
          0.0688159,
          1.0593798,
          5.8570905,
          -1.1713347,
          2.0171509,
          -2.176634,
          -0.099253625,
          -1.8693208,
          -2.4055262,
          1.7132748,
          1.1094104,
          0.85262305,
          -2.0304217,
          -1.5036793,
          0.5219174,
          1.1970928,
          -2.2011125,
          0.5823239,
          4.295646,
          -4.0330787,
          2.897815,
          1.540907,
          0.3603047,
          3.6513517,
          -2.1050062,
          1.7081205,
          0.25601915,
          2.0106947,
          1.8919716,
          -1.1308557,
          -1.9786354,
          -0.91882956,
          0.90405303,
          1.9307077,
          0.19085857,
          2.300773,
          0.097110875,
          -0.02816549,
          2.142918,
          0.4996844,
          0.82326186,
          -1.786233,
          -1.8027172,
          -0.41752952,
          0.837114,
          -0.47491258,
          -1.1310613,
          0.67177135,
          0.3382328,
          1.7899544,
          -2.9151156,
          -2.130356,
          -0.95450395,
          0.47142425,
          -1.83628,
          -0.2800218,
          2.087968,
          -0.925937,
          -0.9063115,
          4.9372573,
          -1.0872151,
          1.6028099,
          2.1241198,
          3.0002956,
          1.9053426,
          -1.4782944,
          -1.0925022,
          -2.9006314,
          0.15782204,
          3.7424319,
          0.31549686,
          -0.0020306355,
          0.047795255,
          1.2323419,
          1.5123203,
          -1.6986525,
          -0.21812324,
          -3.143293,
          0.16552804,
          -0.38333675,
          -3.0124664,
          -0.37890926,
          -0.07763615,
          0.83932245,
          -0.99035263,
          -0.46176344,
          1.448218,
          2.4194145,
          6.6705637,
          2.7778404,
          -0.4007525,
          1.0213411,
          3.183794,
          -2.7434707,
          3.1684787,
          1.6186842,
          1.5166315,
          -1.0909948,
          -0.5872126,
          0.4413795,
          -1.70648,
          0.50412005,
          0.6774877,
          1.5796379,
          1.1889592,
          -2.064214,
          -2.6555388,
          -2.6321776,
          5.0841637,
          1.409058,
          2.8883123,
          1.8821088,
          -2.6869748,
          1.7729408,
          0.14520326,
          1.3160745,
          -0.3781972,
          1.961293,
          1.5613117,
          -1.0894014,
          4.4074144,
          4.4416437,
          -1.0156204,
          0.20924777,
          -0.56071466,
          0.4397783,
          3.2083747,
          -0.6064265,
          3.2495236,
          -1.1601082,
          -1.5893441,
          -0.99131,
          -0.39756456,
          1.1219407,
          -5.422011,
          -1.1741134,
          0.76997054,
          1.4155289,
          1.0713594,
          -0.72192615,
          -0.6255493,
          0.06311448,
          -1.6802884,
          -2.8503973,
          -3.3694863,
          -0.099225216,
          -0.13167787,
          -2.831315,
          1.9829733,
          -0.4078114,
          -0.76142573,
          -0.12393568,
          0.5720819,
          1.2784977,
          -1.4583865,
          -2.7778056,
          -0.19915865,
          1.2921576,
          -3.0595782,
          2.1442106,
          1.0282454,
          -3.8464828,
          2.2954564,
          2.056719,
          -0.08517436,
          1.9099658,
          -0.9808472,
          -2.2856832,
          1.5986362,
          -1.1349015,
          2.2804377,
          1.077969,
          2.400078,
          -1.0556659,
          -0.41852075,
          0.5931423,
          -0.95940256,
          -1.7060499,
          -0.9009114,
          2.792641,
          -0.9084089,
          0.2575371,
          -3.9389994,
          -0.2111234,
          2.213722,
          -0.7180928,
          -1.1328182,
          -0.06824451,
          0.8868362,
          -0.3125107,
          -1.7599882,
          1.8321372,
          1.622204,
          -3.3285277,
          2.424017,
          -3.2300103,
          -1.8537555,
          -1.832075,
          2.6738496,
          1.6551993,
          -0.031899165,
          5.2272587,
          -2.6714668,
          2.1720457,
          0.018090058,
          1.9373223,
          -0.024168143,
          1.2946091,
          -1.0388238,
          -1.7632928,
          3.8495085,
          -0.7896892,
          -1.6801116,
          -3.0634398,
          -0.15418789,
          1.4412401,
          -2.2150266,
          -4.5911255,
          -2.3499336,
          3.9620693,
          0.95092696,
          1.6205438,
          -2.434508,
          -1.5438846,
          0.5290239,
          1.0877385,
          0.85294104,
          1.8070261,
          1.4603224,
          2.742506,
          0.04580333,
          -1.1565841,
          -0.3996441,
          0.6054597,
          5.0960326,
          -3.4215302,
          -0.20019521,
          -0.94720554,
          0.8399244,
          0.40920824,
          0.71673006,
          -0.35321182,
          -1.3791256,
          -2.0484002,
          -0.5679784,
          3.0076575,
          -0.9822532,
          1.563886,
          -1.4293343,
          2.406422,
          2.5926828,
          1.2420154,
          2.0172276,
          -0.36789674,
          -1.4756044,
          -2.8434832,
          1.9119666,
          1.5198189,
          -0.010707871,
          1.0643433,
          -2.1125982,
          -0.9052954,
          -0.5552723,
          0.14946593,
          3.108002,
          1.6005716,
          0.55436367,
          -0.81510425,
          1.5378472,
          0.47678268,
          1.9035084,
          -0.8992564,
          -0.76520854,
          3.0127192,
          4.141858,
          0.16895412,
          0.012516268,
          -1.2425928,
          1.9926298,
          2.2207148,
          -1.4651186,
          1.5407224,
          0.35927767,
          0.6711131,
          2.3364913,
          1.7700751,
          -1.7414316,
          -1.815457,
          -1.7524364,
          -1.3029903,
          3.3075638,
          -3.5649092,
          1.4108006,
          -1.2058921,
          -0.013937731,
          -0.90478003,
          1.8147156,
          -2.7109184,
          -1.9525825,
          2.8933766,
          1.6236864,
          2.084089,
          3.505622,
          0.8890754,
          -1.7941025,
          -3.2386734,
          2.3819623,
          3.429046,
          0.50651205,
          -3.1842482,
          -1.6798246,
          -1.0052311,
          -1.2943997,
          -3.2581105,
          2.262553,
          -2.930153,
          -4.782983,
          1.4825354,
          2.727681,
          0.43231118,
          0.5343544,
          -5.679013,
          -1.6505421,
          -4.398683,
          -5.710442,
          -0.03426686,
          1.8234805,
          -2.5659714,
          -3.2226546,
          -2.0745559,
          0.1683197,
          -2.8590732,
          0.53899914,
          1.8461169,
          0.30911312,
          1.3816321,
          -0.5249371,
          1.3110739,
          2.5772192,
          -0.22253305,
          -2.5780067,
          -1.2362014,
          -2.8771193,
          -1.8578701,
          2.208323,
          -3.3592873,
          0.5785193,
          -0.8603863,
          -3.8330266,
          -0.57421786,
          -1.6425962,
          0.7179409,
          1.622636,
          -3.1380687,
          1.5459532,
          -1.9625633,
          0.8501668,
          0.26775312,
          -0.18374436,
          -1.1424302,
          0.47730985,
          1.4569389,
          3.7305684,
          -0.043746926,
          1.7825305,
          2.0374138,
          -0.77053374,
          3.6772792,
          0.6313506,
          -3.2427514,
          1.1937932,
          0.3564103,
          -0.67963374,
          -2.0261707,
          -2.141484,
          -0.11297305,
          -1.7948369,
          -2.958052,
          -1.9868244,
          0.62076676,
          -0.4602641,
          -1.1462258,
          2.7365108,
          1.3449967,
          2.7679672,
          -1.2462296,
          1.7844496,
          0.268093,
          1.2289532,
          -1.6384928,
          -3.0582683,
          -2.0437503,
          0.5189041,
          1.0605118,
          2.4212134,
          2.234733,
          -0.41790184,
          -1.5415214,
          -0.9820769,
          1.5953684,
          0.17250073,
          -2.97253,
          -0.795073,
          -1.3025275,
          0.6875866,
          -1.8862705,
          -0.83664817,
          -1.8836098,
          -3.3484147,
          -2.2157574,
          0.68614435,
          -2.9775698,
          0.6912703,
          1.4228365,
          -0.29374424,
          2.237249,
          3.3074121,
          1.7352337,
          -0.6647495,
          -1.1750998,
          -1.9480789,
          0.25082386,
          0.23834828,
          -2.4113193,
          0.4454806,
          0.032062575,
          0.45391226,
          -2.1762674,
          -0.9981504,
          0.064660065,
          -2.714474,
          -0.25248793,
          -4.511102,
          -0.05281639,
          -6.375729,
          -4.397566,
          -0.40805733,
          0.31405112,
          -2.2635717,
          -2.6921034,
          -0.66533184,
          2.0778108,
          -0.9807711,
          -0.42145804,
          1.0042496,
          -0.010020882,
          -1.832198,
          2.093247,
          1.1312623,
          -1.0720314,
          0.9300842,
          2.3101716,
          -0.8001741,
          0.9698945,
          -2.8894992,
          1.3442237,
          -1.4536711,
          -0.27623183,
          -1.4443607,
          -3.5279143,
          -2.7921984,
          -3.6180313,
          -1.9436086,
          -1.066353,
          -6.109254,
          -1.96818,
          -2.3535697,
          1.0013032,
          -1.4274857,
          1.6475575,
          0.27499944,
          -1.8922323,
          -0.29742512,
          -0.5855978,
          -3.0935144,
          -0.4515804,
          2.3454764,
          -1.5292168,
          -1.491279,
          0.5901013,
          3.9030144,
          -4.448986,
          1.3992742,
          0.24349165,
          1.2790622,
          -0.27887043,
          0.7682538,
          1.527511,
          0.3477135,
          -2.564206,
          -3.0943847,
          -3.886609,
          1.3661625,
          -2.129504,
          -1.3970876,
          -0.5624276,
          0.35888878,
          0.4592811,
          3.0234118,
          1.6079127,
          -1.0377448,
          1.3343774,
          -0.0842665,
          2.4758697,
          2.0654824,
          -0.29038513,
          -1.3248453,
          -0.26747036,
          0.7891757,
          -0.7518425,
          0.6588375,
          -1.8139375,
          0.07410255,
          -2.772797,
          -1.5098127,
          1.4052117,
          -3.3206537,
          -2.073964,
          -8.210695,
          1.4323711,
          -3.9885094,
          -0.35972503,
          3.60094,
          -3.028253,
          -3.6233134,
          0.32327327,
          -0.25506395,
          -2.2256546,
          0.13192928,
          -2.0102825,
          -0.037968025,
          -1.9048009,
          -2.100959,
          -1.1605276,
          1.8799145,
          0.5408602,
          -0.65628016,
          1.7530439,
          0.47598124,
          -2.761991,
          0.42699474,
          2.8190343,
          -3.3903272,
          1.6719803,
          3.4347484,
          2.0953014,
          -1.5766778,
          1.0361336,
          2.744449,
          -0.99172425,
          0.6224245,
          -0.05313522,
          -1.2701689,
          -2.7176557,
          2.5117328,
          0.5002268,
          -1.7093811,
          -1.5155255,
          5.7326508,
          -0.7066521,
          -1.3060263,
          0.82901657,
          4.86986,
          1.7996557,
          -1.5325184,
          0.44624403,
          -0.04247661,
          0.81488734,
          -0.100188516,
          3.359629,
          2.1876855,
          3.59837,
          1.5010788,
          0.7543024,
          -2.9318442,
          0.45205027,
          2.8514478,
          -1.7166669,
          -1.6506916,
          2.2290506,
          -0.5827856,
          2.1077566,
          -2.7588701,
          -2.167262,
          0.9654342,
          0.37277833,
          -0.81872785,
          2.1112506,
          -1.2241004,
          0.22941118,
          -6.374648,
          -0.77221155,
          -0.14327997,
          -1.5660434,
          0.57962275,
          0.7191393,
          -0.26152435,
          0.5429652,
          4.444043,
          1.9863607,
          3.894106,
          -2.445426,
          1.2317206,
          0.20961496,
          0.914436,
          1.9559788,
          0.6413884,
          0.34347114,
          1.4383479,
          -4.7247033,
          2.6816852,
          1.0024819,
          0.37320566,
          0.4408822,
          -0.22846428,
          -0.3856112,
          0.7060947,
          3.762574,
          -1.5684658,
          -0.92227477,
          0.005330342,
          -1.0782443,
          2.3713238,
          1.0412208,
          1.9985585,
          4.2946296,
          1.2520446,
          3.6684346,
          -0.37538862,
          1.5366299,
          -1.550813,
          0.31479537,
          0.5773451,
          0.3904514,
          3.012846,
          2.976973,
          0.2846066,
          -0.80476147,
          0.50110334,
          -1.6619668,
          3.014971,
          -3.9929626,
          -0.1935598,
          -1.2295775,
          -2.1785145,
          -0.9090699,
          -0.94040775,
          1.4393219,
          0.037517123,
          -1.0420889,
          3.0941563,
          5.4654617,
          2.3634012,
          -0.8866371,
          -0.007715118,
          2.9149413,
          1.4558058,
          -0.79005176,
          -2.295102,
          3.692171,
          5.0795274,
          0.19712298,
          -2.4456034,
          1.8283191,
          0.6390265,
          0.26789147,
          2.1416235,
          1.4733158,
          -0.9116639,
          1.315109,
          1.9653108,
          0.092549525,
          1.9766693,
          -3.175243,
          -5.4079766,
          -2.4027464,
          0.18491288,
          1.4337155,
          0.37763172,
          -0.0043869824,
          -1.3725723,
          2.6781728,
          -2.2191367,
          -0.10374499,
          0.98941535,
          3.1738677,
          0.15338863,
          0.43145415,
          2.3373697,
          1.2136691,
          0.41480067,
          1.810601,
          -1.2435504,
          0.1669647,
          -5.405247,
          2.517339,
          -0.02680001,
          3.3505604,
          2.97241,
          -4.5778027,
          -0.9277196,
          -2.496701,
          -1.4929941,
          -0.35185245,
          2.246433,
          1.5110519,
          2.997752,
          1.94224,
          1.2639045,
          4.6955266,
          -0.12521292,
          -0.7636072,
          -0.21511817,
          0.12731177,
          4.5831203,
          1.0167634,
          4.0794344,
          1.0676676,
          2.5702825,
          -2.0233724,
          1.8982388,
          0.5739707,
          -1.9610231,
          3.7961047,
          -2.4314651,
          2.0649922,
          0.1272043,
          0.5322439,
          1.0403866,
          -2.6928272,
          0.9568987,
          3.0387728,
          -2.487551,
          -0.6492639,
          -1.6135374,
          1.3263276,
          -0.23029466,
          -2.7498927,
          -1.4884226,
          -1.1109495,
          1.8032182,
          5.3935843,
          1.6015064,
          0.095832795,
          -0.4346294,
          -1.4949505,
          1.7448004,
          -1.6302313,
          -1.700946,
          1.5006967,
          1.374916,
          1.0012026,
          -4.6321898,
          3.2897441,
          4.900838,
          0.277087,
          -1.0720036,
          -2.3907099,
          -1.0492947,
          -0.1388626,
          -5.151898,
          -4.9801745,
          -3.8378284,
          -3.2279425,
          -0.4550216,
          -2.3022463,
          -2.6703124,
          -1.2379495,
          -4.0015645,
          -0.60398984,
          0.7870361,
          -0.12659918,
          0.7364511,
          -1.062949,
          -0.98715377,
          -0.107173175,
          -4.102065,
          0.5578956,
          -2.5250037,
          -0.08891402,
          5.014825,
          2.138634,
          1.122764,
          2.8341348,
          -0.972167,
          -1.2761915,
          -0.17343818,
          -0.2005843,
          -0.181681,
          -2.54161,
          -3.2496336,
          -5.2623587,
          -2.5760634,
          -4.113197,
          -3.9097614,
          -0.99740064,
          -3.1008096,
          -0.24285617,
          -3.364519,
          0.48911375,
          -0.33270356,
          -0.25418457,
          -2.5909991,
          -2.9024339,
          -1.0204552,
          -2.8297513,
          -2.3992407,
          -2.2559247,
          -0.23473959,
          -0.9285811,
          -3.3488665,
          -1.9071088,
          -3.1128533,
          1.4351646,
          1.4097574,
          -1.9273372,
          -1.2495843,
          -0.4181172,
          -1.1900432,
          -1.082794,
          0.11096722,
          -1.7929382,
          -3.0474937,
          0.99454314,
          -2.468136,
          -3.4233315,
          -3.7269917,
          -1.0933659,
          -1.876897,
          0.2185957,
          -1.4732496,
          2.2133672,
          0.5313689,
          0.7433793,
          0.36532837,
          -0.87231725,
          -0.34699208,
          -2.8514888,
          1.4045846,
          -1.7700653,
          0.8305451,
          2.1445684,
          -0.04159721,
          -0.85865474,
          1.7483069,
          0.4239936,
          -4.1580405,
          2.509866,
          1.5787212,
          -3.835856,
          0.23308961,
          -2.7233198,
          -0.37649977,
          -1.097986,
          -0.24944256,
          1.9029183,
          -1.8854988,
          0.96659046,
          2.2322378,
          -2.670794,
          3.49762,
          -1.4694514,
          -1.4706119,
          1.3846482,
          0.7238883,
          -2.2863436,
          -0.9212539,
          -0.1722025,
          -1.2083614,
          -1.010115,
          -0.52756125,
          2.1167843,
          -0.34193438,
          -1.1106126,
          -1.7910296,
          3.0204024,
          -1.1990902,
          -2.183937,
          1.4338206,
          -0.5534076,
          -0.585854,
          1.0624917,
          -1.1409312,
          -3.7693355,
          1.3906469,
          -0.8621455,
          0.32078874,
          2.1702526,
          1.2633544,
          -4.553655,
          0.17227432,
          0.8509601,
          -0.5121229,
          -0.5849668,
          0.6571164,
          0.16553709,
          -1.03884,
          1.0816447,
          2.4947572,
          0.25352415,
          -1.1393238,
          1.4000322,
          -2.292995,
          -2.2384903,
          -0.2885709,
          0.98453414,
          -1.537275,
          -3.0128214,
          0.800437,
          1.2312568,
          1.8423543,
          -0.051059753,
          1.92341,
          -1.6412339,
          -0.25421476,
          0.5407416,
          1.1326522,
          1.8590103,
          -3.036928,
          2.0320623,
          -2.1978307,
          3.1404316,
          -2.727515,
          -1.3358321,
          1.5472361,
          -1.8985952,
          -3.970158,
          -2.7083313,
          -0.55162024,
          -0.30490488,
          0.7679442,
          3.6717906,
          -1.0187097,
          0.105029166,
          0.46917582,
          0.8614155,
          -1.1647806,
          -2.352086,
          -3.293874,
          -3.2521384,
          -0.18592238,
          -1.68787,
          -1.4105548,
          -4.2441807,
          1.8765979,
          0.62654483,
          -0.68225706,
          -4.1106005,
          -0.27707815,
          2.1135623,
          -3.1392052,
          0.9891763,
          0.11392174,
          0.4807179,
          1.064386,
          0.8634502,
          1.8061033,
          -0.8786751,
          -0.6146351,
          -2.4746747,
          4.2591515,
          -1.2790302,
          -2.384924,
          -1.4701079,
          -1.6251374,
          0.47272965,
          -2.9501119,
          2.2458358,
          -1.1930214,
          -1.5293825,
          -0.35266525,
          0.30094936,
          2.4406464,
          1.1147833,
          -2.5884035,
          -0.6333411,
          -1.8013576,
          2.4513533,
          1.4913701,
          -5.276931,
          -0.33951628,
          2.8389885,
          -2.3632853,
          -2.7898092,
          1.6502455,
          -5.9941497,
          1.2712362,
          -0.84716743,
          -2.2582626,
          4.9336905,
          0.9305622,
          0.25482374,
          -2.3189871,
          2.0563495,
          1.3272307,
          -0.90524304,
          -0.5202353,
          1.6243743,
          -4.628929,
          -1.3747141,
          -2.8068473,
          2.6125119,
          -0.98636997,
          -1.314974,
          -0.20841049,
          -1.0996245,
          0.6085361,
          0.44649136,
          0.5291235,
          -0.003069711,
          0.93863803,
          -2.4759922,
          2.7074904,
          3.7345843,
          0.496896,
          3.192177,
          -0.42845014,
          -1.148237,
          1.7729032,
          1.5688052,
          -2.4424627,
          0.3607195,
          -0.7208509,
          -1.5930057,
          0.23031357,
          -2.7180526,
          -1.0354534,
          0.74338335,
          0.018481147,
          0.6194456,
          -1.9211936,
          -2.572197,
          -2.3926783,
          -1.7202418,
          3.3599174,
          1.8940805,
          -1.011137,
          -1.044507,
          -4.2064595,
          -1.587297,
          -1.3928713,
          -2.3079941,
          0.099165656,
          -2.0281324,
          0.21599382,
          -1.3243284,
          -0.9048276,
          -1.5294536,
          -0.79228264,
          -2.4851985,
          0.12519109,
          1.4792022,
          -1.5661386,
          0.275209,
          0.7860445,
          1.3901857,
          -0.5520669,
          0.23186788,
          -2.2957394,
          -2.0971994,
          0.2699105,
          2.4957242,
          0.89768016,
          0.7653637,
          -0.7722699,
          -2.4717927,
          -4.7242723,
          -2.2653422,
          -1.2163823,
          -0.9798339,
          -0.8209067,
          -0.19652139,
          2.6028945,
          -2.235827,
          1.8657647,
          3.4611676,
          0.7365702,
          -1.4930063,
          1.752369,
          -1.9482008,
          0.2105229,
          1.063876,
          0.48806226,
          -3.543147,
          1.5717772,
          0.8057286,
          0.055154298,
          0.98616713,
          0.6894138,
          -1.7690867,
          -0.33071548,
          -0.6121764,
          -1.5563158,
          -2.287987,
          -1.0384874,
          2.7914681,
          -1.9484346,
          1.3374696,
          0.4436915,
          -2.5716066,
          -3.2056067,
          0.05746347,
          -3.7882957,
          -4.4585485,
          -2.1918387,
          2.6246502,
          0.8214499,
          2.7781012,
          -1.8087268,
          -1.7209239,
          0.12997203,
          0.41335452,
          2.0908468,
          -1.4552617,
          -0.9307737,
          3.173437,
          4.530841,
          -1.765012,
          -1.3592567,
          -1.2081723,
          3.025814,
          1.0182366,
          2.2248218,
          -2.9217618,
          -0.13035546,
          1.3717206,
          1.5203661,
          -0.76191646,
          1.6951348,
          3.1479473,
          -1.3428242,
          -3.1317604,
          1.6237558,
          -2.1707602,
          0.2207574,
          -0.9098105,
          -0.918292,
          0.3592309,
          -1.3026239,
          1.8244166,
          -2.3435607,
          1.8647639,
          2.5041058,
          -0.116270125,
          0.15335976,
          2.0526543,
          -2.7674468,
          3.9592955,
          -1.4966968,
          0.47633523,
          3.2822275,
          1.908681,
          1.0858418,
          1.3547022,
          3.8805895,
          -3.020282,
          -2.2946737,
          -0.58757347,
          0.13343325,
          0.34942585,
          -1.8605324,
          -3.0554209,
          0.46541032,
          0.22521251,
          -2.5104141,
          1.6224403,
          0.010831482,
          -1.7878236,
          1.4063039,
          1.172385,
          -0.98804003,
          0.73445535,
          0.32465002,
          1.2059882,
          1.3846502,
          0.10168282,
          2.3510158,
          0.0898459,
          1.629385,
          -2.9200492,
          3.234485,
          4.3311105,
          -0.7806718,
          0.36415336,
          -0.7647713,
          0.2608661,
          -0.5693389,
          -1.5308776,
          -1.1737698,
          -1.1932731,
          1.4528513,
          -2.64042,
          1.5081689,
          0.6997317,
          2.0160472,
          0.38929442,
          2.061124,
          1.6134342,
          -1.1358447,
          4.410678,
          5.166834,
          0.8541777,
          -1.344048,
          -2.3370297,
          -0.41247776,
          -2.1813626,
          -0.25588235,
          -1.7016728,
          2.4997587,
          -1.0741788,
          0.50015223,
          0.438036,
          3.3970294,
          1.6927971,
          2.4183662,
          2.4629674,
          1.5467484,
          -0.66543067,
          -1.5225394,
          0.20533451,
          -2.013438,
          -1.233241,
          -1.4156489,
          1.6345364,
          0.15075675,
          -0.8225314,
          5.190456,
          1.3431456,
          2.3157935,
          0.2592741,
          1.6482075,
          -1.1654301,
          -2.4021583,
          -2.806108,
          1.4112986,
          0.16432959,
          -4.8491936,
          -1.624837,
          -3.8835635,
          -0.6087215,
          -1.2667975,
          0.62023616,
          -2.634983,
          1.2031788,
          1.4981414,
          0.5942703,
          -1.357822,
          -2.2643309,
          -0.8586197,
          -0.11772059,
          -0.15690853,
          -1.0276804,
          -0.42902967,
          1.2488177,
          1.7530137,
          2.2571266,
          3.900833,
          5.58074,
          -2.4550226,
          -0.6654419,
          -0.09081093,
          -4.6768475,
          -3.6504226,
          -3.799268,
          -0.45458356,
          -3.0785537,
          1.1788638,
          -0.26953357,
          0.8956022,
          3.8797362,
          -0.10262943,
          2.5884464,
          -2.5174732,
          0.7766253,
          1.369134,
          -0.7355049,
          -1.1792539,
          -1.1206975,
          0.8383703,
          2.8695683,
          1.3125105,
          -2.0507905,
          1.4082352,
          4.7827563,
          6.403078,
          1.3483585,
          -2.2631786,
          1.2630796,
          0.36215708,
          0.31716812,
          -1.2996244,
          0.94025517,
          -3.8521197,
          -4.0877113,
          1.0472019,
          -0.014992286,
          1.4223723,
          1.5856055,
          3.7241335,
          1.7567308,
          1.663022,
          1.3110284,
          -2.796244,
          -1.8061197,
          -2.190707,
          -3.6770658,
          -4.572896,
          -5.3836756,
          1.336415,
          -2.0025241,
          0.6658107,
          0.9484695,
          4.293117,
          2.1376166,
          -1.057095,
          4.121958,
          1.1012372,
          1.4436091,
          -0.9080012,
          2.1727512,
          0.20502664,
          -1.5488037,
          1.3286453,
          1.1455721,
          1.40986,
          -0.25498682,
          -0.27256504,
          3.6988165,
          5.6106257,
          1.045088,
          1.8126912,
          -2.1320627,
          0.61808795,
          -2.5673583,
          -0.43467805,
          -5.5863357,
          -5.689358,
          -5.6104097,
          -4.8167024,
          -4.1200013,
          -2.6617162,
          -0.9506946,
          0.3163183,
          -2.014836,
          -1.1132902,
          -2.227239,
          -2.333167,
          -1.8978364,
          4.7851486,
          0.808809,
          1.5703956,
          0.10598234,
          3.1598287,
          0.32601705,
          1.8169717,
          -1.3387933,
          1.8881209,
          0.13421965,
          1.5133678,
          0.6824772,
          -3.4968467,
          -1.4742906,
          0.4129989,
          -3.6652844,
          -3.429151,
          -5.2359214,
          -5.4461904,
          -4.888753,
          -1.7364306,
          -0.11506691,
          -1.6512265,
          -1.1229918,
          -3.3669643,
          -1.9900621,
          0.45114914,
          -1.3149557,
          0.07358811,
          2.034726,
          -4.1793723,
          0.6533578,
          -1.9111781,
          0.27661505,
          1.1492634,
          -0.36455384,
          4.2249494,
          -0.51754117,
          -1.2495109,
          -0.05050807,
          -3.1756015,
          -2.1315064,
          -0.9673568,
          2.3603196,
          0.123571925,
          -1.8438274,
          -1.182221,
          -8.3113785,
          0.12586007,
          -2.224009,
          -2.0297444,
          0.9166843,
          -1.4881157,
          -3.4338973,
          -1.2096198,
          -1.7529556,
          -1.1741663,
          -3.230719,
          -0.16930039,
          -0.11555582,
          -0.73830026,
          1.5807601,
          1.3662251,
          0.20114571,
          2.9935217,
          0.9270776,
          -2.565214,
          0.48626298,
          -2.298414,
          0.492263,
          0.3305202,
          -2.236359,
          1.0540324,
          1.1284711,
          -5.046069,
          -2.04779,
          -1.2445747,
          -2.1257958,
          -0.9763522,
          -3.8252273,
          1.1107721,
          -0.25741115,
          -0.2529879,
          -1.955399,
          -6.226131,
          -0.14414094,
          0.8351156,
          -0.78524095,
          -0.38704577,
          0.19364934,
          1.7850337,
          -0.64233476,
          1.7066864,
          -2.3131316,
          -0.764123,
          -1.3318046,
          -1.5409361,
          1.281996,
          -0.80127776,
          2.0911565,
          0.26701406,
          -3.700311,
          -1.4649597,
          -1.2445723,
          -2.1607535,
          -2.4675877,
          -3.449835,
          -1.7227955,
          -1.6949706,
          -2.1027808,
          -1.1096565,
          2.8653762,
          4.121587,
          -5.8228583,
          -3.8722801,
          -2.5434556,
          -2.6949937,
          1.375077,
          -0.6144614,
          -2.312029,
          1.8733375,
          -0.52533865,
          -1.0932553,
          -1.3978093,
          -1.3395715,
          -4.172117,
          -2.478309,
          -1.6098397,
          -1.6441288,
          -0.42259923,
          -0.02810587,
          -0.6887662,
          1.2960768,
          -2.6886754,
          1.3365934,
          -2.4035785,
          -1.323376,
          -4.905571,
          -1.4189135,
          -3.1200192,
          0.017261717,
          -2.2015123,
          0.89616656,
          -3.1201274,
          -0.20132618,
          -2.459435,
          0.23782337,
          -0.6952439,
          -3.7225919,
          -3.2980695,
          -0.15522785,
          -1.3757921,
          0.9779572,
          -0.23296884,
          2.1611328,
          -0.9647979,
          -0.7067603,
          0.3210554,
          1.6286544,
          1.7455652,
          1.7703501,
          0.8107897,
          -2.7070532,
          -0.9045861,
          -0.057320066,
          2.7751954,
          2.9179235,
          1.2058352,
          1.7824045,
          2.1910498,
          0.3259065,
          3.545033,
          -4.1136703,
          -2.5627959,
          -8.159081,
          -1.565292,
          -0.95626134,
          -1.1658006,
          -0.9189019,
          -0.5185125,
          -0.61254996,
          0.91144556,
          0.74824405,
          1.4186054,
          0.24298269,
          1.2397922,
          0.36813977,
          -0.5136885,
          1.0258324,
          1.0427636,
          -0.55175096,
          3.8406105,
          1.7078207,
          -1.791824,
          2.018214,
          1.0208552,
          0.3273315,
          1.6737033,
          1.5388788,
          -0.33853236,
          0.43595815,
          1.2663468,
          -0.6902444,
          0.2763249,
          1.3073742,
          0.53765655,
          1.8203996,
          1.7239413,
          1.1289785,
          0.8480192,
          -1.7236757,
          0.11362973,
          0.7335464,
          0.58454967,
          2.525551,
          2.9376009,
          0.76655006,
          0.10015666,
          0.83140504,
          2.4407291,
          0.0014281688,
          -1.0706081,
          0.34497693,
          -0.19657892,
          0.6530295,
          0.39641985,
          1.9701693,
          -1.9979018,
          5.7171893,
          1.377375,
          1.306934,
          1.2823856,
          -0.75117964,
          -3.9303782,
          0.70111465,
          -3.9486082,
          -0.5713686,
          1.31391,
          -1.5720165,
          1.865268,
          -2.2774744,
          1.6860629,
          -1.4133955,
          2.7362967,
          0.20981793,
          2.0600448,
          -1.9350235,
          -1.8226588,
          -1.6199875,
          -1.0224556,
          -1.8325489,
          -1.1303775,
          -1.55231,
          -0.07476408,
          -3.0574892,
          1.5374744,
          -2.1156187,
          -0.4001639,
          -0.7112887,
          3.3394802,
          1.9178634,
          -0.48668176,
          0.011980328,
          -1.4312675,
          -1.2953452,
          -0.51669455,
          -3.2506583,
          0.548905,
          -1.4036018,
          2.2824194,
          -3.2614887,
          -0.9768197,
          -4.346902,
          -1.1057597,
          0.50396264,
          2.5730028,
          -2.5638206,
          1.1634312,
          1.217256,
          -0.12996557,
          -2.7209904,
          2.2050254,
          -3.3583825,
          0.83556163,
          -0.85621446,
          3.3998475,
          -2.1711159,
          0.25820398,
          3.021021,
          0.17281671,
          1.6695793,
          1.6297905,
          -1.7198799,
          3.1449518,
          -1.413253,
          2.0036862,
          0.022388726,
          -0.2633358,
          1.4319692,
          -1.2929465,
          -2.7779713,
          -2.4696972,
          2.0874643,
          0.6256184,
          6.287277,
          -0.79162216,
          3.6728466,
          -3.180676,
          -4.2424583,
          3.582402,
          -1.4363384,
          0.90250105,
          -2.269162,
          2.1845555,
          0.9539047,
          1.6328114,
          -1.1992267,
          -1.8508861,
          4.0115895,
          2.2127168,
          -0.63684404,
          -0.038542975,
          1.2172775,
          0.7689159,
          2.6615295,
          1.2286059,
          3.08046,
          0.0410999,
          0.33267027,
          2.616815,
          1.2344997,
          0.041309975,
          -2.8403294,
          -1.3926867,
          2.2375834,
          1.5043083,
          0.37295908,
          0.25563714,
          -2.8340814,
          3.1790943,
          -0.586528,
          -1.7116382,
          -0.2185741,
          1.9723567,
          -1.1802572,
          -1.1570896,
          0.74371356,
          -3.5111806,
          2.301442,
          2.402697,
          2.4842863,
          -3.5765543,
          -0.7503113,
          -0.6942451,
          -0.2709767,
          0.88913184,
