{
  "path": "ML-saves/Parameter-test/no-mod.json",
  "iteration": 58000,
  "layers": [
    {
      "from_amount": 784,
      "node_amount": 10,
      "weights": {
        "v": 1,
        "dim": [
          10,
          784
        ],
        "data": [
          -3.6451325,
          -1.4049793,
          1.4964118,
          -2.9035919,
          -0.7869029,
          1.6002717,
          -0.30512777,
          0.8441598,
          2.5173132,
          -1.9724935,
          1.9778134,
          0.3340085,
          2.683497,
          -1.5890278,
          0.7830374,
          1.3248848,
          -2.545961,
          1.6992517,
          4.869177,
          2.908754,
          2.4722977,
          0.9217536,
          -2.011791,
          1.6299629,
          3.3614817,
          0.21909359,
          0.9933387,
          -0.59888947,
          0.32721794,
          -3.6386023,
          -0.9579196,
          2.50187,
          1.4230586,
          3.0627239,
          0.035238735,
          0.77433497,
          0.13669537,
          1.7471474,
          -2.4349735,
          -2.3516953,
          -1.2032782,
          -2.0113554,
          1.9403757,
          3.276968,
          2.973257,
          4.6526647,
          -3.1767783,
          -4.1433406,
          1.8029381,
          0.09580989,
          -2.5402973,
          2.1831183,
          2.4113734,
          -5.245859,
          3.3107839,
          1.8049127,
          0.030721318,
          2.5351858,
          -3.4006753,
          0.08823472,
          -1.6113883,
          -3.1288161,
          -4.99152,
          2.2858078,
          1.5391402,
          -2.5330741,
          -2.4920583,
          -1.1787122,
          0.22255984,
          -1.3515283,
          -0.49882963,
          1.5344647,
          -2.2678506,
          3.8391855,
          1.2156287,
          2.355289,
          -0.057729356,
          1.4159236,
          -2.1637232,
          -0.32612973,
          0.51324666,
          1.054648,
          -1.8358232,
          -0.27521026,
          3.1738245,
          -5.074188,
          -3.8132954,
          1.3851454,
          -0.30218905,
          -3.7517357,
          -0.88631964,
          -0.38782424,
          1.3188502,
          -0.2916658,
          0.46004918,
          -3.686207,
          -0.03855532,
          0.3820091,
          -0.32377943,
          1.8122662,
          -1.3358381,
          -0.9232881,
          -0.41531026,
          1.9364831,
          -1.0503128,
          -1.7066696,
          1.6766834,
          2.5352492,
          1.3091851,
          -6.587569,
          5.0792537,
          0.6276414,
          -0.64873904,
          -3.1713881,
          1.5551685,
          -1.2946192,
          1.033766,
          -3.1707318,
          2.2509267,
          -0.30810764,
          -2.069994,
          -1.7383391,
          -1.1526403,
          2.1223059,
          0.89386594,
          -0.4642735,
          -1.8894057,
          0.8364467,
          -2.1074698,
          -3.4532008,
          1.538943,
          2.783124,
          -3.3450572,
          2.2864954,
          -0.3315059,
          2.3665814,
          6.116828,
          1.3532133,
          -2.5092692,
          2.4312599,
          0.4116425,
          1.6565393,
          -0.47603348,
          -0.26238003,
          -2.549568,
          3.575152,
          0.6416644,
          1.409081,
          -3.8941689,
          -0.3872903,
          1.7248292,
          1.7292024,
          -0.8280144,
          0.16176032,
          1.1311145,
          2.9953163,
          -0.016215654,
          2.3156948,
          -2.7959273,
          1.3269352,
          1.8446267,
          1.8171105,
          -0.74960566,
          -2.7642763,
          3.1683998,
          -2.36267,
          0.9732542,
          -0.053953238,
          1.9132768,
          -2.1232147,
          -1.9209723,
          -0.47103164,
          -0.25333178,
          -2.522497,
          -0.91037226,
          -3.213113,
          -1.6958785,
          -1.225016,
          -1.7016538,
          1.0082107,
          2.4722614,
          -0.556516,
          1.99609,
          1.1461438,
          0.40392798,
          -1.1860806,
          1.0940626,
          2.2901857,
          -2.4791703,
          2.1042624,
          -2.1117158,
          0.053167235,
          1.1369843,
          1.7065352,
          1.4843656,
          -0.8727057,
          -1.8909016,
          0.053086676,
          -1.0142739,
          -1.4514673,
          1.5313035,
          3.0164316,
          1.1809475,
          -0.11889043,
          0.23726046,
          -0.36277685,
          -3.1433017,
          -1.8756343,
          -0.8424757,
          2.354177,
          -1.1843414,
          -0.6236153,
          3.6368043,
          -0.6799638,
          0.6527148,
          0.6582273,
          -0.68499696,
          2.6484563,
          1.2037718,
          -0.7299036,
          0.053254545,
          -1.3723506,
          -1.1286397,
          -1.5574671,
          3.0181084,
          -1.5817609,
          -1.9331897,
          2.2065043,
          -0.65561604,
          1.5668143,
          -0.5680692,
          1.5935173,
          0.37956297,
          -0.5641084,
          -1.8083836,
          1.9570556,
          -1.5216835,
          -2.0646114,
          -0.12971954,
          2.1921935,
          2.9450812,
          0.09008254,
          4.2895555,
          -0.970205,
          0.34544614,
          0.69692785,
          0.7118593,
          -2.0998805,
          0.0630378,
          -1.1507404,
          0.0061060674,
          -0.64966047,
          -3.247729,
          0.46379745,
          -0.58506036,
          1.0692416,
          0.91329217,
          -2.5858622,
          0.06497,
          -0.79032326,
          -1.040392,
          2.104149,
          -0.26383838,
          -2.1255305,
          2.6294048,
          1.8615764,
          -2.0664885,
          1.0182104,
          -1.7992952,
          0.23142213,
          0.7035851,
          0.99918014,
          1.7176163,
          0.9391043,
          -2.3350167,
          -1.9534607,
          -3.7932582,
          3.303885,
          0.9970414,
          -0.7456512,
          1.0718657,
          -0.25727782,
          -1.445512,
          2.3878386,
          0.19067474,
          -4.4923573,
          -0.3710299,
          1.5340644,
          0.9717133,
          4.2731323,
          -1.771247,
          -0.4590823,
          -1.8097156,
          2.146259,
          -1.2253205,
          1.5790365,
          -3.601446,
          2.1881773,
          -0.76910144,
          2.1826456,
          -0.37589148,
          3.0269601,
          2.7862427,
          -0.9254925,
          2.6666627,
          3.010331,
          -0.6386328,
          -0.5983308,
          0.45891556,
          2.9422314,
          -0.4716326,
          -1.2093629,
          1.2717586,
          0.417927,
          -1.9943383,
          2.313189,
          -3.9307742,
          2.5911026,
          -0.9451611,
          -0.6083105,
          2.0269337,
          -0.7796338,
          -0.4051489,
          -1.8335581,
          -1.2768853,
          0.457826,
          1.5890671,
          -1.3870754,
          0.49766374,
          1.0009587,
          3.497904,
          3.625082,
          -0.42102882,
          2.7281113,
          -0.47549367,
          0.8621796,
          -1.0463476,
          -3.921594,
          3.010007,
          -1.1585355,
          2.0600169,
          0.18373297,
          1.7790813,
          0.11407786,
          -2.5376172,
          1.3133438,
          0.3887168,
          1.3546507,
          -1.4551632,
          -2.695513,
          -1.210776,
          -0.99425274,
          0.022338405,
          -1.0871305,
          3.2605548,
          1.0531127,
          2.2241318,
          4.8284388,
          -2.1965828,
          -0.51161915,
          -0.05332996,
          0.14930847,
          0.07923833,
          -0.44979176,
          -0.89671195,
          -1.3214341,
          -0.18427849,
          2.4188547,
          0.18897301,
          -0.7266362,
          -2.996049,
          0.2852908,
          -2.3614376,
          0.70114857,
          1.917314,
          1.3217745,
          0.14782858,
          0.02741158,
          -1.092879,
          -5.972691,
          -4.9728427,
          -1.1046456,
          -2.6409206,
          -2.535453,
          -1.1885942,
          -0.024275593,
          -0.624719,
          1.1620921,
          1.130852,
          -0.035987295,
          0.22057727,
          0.25984016,
          1.7034363,
          -1.8310369,
          -1.6417544,
          0.42635402,
          1.95997,
          2.2795465,
          -0.07029717,
          1.8516985,
          0.1281432,
          2.087266,
          -3.0830164,
          0.5415325,
          1.6651236,
          -3.4776754,
          -6.198487,
          -2.2053876,
          -1.8767756,
          -2.8729236,
          0.6598808,
          2.2151682,
          -0.91408104,
          1.3033445,
          1.4086726,
          -0.727084,
          -1.3509713,
          0.56845,
          0.32010835,
          -0.6856644,
          -1.2621927,
          0.9078877,
          1.2797084,
          2.15737,
          -0.49985173,
          2.7084932,
          2.7530258,
          -0.027039822,
          2.9004276,
          4.4728055,
          4.8925023,
          1.5984331,
          -4.1418233,
          -2.5745006,
          -1.5113662,
          -0.43973553,
          -1.7725915,
          -1.913915,
          1.0725822,
          -1.9361881,
          1.9302334,
          -0.87936306,
          3.8476593,
          4.5579734,
          -1.4465419,
          0.14125611,
          1.3170125,
          -0.35417756,
          -3.974975,
          0.67726433,
          -0.32693392,
          -1.6941996,
          -2.349772,
          -0.6787461,
          3.5970256,
          3.9806592,
          0.8087935,
          -5.2468853,
          -1.2149279,
          2.9081388,
          -3.0932267,
          -2.244601,
          -3.2612214,
          -5.1748953,
          -3.7316458,
          -0.3069301,
          -3.3092535,
          -0.028955048,
          -0.8694322,
          0.26517677,
          0.05092111,
          -1.4634563,
          2.8432398,
          -2.1446319,
          3.2455437,
          -0.10715834,
          0.75260293,
          -0.44874498,
          3.8022225,
          -0.10643536,
          0.950989,
          0.44867897,
          -0.16918316,
          -1.881358,
          -0.54813015,
          3.0624812,
          1.511605,
          -2.0800614,
          -3.087558,
          -3.5567617,
          -1.42051,
          -5.6165633,
          0.43022054,
          2.7431731,
          -0.44694945,
          -3.333372,
          -0.9173578,
          -2.3537197,
          -1.3886422,
          -1.3840568,
          -2.0025313,
          -0.046892293,
          0.016897606,
          0.077249855,
          -2.4667964,
          -0.82064366,
          3.1702368,
          -1.5344256,
          -0.50325936,
          0.334535,
          -2.7605038,
          2.0223522,
          4.477736,
          -0.63019365,
          5.104106,
          -0.018881194,
          0.41642055,
          -1.5089278,
          0.06445313,
          -2.833031,
          -1.2762818,
          0.025851749,
          -0.4601673,
          2.2707107,
          0.67668456,
          -0.09025527,
          -1.7201288,
          -0.38071266,
          -1.1937985,
          1.5320625,
          -1.6059401,
          -0.6956889,
          1.473253,
          0.78227234,
          2.37182,
          -0.6685964,
          -2.5275943,
          1.4374715,
          -0.74221987,
          -2.2939754,
          -0.07760314,
          1.8003149,
          -1.220955,
          -0.01674055,
          0.8712878,
          0.5282414,
          -0.46964368,
          -0.44079763,
          0.099288255,
          -0.049457308,
          -1.5049194,
          -0.9313295,
          2.963417,
          1.5847139,
          0.94795066,
          -0.64182353,
          0.47488907,
          1.036736,
          0.3024158,
          3.3010838,
          0.96652436,
          4.4440465,
          2.0294435,
          0.33757886,
          0.16341098,
          0.36692038,
          0.23328346,
          4.5936136,
          0.8351177,
          0.45488027,
          0.58594996,
          1.3378315,
          -1.063779,
          -2.269313,
          -0.59579396,
          -5.188022,
          -1.2502258,
          -2.9140484,
          0.7542995,
          -0.395136,
          -1.0339259,
          -2.8173628,
          -0.9118679,
          1.199319,
          3.3434196,
          -2.9803078,
          0.35174218,
          -2.8537662,
          1.4631691,
          -1.895595,
          -0.45416147,
          0.18534231,
          -3.0808966,
          -1.4078963,
          0.5657374,
          -3.3667777,
          2.9838614,
          -0.41676766,
          0.8176393,
          -0.2981882,
          -0.94173527,
          1.4091858,
          2.626875,
          0.5031876,
          0.8453409,
          -1.399954,
          -3.6734352,
          -0.50964254,
          -1.0502962,
          -1.0166466,
          -0.66975677,
          3.3032415,
          -3.3004737,
          0.37401143,
          -1.8052511,
          0.71518946,
          1.1658509,
          3.5498624,
          1.3211231,
          -0.9714972,
          1.7014955,
          1.5176358,
          0.54493797,
          3.757334,
          -2.3429058,
          0.8056055,
          -1.3774523,
          -0.47264698,
          3.114438,
          1.0288738,
          -2.8347535,
          -0.0435679,
          1.5554295,
          -0.77615744,
          -3.8023658,
          -1.9336535,
          3.7674742,
          -3.4116304,
          0.14655754,
          1.6678891,
          0.60057557,
          -0.19596441,
          2.2013083,
          -0.7341292,
          0.73948884,
          1.801366,
          4.2126937,
          2.1166961,
          -0.883438,
          -1.1411059,
          1.0033275,
          2.0084858,
          0.33639655,
          -3.3728359,
          3.1270885,
          -1.7266757,
          0.7556484,
          1.6067001,
          -0.6069676,
          -2.5513535,
          -1.1668904,
          1.0421282,
          0.73468727,
          0.11186357,
          1.9756318,
          0.0887232,
          1.0558841,
          0.3165005,
          -1.9296526,
          0.8826929,
          3.2571964,
          -0.56587,
          1.4186828,
          0.45861715,
          2.1951566,
          0.77814806,
          -0.47639844,
          -0.08502727,
          -0.06477633,
          -2.2446609,
          -0.9137537,
          -2.9566822,
          -2.117032,
          -0.19725038,
          -0.43726307,
          -0.6056143,
          -0.38496667,
          -2.2230234,
          -1.971062,
          0.99971455,
          2.5705707,
          -0.9095136,
          -1.7605301,
          -2.2913418,
          -3.4163206,
          0.7254122,
          3.7550147,
          1.460689,
          1.0794114,
          1.5506868,
          1.7875338,
          0.7706266,
          0.45873538,
          1.8118331,
          -2.112274,
          -0.2748732,
          0.25089905,
          -1.2088552,
          -1.9188147,
          0.6543082,
          0.4021113,
          -0.5279167,
          -2.3346012,
          -1.1383969,
          -2.4123054,
          0.97417414,
          -3.2813938,
          -2.2165477,
          1.5346689,
          -0.8621604,
          2.418513,
          -1.0599976,
          0.33581805,
          0.8001025,
          -3.5791798,
          -0.04766143,
          1.3996143,
          0.995152,
          1.6577984,
          -2.2250407,
          0.7293222,
          -0.9426145,
          3.7594795,
          -2.5051918,
          3.22682,
          -1.8818233,
          0.12873606,
          0.5623855,
          -4.2787123,
          2.362693,
          1.0529941,
          -2.0976608,
          -0.70988333,
          3.2801042,
          -0.4982967,
          -0.17089692,
          0.19320394,
          -0.79472136,
          1.7178377,
          -1.7287287,
          -0.14657371,
          -2.2680974,
          1.4644532,
          1.1850094,
          3.0944307,
          -1.2561538,
          0.81080395,
          -0.9270176,
          1.5524136,
          2.2434502,
          1.5508846,
          -1.0684984,
          -1.0620271,
          2.3036525,
          2.495548,
          0.12131342,
          2.065874,
          1.123313,
          2.8233714,
          1.2682627,
          0.0591861,
          0.027107822,
          -1.8718687,
          2.2678137,
          2.2984579,
          -1.468394,
          -1.6260487,
          0.3314857,
          1.3421087,
          2.9275608,
          -0.49643674,
          1.5394789,
          0.25756168,
          3.9854298,
          3.919796,
          -1.70236,
          3.3479426,
          2.0417392,
          -2.4369333,
          2.0065937,
          2.1578271,
          -3.969943,
          0.55097044,
          2.0460567,
          -1.2487084,
          2.0674691,
          -1.6921788,
          -2.7465935,
          0.8800993,
          -1.9529095,
          0.98136085,
          -0.14034274,
          -0.9778831,
          -2.5197716,
          -0.19762942,
          1.3913274,
          -0.09544895,
          -0.45290834,
          3.6366687,
          -0.57133746,
          0.7644588,
          -0.10808275,
          1.753302,
          -1.3389803,
          1.782846,
          2.027729,
          -0.0066490243,
          1.9100351,
          0.52815026,
          -0.73963386,
          0.9349631,
          1.869049,
          2.2481315,
          0.61459666,
          -0.20279409,
          2.6725123,
          1.8259914,
          2.0182245,
          4.059849,
          -0.51501954,
          3.4296145,
          -1.3711144,
          1.309536,
          -0.10883287,
          -0.19667757,
          -2.4152787,
          -1.8337522,
          1.6032809,
          -1.8651755,
          1.1769637,
          0.69117516,
          0.6481147,
          0.9203198,
          2.4885643,
          1.6990074,
          -6.0640554,
          -1.2328153,
          2.3379898,
          0.019894652,
          -1.0305301,
          -3.0757918,
          0.46475184,
          -0.3793475,
          -2.5154555,
          -1.7505553,
          -0.43568644,
          -4.1854773,
          3.1023464,
          2.7702925,
          -1.4233198,
          1.0397644,
          -1.2527131,
          -0.7249666,
          0.1625011,
          -1.8907933,
          2.2900438,
          -1.5203071,
          -1.8839513,
          0.33727014,
          0.23181105,
          -0.0004251264,
          -0.90840924,
          1.7776262,
          -0.43450525,
          1.2300863,
          -0.7159161,
          -0.024955405,
          -1.9637254,
          2.0242705,
          1.3179387,
          -0.080357395,
          1.2382455,
          5.9399495,
          0.6690611,
          0.86777204,
          -1.7640625,
          -3.4692254,
          -2.501405,
          3.576802,
          -2.477743,
          2.5228832,
          -1.7279944,
          -1.0447308,
          0.35688445,
          -2.2662628,
          0.8487455,
          3.7175786,
          -2.465038,
          -1.6867816,
          -0.43635446,
          0.18591544,
          -1.1522317,
          -2.6045263,
          0.1022777,
          -0.16503064,
          -0.24302942,
          -0.67190176,
          -0.4792561,
          -0.9618384,
          -1.5810705,
          2.4873686,
          -1.1489478,
          -0.82814705,
          0.39339602,
          -2.0416498,
          -0.7606835,
          2.4573963,
          -3.760952,
          -1.851571,
          2.9215055,
          0.57606936,
          -1.4300321,
          -0.46677515,
          0.23631433,
          -1.6014372,
          -1.7307495,
          -3.8991964,
          -0.3531148,
          -3.3039777,
          -1.4779387,
          2.347769,
          -0.68443614,
          0.5722635,
          -1.3943893,
          0.47422636,
          -0.40121818,
          0.1471303,
          0.08077123,
          -0.6930873,
          0.87134826,
          -1.9992285,
          -1.7421801,
          0.048563104,
          0.54357487,
          0.7564121,
          3.8192663,
          0.7045409,
          -0.5777712,
          -1.7749088,
          -0.5445948,
          0.42536676,
          -1.1905866,
          0.81629264,
          -1.2786214,
          1.6941752,
          -1.7123123,
          -1.1935326,
          0.06816351,
          1.5188135,
          1.9026124,
          -0.6811346,
          1.9242723,
          0.8055749,
          -0.012871741,
          -0.8581075,
          -2.85309,
          1.8347285,
          -0.5123102,
          -1.6356586,
          2.1594734,
          -2.2294312,
          2.4561596,
          1.4795791,
          0.90289277,
          -2.8349,
          0.99032384,
          -2.869023,
          -1.0758828,
          2.263158,
          -0.56787854,
          -1.7338399,
          -1.3626912,
          -1.8608829,
          -2.9498336,
          -0.42656854,
          -0.13311112,
          -0.40839386,
          -0.69785756,
          -3.6375158,
          0.94462603,
          -3.0067716,
          0.33219662,
          -0.95241576,
          -2.6529067,
          -0.42936847,
          -2.7449143,
          -3.3959706,
          -1.201867,
          0.43558985,
          -1.2265687,
          -2.6828778,
          2.255643,
          1.4653765,
          0.6061018,
          -1.4204224,
          -0.1197535,
          3.000699,
          -3.4457412,
          0.88919306,
          1.809685,
          -1.7618158,
          2.2635748,
          -4.0931325,
          0.014078191,
          -2.0037112,
          -3.6225927,
          -1.8195595,
          0.88864076,
          2.3690035,
          -0.025061077,
          -1.6093887,
          -1.9276447,
          -3.4688616,
          0.5764691,
          0.00067918096,
          -1.0610905,
          -2.6931462,
          -1.011617,
          -2.7230847,
          1.2482,
          0.081107706,
          2.4323072,
          -1.7643033,
          -0.6244202,
          1.6811236,
          1.3022197,
          1.5262443,
          2.502981,
          0.6682942,
          -2.1483808,
          -1.0517193,
          2.2050076,
          -2.566733,
          -2.3624578,
          -1.2622213,
          0.071032375,
          -2.3799183,
          0.2405435,
          0.7982179,
          -0.39609605,
          1.2705003,
          -0.10650729,
          0.08030594,
          -1.6741213,
          1.0746206,
          3.337094,
          -1.5731684,
          -1.5178162,
          -2.607157,
          -2.376649,
          -1.1518863,
          1.1973785,
          1.5250732,
          -1.8950992,
          3.2068663,
          4.737969,
          1.5426662,
          1.441201,
          -0.23321085,
          1.2395123,
          -1.6733,
          -1.3614944,
          1.8071046,
          -2.3364315,
          -4.9589543,
          -3.2416582,
          -2.7134674,
          3.214612,
          0.58229274,
          4.8026843,
          1.6648221,
          1.330948,
          -2.8566856,
          -0.11147754,
          -3.641152,
          -1.3287889,
          -2.1908748,
          -2.7116728,
          -3.6243527,
          1.1231223,
          0.98953813,
          0.64365315,
          -0.68109095,
          -0.6718539,
          -1.913729,
          6.167678,
          -0.113495305,
          0.9060137,
          -0.85132575,
          2.478001,
          -2.1326025,
          -0.5326292,
          -1.3644068,
          -1.4903233,
          0.6667713,
          2.45417,
          4.693336,
          0.23793215,
          2.1782768,
          -3.7705474,
          1.2176172,
          -1.8032705,
          -1.3151484,
          -2.5698237,
          0.8162054,
          -2.860991,
          1.210856,
          -1.3119394,
          -6.6348963,
          0.33776966,
          0.71304715,
          1.0762628,
          1.1170708,
          0.46310663,
          2.0829463,
          0.07495381,
          -3.1995409,
          -2.2070322,
          -0.8326823,
          -0.51204795,
          -3.579532,
          -0.4949272,
          0.9420301,
          1.0829327,
          0.29084167,
          -0.81246305,
          -0.09282176,
          0.948789,
          -0.65245116,
          -4.3877563,
          -2.0823467,
          0.91049683,
          5.972259,
          0.09439026,
          3.2460043,
          2.8060794,
          -2.04069,
          3.5837877,
          2.0188925,
          1.6142646,
          1.4900562,
          0.087588444,
          3.3382123,
          -1.7833065,
          1.448874,
          1.2873079,
          -1.5770236,
          2.1034179,
          -6.2435217,
          -3.4810839,
          -1.5039861,
          1.5976106,
          2.962389,
          4.7553153,
          0.80464846,
          -1.8258865,
          -3.742357,
          -1.6726029,
          -1.5854065,
          -1.5107259,
          -0.019519161,
          4.1805415,
          0.56619316,
          -4.362214,
          3.6914003,
          1.0322553,
          1.7399033,
          1.0351051,
          -2.424587,
          -0.23142499,
          -0.37585297,
          2.5880764,
          -0.18306111,
          0.14875604,
          -4.9164886,
          -0.07055534,
          -0.5935263,
          -1.2349,
          -0.73698807,
          2.2281394,
          0.746901,
          1.997823,
          0.9298953,
          -2.6140792,
          -1.1212614,
          -3.725262,
          -3.6974552,
          1.9711107,
          2.2010388,
          2.9375596,
          -0.21261293,
          2.011277,
          1.9733157,
          -2.6605542,
          1.2283704,
          0.84432846,
          3.468582,
          4.423361,
          0.68230516,
          -1.5218894,
          3.0026894,
          -1.0359044,
          -2.9410677,
          -0.12062769,
          -2.3518925,
          -1.6699042,
          2.190579,
          4.188923,
          -1.1181681,
          0.3248492,
          1.070319,
          -3.749032,
          -4.317611,
          0.4933411,
          -0.09814405,
          -0.31950974,
          -0.8377629,
          0.93879604,
          -3.2745872,
          1.3730539,
          -0.7411336,
          -0.1498242,
          -2.6138504,
          -0.1064996,
          -0.06716367,
          1.8742963,
          3.0428367,
          0.06285224,
          0.32026866,
          2.393393,
          2.0241787,
          -1.3668574,
          -3.0206268,
          0.18607914,
          2.5979943,
          2.0151823,
          3.7926824,
          1.7009606,
          -0.81047297,
          -0.021779105,
          0.103803545,
          -0.735635,
          -2.5675182,
          1.3374466,
          -4.268325,
          -2.1416457,
          0.20944972,
          -1.302078,
          -1.3792427,
          -2.9290652,
          1.0014526,
          -1.3915876,
          -1.79646,
          1.7172337,
          3.7502887,
          1.2137431,
          3.7882288,
          1.7929182,
          -2.443079,
          0.84400123,
          -0.45463568,
          -0.47891742,
          -2.4151487,
          -0.8992958,
          3.6395648,
          1.1712896,
          -1.0044801,
          -5.5826993,
          -2.4950383,
          -1.0467956,
          -5.420268,
          1.9481418,
          0.21552522,
          -5.1838765,
          0.4402119,
          0.73703367,
          3.223113,
          -0.88923955,
          0.72206205,
          0.20158695,
          -0.20709789,
          2.6129966,
          -2.3759737,
          0.51565254,
          2.628649,
          -1.7939748,
          -5.137222,
          2.0629427,
          -1.5058455,
          1.3766692,
          0.22347692,
          4.629812,
          0.7150322,
          0.3001922,
          -2.6385293,
          -0.59289515,
          -2.6760738,
          -0.97677946,
          0.5894173,
          -2.1619823,
          -5.3928356,
          -1.6372267,
          -1.1693763,
          0.15370691,
          0.94512266,
          3.1488643,
          0.49977627,
          1.544641,
          2.7020977,
          -0.15012895,
          0.053314243,
          -0.72470295,
          -0.56675225,
          -0.70163655,
          -0.9678309,
          0.6222111,
          -2.2595537,
          -0.535835,
          1.818311,
          -1.8206207,
          -0.4159213,
          -4.1932225,
          -2.017268,
          -1.4764485,
          -0.24166733,
          -2.2612996,
          1.3940583,
          -1.2453305,
          1.3283448,
          -1.0178627,
          2.2530909,
          6.112545,
          -1.2578001,
          -1.6971238,
          0.14042535,
          -1.8711793,
          1.4481149,
          -2.1511648,
          1.6355246,
          -7.4985113,
          -1.7022505,
          2.6814384,
          0.90448254,
          -2.2007024,
          -1.288928,
          -0.804635,
          -1.5745564,
          2.3135216,
          1.0788035,
          1.1534414,
          -2.2024546,
          0.81331056,
          0.014661739,
          -0.42619437,
          -3.877105,
          -3.3650978,
          -0.30246305,
          0.5321721,
          -2.2115195,
          -1.9237155,
          0.80620736,
          -0.13402571,
          2.2263079,
          3.5379033,
          2.238704,
          2.9938204,
          -0.087947875,
          0.69416714,
          -1.1913468,
          -0.8024764,
          -0.20246038,
          -0.0906276,
          -0.55186063,
          -1.9724233,
          0.0027887067,
          -3.7435997,
          0.038923014,
          3.144204,
          -0.6930729,
          -0.42452532,
          -1.3274769,
          1.0715052,
          -0.74981254,
          -1.756932,
          -0.99697506,
          -1.0009019,
          -0.24629864,
          -1.4691418,
          -2.435794,
          -3.21145,
          -0.69145614,
          -3.9712422,
          -0.54932135,
          1.5323198,
          -3.1970417,
          0.4742416,
          3.7451797,
          3.3079052,
          -2.7812135,
          -0.47896135,
          -1.6790385,
          -0.16647556,
          -1.1554447,
          1.1121762,
          -1.2474988,
          1.1037108,
          4.050574,
          1.0673314,
          3.0939841,
          -3.331106,
          -3.1241205,
          -1.6884539,
          -0.34809908,
          4.338473,
          1.4776471,
          -0.4981266,
          -0.96279156,
          -0.29014698,
          -2.3404064,
          -3.1055062,
          -0.311517,
          1.5072786,
          2.111959,
          -1.6253476,
          -0.018849522,
          0.60393965,
          3.5776124,
          1.1018215,
          -2.1086237,
          -0.45814976,
          4.019668,
          -5.0511556,
          -1.6198831,
          0.60464126,
          0.041773535,
          -5.8414845,
          2.605133,
          -4.41106,
          -5.205866,
          -1.9448798,
          -0.05675032,
          0.7871491,
          -2.2752964,
          -1.5713091,
          0.16500427,
          -2.0872424,
          -1.5593601,
          -1.2731682,
          -0.42834342,
          1.1466318,
          0.039020147,
          -2.1825542,
          0.44998378,
          3.493635,
          -0.40245306,
          3.0708191,
          -1.6700189,
          -2.1778498,
          -0.12751481,
          -5.3744144,
          1.3029003,
          2.1232708,
          -0.088479206,
          1.7735864,
          1.0246273,
          0.11038475,
          2.137294,
          2.0228243,
          -4.3478394,
          3.0211978,
          2.3974392,
          1.5266616,
          0.124219656,
          -1.9196932,
          -1.5511429,
          2.5526311,
          -2.6699328,
          0.521096,
          0.8355801,
          -0.73002684,
          3.0642633,
          -2.3201013,
          -1.0249605,
          1.1062099,
          -1.7980183,
          -1.0864311,
          0.49943438,
          2.083747,
          -0.19436984,
          0.3800398,
          -1.0877383,
          0.27076805,
          0.58474207,
          0.885623,
          0.4962564,
          0.52951556,
          -2.8881462,
          -0.57680345,
          0.69657123,
          0.098769315,
          0.89611816,
          0.41478288,
          0.10288618,
          -1.535228,
          2.5371947,
          0.279012,
          -1.4932609,
          4.397686,
          1.8588774,
          1.193138,
          -2.3376572,
          -2.092779,
          1.2127312,
          0.21613182,
          1.515031,
          -0.09072625,
          0.93152255,
          -0.7178683,
          -0.5098118,
          -0.9796612,
          0.45911464,
          -1.3851956,
          -4.078737,
          1.2667017,
          -3.4217236,
          1.2287536,
          -2.1543849,
          -1.8690308,
          0.29461777,
          -0.87644273,
          -0.15722883,
          -3.9992776,
          -3.9729342,
          -1.2621467,
          0.74840283,
          2.677204,
          -2.0996006,
          1.4288976,
          -1.5885237,
          -1.7402128,
          6.4639874,
          -2.7035277,
          -2.7908142,
          -2.3223038,
          -1.0860283,
          1.0938743,
          2.0850587,
          -2.6113145,
          3.2594616,
          0.8496535,
          -4.2033424,
          2.4247217,
          -0.98095375,
          1.9089006,
          2.975841,
          -0.3651901,
          -3.0152214,
          0.71513414,
          -0.33687353,
          -2.5472763,
          -0.34040266,
          1.2568412,
          0.41585752,
          -0.23070405,
          1.7884994,
          -3.3397856,
          1.0979904,
          -0.25149488,
          -0.45730174,
          -1.4654367,
          2.996495,
          1.0588535,
          -0.82481056,
          0.21887001,
          -1.9445263,
          0.6654654,
          -2.1264799,
          1.1546524,
          2.2489824,
          0.4920352,
          -4.136401,
          -1.0330212,
          3.8420486,
          1.7964746,
          2.303262,
          0.4314786,
          -4.423484,
          1.2424845,
          4.750724,
          0.5310763,
          0.9780514,
          0.014905096,
          -1.0943451,
          -2.6426823,
          -1.4963746,
          5.8110547,
          0.6894252,
          3.6789432,
          -3.9774818,
          -0.9065389,
          -0.94216835,
          -1.6793723,
          -2.831258,
          1.3857137,
          1.9714001,
          -1.5153383,
          -2.6899977,
          2.9090774,
          3.3533058,
          0.5333395,
          1.5275916,
          -1.6589746,
          0.041566473,
          -0.23522386,
          -2.2091856,
          -2.7184289,
          -0.31492245,
          1.5377257,
          3.070756,
          -1.3924869,
          -1.2251141,
          -0.45574483,
          -0.15951401,
          0.20136543,
          0.063239485,
          0.70041883,
          -0.7033741,
          -1.4392059,
          0.86901,
          2.3770783,
          1.0019665,
          -0.6705917,
          -0.48199868,
          -3.8675272,
          2.144201,
          -1.0183042,
          -0.8923922,
          0.13770139,
          1.7608165,
          1.0034798,
          -0.4779567,
          0.57166624,
          -1.5039722,
          1.5444745,
          -1.534596,
          -2.9062507,
          -0.12157975,
          0.17943148,
          1.3083805,
          0.20081113,
          2.9059286,
          -0.058247946,
          0.14160976,
          -0.36937824,
          0.18763095,
          -1.65513,
          -0.01837362,
          0.61861414,
          0.58703876,
          -1.060939,
          0.8417577,
          0.96259296,
          1.0145205,
          2.54238,
          -0.9707797,
          0.07131572,
          -1.6468587,
          0.23650965,
          -0.28736714,
          0.6011432,
          -0.37903574,
          -0.8503921,
          -3.285932,
          2.4388516,
          -3.5056129,
          1.1206698,
          -1.9417874,
          -0.59963566,
          0.68639714,
          -1.8781455,
          4.6138506,
          4.1866174,
          2.3785257,
          1.5928779,
          4.793585,
          -2.1115155,
          2.2909598,
          0.3293391,
          -0.8151814,
          0.4559165,
          -5.3542733,
          0.9196673,
          0.47033644,
          0.23586099,
          -2.4117925,
          3.982503,
          0.1803329,
          -1.9569712,
          -0.5553249,
          1.9312369,
          1.4051219,
          0.5220725,
          1.3150945,
          -0.9413586,
          -4.3259926,
          1.082818,
          0.21360226,
          1.8138161,
          0.31579956,
          -1.9941151,
          3.2026007,
          -2.0356236,
          2.9028623,
          -0.70426464,
          4.092309,
          1.2209096,
          2.648476,
          0.6471072,
          -2.0370667,
          0.8532474,
          -0.39591348,
          -3.7869725,
          0.31133533,
          -1.5119525,
          -3.621126,
          1.2869973,
          2.2098987,
          0.65522426,
          2.9351492,
          3.1293595,
          -2.274806,
          -0.23772304,
          -0.37752208,
          0.44013608,
          -0.33567256,
          1.5997802,
          1.1158046,
          -1.1347946,
          1.7493918,
          3.815502,
          3.1374888,
          3.3020835,
          -3.4631584,
          -0.0692182,
          0.021109127,
          -1.3727443,
          3.0134683,
          0.93472683,
          0.4284412,
          -2.3165922,
          0.9655223,
          -3.3556914,
          -0.77352905,
          -1.9085128,
          -0.48570475,
          3.974639,
          2.0280223,
          1.6508397,
          0.49070558,
          1.0704243,
          1.6584717,
          -0.042876445,
          2.0494301,
          1.8257965,
          0.9390291,
          1.4692023,
          1.5032905,
          -1.4398125,
          -0.13818653,
          -0.9209764,
          0.44341472,
          0.9644827,
          0.40108192,
          0.24228437,
          -1.0306,
          -1.0034149,
          1.6877462,
          1.4341866,
          2.839011,
          -3.3941913,
          0.589248,
          0.0009207744,
          0.3878783,
          -2.943606,
          -1.7896417,
          -1.464668,
          -4.308272,
          -3.8199947,
          1.9758548,
          -1.0632092,
          -1.8462174,
          -2.194898,
          1.7680519,
          -1.9685758,
          0.22184782,
          0.47165313,
          3.354705,
          1.9258635,
          -0.71485347,
          -2.1117246,
          0.5573068,
          -0.0995656,
          0.6848591,
          3.921177,
          0.9189281,
          -2.0883198,
          -0.49913085,
          -4.2605143,
          -1.408939,
          1.6190902,
          0.21757741,
          1.4453328,
          -0.8842828,
          5.4120564,
          0.117161915,
          0.7753718,
          1.2576116,
          4.175021,
          2.08356,
          -1.8105638,
          -0.758098,
          -0.93972385,
          -1.2499094,
          -1.540013,
          -2.5240457,
          0.7923846,
          3.1641707,
          1.2264056,
          0.018517109,
          1.1011707,
          -5.0452447,
          -2.0923002,
          -0.72551996,
          -0.2660025,
          -3.086843,
          0.6069651,
          0.72056603,
          -0.37736967,
          1.9917859,
          -4.406085,
          -0.59882057,
          0.40286326,
          -8.580646,
          2.2810194,
          -2.3721356,
          -0.4194221,
          -4.01493,
          -1.0565982,
          1.9122921,
          -0.96691847,
          -1.4839083,
          -2.843065,
          -0.25324884,
          -0.27913696,
          -0.87258434,
          -0.6272933,
          0.86515754,
          -2.5883706,
          3.295067,
          -0.33285683,
          -0.15448134,
          2.5511022,
          1.1983955,
          -1.5040057,
          -0.58041745,
          2.2454677,
          3.406042,
          -0.7012729,
          0.22873677,
          -0.21383119,
          1.4511839,
          0.24166304,
          -5.1323786,
          -2.4591625,
          -2.934537,
          0.35920382,
          -4.738519,
          -2.6499522,
          1.32358,
          -6.820474,
          -3.7177439,
          1.2863281,
          0.5507645,
          0.20482017,
          -2.3669434,
          2.2497153,
          -1.478293,
          0.8604142,
          -1.3023195,
          -0.90974116,
          -4.696873,
          0.42787406,
          -2.614818,
          -0.13308303,
          0.21951315,
          -1.0488786,
          -2.874497,
          1.445893,
          0.53261393,
          -2.3031511,
          -2.9457955,
          2.459575,
          -4.0293484,
          -3.8720708,
          -0.9360987,
          -5.5416746,
          -3.2103388,
          -0.76354975,
          -3.912746,
          -1.0717947,
          -3.3412874,
          0.42543337,
          3.6391466,
          -1.4611654,
          1.1131729,
          1.6199094,
          -4.031209,
          -3.656939,
          -3.6121554,
          -0.5046129,
          0.91605246,
          -1.090728,
          -0.6921463,
          5.0908837,
          -3.5390737,
          2.5609393,
          0.4711453,
          -0.66203874,
          -2.2523277,
          -2.752535,
          -4.0887485,
          -1.4788426,
          -4.7128654,
          0.33106446,
          -0.5061989,
          -0.50695074,
          -3.1352026,
          2.4259894,
          -2.7134418,
          -2.000539,
          1.3940941,
          0.18706317,
          -3.1215947,
          -3.8623993,
          1.6327529,
          -1.0194657,
          1.4085153,
          0.25097364,
          -3.719117,
          1.9851019,
          -0.54311204,
          -0.7651301,
          1.803107,
          0.51108444,
          2.3535643,
          -5.733537,
          -3.3966541,
          1.3557448,
          -4.8532023,
          0.3311923,
          -0.65838784,
          -1.8046101,
          -0.4221298,
          -1.4739233,
          -2.0581477,
          -4.147689,
          0.3911095,
          -1.168815,
          -2.9035194,
          0.26863837,
          -0.6518178,
          1.2948661,
          -2.566947,
          0.48142233,
          -1.4446329,
          1.434367,
          -0.4156025,
          3.6245894,
          2.3300068,
          -1.6849114,
          1.5871202,
          -0.76138675,
          -0.07501497,
          -2.6328745,
          -1.7223849,
          -2.0838754,
          -0.36331037,
          -0.19841476,
          1.5067881,
          0.12605125,
          1.2960505,
          0.10664219,
          0.20997845,
          -0.44384018,
          -0.80986667,
          0.2894683,
          -1.0537021,
          0.22508964,
          -1.5240024,
          -2.999549,
          -0.39315164,
          1.90463,
          -3.8910882,
          1.2349879,
          -1.6106972,
          0.9366853,
          -4.7693706,
          1.3984056,
          -1.2939223,
          -0.24209712,
          2.6475887,
          0.4267524,
          -0.2301127,
          0.68014956,
          -2.01617,
          -1.0711807,
          1.588529,
          -0.73394305,
          2.263505,
          0.56185645,
          -2.160852,
          2.7798116,
          -1.5866481,
          -0.4671125,
          0.9812312,
          1.1533915,
          -0.25942647,
          -1.8795586,
          -2.2828765,
          0.7878761,
          -0.4111273,
          2.682318,
          -2.0184984,
          4.936987,
          -2.4121144,
          2.594818,
          -2.4690628,
          -0.45970437,
          0.97099864,
          0.3770707,
          2.815979,
          2.939482,
          5.419987,
          -0.9239415,
          3.0253935,
          -3.0144184,
          1.7256328,
          1.4847883,
          -0.5994035,
          -1.2900772,
          3.779203,
          -0.14413358,
          0.89736474,
          1.2248058,
          -2.2101426,
          2.333501,
          3.14486,
          -1.6983671,
          3.5429256,
          1.2968549,
          -3.099064,
          0.772849,
          -1.0109333,
          1.9206913,
          -0.42196846,
          1.8672856,
          -1.4062063,
          4.556577,
          1.934707,
          0.22514756,
          0.79366386,
          0.60581166,
          -1.5535338,
          3.2814457,
          0.35891187,
          1.4473562,
          2.2384481,
          1.4702909,
          0.7787217,
          -0.20951903,
          -0.27704918,
          -1.7746766,
          -0.24173206,
          1.2014154,
          -0.36983278,
          0.7426212,
          1.310181,
          1.164537,
          0.14665581,
          -2.3905072,
          -0.24205883,
          -2.4951022,
          -0.81570816,
          -0.7829487,
          0.62335384,
          1.3223327,
          1.3440675,
          1.1336418,
          1.10611,
          0.5904905,
          3.3089519,
          -1.0005559,
          3.969877,
          0.8372163,
          -0.22394158,
          0.007413726,
          -0.24596642,
          0.3961209,
          0.03704843,
          1.2323647,
          -3.0421588,
          3.4401422,
          0.77805763,
          -0.3722285,
          -0.3774876,
          4.8247375,
          1.645171,
          -1.4660596,
          3.484724,
          2.9131713,
          -1.5724458,
          -0.25369787,
          -0.6122714,
          0.4067591,
          0.6354607,
          4.2339935,
          0.82770324,
          2.0111542,
          1.8164972,
          -1.06872,
          -0.92600286,
          1.7221624,
          -2.308089,
          -1.0600598,
          -0.5748031,
          -0.21769528,
          -0.084484965,
          2.2020903,
          -0.026574416,
          1.9295455,
          -0.15722413,
          1.9538008,
          -1.3421576,
          4.388784,
          -0.29844183,
          1.2836819,
          1.6957338,
          -0.4565915,
          1.8541989,
          0.15709358,
          -2.2830303,
          0.50875723,
          -3.1634624,
          0.13760145,
          1.313519,
          -2.0014234,
          0.8748384,
          0.92110115,
          -1.4626263,
          1.1778749,
          -1.8165437,
          0.8023393,
          0.31106618,
          2.2380908,
          0.07089192,
          -1.4377582,
          -0.44208983,
          1.7316948,
          4.5679865,
          3.5039136,
          0.9328263,
          0.39787787,
          1.6045543,
          -3.388195,
          1.2012211,
          1.8018395,
          -0.009199973,
          -1.2628009,
          0.5144761,
          -1.8339126,
          -1.6918155,
          3.1311302,
          1.8586005,
          -3.7208846,
          1.8677421,
          -1.8286363,
          0.11393618,
          0.7857812,
          -2.855522,
          -1.9301914,
          -2.093412,
          -1.4089504,
          3.3909276,
          2.7035973,
          -3.543688,
          0.2064991,
          5.0647383,
          -0.3957951,
          -0.88944566,
          2.9467652,
          0.13760643,
          -1.5584356,
          2.3343768,
          -0.64971995,
          -1.0501264,
          0.7798571,
          -3.0960824,
          4.212961,
          -3.7474532,
          -0.2473609,
          -1.9799403,
          0.995985,
          -0.12421849,
          -2.160038,
          -2.4517796,
          -2.2473571,
          -1.0438156,
          -0.6525794,
          0.41388568,
          0.5359786,
          0.5752562,
          2.189863,
          -0.21959645,
          1.7354177,
          0.5177706,
          -1.4375534,
          2.8728158,
          -2.9062762,
          4.419112,
          -1.2258399,
          -0.6071518,
          4.111719,
          0.06491354,
          1.3021766,
          -1.7102332,
          -0.20579056,
          0.7341082,
          0.02870926,
          -3.4586291,
          1.2693063,
          -2.6511228,
          -0.81130457,
          0.31500414,
          0.8444347,
          2.077119,
          -1.7966279,
          -0.52565134,
          -0.66395676,
          -1.8636206,
          -1.4020115,
          -1.1922772,
          1.4410075,
          -1.1507045,
          -1.1278906,
          1.4695549,
          -0.5120481,
          4.0880675,
          2.7480254,
          0.8394421,
          2.7213783,
          -1.8077832,
          -1.189247,
          -0.2011693,
          0.11457188,
          0.33865055,
          -0.43252483,
          -0.6048165,
          2.3448493,
          2.5067458,
          1.4542111,
          -2.0921152,
          0.8009508,
          -4.9795117,
          -1.7456235,
          1.0635412,
          -0.6990536,
          1.0538324,
          -0.71832263,
          1.3906597,
          1.2532291,
          -0.9375521,
          2.2942162,
          0.19908209,
          1.9591755,
          2.1519957,
          1.8794864,
          1.6730891,
          -0.46584028,
          1.5252328,
          -0.48861545,
          0.08677877,
          -0.4959298,
          1.2235196,
          -0.16668771,
          -6.160496,
          -0.6630803,
          -1.7400463,
          0.016891757,
          -2.227529,
          2.7347064,
          -3.454587,
          -3.204599,
          3.2074728,
          4.3113284,
          -1.5978601,
          2.5308402,
          0.36147454,
          1.634438,
          1.0363818,
          0.07332679,
          -1.4760044,
          -2.5879765,
          -0.5970894,
          0.08164948,
          -0.0006259023,
          -0.49769232,
          -0.20073259,
          2.451886,
          -1.2254697,
          -1.4115536,
          2.6672177,
          0.35046986,
          -2.1792738,
          0.9340425,
          0.9826405,
          0.91153604,
          0.8027539,
          0.13463719,
          2.459488,
          -0.37285578,
          0.93734306,
          -0.60188824,
          -0.07690063,
          -1.0773118,
          -1.0931827,
          -1.4051582,
          3.4520535,
          2.4177697,
          1.4011662,
          -0.9613455,
          0.47450683,
          0.5360234,
          1.126985,
          -0.6741459,
          -3.1352105,
          -4.42142,
          1.4978324,
          3.3543384,
          -3.6510959,
          1.7201824,
          0.79199475,
          0.39636493,
          1.1805729,
          2.5486317,
          0.9080564,
          -2.797719,
          -1.2785281,
          -0.6693255,
          1.8413266,
          5.3259583,
          4.33216,
          4.501894,
          0.6032715,
          0.13484572,
          -0.31339607,
          0.7923877,
          -4.142503,
          -1.6992238,
          0.94586754,
          -1.1135582,
          -0.49340734,
          -0.025829643,
          2.0165832,
          -0.16174446,
          0.36004797,
          -1.9708589,
          0.3040354,
          3.061803,
          -1.3756173,
          0.16482641,
          1.2798901,
          0.35413554,
          -0.8842805,
          -0.9256083,
          -1.7206261,
          3.44731,
          -0.20818871,
          -0.29939756,
          -0.49517938,
          0.2161481,
          0.7943146,
          0.36617354,
          0.923234,
          6.0218654,
          4.8168387,
          -0.64467967,
          0.9655224,
          -2.45697,
          1.0162711,
          0.7336775,
          -1.537115,
          -2.269449,
          1.9259571,
          2.1257043,
          1.7464904,
          -2.5410686,
          -4.778871,
          0.68235356,
          0.14701232,
          -0.74985164,
          -1.6555557,
          -1.9233468,
          -0.39886624,
          -2.3128076,
          -0.6911309,
          -5.095221,
          2.613482,
          -2.4440367,
          0.577783,
          0.5105137,
          -3.0969353,
          1.323951,
          0.8667998,
          -0.23213236,
          1.7646276,
          0.97465867,
          -1.7672968,
          1.4020736,
          0.1645084,
          0.43305922,
          3.042961,
          1.2108936,
          -0.6978898,
          3.3492086,
          0.10768987,
          -1.8370421,
          1.9910698,
          -0.8791506,
          -0.023852274,
          2.170073,
          -0.37944362,
          -1.5106411,
          -0.6409598,
          -1.233108,
          4.014331,
          2.9070532,
          -2.6301582,
          -2.192185,
          1.5777541,
          2.0726042,
          -5.63094,
          1.8542558,
          3.432903,
          -2.1874206,
          -0.6302378,
          2.3720279,
          -1.3767996,
          3.0863407,
          -0.8528097,
          3.0967586,
          0.48793727,
          1.1655536,
          1.6481204,
          -0.25207707,
          -0.4808218,
          4.736925,
          -0.6833674,
          -2.167797,
          0.88857406,
          3.4980967,
          -1.7582057,
          0.53630716,
          -0.6707453,
          -1.1689017,
          -1.3365034,
          -4.43057,
          0.027827926,
          -1.5043874,
          -1.7864863,
          8.733778,
          0.5966363,
          -1.3630337,
          -2.937271,
          1.3292633,
          0.9361961,
          2.273858,
          1.9896431,
          -1.6058953,
          4.2470565,
          -0.8052138,
          -3.5821083,
          2.4503086,
          1.7120104,
          -0.48014703,
          1.4573523,
          -0.3837659,
          1.3413116,
          -1.8039801,
          -0.15451992,
          -1.5173893,
          1.6076311,
          -1.1948047,
          -2.6038096,
          3.2551937,
          -0.35342214,
          -1.7428554,
          -0.97938585,
          1.6032946,
          3.33246,
          -0.9832293,
          -3.6203697,
          -2.366585,
          -0.11297972,
          0.35255966,
          -1.2867672,
          -1.4119269,
          -0.2597307,
          0.35511994,
          2.1198924,
          -0.15601476,
          2.0241847,
          1.5452392,
          -0.4779883,
          2.990237,
          -0.2654572,
          0.73044956,
          -0.7265677,
          3.390079,
          1.5941341,
          0.7612843,
          0.5218751,
          -4.9418077,
          1.8963381,
          -0.43588683,
          -1.4696041,
          0.062082913,
          -4.4152884,
          1.0410618,
          -1.6810943,
          1.246361,
          -2.257483,
          1.3140333,
          1.7185327,
          2.5579183,
          -0.010681069,
          0.8145626,
          -1.0982839,
          0.58405674,
          1.0013677,
          -2.2186487,
          -0.6596618,
          3.2280886,
          0.30170304,
          1.5796793,
          0.8555628,
          -0.45221904,
          -2.0046222,
          -0.6666111,
          -2.025374,
          0.83573866,
          0.20200717,
          0.9635945,
          1.3396411,
          -0.6261334,
          -0.4749361,
          1.1839056,
          0.54303646,
          2.9701371,
          0.69602036,
          0.38885665,
          2.878682,
          1.5890241,
          0.36208966,
          -2.20149,
          -1.7197393,
          -1.5950898,
          2.3697069,
          -1.6697149,
          0.3402919,
          -0.21607944,
          0.7782401,
          1.045854,
          -1.7657979,
          3.1974468,
          1.4971888,
          0.56421274,
          2.8526592,
          -1.0187043,
          -0.32142875,
          -1.6282413,
          -1.5865788,
          -0.5777098,
          -1.5959322,
          0.26696238,
          2.8160143,
          -0.7962762,
          -2.6162977,
          2.0357914,
          -3.431091,
          -1.0898325,
          -0.64489007,
          -0.1150154,
          0.37838215,
          -2.8819792,
          0.8857658,
          -7.2640576,
          -2.9595625,
          1.457387,
          1.0579015,
          0.90423423,
          2.6727083,
          0.027343009,
          0.020020876,
          0.77315587,
          -0.44406164,
          -0.029628182,
          0.3735388,
          -1.2825923,
          -0.8732292,
          -0.5370737,
          -1.6318704,
          -0.79498446,
          1.87514,
          -1.9681519,
          -1.8778002,
          2.4550629,
          -1.3495374,
          -2.4626582,
          -1.8861325,
          0.23141728,
          -2.9337726,
          -4.3209934,
          -1.8583226,
          -0.11192261,
          -0.7684566,
          -0.12814154,
          -0.96633196,
          -2.4414651,
          5.1139326,
          -1.5485616,
          4.915023,
          -0.5377775,
          1.6870077,
          -1.0071012,
          1.7536033,
          -0.49157164,
          0.80215317,
          0.8400523,
          -2.9230914,
          0.43732384,
          -0.5587499,
          0.4862581,
          0.5194281,
          2.577022,
          -1.0355965,
          -3.562857,
          1.006869,
          -3.4680817,
          -4.426698,
          0.81948423,
          -4.6006365,
          -2.0003386,
          -3.3397002,
          4.239442,
          -1.493347,
          2.3503542,
          1.266497,
          0.8732476,
          -0.94879985,
          -0.14879015,
          -2.0302455,
          -0.43879572,
          2.5912366,
          -2.3757036,
          2.9221413,
          -0.41818625,
          -0.9095244,
          -1.9987973,
          -0.2641882,
          -1.2189968,
          -1.4420012,
          -1.6716381,
          4.507486,
          -2.0727677,
          -3.0364344,
          0.090488285,
          -0.42638034,
          -2.2477715,
          -1.2154235,
          -1.8790333,
          1.5232003,
          0.95616853,
          -0.68833303,
          3.7816072,
          0.7086071,
          -0.42542002,
          0.48640597,
          2.2532778,
          -1.8203082,
          -0.16292599,
          2.0317082,
          0.010537865,
          -1.6480377,
          1.1046956,
          0.7358956,
          -2.4165664,
          1.1809102,
          -3.4461572,
          -1.0318184,
          -5.071046,
          -2.5540233,
          -1.5042055,
          -0.82450694,
          -5.604489,
          -2.2634065,
          -0.13422251,
          -1.58364,
          1.8412805,
          0.04172271,
          2.1554067,
          1.5064574,
          -1.9311721,
          0.7242757,
          2.1464057,
          1.3194456,
          1.4217262,
          2.78514,
          -1.5545331,
          -4.2187276,
          -2.2878304,
          1.1188513,
          -1.004028,
          3.2717881,
          -0.21495737,
          -1.431053,
          -0.5882429,
          -0.24932846,
          0.934701,
          -1.7876537,
          1.1086043,
          4.313325,
          0.83471483,
          -5.6219525,
          -1.1931783,
          -2.1595392,
          -3.28111,
          5.321675,
          -1.2523164,
          4.4660635,
          0.43134004,
          -0.76754814,
          0.0035761306,
          -0.3289205,
          0.283421,
          -1.8034515,
          0.49957678,
          -2.521014,
          -2.7761385,
          -0.21934076,
          -4.1173754,
          -0.4395409,
          -0.23504943,
          -2.544164,
          3.5522766,
          -1.115687,
          1.3573289,
          -0.5620072,
          -2.378645,
          -3.6127832,
          1.6217729,
          -3.3303924,
          0.17008789,
          -0.94988716,
          1.2525858,
          0.58425504,
          -1.8761737,
          2.239575,
          -3.78084,
          2.3777606,
          -3.2857268,
          2.7622452,
          3.3262548,
          1.1489888,
          -2.999169,
          -1.3508619,
          2.1007314,
          -2.0757022,
          2.4505062,
          -1.887297,
          2.2544994,
          -5.985943,
          1.4275367,
          1.9986327,
          -0.6653211,
          1.1592528,
          2.3111415,
          -0.91701686,
          1.6507503,
          -0.59918827,
          -4.478815,
          -2.504579,
          0.66997737,
          -1.0532812,
          -0.66560227,
          -1.4978744,
          -1.126454,
          0.59443,
          -0.16312632,
          0.044292632,
          -4.0849056,
          -1.23213,
          -1.0303192,
          -1.6241958,
          -1.265675,
          -2.2616546,
          -5.935541,
          1.7448517,
          -1.6387963,
          0.36512092,
          -0.5633978,
          2.6035173,
          0.8231725,
          0.79414326,
          0.2921166,
          -0.33736795,
          -2.6366656,
          -1.4947077,
          0.9712509,
          -2.6317186,
          -4.4225264,
          -2.8722963,
          -1.083265,
          -3.441381,
          -3.9097006,
          -1.7691717,
          -0.2236624,
          -0.48683217,
          0.2580824,
          2.0487983,
          3.016774,
          1.7897917,
          -0.18752423,
          0.19631834,
          -1.394246,
          2.263665,
          -1.1564567,
          1.393103,
          3.675435,
          3.2479615,
          -0.53325963,
          -0.75831884,
          -1.10073,
          -0.9612953,
          1.3199764,
          -1.1191576,
          -5.792037,
          -4.798461,
          -4.8237314,
          -7.3279476,
          -4.1845,
          -0.330926,
          -0.37351885,
          0.8223279,
          1.1728204,
          3.904803,
          1.9395928,
          -1.3898087,
          2.0126595,
          2.4715567,
          -0.7256016,
          0.22984383,
          -0.09277876,
          -2.1070888,
          0.0045695384,
          -2.0744123,
          3.927662,
          0.45031136,
          -0.26954362,
          1.3956642,
          -0.7253009,
          2.1998816,
          -0.89546925,
          -1.0183314,
          -1.5803423,
          -0.16228284,
          -3.1442237,
          -3.013579,
          -2.5757937,
          -2.2327688,
          -1.4376681,
          -1.1428877,
          1.2366431,
          -1.0417321,
          1.8158718,
          1.6528817,
          -1.0503,
          1.3037486,
          1.5100733,
          2.706786,
          -0.06460595,
          1.7675987,
          -4.572109,
          -0.14053069,
          0.06279768,
          -1.5671765,
          1.1843317,
          0.80369085,
          1.9875286,
          0.06795488,
          0.53785557,
          0.18166603,
          -0.9028278,
          -0.329205,
          -1.4481908,
          1.9893634,
          -3.0984445,
          1.7239958,
          -1.1701655,
          2.7766554,
          0.58700067,
          -1.7962494,
          1.2076133,
          1.5472817,
          -0.50024307,
          -0.071740024,
          -1.195102,
          0.5117011,
          -2.8963094,
          2.0857804,
          -0.89166415,
          -1.5323273,
          -0.49835348,
          -1.861259,
          -0.037551608,
          1.8777207,
          1.5150716,
          3.5590112,
          -1.6876622,
          -1.0721713,
          -0.42823595,
          3.615487,
          -1.7934525,
          0.04374698,
          0.80403215,
          -0.55268204,
          -2.708271,
          -1.7920957,
          2.8740582,
          2.4631863,
          0.5485342,
          -3.3180952,
          -0.15180841,
          0.49166533,
          -0.48263758,
          -0.9125811,
          3.1003604,
          -2.153118,
          -2.59468,
          0.37863258,
          1.8360367,
          2.277426,
          1.3778288,
          2.9392197,
          0.31767055,
          -1.6858045,
          0.053955387,
          2.1536732,
          1.5047307,
          -2.7014375,
          2.3287845,
          -0.4004083,
          -1.6734576,
          2.5121522,
          -0.5209001,
          -0.58150077,
          -2.0789335,
          3.7163188,
          1.5527626,
          0.676471,
          3.7782001,
          -1.1195503,
          0.6602384,
          -0.55218095,
          -1.3118577,
          0.015339599,
          -0.47834432,
          3.2475233,
          2.7034712,
          -3.1046376,
          2.204165,
          1.0027353,
          0.7691702,
          3.953821,
          -1.3793273,
          0.42620617,
          2.0126276,
          0.8795932,
          -1.2266952,
          1.0317519,
          1.2344097,
          1.0558817,
          -1.2246748,
          -0.8379672,
          -2.365482,
          0.8440949,
          -2.066292,
          -2.1205833,
          0.9107562,
          -2.9896736,
          0.97153425,
          -0.531563,
          -0.7310044,
          2.8662443,
          2.284725,
          -0.22709846,
          -0.049264416,
          0.38218802,
          2.2164059,
          -0.8442814,
          3.9442835,
          1.9500772,
          2.5297995,
          -0.0600242,
          0.86253786,
          2.124253,
          -1.7401739,
          0.68470305,
          0.09967812,
          -1.2011063,
          2.211621,
          2.0687962,
          -0.19846213,
          -1.6290103,
          0.28475052,
          -4.356562,
          2.008194,
          1.933059,
          -1.0524482,
          0.74703383,
          -5.3312283,
          -2.4957976,
          -3.5393398,
          -1.0318944,
          2.3066978,
          2.2284255,
          0.5101417,
          2.3266106,
          5.89814,
          -0.54563695,
          2.9751246,
          -1.6696653,
          2.2478573,
          -0.2202035,
          5.433635,
          -1.6984061,
          -0.51544166,
          -1.1226408,
          -1.4646876,
          -0.975047,
          3.1397178,
          2.8076577,
          -4.2206073,
          -0.74891984,
          -3.3851595,
          -0.113447025,
          -1.9436524,
          1.6098756,
          -0.5769652,
          -0.17479561,
          -4.270961,
          -0.93437994,
          -2.6060631,
          -3.718505,
          0.0555376,
          -3.8728254,
          -0.28967115,
          -1.7741065,
          0.7340158,
          -2.3352485,
          3.6978416,
          -0.9779145,
          0.8322145,
          -2.1107814,
          -0.08982106,
          -2.633832,
          -2.3269188,
          -1.7838461,
          1.8043413,
          0.7406424,
          2.5983367,
          2.2739363,
          -1.5593089,
          -2.44197,
          -0.44508713,
          1.8339589,
          1.1102539,
          1.4280578,
          1.7984418,
          -1.9104372,
          -3.396083,
          1.139828,
          -0.8501676,
          1.0289762,
          -1.3922915,
          1.86824,
          -1.1330184,
          -0.23348017,
          1.4557498,
          -1.5695227,
          -2.610257,
          0.6674517,
          0.74858826,
          -1.2956638,
          -0.14182033,
          -0.35303193,
          0.18712509,
          -1.8903288,
          -2.3765075,
          1.1525984,
          -3.6616166,
          -0.86360794,
          0.097209185,
          1.1792879,
          -0.5507075,
          0.671478,
          0.37682778,
          -0.25379527,
          -1.5346798,
          -0.80682385,
          -0.3549851,
          -4.638876,
          0.9476247,
          -3.0367517,
          -1.917604,
          1.3089448,
          -0.43408749,
          3.0190878,
          -1.4197851,
          0.33935073,
          -4.344056,
          -1.2563679,
          -0.70352113,
          -0.92054087,
          -1.9007316,
          0.3541428,
          -0.31845617,
          0.36762506,
          -1.4714351,
          -0.8721713,
          -0.68425333,
          0.723727,
          1.1592653,
          -2.3502204,
          2.0759604,
          -0.02625899,
          0.30077976,
          -1.5851352,
          2.2739394,
          3.8510199,
          2.5786073,
          -0.9851288,
          2.9831748,
          -5.591716,
          0.6610248,
          6.534186,
          -1.7502406,
          -0.19568332,
          1.2430763,
          -2.8968403,
          2.1825054,
          -1.722935,
          0.26012215,
          2.6980138,
          -0.8712286,
          1.7733573,
          1.6238639,
          -0.94744456,
          3.947875,
          1.9501039,
          2.11739,
          0.8487044,
          -2.0077312,
          -0.20439409,
          -2.4550407,
          -1.2727449,
          -3.1621525,
          0.19189265,
          0.95437586,
          0.31461596,
          -0.6528334,
          1.1866006,
          1.0755221,
          1.9046993,
          -2.4466147,
          -3.22237,
          1.1864573,
          -1.6529628,
          0.298582,
          -1.6691141,
          -2.0519402,
          0.82774115,
          1.371415,
          -1.2668661,
          -1.4739671,
          -0.7055076,
          -2.0652215,
          2.306587,
          5.781725,
          -0.18786325,
          3.1759436,
          -2.3908617,
          1.2852849,
          1.8497537,
          3.259383,
          0.8531482,
          -0.074700534,
          -1.6931441,
          -0.123247474,
          -0.4612103,
          -3.2119546,
          -2.671856,
          -4.064922,
          -2.416411,
          1.7173904,
          -5.767585,
          -0.7228878,
          -0.83896273,
          -6.1327376,
          -3.2957702,
          0.08775057,
          -3.3753796,
          -2.291354,
          1.8443639,
          -2.4249253,
          1.2592834,
          3.8890862,
          -1.7565403,
          2.0370286,
          -0.8695515,
          1.1629119,
          -1.1837763,
          0.16133058,
          -2.4177177,
          1.9298265,
          0.061474353,
          1.5735168,
          0.4951295,
          0.24792017,
          -0.19985342,
          -2.702032,
          -3.0317163,
          -0.6394458,
          -1.2801629,
          0.020504529,
          -0.010648541,
          1.6996764,
          -4.928378,
          -0.7902186,
          -0.32031322,
          2.5882235,
          -1.2003582,
          0.8727374,
          -1.4608413,
          -0.7929587,
          3.275493,
          2.4189746,
          -3.6351206,
          0.5253722,
          -2.0347352,
          0.9160243,
          -1.4596965,
          0.88289654,
          -1.467484,
          -2.5799327,
          -3.7506287,
          -0.53624743,
          -3.0732975,
          1.861369,
          -4.0577254,
          -2.03528,
          1.1412985,
          0.10378275,
          -3.0451207,
          -2.0241973,
          2.0399818,
          0.2591745,
          -1.2282877,
          0.090681486,
          -0.32312384,
          1.4009727,
          -2.4609578,
          -0.41758218,
          -0.19363198,
          -0.71034294,
          -0.6418752,
          1.2193289,
          2.6700459,
          0.11044062,
          -1.777592,
          -0.08270575,
          -1.6419885,
          2.6416354,
          2.1547248,
          0.33862427,
          -2.3995965,
          -0.19035013,
          -0.631535,
          -0.61909467,
          -1.2376653,
          -3.8663518,
          1.3708899,
          -1.8025078,
          -0.4364622,
          -3.3825724,
          -1.4056033,
          1.62654,
          -0.65125495,
          0.7940477,
          -1.5463822,
          -0.7871498,
          -0.3935979,
          -2.2169745,
          -2.6301012,
          -3.885868,
          1.3462994,
          3.9898505,
          -0.54060817,
          -3.2744415,
          -1.2019947,
          -4.007576,
          0.8957147,
          -1.3124578,
          -0.18490471,
          -2.7377338,
          -2.9378898,
          -3.337339,
          -0.7763541,
          -5.7075863,
          -1.7383356,
          -2.5141706,
          -2.983507,
          3.126938,
          -1.0559689,
          1.868954,
          -0.010484826,
          4.4197135,
          -0.86157,
          -0.34061372,
          -0.91541284,
          0.7956163,
          1.6562313,
          -2.3977551,
          6.13703,
          -1.6982605,
          -0.072325006,
          2.5863078,
          -0.09212683,
          4.0043783,
          1.954381,
          -1.3621525,
          -2.139869,
          -1.485215,
          -3.942782,
          -0.8221241,
          -1.4934697,
          -2.9450977,
          -1.775535,
          -1.4673338,
          -0.16661908,
          0.59233016,
          -1.0491492,
          2.1113708,
          1.4721845,
          -0.51153564,
          -0.13871887,
          -3.7412317,
          0.76299554,
          -0.7072731,
          1.1402273,
          0.25940394,
          -1.2233812,
          -0.51456916,
          2.205836,
          -0.64484036,
          -0.42302233,
          -0.95912516,
          -3.066809,
          3.610326,
          1.5782603,
          1.3971997,
          -0.8883747,
          -6.8979616,
          -2.2833698,
          -2.9347239,
          -2.2762642,
          0.5201516,
          -1.6170864,
          -4.265721,
          0.14325315,
          0.050540958,
          -1.7791017,
          -1.4158496,
          -1.5432456,
          -3.341942,
          0.37173563,
          -0.86819047,
          0.9401627,
          0.63949496,
          -0.9739632,
          -3.3698633,
          -4.000886,
          -0.5024447,
          0.20636126,
          3.592846,
          -1.4460714,
          -1.7076182,
          -2.223185,
          -1.9723246,
          -1.6495745,
          1.6121814,
          -2.8336916,
          -0.8394887,
          0.2614383,
          0.23476118,
          0.6643642,
          -1.3710809,
          -1.3813114,
          -2.0992725,
          0.666255,
          1.300446,
          -3.0519993,
          -0.7113912,
          2.6035163,
          -4.0422697,
          0.84587646,
          0.34996027,
          0.5223446,
          1.5423293,
          3.4289663,
          -0.7428976,
          -2.2197955,
          -2.3561356,
          -0.34246835,
          2.0754182,
          0.10821706,
          1.6934508,
          0.441549,
          0.24826325,
          -1.6259068,
          2.0496716,
          0.5122618,
          -0.97842157,
          -0.75148726,
          3.0763676,
          -1.4082602,
          0.023489483,
          -1.86767,
          -1.4519719,
          -1.1033378,
          -0.18029732,
          -0.8363745,
          -2.1714017,
          -3.5828402,
          -1.805731,
          -0.8095912,
          -2.1783776,
          1.148703,
          2.7523391,
          1.8090351,
          1.7014277,
          -0.3419489,
          1.1525729,
          3.0273945,
          4.648677,
          0.9805952,
          0.81801295,
          -2.9470081,
          1.3370843,
          2.2850587,
          2.3317518,
          0.06847832,
          0.58137316,
          -0.8305144,
          0.08329373,
          2.5386455,
          1.7530887,
          0.5196366,
          1.8975807,
          0.3047061,
          -0.13118105,
          2.0904493,
          -0.8804692,
          3.1116228,
          1.1402446,
          -4.2506895,
          -4.1155033,
          -0.6308148,
          3.1040595,
          -0.5970847,
          0.92975837,
          4.1032777,
          2.8061252,
          0.8912944,
          0.4367208,
          -3.0239313,
          2.9299016,
          -0.934675,
          -0.54301375,
          1.1525924,
          -1.8488166,
          3.2289526,
          1.3001883,
          -0.30781725,
          -2.3843007,
          -1.037695,
          -0.4319604,
          1.9006011,
          0.23450099,
          -0.5863742,
          -0.4228117,
          3.5858731,
          2.8009915,
          -0.24081624,
          0.76031125,
          -1.0245068,
          3.4539995,
          1.5965167,
          1.6160715,
          2.5926068,
          3.688323,
          0.061373897,
          -0.12584233,
          3.1847556,
          -1.2525884,
          0.36739758,
          3.744391,
          -0.049932003,
          0.23797403,
          0.40540674,
          -1.4960895,
          -3.0889435,
          0.7208092,
          3.576751,
          -0.5092834,
          -4.021622,
          2.2496848,
          -1.5489917,
          2.5977557,
          1.3405042,
          0.3454172,
          0.010605574,
          0.53637755,
          4.2246227,
          -1.033043,
          2.326103,
          2.7515326,
          -0.71379673,
          3.9186153,
          -1.5098587,
          -2.8490999,
          1.7183478,
          1.032422,
          1.9416461,
          3.080566,
          -2.53191,
          4.8319964,
          -1.9410166,
          1.1846381,
          -0.7671937,
          0.68623906,
          -0.34867412,
          1.9931566,
          -1.6461848,
          1.8241742,
          3.9122605,
          -0.48639578,
          -0.063081756,
          -2.0857916,
          0.8543683,
          -1.278791,
          2.1545167,
          0.48323202,
          -0.8479766,
          3.5097873,
          0.0032879533,
          1.4904215,
          -0.6891786,
          0.36844552,
          0.075194634,
          2.966263,
          0.18202154,
          1.8948754,
          3.5474138,
          -0.5996667,
          -0.23950614,
          0.1018028,
          3.3451173,
          1.8918856,
          -4.468325,
          -0.8572686,
          -2.3172288,
          -1.080936,
          -1.3429188,
          0.6904413,
          -0.83614844,
          -0.5241598,
          1.2024333,
          2.1680148,
          1.5173867,
          1.5000787,
          -0.4976142,
          2.4143732,
          -1.875711,
          -0.99523276,
          -0.3666724,
          3.8267114,
          6.2249093,
          -0.49107975,
          -0.32162446,
          2.822772,
          -1.0489057,
          1.5212774,
          -1.472941,
          -1.1755548,
          0.37641788,
          -0.27215955,
          0.50226516,
          1.1383876,
          -2.0571756,
          -0.8679738,
          -0.05581306,
          0.34126523,
          2.0241184,
          1.394642,
          0.15383512,
          2.531531,
          1.4430221,
          -1.5618516,
          0.06460188,
          1.9310036,
          0.52687633,
          1.2486029,
          -1.0431746,
          1.817821,
          0.8640771,
          2.3080213,
          2.8794675,
          0.4667529,
          1.1239768,
          -1.5255592,
          -1.7769773,
          3.2985804,
          -1.4512324,
          -0.5649397,
          -1.4908009,
          4.3155103,
          -2.813041,
          -0.021248939,
          -1.7622578,
          -0.25051644,
          -3.439985,
          3.2490005,
          0.3668998,
          -0.52572745,
          -1.2116226,
          -1.2137161,
          -1.420682,
          0.9066382,
          -4.559058,
          -1.9083104,
          -3.4016883,
          -1.4805938,
          -2.6421397,
          -1.2348924,
          -1.5601281,
          -4.989992,
          -3.648842,
          -2.8484893,
          -0.1361047,
          -1.2944541,
          -3.248104,
          -2.3756156,
          -3.02533,
          2.040401,
          -1.978068,
          1.1723977,
          1.3828185,
          0.75852555,
          -1.283931,
          2.9902241,
          -1.4674265,
          -0.30605856,
          -1.8880337,
          -5.1468434,
          -2.40007,
          -4.128177,
          -1.1739662,
          -4.6985455,
          0.17805438,
          -1.5740885,
          -2.072645,
          -0.013204349,
          -0.89699906,
          -0.6469043,
          -0.4545929,
          1.1757637,
          0.572505,
          -3.836924,
          0.14295952,
          -2.301736,
          1.7722098,
          2.8295438,
          -3.3934324,
          -1.3291376,
          -0.9834093,
          -0.2583216,
          0.839667,
          3.264866,
          -1.5649749,
          0.23036355,
          -5.349092,
          -2.1708415,
          -0.0046412162,
          -0.037374333,
          -1.6843015,
          0.089706,
          -2.1803098,
          -0.6737865,
          0.6264425,
          -1.0090209,
          -1.9413995,
          -0.6162899,
          -0.22034617,
          -3.5128314,
          -1.5302707,
          -2.3082116,
          0.16797964,
          2.0898275,
          -3.472176,
          -1.4786842,
          0.32027823,
          -1.7397182,
          3.2246766,
          0.49237126,
          -0.4840219,
          0.27291718,
          -1.065167,
          -3.6423612,
          1.8673843,
          1.6416913,
          -1.4130691,
          -1.7068207,
          -0.339785,
          -5.5224953,
          0.53791296,
          -2.675243,
          -0.57297015,
          -0.9560976,
          -0.7621167,
          2.0655372,
          2.8956923,
          1.6617378,
          0.18084115,
          -1.1683865,
          2.9188209,
          -0.84156245,
          2.5662806,
          -0.86318696,
          1.502163,
          -1.4009688,
          -2.050123,
          4.460166,
          -2.8864205,
          2.8359587,
          -0.46938562,
          0.034916464,
          -0.079245724,
          0.22616348,
          -1.993932,
          4.625226,
          -2.781941,
          3.439693,
          0.5752217,
          -3.0705962,
          1.1094323,
          -0.88204706,
          2.4571207,
          -0.6717196,
          -1.6182259,
          2.7891011,
          1.3329003,
          -2.7844203,
          0.05376759,
          0.59595925,
          0.500063,
          1.6571628,
          -2.5252895,
          -1.1046028,
          1.2603042,
          0.014131868,
          1.9702008,
          -0.16217296,
          -0.3802738,
          1.1795107,
          0.7470479,
          -0.38792735,
          1.0650781,
          0.34656024,
          -2.4329915,
          -1.0650948,
          1.2651312,
          3.4100478,
          -2.955335,
          1.3105825,
          -1.3982198,
          -4.3010764,
          -0.60746145,
          -0.9185181,
          -4.304252,
          2.9886503,
          -2.4019496,
          -0.12393917,
          0.07631972,
          -1.2734436,
          -3.5650837,
          3.584153,
          1.0404578,
          -2.47319,
          0.088964745,
          0.5894,
          -1.3875207,
          -0.07565036,
          -0.90360755,
          -2.0119765,
          -0.93728656,
          2.0869567,
          1.892705,
          -1.0250607,
          -6.67371,
          -1.510622,
          -3.3238814,
          -0.65461284,
          2.2828512,
          -5.6628146,
          -2.2259686,
          -3.08238,
          -2.9475422,
          -0.46229684,
          -3.793091,
          -0.26180273,
          3.3888783,
          -0.6494685,
          -4.035405,
          0.16843612,
          0.9343059,
          -1.0390708,
          -0.25156355,
          -0.4090906,
          -2.2551208,
          1.4824703,
          -0.017438484,
          1.3494481,
          -2.0035708,
          1.5928624,
          0.01537986,
          -1.763648,
          -0.48848408,
          0.12626107,
          1.9474282,
          -5.173563,
          1.7972609,
          1.0314448,
          1.0490035,
          -0.009707699,
          -0.7056881,
          3.4667833,
          -0.32822073,
          0.6684991,
          -0.72543114,
          -3.3731194,
          0.4151553,
          1.4406991,
          -1.037086,
          -3.2224617,
          -2.3176045,
          1.5390214,
          -2.365854,
          2.2352996,
          2.1256263,
          -1.3314857,
          -0.24128614,
          -2.3342853,
          -2.8321295,
          -3.529787,
          4.1239877,
          2.7227974,
          2.4435167,
          2.162352,
          -0.15482807,
          2.3566437,
          -1.6188323,
          1.6072099,
          -0.12653421,
          1.4461037,
          2.2219925,
          0.04298842,
          1.9655677,
          2.3751094,
          -2.4910905,
          -0.06445683,
          -2.7132375,
          -0.30769876,
          0.74311435,
          -1.313607,
          2.9970427,
          -0.8205456,
          -0.70101875,
          2.0996945,
          -2.5553286,
          5.3249316,
          0.14501199,
          1.0468225,
          0.24632733,
          0.7465667,
          0.96942157,
          -0.54757535,
          -0.90003246,
          2.0545146,
          1.3951594,
          -0.42515177,
          -1.1401589,
          -0.82913584,
          1.1087475,
          0.77817935,
          -0.8456281,
          -0.26618227,
          2.3055525,
          1.9267596,
          4.1555076,
          -0.9975734,
          1.3603505,
          -3.726518,
          2.0050964,
          2.0406346,
          -0.98893094,
          2.1692195,
          0.8899061,
          2.4363866,
          -2.4084396,
          -1.7022283,
          -4.072542,
          -1.3032457,
          -1.0147705,
          -1.2567916,
          3.029446,
          -2.1226676,
          -0.49418998,
          -2.735735,
          1.6297264,
          -3.2746403,
          0.7344023,
          2.6444745,
          1.4077941,
          2.2390137,
          -4.885917,
          0.48152146,
          1.0430379,
          -0.83776236,
          -0.6811229,
          -1.6493717,
          1.8690351,
          1.7022945,
          1.2532837,
          0.3030946,
          -0.6249454,
          -0.9395808,
          -0.87533283,
          1.7410922,
          -1.6629692,
          -1.4554592,
          1.788015,
          2.883709,
          -0.8568122,
          -1.124549,
          -1.5910674,
          -1.9298555,
          -1.2146046,
          2.5987694,
          1.6371334,
          -1.7886646,
          0.8550904,
          2.2792616,
          -1.9168562,
          2.8814113,
          0.3606748,
          -0.17094445,
          -2.076936,
          1.4734069,
          -3.7796443,
          0.56673807,
          -0.6301315,
          -1.2309955,
          1.262271,
          -2.8583157,
          0.7190996,
          -1.3670341,
          0.69732237,
          -2.2394326,
          -0.4955794,
          -3.1003072,
          -0.41293734,
          -1.5308888,
          -3.6243858,
          -1.3571534,
          2.876085,
          -0.4641602,
          3.6170478,
          -1.7544582,
          -3.159943,
          2.4485307,
          1.8581961,
          -0.6926086,
          2.5616438,
          2.576068,
          -0.28195497,
          0.3417239,
          0.193696,
          -2.12806,
          0.50106174,
          -1.4158529,
          1.7298083,
          -3.204829,
          0.48437065,
          -1.3820448,
          -1.1028911,
          -1.349233,
          -0.9160795,
          0.6767706,
          -1.1315755,
          0.42824152,
          0.09113657,
          0.7693622,
          0.13023525,
          -2.4099994,
          0.93129694,
          -2.0942073,
          -0.24564695,
          1.660417,
          -1.7794937,
          2.1758587,
          3.011315,
          -0.97207904,
          -2.5496109,
          0.19427595,
          -1.9347277,
          -2.7664294,
          -0.6349317,
          1.0632517,
          -4.8840013,
          2.1147964,
          -0.57553285,
          -1.1705383,
          -2.3570282,
          -0.9336504,
          -1.4806234,
          0.7078872,
          0.7463634,
          -2.636005,
          0.1511002,
          -0.5352683,
          1.21592,
          1.1011567,
          0.5472153,
          4.6461368,
          3.847287,
          0.1336792,
          1.8643129,
          -1.7474753,
          -0.62943757,
          3.4672747,
          0.18433459,
          1.1979364,
          -3.5660946,
          3.4879525,
          -4.5937223,
          -0.43950897,
          0.243628,
          0.3236651,
          -1.9110668,
          0.5448098,
          -0.44478893,
          -0.49547803,
          -0.07264765,
          -1.5864874,
          -0.36599737,
          -1.4444952,
          1.4610327,
          1.9407417,
          -1.1947721,
          1.6566108,
          0.4344942,
          -0.15393592,
          2.5059826,
          1.7218137,
          3.792666,
          -2.6711273,
          1.1638446,
          -1.4428294,
          1.6106026,
          0.786006,
          -2.027118,
          -1.395887,
          -0.70008504,
          -1.2915431,
          1.9171431,
          -0.74736637,
          3.530229,
          -0.5796542,
          2.451812,
          0.40600497,
          -1.7373735,
          -1.8162072,
          -3.6742637,
          1.12371,
          -0.75985366,
          -3.9942892,
          4.3851113,
          0.2472433,
          2.703415,
          2.0086598,
          1.7784382,
          -2.959908,
          3.6764393,
          -0.09890032,
          -2.9227583,
          2.4501264,
          2.0899992,
          3.0962095,
          1.1565089,
          1.0559248,
          0.21021067,
          -1.2330955,
          0.13717481,
          -1.059917,
          0.32842973,
          -0.29467073,
          0.33075282,
          0.92482585,
          1.4066216,
          0.14466551,
          0.018007608,
          -1.2458452,
          2.6676948,
          -1.5332254,
          0.48622683,
          1.3142908,
          1.7839715,
          3.4738963,
          3.2040832,
          2.0447419,
          3.0767221,
          3.2435791,
          0.9895323,
          -3.4936912,
          3.3716428,
          -1.4773128,
          3.2368066,
          1.1959876,
          -3.4958832,
          -2.276333,
          2.3698304,
          1.0303826,
          -0.06207736,
          3.4048343,
          -2.8917131,
          1.0420117,
          -2.150261,
          -1.3638371,
          -0.32156008,
          -3.2559433,
          -2.6468787,
          -0.6990436,
          0.17229716,
          -1.620399,
          2.5313213,
          2.3036268,
          7.3556137,
          2.827894,
          1.5073198,
          -0.25746652,
          -3.3174582,
          0.5049024,
          -1.3629758,
          -0.08823992,
          -1.573146,
          -1.4165957,
          2.844861,
          -0.5624197,
          0.9865954,
          2.0894938,
          1.4059393,
          0.91129684,
          -1.1084212,
          2.5526664,
          -0.6768358,
          0.4506221,
          -4.0221853,
          -1.144613,
          -1.0618817,
          -0.5183309,
          -1.7701155,
          -0.8016215,
          -2.9080398,
          -3.4797127,
          4.0551195,
          -2.54282,
          6.6496577,
          -1.8545673,
          -1.3088555,
          1.5358968,
          -1.3919637,
          1.2576871,
          -0.88446265,
          1.899307,
          1.5783197,
          1.8695948,
          -0.7289752,
          2.0412955,
          2.737137,
          3.7757795,
          3.1621938,
          2.5101123,
          -0.4556631,
          1.6805744,
          1.7720878,
          -6.78388,
          -3.2272742,
          -1.2060381,
          -5.650636,
          -4.885867,
          -5.388964,
          -3.663796,
          1.2862821,
          0.12592313,
          -0.5807353,
          3.5410154,
          3.7379901,
          0.010349881,
          0.41363034,
          -2.3086221,
          1.0701277,
          1.119733,
          -2.3698387,
          1.7429341,
          0.586854,
          -3.8117998,
          0.8138842,
          1.5602003,
          -0.2773574,
          3.0488534,
          -3.6373928,
          0.47169206,
          -1.6451647,
          -2.3281581,
          -3.0554643,
          0.4402192,
          -1.8492695,
          -1.0487782,
          -3.9526496,
          -4.17424,
          -1.529322,
          -3.0880036,
          -0.45973396,
          -3.0255423,
          1.9610348,
          -1.4697218,
          -2.1524584,
          0.6006694,
          0.34836552,
          -1.9588863,
          -0.107640825,
          0.38230133,
          0.98583186,
          0.54755396,
          -0.7992539,
          6.0514445,
          0.69574755,
          -0.07117689,
          1.6114392,
          -1.3441741,
          -2.4162967,
          1.7676581,
          -1.7310306,
          -0.082212105,
          -1.2367806,
          -2.4201772,
          -4.089936,
          -0.401097,
          -1.4395157,
          -0.12834729,
          -4.378386,
          -1.2938296,
          1.2587671,
          -1.4121964,
          -3.1010907,
          -0.16624919,
          1.1687716,
          1.4535887,
          -1.5895429,
          -0.7075543,
          2.7168367,
          4.9433856,
          -0.059763275,
          -0.37077734,
          0.58900666,
          -1.5898649,
          -2.0851848,
          1.1294501,
          -3.6090817,
          0.04845784,
          0.106619686,
          -1.9370968,
          0.20645446,
          1.3285332,
          -0.064228594,
          -0.56474733,
          -2.6401002,
          -1.2852919,
          -2.9740436,
          -0.6242247,
          1.4675739,
          0.84014004,
          -1.5302519,
          2.037135,
          -3.7765977,
          -0.3886781,
          -1.4407825,
          -0.9928767,
          -1.0515908,
          0.51522857,
          1.3930315,
          0.8607973,
          1.1244583,
          2.0825758,
          -0.5685977,
          -3.8829818,
          1.4753387,
          -1.4474773,
          -1.8303419,
          0.2145258,
          -1.7305008,
          1.1650783,
          -2.7419033,
          1.8837572,
          4.325769,
          -3.9877617,
          2.800491,
          -2.4429905,
          2.867953,
          -3.7752304,
          1.9855571,
          -1.4220237,
          1.7070076,
          -3.1697304,
          0.08471058,
          -3.9572206,
          -5.435465,
          -2.0169191,
          -0.8014471,
          0.28759494,
          -3.4006772,
          0.41077325,
          -2.7777026,
          -0.9449056,
          -0.21919726,
          -4.2334247,
          0.40440643,
          1.4407641,
          -3.490415,
          -3.253402,
          0.4851864,
          2.5965602,
          0.4502313,
          -5.2658424,
          2.8210757,
          -0.34792557,
          -2.76724,
          -0.6941017,
          -2.148529,
          0.7174861,
          -2.2023764,
          0.13853289,
          2.1567714,
          -3.1022365,
          -0.7301014,
          -2.2533476,
          -2.379632,
          -0.44778928,
          -0.99029315,
          0.2663469,
          -3.0163915,
          -1.0590518,
          0.8470167,
          1.676191,
          0.52488935,
          0.6849879,
          4.241665,
          -0.3360039,
          0.59791285,
          1.5870293,
          2.2392073,
          -2.3986669,
          -1.8889939,
          1.4805155,
          0.2886424,
          2.0511801,
          -1.8241161,
          -0.058854584,
          1.4562603,
          0.5840819,
          1.4056488,
          0.5796978,
          -2.02651,
          -5.3580184,
          -2.5878556,
          -2.8326533,
          0.19343612,
          -2.644142,
          0.12760672,
          -1.2348498,
          1.7819424,
          -0.66332245,
          0.085534446,
          0.8186913,
          -2.2972407,
          0.31941155,
          1.5197841,
          0.49961275,
          -0.076318845,
          -5.845155,
          -3.1024225,
          1.1356417,
          2.807979,
          -4.406828,
          -0.23056895,
          2.2751067,
          -2.652544,
          -1.450384,
          0.4627558,
          0.72937423,
          3.1690347,
          2.8093102,
          1.6231313,
          -2.8268306,
          0.80571973,
          0.534609,
          0.23781115,
          -0.27522653,
          0.6817893,
          1.5059083,
          -2.938871,
          0.8645862,
          1.7531193,
          1.9081297,
          1.338442,
          0.74475676,
          -2.7783816,
          -0.84156877,
          0.8007819,
          1.8323052,
          2.1480124,
          -1.5380946,
          3.7409968,
          -0.547357,
          -2.3246381,
          2.1195586,
          1.2346272,
          -1.4164258,
          1.2464058,
          0.973684,
          3.1951659,
          -0.857298,
          -2.35068,
          3.0098338,
          -0.38462052,
          -2.0886655,
          1.4806702,
          -1.4029294,
          0.7448925,
          -1.470738,
          -1.0356251,
          1.746633,
          -0.97109765,
          -1.704621,
          -1.569018,
          -2.8943868,
          1.5147011,
          -2.273411,
          -1.194527,
          0.64399064,
          -1.1146096,
          -1.1508044,
          -0.34338868,
          2.0676837,
          -1.294441,
          1.0098382,
          3.2574,
          -2.9798355,
          -0.20596042,
          3.8017244,
          -1.0236474,
          1.2231973,
          -3.549148,
          0.10997532,
          -0.65119016,
          1.4276795,
          -0.20966454,
          2.1031663,
          4.2583528,
          0.10851561,
          -1.5801829,
          -0.15738343,
          2.4319947,
          0.05172279,
          -1.8519815,
          -0.039290786,
          -5.0798593,
          3.0477803,
          1.0414875,
          1.9943897,
          -0.38315558,
          1.0669209,
          0.43508753,
          -1.3813319,
          0.3935552,
          -0.37135863,
          2.4789848,
          0.8855102,
          -0.16933115,
          0.94904774,
          0.6041762,
          0.7280436,
          -0.9080587,
          -0.9527722,
          0.9414716,
          -2.914257,
          4.4797907,
          -0.06437259,
          2.1278238,
          0.44297785,
          0.5999046,
          -0.44641608,
          -0.59459627,
          1.9642235,
          -5.199802,
          2.1570625,
          0.57493764,
          -2.6812658,
          4.5919523,
          -3.9419284,
          -1.2302003,
          -0.42570043,
          -1.2104819,
          -0.58265567,
          0.19791871,
          0.49174345,
          1.4072748,
          2.3086143,
          -1.1229452,
          2.0515583,
          -0.16745184,
          1.6387495,
          -2.2432404,
          0.7146327,
          0.61978734,
          1.2515631,
          -0.81537205,
          -0.39830872,
          2.7037184,
          -3.180389,
          -2.6047683,
          2.5561934,
          1.1412367,
          -0.8349489,
          1.0975013,
          4.69971,
          -2.3094842,
          3.3710086,
          -0.24303493,
          3.585575,
          0.84688574,
          -0.41563636,
          0.3542962,
          1.0716989,
          1.4305257,
          -1.484326,
          1.1382625,
          1.7681422,
          -1.0130478,
          -0.99053717,
          3.5178277,
          1.9367356,
          1.2820842,
          -1.854872,
          0.55073404,
